{
  "InputNodes": 784,
  "OutputNodes": 10,
  "OutputBias": {
    "data": [
      -1.6392544507980347,
      -0.9672626852989197,
      -1.9694585800170898,
      -2.284607172012329,
      -1.6902204751968384,
      -1.1341315507888794,
      -0.993017315864563,
      -0.12534268200397491,
      -3.969640016555786,
      -2.2568345069885254
    ],
    "rows": 10,
    "cols": 1
  },
  "HiddenWeights-0": {
    "data": [
      0.007522227242588997,
      0.019330792129039764,
      -3.571257402654737E-4,
      0.03696214407682419,
      -0.021212179213762283,
      0.013868117704987526,
      -0.006025336682796478,
      -0.025346416980028152,
      0.02538248896598816,
      0.03547032177448273,
      0.032722823321819305,
      -0.017751436680555344,
      0.031039245426654816,
      -0.013247115537524223,
      0.020607370883226395,
      0.03806600719690323,
      0.040285177528858185,
      6.254565087147057E-4,
      0.019507568329572678,
      0.022281475365161896,
      -0.006393874995410442,
      -0.006342477165162563,
      -0.009279690682888031,
      -8.712459239177406E-4,
      -0.00872308760881424,
      0.01882237195968628,
      0.02278973162174225,
      -0.0016073446022346616,
      0.030223872512578964,
      -0.008799567818641663,
      0.025503255426883698,
      0.03191499412059784,
      0.03807589411735535,
      -0.006116924807429314,
      0.03744085878133774,
      0.030888337641954422,
      0.03969337046146393,
      0.025844505056738853,
      0.04621266573667526,
      0.03250370919704437,
      0.04545438289642334,
      0.026958413422107697,
      0.01569882407784462,
      5.907669547013938E-4,
      -0.055342480540275574,
      -0.00628542760387063,
      -0.026805585250258446,
      -0.0194338820874691,
      0.01801917515695095,
      -0.025844871997833252,
      0.02497805468738079,
      -0.029585417360067368,
      0.011782940477132797,
      -0.013679418712854385,
      -0.004427393898367882,
      0.004076906014233828,
      -0.012941349297761917,
      -0.002629141556099057,
      -0.028252404183149338,
      0.034195806831121445,
      0.013420413248240948,
      0.02802588976919651,
      1.457874313928187E-4,
      0.050602804869413376,
      0.07913786917924881,
      0.13546890020370483,
      0.09667311608791351,
      0.08524425327777863,
      0.2335880994796753,
      0.2480815052986145,
      0.2782723307609558,
      0.18567726016044617,
      0.18864648044109344,
      0.3106328845024109,
      0.3112577497959137,
      0.33500128984451294,
      0.17592664062976837,
      0.09553813189268112,
      0.07192385196685791,
      0.04359615221619606,
      -0.03439033031463623,
      0.004633551463484764,
      0.03792654722929001,
      -0.016166307032108307,
      0.0328427329659462,
      0.0032906692940741777,
      0.03793460875749588,
      -0.0015101925237104297,
      -0.0018888303311541677,
      -0.027977721765637398,
      0.053286511451005936,
      0.059358518570661545,
      0.17244738340377808,
      0.1649736911058426,
      0.058173052966594696,
      -0.25889456272125244,
      -0.34830471873283386,
      0.10668928921222687,
      0.07488355040550232,
      0.08419975638389587,
      -0.03234444558620453,
      0.11801037192344666,
      0.2827349901199341,
      0.5726094245910645,
      0.349700003862381,
      0.427190363407135,
      0.2513605058193207,
      0.14903971552848816,
      0.03962253779172897,
      0.024013416841626167,
      0.01597861759364605,
      0.008612291887402534,
      0.01630444824695587,
      0.04090624302625656,
      0.022514820098876953,
      -0.029410554096102715,
      -0.07815303653478622,
      -0.25957098603248596,
      -0.3464491665363312,
      -0.5285555124282837,
      -0.6224189400672913,
      -0.37579113245010376,
      -0.17915380001068115,
      -0.1276138573884964,
      0.06431771069765091,
      -0.12396002560853958,
      -0.6457054018974304,
      -0.16147281229496002,
      0.04107385128736496,
      0.45930418372154236,
      0.6176616549491882,
      0.6146639585494995,
      0.3238601088523865,
      0.4443903863430023,
      0.7596383690834045,
      0.6794753670692444,
      0.31443795561790466,
      0.0529392808675766,
      0.024326488375663757,
      -0.008270211517810822,
      0.010842712596058846,
      0.006290087476372719,
      0.00834374688565731,
      -0.07643376290798187,
      -0.38655856251716614,
      -0.7016667127609253,
      -0.7570160031318665,
      -0.8223661780357361,
      -0.33591750264167786,
      -0.07224689424037933,
      0.1980728805065155,
      0.9606673121452332,
      0.27777984738349915,
      0.27088692784309387,
      -0.13375726342201233,
      -0.04031988978385925,
      -0.6019331812858582,
      0.0630725547671318,
      0.2247612476348877,
      0.03639061748981476,
      -0.14141491055488586,
      0.5007289052009583,
      0.7997390627861023,
      0.42985302209854126,
      0.30119746923446655,
      0.030087877064943314,
      0.02791355550289154,
      0.014467678964138031,
      0.027355756610631943,
      -0.018520113080739975,
      0.028863858431577682,
      -0.11986245959997177,
      -0.6045177578926086,
      -0.6556718945503235,
      -0.4080042541027069,
      -0.21840353310108185,
      -0.268778920173645,
      -0.12980550527572632,
      -0.14190998673439026,
      0.5672360062599182,
      0.574253499507904,
      -0.1500069797039032,
      -0.6015455722808838,
      -1.2621484994888306,
      -0.6240673065185547,
      -0.3086492419242859,
      0.16846103966236115,
      0.6452316045761108,
      -0.6099625825881958,
      -0.08144103735685349,
      0.361577570438385,
      0.17517541348934174,
      0.19378070533275604,
      0.016066407784819603,
      -0.001425686408765614,
      -0.033565253019332886,
      0.01358938030898571,
      -0.03243940323591232,
      0.04406483843922615,
      -0.3299659490585327,
      -0.8293988704681396,
      -0.3522877097129822,
      0.19045981764793396,
      0.04329979792237282,
      0.2999418377876282,
      0.32905226945877075,
      0.4539361596107483,
      0.28477248549461365,
      0.42797109484672546,
      0.7389795780181885,
      -0.20163874328136444,
      -0.5885226130485535,
      8.053577039390802E-4,
      -0.1184905543923378,
      -0.49631431698799133,
      0.05385405942797661,
      0.04365235194563866,
      0.69288170337677,
      0.3600500822067261,
      0.3013380765914917,
      -0.002738769631832838,
      -0.07077206671237946,
      -0.042500536888837814,
      0.02228984236717224,
      0.016307348385453224,
      0.03793030604720116,
      0.12871094048023224,
      -0.11954743415117264,
      -0.5616661906242371,
      0.1296391487121582,
      -0.10573933273553848,
      -0.08123444765806198,
      0.7518505454063416,
      0.9202020764350891,
      0.07799826562404633,
      0.8852642178535461,
      0.21935144066810608,
      -0.46995627880096436,
      0.2953434884548187,
      -0.1628078818321228,
      0.04604974761605263,
      -0.11615719646215439,
      0.10537509620189667,
      0.359122633934021,
      0.13618101179599762,
      0.33862122893333435,
      -0.22366417944431305,
      0.4025920331478119,
      0.21910196542739868,
      0.049908313900232315,
      -0.07661180198192596,
      -0.06178874522447586,
      0.014818184077739716,
      -0.009140102192759514,
      0.1158970296382904,
      -0.030639270320534706,
      -0.4291938543319702,
      -0.310001403093338,
      -0.0966472402215004,
      0.0010233739158138633,
      0.18236415088176727,
      0.3185519874095917,
      0.7443525195121765,
      1.5738062858581543,
      0.610429048538208,
      -0.748654305934906,
      -0.7968150973320007,
      0.21477696299552917,
      0.04483041539788246,
      0.0359090231359005,
      0.3300732672214508,
      0.11171922087669373,
      -0.036555081605911255,
      -0.13526006042957306,
      -0.9745095372200012,
      -0.5785071849822998,
      -0.28508320450782776,
      0.004117010626941919,
      -0.07021381705999374,
      0.0018708526622503996,
      -2.8428845689632E-4,
      -0.001135574420914054,
      0.08272399753332138,
      -0.21515905857086182,
      -0.09415239095687866,
      -0.3273237347602844,
      -0.24001362919807434,
      -0.06117083504796028,
      0.22897300124168396,
      0.7183924913406372,
      0.5040913224220276,
      0.8524436950683594,
      0.7107642889022827,
      -1.5566171407699585,
      -1.2981516122817993,
      0.2912692427635193,
      0.2944868803024292,
      -0.35860389471054077,
      -0.4264596998691559,
      -0.8083057999610901,
      0.040271397680044174,
      -0.5820990800857544,
      -0.7740831971168518,
      -1.1864705085754395,
      -0.695095419883728,
      -0.17390652000904083,
      -0.0392078161239624,
      0.014878716319799423,
      -0.011022701859474182,
      0.040265701711177826,
      0.04688818380236626,
      -0.2821354568004608,
      -0.10283607989549637,
      -0.023653240874409676,
      0.3206431269645691,
      0.397483229637146,
      0.589489758014679,
      0.30632951855659485,
      0.9625624418258667,
      1.4397433996200562,
      0.11019707471132278,
      -1.699131965637207,
      -1.9942082166671753,
      0.08253213763237,
      0.45712172985076904,
      -0.10496482253074646,
      0.5401365756988525,
      -0.19462770223617554,
      0.20659139752388,
      0.18654128909111023,
      -0.06068090349435806,
      -0.30964651703834534,
      -0.43151775002479553,
      -0.2340409755706787,
      -0.0996796265244484,
      -0.02219530940055847,
      0.0019855687860399485,
      -0.010219676420092583,
      0.06175771728157997,
      -0.07468831539154053,
      0.1910857856273651,
      0.18508394062519073,
      0.8176054954528809,
      0.5147724747657776,
      0.7416380643844604,
      -0.19900743663311005,
      0.7217329144477844,
      0.6537381410598755,
      -0.12987226247787476,
      -1.0086123943328857,
      -1.6972002983093262,
      -0.4594326317310333,
      -0.18060900270938873,
      0.25811636447906494,
      0.6375795602798462,
      0.544037401676178,
      0.11944540590047836,
      0.24042966961860657,
      0.6906667351722717,
      0.5128634572029114,
      -0.002933125477284193,
      -0.2137509435415268,
      -0.24060466885566711,
      -0.04209397733211517,
      0.03464076668024063,
      -0.01033547893166542,
      0.06316351145505905,
      0.018292853608727455,
      0.7065778970718384,
      0.7374314069747925,
      0.9615358114242554,
      0.9439072608947754,
      0.4027656018733978,
      0.3425617516040802,
      1.0185619592666626,
      0.13280372321605682,
      0.08960968255996704,
      -1.2707008123397827,
      -1.4642117023468018,
      -1.215102195739746,
      -0.8643107414245605,
      0.36813247203826904,
      0.14434264600276947,
      0.6304166913032532,
      -0.15405303239822388,
      0.2671355605125427,
      1.0747101306915283,
      0.7496569752693176,
      0.1830262541770935,
      -0.2539076507091522,
      -0.43451035022735596,
      -0.20046888291835785,
      -0.02774500474333763,
      0.013648316264152527,
      -0.011994559317827225,
      0.28514283895492554,
      0.8245317339897156,
      1.0564903020858765,
      0.8012185096740723,
      0.581115186214447,
      0.40352585911750793,
      0.14519838988780975,
      0.3130538761615753,
      -0.3641189932823181,
      -0.5512686371803284,
      -1.118627667427063,
      -1.343435525894165,
      -0.9597486853599548,
      0.018515462055802345,
      0.4441473186016083,
      -0.03824444115161896,
      -0.6087103486061096,
      -0.0727846696972847,
      -0.5206995606422424,
      0.688416063785553,
      0.8231456279754639,
      0.42845940589904785,
      -0.39486393332481384,
      -0.35606148838996887,
      -0.015538874082267284,
      -0.0032384477090090513,
      -0.07158613204956055,
      -0.0608309805393219,
      0.12561780214309692,
      0.5611497759819031,
      0.7483808398246765,
      0.1356768161058426,
      0.3683238625526428,
      -0.03269276022911072,
      -0.23478443920612335,
      0.4775187075138092,
      -0.01939043402671814,
      0.42114442586898804,
      -1.433455467224121,
      -2.149589776992798,
      -1.4644696712493896,
      0.08116307109594345,
      1.0192005634307861,
      0.295033723115921,
      -0.1474839597940445,
      -0.4465680420398712,
      0.007169631309807301,
      0.5751375555992126,
      0.27685996890068054,
      -0.027933135628700256,
      -0.3736841380596161,
      -0.34986141324043274,
      -0.03995225578546524,
      0.03040187805891037,
      -0.060686156153678894,
      -0.13487203419208527,
      -0.2179461270570755,
      0.1585804522037506,
      0.6528159379959106,
      -0.546013593673706,
      -0.09949838370084763,
      0.6033632755279541,
      -0.8655192852020264,
      -0.3302229940891266,
      0.08695799857378006,
      -0.3874271512031555,
      -2.1640048027038574,
      -1.8464317321777344,
      -0.3107816278934479,
      0.44503358006477356,
      0.11881600320339203,
      -0.36792516708374023,
      0.01773204654455185,
      0.09507987648248672,
      0.23619170486927032,
      0.4535202383995056,
      0.07492315769195557,
      -0.4978407919406891,
      -0.35380685329437256,
      -0.4401673972606659,
      -0.05373121052980423,
      -0.010773926973342896,
      -0.018596000969409943,
      -0.2261543720960617,
      -0.3411823809146881,
      0.22651615738868713,
      0.14241580665111542,
      0.003445174777880311,
      -0.4794752597808838,
      0.020753273740410805,
      -0.6742994785308838,
      -0.11561573296785355,
      0.4339042603969574,
      -0.697333812713623,
      -1.875115156173706,
      -1.298094391822815,
      0.6095980405807495,
      0.4594608545303345,
      1.2267303466796875,
      0.6673088669776917,
      0.49271443486213684,
      0.26358234882354736,
      0.10770802199840546,
      0.031803350895643234,
      -0.2522020637989044,
      -0.40437033772468567,
      -0.26173365116119385,
      -0.2566941976547241,
      0.010366961359977722,
      -0.02782219834625721,
      -0.005325161851942539,
      -0.1450987160205841,
      -0.41945531964302063,
      0.29788094758987427,
      -0.027622174471616745,
      -0.09779977798461914,
      -0.09035954624414444,
      0.21384838223457336,
      0.002195722656324506,
      0.04149295389652252,
      -0.8872480988502502,
      -1.4609718322753906,
      -1.2817411422729492,
      0.1778234839439392,
      0.3754236102104187,
      0.07526686042547226,
      0.6018556952476501,
      0.10214850306510925,
      -0.17494787275791168,
      -0.139456108212471,
      -0.004674253985285759,
      -0.07682456821203232,
      -0.6519228219985962,
      -0.574405312538147,
      -0.22975961863994598,
      -0.055031031370162964,
      0.022074434906244278,
      -0.027833987027406693,
      0.010909318923950195,
      0.18981121480464935,
      -0.22369344532489777,
      0.13509492576122284,
      -0.22366489470005035,
      0.23523567616939545,
      0.31958261132240295,
      -0.010455789975821972,
      -0.5945035219192505,
      -0.7487520575523376,
      -0.659907341003418,
      -0.452322781085968,
      -0.7466380596160889,
      0.9279006123542786,
      -0.269157737493515,
      -0.19749724864959717,
      -0.469439834356308,
      -0.15638884902000427,
      -0.08782395720481873,
      0.24378521740436554,
      -0.0956859365105629,
      -0.8868980407714844,
      -0.7584232687950134,
      -0.1992134004831314,
      -0.17787349224090576,
      -0.042534954845905304,
      -0.02355174347758293,
      0.027862921357154846,
      -0.0283014215528965,
      0.17305439710617065,
      -0.2117188423871994,
      0.00711650587618351,
      0.19860902428627014,
      -0.20735938847064972,
      -0.4229533076286316,
      -0.5046122074127197,
      -0.42707255482673645,
      -1.1431208848953247,
      -0.50115966796875,
      0.21075786650180817,
      0.16283728182315826,
      -0.2766226530075073,
      0.29059430956840515,
      0.35794076323509216,
      0.18126936256885529,
      0.09829875081777573,
      -0.42351409792900085,
      -0.6707484722137451,
      -0.5699765682220459,
      -0.4305861294269562,
      -0.7869568467140198,
      -0.16770993173122406,
      0.06568346917629242,
      0.005153673235327005,
      0.032006025314331055,
      0.020693767815828323,
      -1.8740605446510017E-4,
      -0.07380372285842896,
      -0.3200284540653229,
      -0.3315022587776184,
      0.5240486860275269,
      0.16662897169589996,
      -0.2879837453365326,
      0.2472381889820099,
      -0.1997990757226944,
      -0.12428196519613266,
      0.4658004641532898,
      0.5744333863258362,
      0.3215719163417816,
      0.48401808738708496,
      0.2759247422218323,
      0.1683206409215927,
      -0.27296966314315796,
      0.16403424739837646,
      -0.28159523010253906,
      0.13626426458358765,
      0.2163117676973343,
      -0.6630160808563232,
      -0.4460632801055908,
      0.11280382424592972,
      0.009186908602714539,
      0.0075621772557497025,
      0.02257099747657776,
      -0.027296610176563263,
      -0.014004737138748169,
      -0.028382601216435432,
      -0.22220991551876068,
      -0.6193268895149231,
      -0.2588960826396942,
      -0.2089594602584839,
      -0.402942419052124,
      -0.5605149865150452,
      -0.25099343061447144,
      -0.38489872217178345,
      -0.024592267349362373,
      -0.13044998049736023,
      0.0337899811565876,
      1.071784496307373,
      0.4180222153663635,
      0.4345376789569855,
      -0.0752749815583229,
      0.3776938319206238,
      0.4295544922351837,
      -0.12195932120084763,
      -0.14318974316120148,
      -0.1071811318397522,
      0.11272754520177841,
      0.11511223763227463,
      0.002074145944789052,
      0.01120966486632824,
      -0.021333176642656326,
      -0.006466094404459,
      -0.0031167224515229464,
      -0.04813732951879501,
      -0.0652499869465828,
      -0.44966673851013184,
      -0.4668252468109131,
      -0.5821099281311035,
      -0.5226036906242371,
      -0.09284497797489166,
      -0.48331376910209656,
      0.12487228959798813,
      0.27596303820610046,
      0.031701117753982544,
      -0.020817864686250687,
      0.7022715210914612,
      0.12834832072257996,
      0.34849101305007935,
      8.677221485413611E-4,
      -0.9029398560523987,
      -0.495989054441452,
      -0.10975293815135956,
      -0.05116833373904228,
      0.25572654604911804,
      0.18134655058383942,
      0.07053416967391968,
      -0.047452691942453384,
      -0.019354015588760376,
      0.03157621622085571,
      0.02829781174659729,
      -0.011758148670196533,
      -0.05947944521903992,
      -0.06773261725902557,
      -0.24751262366771698,
      -0.38856297731399536,
      -0.37670066952705383,
      -0.3824651539325714,
      -0.2079036831855774,
      0.3562370538711548,
      0.020167581737041473,
      -0.22333627939224243,
      -0.33733871579170227,
      -0.2408406287431717,
      0.09049542993307114,
      0.7151567339897156,
      0.2547653913497925,
      0.7580779194831848,
      -0.022112086415290833,
      -0.08666634559631348,
      0.23185208439826965,
      0.1358422338962555,
      0.37928640842437744,
      0.23276056349277496,
      -0.02296207845211029,
      -0.02174297347664833,
      -0.02392265945672989,
      -0.012530822306871414,
      0.036134809255599976,
      0.03276316076517105,
      -0.025107722729444504,
      -0.009413348510861397,
      -0.09416135400533676,
      -0.14029669761657715,
      -0.07232634723186493,
      0.258015513420105,
      0.06351705640554428,
      0.34852302074432373,
      0.37491750717163086,
      0.41253456473350525,
      0.7379994988441467,
      0.761603593826294,
      0.6997091770172119,
      0.448353111743927,
      0.40606948733329773,
      0.3279306888580322,
      0.4820103943347931,
      0.4502922296524048,
      0.5032954216003418,
      0.4534093737602234,
      0.301580011844635,
      0.05511990562081337,
      0.04697096347808838,
      0.0015215154271572828,
      0.016376124694943428,
      0.03367173671722412,
      -0.02886936441063881,
      -0.019825603812932968,
      0.013674164190888405,
      -0.014742599800229073,
      0.060853615403175354,
      0.11569856107234955,
      0.20153644680976868,
      0.1967497169971466,
      0.41489335894584656,
      0.40772545337677,
      0.4384501576423645,
      0.4487893581390381,
      0.6726687550544739,
      0.5019826292991638,
      0.6084192395210266,
      0.4971315264701843,
      0.3798781633377075,
      0.1755916029214859,
      0.20179781317710876,
      0.1913444697856903,
      0.3094719350337982,
      0.2506603002548218,
      0.08425719290971756,
      -4.004305537819164E-6,
      0.033012755215168,
      -0.009688463062047958,
      -0.017294220626354218,
      0.018497712910175323,
      0.026546340435743332,
      -0.012186920270323753,
      -0.017781220376491547,
      -0.02320307493209839,
      -4.2669245158322155E-4,
      0.009069057181477547,
      0.023209527134895325,
      0.040259867906570435,
      0.08173256367444992,
      0.007558112498372793,
      0.09136687964200974,
      0.03359789773821831,
      0.025276411324739456,
      0.0351407565176487,
      0.09168455004692078,
      0.05793595686554909,
      0.020622944459319115,
      -0.0013873890275135636,
      0.06364496797323227,
      0.042155154049396515,
      0.05763918161392212,
      0.03536234796047211,
      0.11055156588554382,
      0.02893930673599243,
      -0.010111525654792786,
      0.014160733669996262,
      0.013284998014569283,
      0.009621601551771164,
      -0.00572186429053545,
      -7.29825405869633E-4,
      0.021692343056201935,
      0.026172101497650146,
      -0.0074668279848992825,
      0.0013642499689012766,
      -0.026903416961431503,
      0.013593831099569798,
      -0.04127267375588417,
      -0.013551774434745312,
      -0.029434356838464737,
      -0.014756266959011555,
      -0.025330238044261932,
      -0.0332367829978466,
      -0.02489437907934189,
      0.01610177382826805,
      -0.010073264129459858,
      -0.003942506853491068,
      -0.020483624190092087,
      -0.0040173898451030254,
      0.007967683486640453,
      0.00855990219861269,
      -0.025413252413272858,
      3.6931686918251216E-4,
      0.014840691350400448,
      0.02637474611401558,
      0.022752266377210617,
      -0.014164366759359837,
      -0.040364574640989304,
      -0.04202314093708992,
      -0.014329190365970135,
      -0.03993416205048561,
      0.008712714537978172,
      -0.023528888821601868,
      -0.00511101633310318,
      -0.010592924430966377,
      0.02546805515885353,
      0.01573159359395504,
      -0.0077301375567913055,
      -0.04398578405380249,
      -0.05082431808114052,
      -0.032912470400333405,
      0.013891109265387058,
      -3.924698103219271E-5,
      -0.03285098448395729,
      -0.019340695813298225,
      -0.03637396916747093,
      -0.03669826313853264,
      0.019921161234378815,
      -0.041794613003730774,
      -0.028881996870040894,
      -0.010440308600664139,
      -0.028903324156999588,
      -0.037683043628931046,
      -0.028816521167755127,
      0.01468705851584673,
      -0.006417158059775829,
      -0.010147803463041782,
      0.014238019473850727,
      -0.012686493806540966,
      -0.026224050670862198,
      -0.01993698999285698,
      -0.03550045192241669,
      -0.013210706412792206,
      0.02696409448981285,
      -0.010813136585056782,
      -0.03146258369088173,
      0.004579561296850443,
      0.0017157279653474689,
      0.012343287467956543,
      -0.009464610368013382,
      -0.012151987291872501,
      -0.029410896822810173,
      -0.02049146592617035,
      0.026504304260015488,
      -0.03936031460762024,
      0.021663354709744453,
      -0.001523529994301498,
      -0.026171335950493813,
      0.026291916146874428,
      -0.027365051209926605,
      0.005624507553875446,
      -0.011599102057516575,
      -0.016910623759031296,
      0.0012095861602574587,
      -0.007171459496021271,
      0.022675126791000366,
      -0.021287081763148308,
      0.00804312527179718,
      -0.0363488644361496,
      0.030988313257694244,
      0.02372978813946247,
      -0.033714111894369125,
      -0.046538110822439194,
      -0.029869191348552704,
      -0.08112065494060516,
      -0.04609095677733421,
      -0.03521489351987839,
      0.011342974379658699,
      -0.03682979941368103,
      -0.052391957491636276,
      0.010267465375363827,
      -0.07258173823356628,
      -0.03581817448139191,
      -0.051453232765197754,
      0.015159676782786846,
      -0.028866300359368324,
      -0.0224301740527153,
      -6.951285758987069E-4,
      -0.007011181674897671,
      0.0037590237334370613,
      -0.03396548703312874,
      4.8788043204694986E-4,
      0.011078382842242718,
      0.022856347262859344,
      -0.017494501546025276,
      -0.015330372378230095,
      0.011138268746435642,
      0.0037734501529484987,
      -0.04323495179414749,
      -0.02236444689333439,
      -0.021825505420565605,
      -0.007915828377008438,
      -0.06174397096037865,
      -0.09089694917201996,
      -0.15859931707382202,
      -0.1843929886817932,
      -0.10357732325792313,
      -0.04452414810657501,
      -0.1296354979276657,
      -0.1897222101688385,
      -0.13829872012138367,
      -0.07681575417518616,
      -0.039485711604356766,
      -0.06535622477531433,
      -0.043080173432826996,
      0.011810320429503918,
      -0.018075168132781982,
      -0.028140880167484283,
      0.003222102066501975,
      -0.0050300126895308495,
      -0.02904297411441803,
      0.013444085605442524,
      -0.01118863932788372,
      -0.016278525814414024,
      0.016451116651296616,
      -0.005969998426735401,
      -0.049555983394384384,
      -0.0448085255920887,
      -0.10882357507944107,
      -0.18547210097312927,
      -0.2312348335981369,
      -0.28983157873153687,
      -0.37536802887916565,
      -0.36901041865348816,
      -0.34650060534477234,
      -0.24269622564315796,
      -0.2076030820608139,
      -0.29671794176101685,
      -0.3482835292816162,
      -0.2693851888179779,
      -0.1892048567533493,
      -0.10698071867227554,
      -0.055485039949417114,
      -0.03771475329995155,
      -0.05749312788248062,
      -0.006509528961032629,
      -0.024083919823169708,
      -0.03141224756836891,
      -0.024861134588718414,
      0.03398033231496811,
      0.015156539157032967,
      0.018270011991262436,
      -0.014028162695467472,
      -0.0137247946113348,
      -0.047695860266685486,
      -0.12521027028560638,
      -0.2738400101661682,
      -0.3351426124572754,
      -0.30704283714294434,
      -0.4219057261943817,
      -0.48578065633773804,
      -0.34454333782196045,
      -0.40956050157546997,
      -0.4234030246734619,
      -0.3901168704032898,
      -0.3923961818218231,
      -0.37682944536209106,
      -0.36925143003463745,
      -0.2585143446922302,
      -0.23775529861450195,
      -0.13270285725593567,
      -0.13001056015491486,
      -0.04231838136911392,
      0.025524524971842766,
      -0.025376342236995697,
      -0.04173419252038002,
      -0.03540108725428581,
      0.028404444456100464,
      0.027423981577157974,
      0.01261614914983511,
      -0.028593378141522408,
      -0.013723719865083694,
      0.021805785596370697,
      -0.11833613365888596,
      -0.28168368339538574,
      -0.3505050241947174,
      -0.4804859459400177,
      -0.5033777356147766,
      -0.5882858633995056,
      -0.39828377962112427,
      -0.44831153750419617,
      -0.3524717092514038,
      -0.36031410098075867,
      -0.2746783196926117,
      -0.202835351228714,
      -0.20714491605758667,
      -0.14315925538539886,
      -0.06533600389957428,
      -0.07159961014986038,
      -0.06993139535188675,
      -0.0723419263958931,
      0.08476289361715317,
      0.01591368392109871,
      -0.020990371704101562,
      -0.018611544743180275,
      -0.04719601944088936,
      -0.002870276803150773,
      -0.028084542602300644,
      -0.07323528826236725,
      -0.007375695277005434,
      0.01555531844496727,
      -0.15786583721637726,
      -0.25742751359939575,
      -0.3425833582878113,
      -0.3439577519893646,
      -0.2891235649585724,
      -0.31236743927001953,
      -0.29907238483428955,
      -0.2911089360713959,
      -0.3187258839607239,
      -0.2509133219718933,
      -0.05515569448471069,
      -0.07693500816822052,
      0.05867261439561844,
      0.1493726670742035,
      0.13820770382881165,
      0.17735885083675385,
      0.09394712746143341,
      0.023943191394209862,
      0.08911316841840744,
      -0.014150436036288738,
      -0.02068064734339714,
      -0.018273359164595604,
      -0.028913570567965508,
      -0.11430992186069489,
      -0.09577076882123947,
      -0.15887510776519775,
      -0.02397303283214569,
      -0.05504431948065758,
      -0.0032145297154784203,
      -0.004079096019268036,
      -0.13002590835094452,
      -0.10316082835197449,
      0.049730654805898666,
      -0.1174725815653801,
      -0.09732196480035782,
      -0.10705915838479996,
      -0.05605033412575722,
      0.07363218069076538,
      0.25668567419052124,
      0.17560845613479614,
      0.3008362650871277,
      0.3703693449497223,
      0.19860972464084625,
      0.35224342346191406,
      0.3346959054470062,
      0.1599254459142685,
      0.03264719992876053,
      -0.03738025948405266,
      0.02726864442229271,
      -0.026122814044356346,
      -0.040410783141851425,
      -0.11954224854707718,
      -0.15169693529605865,
      -0.06485746055841446,
      0.04554688185453415,
      0.03528676554560661,
      0.11747849732637405,
      0.25443655252456665,
      0.40058064460754395,
      0.3946131765842438,
      0.24498355388641357,
      0.13470038771629333,
      -0.09510745108127594,
      0.07656476646661758,
      0.093656986951828,
      0.13861800730228424,
      0.19626235961914062,
      0.28909727931022644,
      0.38006579875946045,
      0.41400784254074097,
      0.4159032702445984,
      0.35793423652648926,
      0.35124295949935913,
      0.16624502837657928,
      0.03862744942307472,
      -0.030823512002825737,
      -0.0053453086875379086,
      -0.05148833245038986,
      -0.002143348101526499,
      -0.0839499980211258,
      0.03513909876346588,
      0.07741314172744751,
      0.07841196656227112,
      -0.09505011886358261,
      -0.037721484899520874,
      0.19947218894958496,
      0.5209895372390747,
      0.6742975115776062,
      0.46892404556274414,
      0.504523515701294,
      0.30321332812309265,
      0.12151523679494858,
      0.03687001019716263,
      0.19453853368759155,
      0.20036859810352325,
      0.07324424386024475,
      0.026791783049702644,
      0.1078837513923645,
      0.30152642726898193,
      0.3279172480106354,
      0.1488613784313202,
      0.097992442548275,
      -0.053544674068689346,
      -0.01798684149980545,
      -0.00507513340562582,
      0.012539327144622803,
      -0.013667985796928406,
      -0.015966981649398804,
      0.07817786931991577,
      0.002775639295578003,
      -0.07410354912281036,
      -0.03372025862336159,
      0.10064146667718887,
      0.17471136152744293,
      0.4122650623321533,
      0.7512067556381226,
      0.5503333806991577,
      0.4370758831501007,
      0.15526427328586578,
      0.16230234503746033,
      0.20061053335666656,
      0.10333025455474854,
      -0.031649399548769,
      -0.08696194738149643,
      -0.03569894656538963,
      0.0939905196428299,
      0.030170900747179985,
      -0.005277062300592661,
      0.019932394847273827,
      0.052481185644865036,
      0.002133341273292899,
      -0.009785100817680359,
      0.005551032721996307,
      -0.0205201655626297,
      0.027189217507839203,
      0.02790733426809311,
      0.09767229110002518,
      0.25272616744041443,
      0.13244512677192688,
      -0.0855761244893074,
      -0.052467212080955505,
      0.15978272259235382,
      0.43378326296806335,
      0.39685386419296265,
      0.2518729567527771,
      0.04112166538834572,
      -0.19821947813034058,
      -0.10466311126947403,
      -0.12559707462787628,
      -0.14494451880455017,
      -0.13919571042060852,
      -0.2956722676753998,
      -0.03263070806860924,
      -0.01584363542497158,
      -0.005650439765304327,
      -0.011851564049720764,
      -0.05458352342247963,
      0.027401315048336983,
      0.011214102618396282,
      -0.020362455397844315,
      -0.02681780606508255,
      -0.0040817237459123135,
      0.01868888922035694,
      -0.0287731122225523,
      -0.05099351331591606,
      0.08642798662185669,
      -0.007539770565927029,
      -0.21344591677188873,
      -0.07094740122556686,
      0.1262536346912384,
      0.11789319664239883,
      -0.008672754280269146,
      -0.1389721930027008,
      -0.3490593135356903,
      -0.4009026885032654,
      -0.23919449746608734,
      -0.24391359090805054,
      -0.22546055912971497,
      -0.24194368720054626,
      -0.3553837239742279,
      -0.2359311282634735,
      -0.0928972065448761,
      0.15718171000480652,
      0.043458595871925354,
      -0.06319500505924225,
      -0.04785333201289177,
      -0.028065713122487068,
      0.024916641414165497,
      -0.0010946131078526378,
      -0.0018722552340477705,
      -0.008524336852133274,
      0.012171638198196888,
      -0.06445727497339249,
      -0.1986350119113922,
      -0.07937802374362946,
      -0.06373853981494904,
      -0.09502474218606949,
      0.012335998937487602,
      0.009206589311361313,
      -0.22854293882846832,
      -0.2974072992801666,
      -0.43605679273605347,
      -0.19058629870414734,
      -0.014162130653858185,
      -0.1723468154668808,
      -0.10503554344177246,
      -0.0692390576004982,
      -0.11639183014631271,
      -0.07720810920000076,
      0.2131643444299698,
      0.11660253256559372,
      -0.052633192390203476,
      -0.0704793930053711,
      -0.046290166676044464,
      0.017764471471309662,
      -0.035513706505298615,
      0.015520947985351086,
      -0.032642483711242676,
      0.01604449935257435,
      -0.01594763807952404,
      0.04058842360973358,
      -0.2180752456188202,
      -0.24206002056598663,
      -0.10939868539571762,
      -0.11999524384737015,
      -0.2579980194568634,
      -0.2534297704696655,
      -0.2968835234642029,
      -0.26286521553993225,
      -0.15374362468719482,
      -0.08108653128147125,
      -0.01032907422631979,
      -0.1766226440668106,
      -0.060958150774240494,
      0.07009807229042053,
      0.21304403245449066,
      0.09564901888370514,
      0.32622814178466797,
      0.04840220510959625,
      -0.11439788341522217,
      -0.14359785616397858,
      -0.02608337253332138,
      -0.020846880972385406,
      0.001200283644720912,
      0.02578473836183548,
      0.02323286235332489,
      0.005091170780360699,
      -0.03541920334100723,
      -0.06173069030046463,
      -0.022193707525730133,
      -0.1571381837129593,
      -0.22983230650424957,
      -0.22463050484657288,
      -0.23538212478160858,
      -0.19914551079273224,
      -0.2430826723575592,
      -0.1768452674150467,
      0.032057493925094604,
      0.05577875301241875,
      -0.020133700221776962,
      -0.18051517009735107,
      -0.10012290626764297,
      -0.02453351579606533,
      -0.018019147217273712,
      -0.03331046923995018,
      0.09128639847040176,
      -0.11894915252923965,
      -0.25310367345809937,
      -0.12336882203817368,
      -0.0019457803573459387,
      -0.0321325920522213,
      0.017736338078975677,
      -0.009183832444250584,
      0.014732927083969116,
      0.00503011466935277,
      -0.055281560868024826,
      -0.06249041110277176,
      0.01333033386617899,
      -0.07624439895153046,
      -0.08528898656368256,
      -0.08505357801914215,
      -0.06951885670423508,
      -0.26066476106643677,
      -0.23242397606372833,
      -0.165326789021492,
      -0.08962906897068024,
      -0.1065312847495079,
      -0.24428337812423706,
      -0.1797625720500946,
      -0.03063339553773403,
      -0.13837672770023346,
      -0.0498676523566246,
      -0.03233043849468231,
      -0.03833996504545212,
      -0.19450251758098602,
      -0.15734930336475372,
      -0.08574661612510681,
      0.027910485863685608,
      -0.015431506559252739,
      -0.006004763301461935,
      -0.014124812558293343,
      -0.015840020030736923,
      0.02726491168141365,
      -0.021727418527007103,
      -0.06275880336761475,
      -0.08547575026750565,
      -0.14794711768627167,
      -0.052593834698200226,
      0.0075883143581449986,
      -0.13695664703845978,
      -0.3680179715156555,
      -0.2956346869468689,
      -0.24506713449954987,
      -0.3005046546459198,
      -0.2936079204082489,
      -0.24018119275569916,
      0.005078271962702274,
      0.037209514528512955,
      -0.02067933790385723,
      0.21223458647727966,
      0.03783414885401726,
      -0.18733921647071838,
      -0.2411448210477829,
      -0.18501770496368408,
      -0.020015811547636986,
      -0.013310338370501995,
      0.009812873788177967,
      -0.02509983628988266,
      -0.019018299877643585,
      0.010338934138417244,
      -0.02739938162267208,
      -0.07954549044370651,
      -0.04703133553266525,
      -0.15744827687740326,
      -0.06902503222227097,
      -0.03766564279794693,
      -0.07337166368961334,
      -0.10857529193162918,
      -0.27505186200141907,
      -0.2499064803123474,
      -0.1690359264612198,
      -0.23499351739883423,
      -0.2279217392206192,
      -0.1807926893234253,
      -0.12974774837493896,
      -0.00865553505718708,
      0.0739830955862999,
      0.14354310929775238,
      -0.023348219692707062,
      -0.20614057779312134,
      -0.23268894851207733,
      -0.12983044981956482,
      -0.02999825030565262,
      -0.01366010494530201,
      0.02695423550903797,
      -0.008195172064006329,
      -0.022033512592315674,
      -0.021911919116973877,
      -0.01944853365421295,
      -0.05521215498447418,
      -0.11410675197839737,
      -0.07625744491815567,
      0.023703942075371742,
      0.0584581196308136,
      -0.007329970598220825,
      -0.04851098731160164,
      -0.10745460540056229,
      -0.18242479860782623,
      -0.22654621303081512,
      -0.22213269770145416,
      -0.18280044198036194,
      -0.15096360445022583,
      -0.16231709718704224,
      0.05032068118453026,
      0.21922050416469574,
      0.06554415822029114,
      -0.04707561433315277,
      -0.13428835570812225,
      -0.13217255473136902,
      -0.08916354924440384,
      -0.037356652319431305,
      -0.03667576238512993,
      -0.027659039944410324,
      -0.0416962169110775,
      -0.019208461046218872,
      0.013264182023704052,
      -0.007619286421686411,
      -0.010136627592146397,
      0.008447716012597084,
      0.10632895678281784,
      0.12408564984798431,
      0.07739642262458801,
      0.04463106766343117,
      0.10627343505620956,
      -0.04975859075784683,
      -0.2475823312997818,
      -0.12157909572124481,
      -0.0830182358622551,
      -0.16775768995285034,
      -0.09733930230140686,
      -0.17640337347984314,
      0.027073422446846962,
      0.0368838794529438,
      -0.04142891988158226,
      -0.09167492389678955,
      -0.09983925521373749,
      -0.0648503378033638,
      -0.027733981609344482,
      -0.011942163109779358,
      -0.001965157687664032,
      0.005273655988276005,
      0.01408646535128355,
      -0.04180004820227623,
      -0.03969024494290352,
      -0.025833308696746826,
      0.009596510790288448,
      0.06216596066951752,
      0.2504723370075226,
      0.17938132584095,
      0.05179985612630844,
      0.04325909540057182,
      0.11627698689699173,
      0.04874693229794502,
      -0.09948964416980743,
      -0.09313489496707916,
      -0.06795693933963776,
      -0.07647987455129623,
      -0.13431502878665924,
      -0.12263081967830658,
      -0.04701092839241028,
      -0.05466916039586067,
      -0.07230889052152634,
      -0.09461032599210739,
      -0.08396507054567337,
      -0.04954184591770172,
      -0.06508834660053253,
      -0.008414159528911114,
      -0.015665225684642792,
      0.004767091479152441,
      0.017039082944393158,
      0.009000471793115139,
      0.026494093239307404,
      0.020645424723625183,
      -0.04226519167423248,
      0.07090017199516296,
      0.16137734055519104,
      0.12595413625240326,
      0.058371402323246,
      0.09670568257570267,
      0.10649512708187103,
      0.03077789954841137,
      -0.010048137977719307,
      -0.04079756140708923,
      -0.05074036866426468,
      -0.08698219805955887,
      -0.11557291448116302,
      -0.09385586529970169,
      -0.11934107542037964,
      -0.18991322815418243,
      -0.1731698364019394,
      -0.08347003161907196,
      -0.01367875374853611,
      0.0018229172565042973,
      -0.010983115062117577,
      0.010461960919201374,
      0.013906741514801979,
      -0.003724259091541171,
      -0.0029144713189452887,
      -0.01879584789276123,
      0.014362451620399952,
      0.01729132980108261,
      -0.037922948598861694,
      0.0536312609910965,
      0.029806341975927353,
      0.0026813209988176823,
      0.09560505300760269,
      0.08648928999900818,
      -0.029769696295261383,
      -0.04307820647954941,
      -0.008167055435478687,
      0.08465897291898727,
      0.068766288459301,
      0.023547589778900146,
      -0.03606624901294708,
      -0.02814674936234951,
      -0.16442349553108215,
      -0.16310757398605347,
      0.018944330513477325,
      -0.03298977017402649,
      0.015412649139761925,
      0.041312966495752335,
      0.002178691327571869,
      0.001710389507934451,
      -0.030157092958688736,
      0.0061878301203250885,
      -0.02982015535235405,
      0.01586805284023285,
      -0.024245042353868484,
      0.02569333091378212,
      -0.035036880522966385,
      -0.04222119599580765,
      -0.04525989666581154,
      0.013001241721212864,
      0.055280353873968124,
      0.02575667016208172,
      -0.03427606076002121,
      -0.031527914106845856,
      0.012232725508511066,
      -0.015575148165225983,
      0.040429066866636276,
      -0.018340641632676125,
      -0.07217327505350113,
      -0.13591448962688446,
      -0.11380527168512344,
      -0.06525422632694244,
      0.0815996527671814,
      0.03785516694188118,
      0.0022349469363689423,
      0.058686863631010056,
      0.0278476532548666,
      -0.019933383911848068,
      0.007488056551665068,
      -0.011014825664460659,
      -0.023761406540870667,
      -0.02715037763118744,
      0.024912703782320023,
      -0.03017469123005867,
      0.011474537663161755,
      -0.038693323731422424,
      -0.016958221793174744,
      0.020408019423484802,
      -0.04152829200029373,
      -0.0058917272835969925,
      -0.028366073966026306,
      0.00835374929010868,
      -0.042155008763074875,
      -0.04274890571832657,
      -0.024959959089756012,
      -0.07779204845428467,
      -0.10230585187673569,
      -0.11453043669462204,
      -0.06526696681976318,
      -0.08718988299369812,
      -0.02684691548347473,
      0.031994808465242386,
      0.008624126203358173,
      0.04474804550409317,
      -0.030752748250961304,
      -0.04392741993069649,
      0.016167446970939636,
      0.014307358302175999,
      -0.024582277983427048,
      -0.016065381467342377,
      -0.027190333232283592,
      -3.604888916015625E-4,
      -0.05003361776471138,
      6.075111450627446E-4,
      -0.009051082655787468,
      -0.024735787883400917,
      0.004256828222423792,
      -0.008841116912662983,
      -0.03298987075686455,
      -0.05387108400464058,
      -0.028673389926552773,
      -0.0012664471287280321,
      -0.019451240077614784,
      -0.020802466198801994,
      0.00976206548511982,
      -0.01909617893397808,
      -0.041777510195970535,
      -0.029892565682530403,
      0.00980433076620102,
      -0.028160633519291878,
      0.009261973202228546,
      -0.04051966592669487,
      0.0014352472499012947,
      -0.016179541125893593,
      -0.008109383285045624,
      -0.006703812628984451,
      -0.038536299020051956,
      -0.053623687475919724,
      -0.007491427473723888,
      -0.03919374570250511,
      -0.048302020877599716,
      -0.01592840626835823,
      -0.027063896879553795,
      0.04954395815730095,
      0.035444147884845734,
      0.05508649721741676,
      0.025686930865049362,
      0.05879588425159454,
      0.024859938770532608,
      0.047281380742788315,
      0.040749598294496536,
      -0.02671835385262966,
      0.05785749852657318,
      0.12186296284198761,
      -5.644001066684723E-4,
      0.02828388847410679,
      0.14108116924762726,
      0.09531339257955551,
      0.04914369806647301,
      -0.01331399381160736,
      -0.004033682867884636,
      -0.058112408965826035,
      -0.05033237114548683,
      -0.03552722558379173,
      -0.024138787761330605,
      -0.040179479867219925,
      -0.03549554571509361,
      -0.04859432205557823,
      -0.006829833146184683,
      -0.0349869579076767,
      -0.027578718960285187,
      0.013564861379563808,
      0.09247414022684097,
      0.11238070577383041,
      0.24512337148189545,
      0.39400514960289,
      0.3335447311401367,
      0.26318562030792236,
      0.26112687587738037,
      0.4016469717025757,
      0.476151704788208,
      0.4981180727481842,
      0.2474200576543808,
      0.1979362517595291,
      0.24868378043174744,
      0.2887323200702667,
      0.27666112780570984,
      0.19821907579898834,
      0.03737877681851387,
      -0.01816757395863533,
      -0.00620303675532341,
      0.005685293115675449,
      -0.02158631943166256,
      -0.03462354466319084,
      -0.05633318051695824,
      -0.020591702312231064,
      0.015005441382527351,
      -6.986226653680205E-4,
      0.02610304020345211,
      0.04474525898694992,
      0.17346540093421936,
      0.3658733069896698,
      0.38235947489738464,
      0.5260043144226074,
      0.8328808546066284,
      0.8656963109970093,
      1.2253392934799194,
      1.6490504741668701,
      1.695057988166809,
      1.3801724910736084,
      1.0894529819488525,
      1.0562565326690674,
      0.8062037229537964,
      0.7082319259643555,
      0.36914199590682983,
      0.30858922004699707,
      0.27837300300598145,
      0.1926138699054718,
      0.007546166889369488,
      -0.007889523170888424,
      -0.04101710394024849,
      -0.058453913778066635,
      0.008694348856806755,
      -0.04061822220683098,
      -0.001882038894109428,
      -0.07855135947465897,
      -0.11358591169118881,
      0.01752898097038269,
      0.15641087293624878,
      0.19745492935180664,
      0.4216417074203491,
      0.407034695148468,
      0.3659937381744385,
      0.5547828078269958,
      0.07884010672569275,
      0.7730942964553833,
      0.9853158593177795,
      0.92829430103302,
      0.582273542881012,
      0.4118693470954895,
      -0.03272625058889389,
      0.15839703381061554,
      -0.12570182979106903,
      -0.032477088272571564,
      -0.06098863482475281,
      -0.036835942417383194,
      -0.019743790850043297,
      -0.04072301462292671,
      -0.0034595744218677282,
      -0.026825273409485817,
      -0.02619732730090618,
      -0.05022704228758812,
      -0.03094632923603058,
      -0.04628916084766388,
      -0.119492307305336,
      -0.050974905490875244,
      -0.09954774379730225,
      0.19049696624279022,
      -0.008124280720949173,
      0.31529471278190613,
      0.5987348556518555,
      0.8390004634857178,
      0.5240503549575806,
      0.5252939462661743,
      -0.12219913303852081,
      0.2854277789592743,
      0.41370388865470886,
      0.7931814193725586,
      0.7391262650489807,
      0.8294959664344788,
      0.21368014812469482,
      -0.32695820927619934,
      -0.4645838141441345,
      -0.10992205142974854,
      0.032237760722637177,
      0.03245314955711365,
      3.7243604310788214E-4,
      -0.058279749006032944,
      -0.03262239322066307,
      0.0246133990585804,
      0.07775145769119263,
      -0.02538241259753704,
      -0.25955730676651,
      -0.024537520483136177,
      0.22695530951023102,
      0.41444987058639526,
      0.16568486392498016,
      0.19584432244300842,
      0.6153466105461121,
      1.7887247800827026,
      1.2556143999099731,
      0.7742985486984253,
      1.4359056949615479,
      1.7225980758666992,
      1.9814809560775757,
      1.9810404777526855,
      0.7327209711074829,
      0.408729612827301,
      0.707927942276001,
      -0.037023190408945084,
      -0.5912358164787292,
      -0.274772971868515,
      0.00807880237698555,
      -0.05488412827253342,
      -0.018086394295096397,
      -0.02062411420047283,
      -0.04340045154094696,
      5.597730632871389E-4,
      -0.022323567420244217,
      -0.11126108467578888,
      -0.20696772634983063,
      0.19895978271961212,
      -0.022190479561686516,
      0.7061567902565002,
      0.716505765914917,
      0.46183475852012634,
      0.11924318969249725,
      0.1804502010345459,
      0.47450852394104004,
      1.0715826749801636,
      2.0327279567718506,
      1.1393038034439087,
      0.494571715593338,
      0.6065557599067688,
      -0.6832658648490906,
      -0.32485246658325195,
      0.046520717442035675,
      -0.46459120512008667,
      -0.8297395706176758,
      -0.2543140947818756,
      -0.29988986253738403,
      -0.21313707530498505,
      -0.05532682314515114,
      0.00869809277355671,
      0.004117834381759167,
      -0.09235849976539612,
      -0.1548764854669571,
      -0.12994086742401123,
      -0.15596997737884521,
      0.10128065943717957,
      0.10301709175109863,
      0.4948418140411377,
      0.721458911895752,
      0.5230755805969238,
      0.4906221330165863,
      0.7003611922264099,
      0.527312695980072,
      0.9277373552322388,
      0.2754264771938324,
      -0.940116822719574,
      -1.751294493675232,
      -1.1051443815231323,
      -1.1289383172988892,
      -0.7056232690811157,
      -0.5887793898582458,
      -0.8835620880126953,
      -0.7906399965286255,
      -0.2751733064651489,
      -0.24027785658836365,
      -0.0013942946679890156,
      0.0144750215113163,
      0.003544745035469532,
      0.005230606533586979,
      -0.1116982102394104,
      -0.03034212626516819,
      0.11857960373163223,
      0.1272823065519333,
      0.3381260335445404,
      0.43126070499420166,
      0.6901609301567078,
      0.4241742193698883,
      0.5437472462654114,
      0.7811978459358215,
      0.13271459937095642,
      -0.9364534020423889,
      -0.9403783082962036,
      -2.037518262863159,
      -2.7204043865203857,
      -1.2202281951904297,
      -0.9394257664680481,
      -0.42737120389938354,
      -0.10945737361907959,
      -0.6647834777832031,
      -0.6103708744049072,
      -0.4758877754211426,
      -0.007356445305049419,
      -0.01797502674162388,
      -0.009951997548341751,
      -0.022287044674158096,
      -0.017953775823116302,
      -0.06001803278923035,
      -0.0824485495686531,
      0.052252765744924545,
      0.08801345527172089,
      0.42622482776641846,
      0.5433688759803772,
      0.07217314094305038,
      0.43973013758659363,
      -0.5879448056221008,
      0.06252474337816238,
      -0.32588809728622437,
      -0.9722305536270142,
      -1.3515487909317017,
      -1.8404039144515991,
      -2.3873865604400635,
      -0.8252872824668884,
      -0.9638299942016602,
      -0.4230242073535919,
      -0.32744961977005005,
      0.05084282159805298,
      -0.09047742187976837,
      -0.2510199248790741,
      0.25934749841690063,
      0.10162574797868729,
      -0.23261260986328125,
      -0.060691915452480316,
      -0.020808454602956772,
      -0.004061087965965271,
      -0.004425534512847662,
      -0.030372710898518562,
      0.057488977909088135,
      0.16413480043411255,
      0.6869764924049377,
      0.3828728199005127,
      -0.09282862395048141,
      -0.4677482843399048,
      -0.6828361749649048,
      -0.7015194892883301,
      -0.7033353447914124,
      -0.44157931208610535,
      -0.2276962548494339,
      -0.32678231596946716,
      -0.20789532363414764,
      0.49914467334747314,
      0.295434832572937,
      -0.36251023411750793,
      -0.44251760840415955,
      -0.27723225951194763,
      -0.6430668234825134,
      0.2028370350599289,
      0.7278657555580139,
      0.5536402463912964,
      0.11381151527166367,
      0.017419222742319107,
      -0.017708225175738335,
      -0.05090672895312309,
      -0.0012529762461781502,
      -0.04211093857884407,
      0.04935251921415329,
      0.24118952453136444,
      0.3361515700817108,
      0.023341266438364983,
      -0.6083869338035583,
      -0.6835223436355591,
      0.06249118968844414,
      -0.4903537929058075,
      -0.3727571964263916,
      -0.3749679923057556,
      0.16820086538791656,
      0.18779513239860535,
      0.2531580626964569,
      0.5771361589431763,
      0.023367149755358696,
      0.3379574716091156,
      -0.14341197907924652,
      -0.24627898633480072,
      -0.5632244348526001,
      0.22380633652210236,
      0.7970800399780273,
      0.6958105564117432,
      0.22257809340953827,
      -0.019728166982531548,
      -0.02894972637295723,
      -0.003953914623707533,
      -0.012401193380355835,
      -0.0017399056814610958,
      0.1371036022901535,
      -0.1134122982621193,
      -0.18065540492534637,
      -0.24216261506080627,
      -0.18472829461097717,
      -0.399599552154541,
      0.14815841615200043,
      0.48927775025367737,
      0.5541550517082214,
      -0.2841029465198517,
      0.4686318337917328,
      -0.3504803478717804,
      -0.33979782462120056,
      0.03849412500858307,
      0.4319406747817993,
      0.06054127588868141,
      -0.335763156414032,
      -0.522903561592102,
      -0.6837368607521057,
      0.05420737341046333,
      0.8149072527885437,
      0.5682039260864258,
      0.16775153577327728,
      0.010025798343122005,
      -0.0038437338080257177,
      0.006027163937687874,
      -0.05272103473544121,
      -0.04873577505350113,
      -0.0033658966422080994,
      -0.6703845262527466,
      -0.535703718662262,
      0.15098059177398682,
      -0.0720360204577446,
      0.3115130662918091,
      0.1943945288658142,
      0.4414275288581848,
      0.4635126292705536,
      -0.503770112991333,
      -0.14030721783638,
      -0.4011688828468323,
      -0.18106144666671753,
      0.11166088283061981,
      -0.11888028681278229,
      -0.3325955867767334,
      -0.901867687702179,
      -0.4785250127315521,
      -0.11485366523265839,
      0.09160909801721573,
      0.40014103055000305,
      0.22204263508319855,
      0.23778338730335236,
      0.21015912294387817,
      -0.04327409714460373,
      0.0027690227143466473,
      -0.04029141739010811,
      -0.05334686487913132,
      -0.0039593311958014965,
      -0.3472910523414612,
      -0.4881502687931061,
      -0.07061401754617691,
      0.5439688563346863,
      0.30635297298431396,
      -0.2451125979423523,
      0.31773537397384644,
      0.04150714725255966,
      -0.2916179299354553,
      -0.6914809346199036,
      -0.10881093889474869,
      0.5977319478988647,
      0.018254760652780533,
      -0.006963731255382299,
      -0.1430802047252655,
      -0.3302594721317291,
      -0.07595878839492798,
      -0.16759051382541656,
      -0.0765046775341034,
      0.12726502120494843,
      0.48373472690582275,
      0.41230902075767517,
      0.1509147733449936,
      -0.009235882200300694,
      -0.05323180928826332,
      -0.05629519000649452,
      0.007127789780497551,
      0.11314956843852997,
      0.33955517411231995,
      -0.6532328724861145,
      -0.44854363799095154,
      -0.17863835394382477,
      -0.6536965370178223,
      0.04564305394887924,
      0.14261338114738464,
      0.09706707298755646,
      -0.09857463836669922,
      -0.46859514713287354,
      -0.3386988043785095,
      -0.057194408029317856,
      -0.704359233379364,
      -0.34949609637260437,
      -0.584871768951416,
      -0.2241315245628357,
      0.2199074923992157,
      0.06037367507815361,
      0.4618261456489563,
      0.6947150230407715,
      0.8782984018325806,
      0.7868618369102478,
      0.3470337390899658,
      0.007438569329679012,
      -0.014578081667423248,
      -0.02022555097937584,
      -0.06141899526119232,
      0.3934459984302521,
      0.31648242473602295,
      -0.529442548751831,
      -0.36451274156570435,
      -0.44276049733161926,
      -0.202333003282547,
      0.1717115193605423,
      -0.4051254987716675,
      -0.05431808531284332,
      -0.42430055141448975,
      -0.9675889611244202,
      -1.0310815572738647,
      -0.3069940209388733,
      -0.8390800356864929,
      -0.658028781414032,
      -0.2851814925670624,
      0.06596151739358902,
      0.43545252084732056,
      0.5192412734031677,
      1.0959481000900269,
      0.8038402199745178,
      0.6569501161575317,
      0.32807374000549316,
      0.23137463629245758,
      -0.049578242003917694,
      -0.04113538935780525,
      -0.007390175014734268,
      -0.08330093324184418,
      0.2774496376514435,
      0.3705401122570038,
      0.30318546295166016,
      0.21906080842018127,
      0.08251212537288666,
      0.12299001216888428,
      -0.29615864157676697,
      0.42922213673591614,
      -0.049738310277462006,
      -0.3378748595714569,
      -0.5719894766807556,
      -0.9713809490203857,
      -0.5647413730621338,
      -0.05059992894530296,
      0.5971775054931641,
      0.8599276542663574,
      0.7026207447052002,
      0.6503416299819946,
      0.6690530776977539,
      1.0989195108413696,
      0.4747006297111511,
      0.441710889339447,
      0.26574453711509705,
      -0.0037256900686770678,
      -0.054991643875837326,
      0.004167544189840555,
      -0.04182051867246628,
      0.011541146785020828,
      0.13675925135612488,
      0.37580442428588867,
      0.3545379936695099,
      0.3224587142467499,
      0.8724801540374756,
      0.7559055089950562,
      0.4184601306915283,
      0.8081870079040527,
      0.5041471123695374,
      0.6628842353820801,
      -0.20738796889781952,
      -0.3932190537452698,
      -0.26110145449638367,
      0.034254055470228195,
      0.7132734060287476,
      0.6727849245071411,
      0.3295384645462036,
      0.33470678329467773,
      0.30429789423942566,
      0.7339040637016296,
      0.2810543477535248,
      0.16550791263580322,
      0.05559232085943222,
      -0.10322565585374832,
      -0.0029354924336075783,
      -0.01294887438416481,
      -0.03360764682292938,
      0.02724221721291542,
      0.3162747025489807,
      0.6271389126777649,
      0.9909195303916931,
      0.329477459192276,
      0.6826236844062805,
      0.7859175205230713,
      0.6270282864570618,
      0.37408819794654846,
      0.077653668820858,
      0.2689459025859833,
      0.5354129672050476,
      0.09563539177179337,
      0.5565887689590454,
      0.13776780664920807,
      0.2391071617603302,
      0.10059554874897003,
      0.39608320593833923,
      0.6362113356590271,
      0.339736670255661,
      0.4395468831062317,
      0.08441681414842606,
      -0.0021909784991294146,
      0.002383069135248661,
      -0.07916540652513504,
      -0.037296175956726074,
      -0.04259636625647545,
      -0.03395890071988106,
      0.020452581346035004,
      0.15050463378429413,
      0.403978168964386,
      0.6101409792900085,
      0.5998532176017761,
      0.5879459977149963,
      0.36283448338508606,
      0.5029460787773132,
      0.4146939516067505,
      0.1448865830898285,
      0.4250614047050476,
      0.6775678992271423,
      0.33674973249435425,
      -0.2048916071653366,
      0.5590408444404602,
      0.17946679890155792,
      0.07540666311979294,
      0.19839678704738617,
      0.39851340651512146,
      0.4950912892818451,
      -0.008655176497995853,
      -0.057268667966127396,
      -0.18695750832557678,
      -0.012261418625712395,
      -0.022555626928806305,
      -0.031770799309015274,
      -0.037097711116075516,
      -0.05368145927786827,
      0.02322380244731903,
      0.10684701800346375,
      0.18214291334152222,
      0.07642371952533722,
      0.19422650337219238,
      0.3815937340259552,
      0.32634618878364563,
      0.24662400782108307,
      0.25243809819221497,
      0.6046011447906494,
      0.3722500503063202,
      0.6276015043258667,
      0.4289741814136505,
      -0.23058223724365234,
      0.17455758154392242,
      -0.19726739823818207,
      -0.8622065186500549,
      -1.0768758058547974,
      -0.2519603967666626,
      -0.09415729343891144,
      -0.05352622643113136,
      0.043664172291755676,
      -0.10872876644134521,
      -0.018208838999271393,
      -0.08929599076509476,
      -0.01859981007874012,
      -0.03668149188160896,
      -0.030520038679242134,
      -0.009781030006706715,
      0.11719582229852676,
      0.15283937752246857,
      -0.037244297564029694,
      0.03601602092385292,
      0.12838461995124817,
      -0.1956135481595993,
      -0.5659216642379761,
      -0.28630733489990234,
      -0.37875333428382874,
      -0.6792650818824768,
      -0.04006687179207802,
      0.3844083845615387,
      -0.5256929993629456,
      -0.6107622981071472,
      -0.5004854798316956,
      -0.16998548805713654,
      -0.6645784378051758,
      -0.402433842420578,
      -0.4056265354156494,
      -0.017320936545729637,
      0.1332753300666809,
      0.02601502649486065,
      -0.06883061677217484,
      -0.10787560045719147,
      -0.035254690796136856,
      -0.01624787412583828,
      -0.011015309020876884,
      -0.04872310534119606,
      0.02534256875514984,
      0.02236163057386875,
      0.05280330777168274,
      0.19984665513038635,
      0.610479474067688,
      0.6784676313400269,
      0.35709649324417114,
      0.41770416498184204,
      0.8994660973548889,
      1.2109589576721191,
      0.9161099195480347,
      0.5257344245910645,
      0.5466766357421875,
      0.5752787590026855,
      0.6567209959030151,
      -0.08705373108386993,
      -0.03454666957259178,
      0.2482943832874298,
      -0.21866346895694733,
      -0.08372930437326431,
      -0.12460232526063919,
      -0.03446119278669357,
      -0.0483517125248909,
      -0.018995041027665138,
      -0.007076486945152283,
      -0.04015592858195305,
      -0.05765799060463905,
      -0.010277966037392616,
      0.003136911429464817,
      0.02233726531267166,
      0.07524333149194717,
      0.13881027698516846,
      0.2860974669456482,
      0.4507533013820648,
      0.2906119227409363,
      0.8219164609909058,
      0.771181583404541,
      0.848730742931366,
      0.505646824836731,
      0.3661266565322876,
      0.7604529857635498,
      1.0633752346038818,
      0.846778392791748,
      0.8114166259765625,
      0.8826677203178406,
      0.6685086488723755,
      0.39188283681869507,
      0.15064473450183868,
      -0.03724255785346031,
      -0.03628382831811905,
      -0.05276082083582878,
      -0.019486242905259132,
      0.0014737015590071678,
      -0.04868445172905922,
      -0.052710842341184616,
      -0.011218555271625519,
      -0.05406079813838005,
      -0.04820577800273895,
      -0.03635605797171593,
      0.023682760074734688,
      0.058683812618255615,
      0.10953991860151291,
      0.15755128860473633,
      0.23488816618919373,
      0.1751469522714615,
      0.3547182083129883,
      0.47571098804473877,
      0.47068095207214355,
      0.26178672909736633,
      0.6880598664283752,
      0.58768230676651,
      0.6912335157394409,
      0.4362044036388397,
      0.376291424036026,
      0.2885265350341797,
      0.1269264668226242,
      -0.021694539114832878,
      -0.03748909384012222,
      -0.013628175482153893,
      0.00877733901143074,
      -0.054885681718587875,
      -0.025915788486599922,
      -0.053617414087057114,
      -0.014134753495454788,
      0.0017519090324640274,
      -0.0182038564234972,
      -0.0029261582531034946,
      -0.02628682367503643,
      -0.007899108342826366,
      -0.010018836706876755,
      -0.0015287908026948571,
      -0.0817110612988472,
      -0.01774541288614273,
      -0.015954548493027687,
      -0.04723982885479927,
      -0.003211346920579672,
      -0.027423636987805367,
      -0.05784489959478378,
      -0.07777886837720871,
      -0.021220913156867027,
      -0.02150707319378853,
      -0.04075935482978821,
      -0.0225713849067688,
      0.03646698221564293,
      -0.017230398952960968,
      -0.04063085839152336,
      -0.04050041362643242,
      -0.04759848490357399,
      -0.004805723205208778,
      0.014274329878389835,
      -0.008269311860203743,
      0.007654258981347084,
      0.010206085629761219,
      0.031161228194832802,
      0.022930914536118507,
      0.03692268580198288,
      0.031185004860162735,
      0.050196900963783264,
      0.01682005636394024,
      0.040876246988773346,
      0.04683806002140045,
      0.01687864027917385,
      0.03655565530061722,
      0.027643771842122078,
      0.004165989812463522,
      0.023171311244368553,
      -0.01477001328021288,
      0.049115829169750214,
      0.05157553404569626,
      0.047370582818984985,
      0.04254122078418732,
      0.05291338264942169,
      0.003309577237814665,
      0.04379694163799286,
      0.02460302598774433,
      0.048422664403915405,
      0.04891304671764374,
      -0.014314445666968822,
      0.047598645091056824,
      0.016872527077794075,
      0.028433682397007942,
      0.028902145102620125,
      0.0065712640061974525,
      0.04964672774076462,
      0.08694986999034882,
      0.11562405526638031,
      0.05626066029071808,
      0.09704849123954773,
      0.07580620795488358,
      0.13142302632331848,
      0.1596543937921524,
      0.07300235331058502,
      0.14641493558883667,
      0.15211758017539978,
      0.13933704793453217,
      0.11751408129930496,
      0.13895803689956665,
      0.11365801095962524,
      0.052878979593515396,
      0.00624874047935009,
      0.03273921459913254,
      0.02826698310673237,
      0.014739432372152805,
      -0.013545428402721882,
      0.029791956767439842,
      0.0018530223751440644,
      0.019212989136576653,
      -0.005455064587295055,
      0.04531553015112877,
      -0.00914616510272026,
      -6.898490828461945E-4,
      0.0450056716799736,
      0.1735035628080368,
      0.20196497440338135,
      0.16373448073863983,
      0.33561378717422485,
      0.30319416522979736,
      0.4232640862464905,
      0.3824669420719147,
      0.24763445556163788,
      0.2591371536254883,
      0.1874084174633026,
      0.12832678854465485,
      0.0763738751411438,
      0.10584495216608047,
      0.08874809741973877,
      0.14342071115970612,
      0.12923270463943481,
      0.07233820855617523,
      0.10246249288320541,
      7.807821384631097E-4,
      0.005372797138988972,
      0.019330648705363274,
      0.04636768251657486,
      0.023862039670348167,
      0.0010862135095521808,
      0.030933883041143417,
      0.013782530091702938,
      0.05687117576599121,
      0.19775931537151337,
      0.29651278257369995,
      0.3810865581035614,
      0.5522525310516357,
      0.6299040913581848,
      0.6651181578636169,
      0.5782490372657776,
      0.6482061743736267,
      0.5984691977500916,
      0.8533666133880615,
      1.133102297782898,
      0.8536900281906128,
      0.4294600486755371,
      0.25529614090919495,
      0.1699688881635666,
      -0.004088148009032011,
      0.056358836591243744,
      0.09519100934267044,
      0.03642311692237854,
      0.04378805309534073,
      0.008484351448714733,
      -0.0015438669361174107,
      0.042076051235198975,
      0.042674191296100616,
      0.00449729198589921,
      0.04433874040842056,
      0.040669649839401245,
      0.20649167895317078,
      0.3913956880569458,
      0.39738571643829346,
      0.3357028365135193,
      0.056702159345149994,
      0.18961678445339203,
      0.4574007987976074,
      0.21575391292572021,
      0.11833572387695312,
      -0.22233067452907562,
      -0.08416967839002609,
      -0.4272877275943756,
      0.193212628364563,
      0.34047722816467285,
      0.613818347454071,
      0.37080276012420654,
      0.2951767146587372,
      0.14787419140338898,
      0.054306965321302414,
      -0.21348801255226135,
      -0.046185147017240524,
      0.0010981542291119695,
      0.04915398359298706,
      0.004417551681399345,
      -0.004079330246895552,
      0.04939854145050049,
      0.10242604464292526,
      0.2590782344341278,
      0.43257302045822144,
      0.529289186000824,
      0.5089097023010254,
      0.15302015841007233,
      0.13186819851398468,
      0.9493520259857178,
      0.2531920075416565,
      0.05591137334704399,
      0.14376506209373474,
      0.014638726599514484,
      0.5055995583534241,
      0.013969273306429386,
      -0.21106977760791779,
      0.4176788032054901,
      -0.5170407295227051,
      -0.26243990659713745,
      0.0013034831499680877,
      -0.10355715453624725,
      -0.22630293667316437,
      -0.32520154118537903,
      -0.11433929204940796,
      -0.04954235628247261,
      0.05364818498492241,
      0.0038166430313140154,
      0.05405331775546074,
      0.026950642466545105,
      0.20939284563064575,
      0.4974171817302704,
      0.6456525325775146,
      0.8469536304473877,
      0.8382695317268372,
      0.17690911889076233,
      0.3848738372325897,
      0.5010549426078796,
      0.6691118478775024,
      0.4259397089481354,
      0.24165533483028412,
      0.2593219578266144,
      -0.13561944663524628,
      0.29968371987342834,
      0.10849828273057938,
      0.7140669226646423,
      -0.2648773193359375,
      -0.14409345388412476,
      0.3703652322292328,
      -0.1590500771999359,
      -0.4120941162109375,
      0.008893802762031555,
      0.00927724502980709,
      -0.032174814492464066,
      0.05166911706328392,
      -0.008441356010735035,
      0.02292473427951336,
      0.0595829114317894,
      0.31249484419822693,
      0.8639979362487793,
      0.9403477311134338,
      0.6958348155021667,
      0.5246073007583618,
      0.032798800617456436,
      -0.04488652944564819,
      -0.28520384430885315,
      0.6375203132629395,
      0.3994826674461365,
      -0.25008299946784973,
      0.42634016275405884,
      0.09626468271017075,
      0.2481735497713089,
      -0.018084926530718803,
      0.12142579257488251,
      -0.25793588161468506,
      -0.16383329033851624,
      0.0705464780330658,
      -0.07685433328151703,
      0.18924397230148315,
      0.7084354162216187,
      0.36302492022514343,
      0.2066647857427597,
      0.049944933503866196,
      0.044803641736507416,
      0.04286021739244461,
      0.08920414000749588,
      0.41333746910095215,
      1.127293348312378,
      0.8309832811355591,
      -0.07945206016302109,
      0.42143377661705017,
      0.07475801557302475,
      -0.12856778502464294,
      0.21887719631195068,
      0.7143926620483398,
      1.3350692987442017,
      0.13850845396518707,
      -0.05674491450190544,
      -0.2991848587989807,
      -0.2746979594230652,
      0.1374145746231079,
      0.3700776994228363,
      0.24690626561641693,
      -0.0590333566069603,
      -0.2743561863899231,
      0.1594049036502838,
      0.206949844956398,
      0.46273839473724365,
      0.34170636534690857,
      0.1739320158958435,
      -0.0275106281042099,
      0.02783866971731186,
      0.08983822911977768,
      0.20651595294475555,
      0.5220255255699158,
      0.9987217783927917,
      0.6957589387893677,
      -0.4676503837108612,
      0.5279772281646729,
      -0.04959297925233841,
      -0.6258413195610046,
      -0.5854789614677429,
      -0.10806431621313095,
      1.9398083686828613,
      1.8230204582214355,
      1.4445258378982544,
      -0.06308613717556,
      0.08493366092443466,
      0.28375306725502014,
      0.8013151288032532,
      0.8024248480796814,
      0.3361019790172577,
      0.5720490217208862,
      0.1917104423046112,
      -0.1823071539402008,
      0.34275758266448975,
      0.20422132313251495,
      0.10940267145633698,
      0.05820160359144211,
      0.02367367036640644,
      0.03785502165555954,
      0.14102286100387573,
      0.4447552561759949,
      0.4355299472808838,
      0.2987411916255951,
      -0.3357864320278168,
      -0.05756082385778427,
      -0.3918929994106293,
      -1.0738019943237305,
      -1.043299674987793,
      -0.7949997186660767,
      0.6177321076393127,
      3.447852373123169,
      2.348182439804077,
      0.7921196222305298,
      0.8466426134109497,
      1.1286168098449707,
      0.5467599630355835,
      -0.0030712608713656664,
      0.6482241749763489,
      0.27793973684310913,
      0.17560242116451263,
      -0.14935614168643951,
      0.09006994217634201,
      -0.05707777291536331,
      -0.010149854235351086,
      0.04091674089431763,
      0.04514028877019882,
      0.07708495110273361,
      0.22627519071102142,
      0.49686649441719055,
      -0.09357175976037979,
      -0.8223145604133606,
      -0.8522706031799316,
      -0.32083120942115784,
      -0.9870845079421997,
      -0.719508171081543,
      -2.2978830337524414,
      -2.777596950531006,
      -1.187932014465332,
      1.6976120471954346,
      1.4498001337051392,
      0.590438723564148,
      0.23060156404972076,
      0.3372134268283844,
      0.18432612717151642,
      0.30925145745277405,
      -0.36084407567977905,
      0.19528166949748993,
      0.10706178843975067,
      -0.24134910106658936,
      -0.5167474746704102,
      -0.17717240750789642,
      -0.08637596666812897,
      0.052592113614082336,
      0.008289576508104801,
      0.15459340810775757,
      0.24285069108009338,
      0.28310415148735046,
      -0.2798756957054138,
      -0.9531621336936951,
      -0.6421486139297485,
      -0.5958101749420166,
      -0.49704861640930176,
      -0.8380013704299927,
      -0.9625478386878967,
      -1.777944564819336,
      -2.267914295196533,
      0.163929283618927,
      1.2707208395004272,
      0.16192498803138733,
      -0.453345388174057,
      -0.5758678913116455,
      0.10343846678733826,
      -0.24168267846107483,
      -0.13776162266731262,
      -0.9113091826438904,
      -0.3995610773563385,
      -0.3648272752761841,
      0.11260484904050827,
      -0.06903602927923203,
      -0.04917877912521362,
      0.012472624890506268,
      -4.390860558487475E-4,
      0.03900245577096939,
      0.2172427624464035,
      0.20385347306728363,
      -0.37912264466285706,
      -0.6102885007858276,
      -0.09380398690700531,
      -0.674569845199585,
      -0.7973244190216064,
      -1.3121765851974487,
      -1.0486400127410889,
      -1.8908218145370483,
      -2.094522714614868,
      -0.879681408405304,
      0.7470881342887878,
      -0.3264482915401459,
      -0.19309787452220917,
      -0.5512012243270874,
      -0.6431845426559448,
      -0.33941495418548584,
      -0.7269439101219177,
      -0.4743366539478302,
      -0.5528479218482971,
      0.6173955202102661,
      0.7576804757118225,
      -0.12437240034341812,
      -0.11438901722431183,
      -0.014458696357905865,
      0.029419051483273506,
      0.02315361611545086,
      0.16116589307785034,
      0.056586410850286484,
      -0.5375335216522217,
      -0.873375654220581,
      -0.7973295450210571,
      -0.309072345495224,
      -0.3039693832397461,
      -1.0069586038589478,
      0.029505426064133644,
      -1.2214787006378174,
      -0.8260017037391663,
      -1.0680460929870605,
      -0.324747771024704,
      -0.008236655034124851,
      -0.23276840150356293,
      -0.7389976382255554,
      -0.24965402483940125,
      0.10546945035457611,
      0.43858787417411804,
      0.14795909821987152,
      -0.11497946828603745,
      0.8920007348060608,
      0.5865129232406616,
      -0.08980996906757355,
      0.036465466022491455,
      -0.003909476101398468,
      0.01518181525170803,
      0.018415747210383415,
      0.1815694123506546,
      0.041868921369314194,
      -0.29415521025657654,
      -0.32500097155570984,
      -0.5582703351974487,
      -0.29876700043678284,
      -0.3434433937072754,
      -0.5970828533172607,
      -0.38391947746276855,
      -1.10603666305542,
      -1.1537243127822876,
      -1.0640161037445068,
      -0.3823740482330322,
      -0.11390162259340286,
      0.02666156180202961,
      -0.14468757808208466,
      0.20960412919521332,
      -0.07614650577306747,
      0.8684635162353516,
      0.6361556649208069,
      0.1094760000705719,
      0.6701347231864929,
      0.5974974632263184,
      0.0018389435717836022,
      0.03196123614907265,
      0.05200190842151642,
      0.029272036626935005,
      0.045486390590667725,
      0.1413659304380417,
      0.020277678966522217,
      0.1706840544939041,
      0.08234074711799622,
      -0.19417189061641693,
      0.18471987545490265,
      -0.8512480854988098,
      -0.12252336740493774,
      -0.2686602473258972,
      -0.31830650568008423,
      -1.2948421239852905,
      -0.3511064350605011,
      0.047009047120809555,
      -0.2727702558040619,
      -0.5195287466049194,
      -0.36459171772003174,
      -0.48015227913856506,
      0.16834764182567596,
      0.48722541332244873,
      0.08376444876194,
      -0.09769260138273239,
      0.053303688764572144,
      0.47969716787338257,
      0.1942930966615677,
      0.060799576342105865,
      0.012540987692773342,
      0.031630683690309525,
      0.006531542167067528,
      0.10860089212656021,
      0.12536698579788208,
      0.17499123513698578,
      0.23369944095611572,
      -0.2826194763183594,
      -0.3132266700267792,
      -0.007364083547145128,
      -0.3142813444137573,
      0.010448331013321877,
      -0.04427722468972206,
      -1.256182074546814,
      -1.2732839584350586,
      -0.20823541283607483,
      -0.029534947127103806,
      -0.281546026468277,
      0.16661930084228516,
      -0.15502764284610748,
      -0.0681890994310379,
      -0.14900639653205872,
      -0.15163229405879974,
      0.031318485736846924,
      0.3444197177886963,
      0.5391832590103149,
      0.6127951145172119,
      0.14240576326847076,
      0.010061020962893963,
      0.005156028084456921,
      0.00438240822404623,
      0.07975385338068008,
      0.23379015922546387,
      0.5270598530769348,
      0.14431516826152802,
      -0.8623254895210266,
      0.18137066066265106,
      0.20512811839580536,
      -0.7022542953491211,
      -0.8752305507659912,
      -0.04204268008470535,
      -0.9897307753562927,
      -1.2392351627349854,
      -0.30656394362449646,
      0.25764402747154236,
      0.9046376347541809,
      0.7114892601966858,
      1.3436161279678345,
      0.0282669048756361,
      -0.2670472264289856,
      0.5232481360435486,
      -0.05585927516222,
      0.2093152403831482,
      0.23204247653484344,
      0.3533848822116852,
      0.06594838947057724,
      -0.0013697061222046614,
      -0.016756590455770493,
      0.050137899816036224,
      0.0637127086520195,
      0.4559347629547119,
      0.6721047759056091,
      0.21038885414600372,
      -0.12185528129339218,
      0.8636152148246765,
      0.46987080574035645,
      0.14679881930351257,
      0.07527753710746765,
      0.06240304559469223,
      0.0194147489964962,
      0.21825768053531647,
      0.06608688086271286,
      0.11630487442016602,
      0.258700966835022,
      0.26031190156936646,
      -0.27003055810928345,
      0.5628038048744202,
      0.2605113089084625,
      0.18819782137870789,
      0.0940672904253006,
      0.015387313440442085,
      -0.14796601235866547,
      0.14765653014183044,
      0.012305889278650284,
      0.034462928771972656,
      0.015321423299610615,
      0.05521967634558678,
      0.053227268159389496,
      0.41741064190864563,
      0.8986454010009766,
      0.7139449119567871,
      0.8086111545562744,
      0.5945862531661987,
      0.5872501730918884,
      1.2617247104644775,
      0.7012129426002502,
      0.35039636492729187,
      0.4579267203807831,
      0.11616668850183487,
      0.34561729431152344,
      -0.4905388057231903,
      0.24062950909137726,
      -0.9015750885009766,
      0.2721731960773468,
      -0.1288842409849167,
      0.0523168221116066,
      0.03493526950478554,
      -0.09141406416893005,
      -0.09773725271224976,
      -0.05685470998287201,
      0.08961137384176254,
      0.03514379635453224,
      0.002870835829526186,
      0.03552703559398651,
      -0.005740500055253506,
      0.06985653191804886,
      0.27289706468582153,
      0.5004932880401611,
      0.8018481135368347,
      0.3915773630142212,
      0.22513490915298462,
      0.3599364161491394,
      -0.14931583404541016,
      0.010283462703227997,
      0.9799395799636841,
      0.059390902519226074,
      -0.10359954088926315,
      0.43776193261146545,
      0.3409423232078552,
      0.41691938042640686,
      0.32745227217674255,
      0.5070799589157104,
      -0.5976316928863525,
      -0.6095970869064331,
      -0.1796722412109375,
      -0.4364636540412903,
      -0.17205987870693207,
      0.1937936544418335,
      0.12388896197080612,
      0.054964084178209305,
      0.0013372640823945403,
      0.043595314025878906,
      0.008348683826625347,
      0.058112334460020065,
      0.16229866445064545,
      0.017581786960363388,
      0.3898663818836212,
      0.5959295034408569,
      0.3063145875930786,
      0.13293948769569397,
      0.4083905518054962,
      0.07636163383722305,
      0.7536474466323853,
      0.7117011547088623,
      0.613969624042511,
      0.3824506998062134,
      0.14925959706306458,
      0.3935628831386566,
      -0.2405966967344284,
      -0.24654343724250793,
      -0.20424434542655945,
      -0.164994478225708,
      -0.40804725885391235,
      -0.25366392731666565,
      -0.3546384572982788,
      0.02305569127202034,
      0.06452929228544235,
      0.010759624652564526,
      0.01217771414667368,
      0.05145535618066788,
      0.032857745885849,
      0.03145968168973923,
      0.15826189517974854,
      0.18798404932022095,
      0.22319957613945007,
      0.6121202707290649,
      1.1357839107513428,
      0.3248949944972992,
      0.3337051570415497,
      -0.03299492225050926,
      0.404899924993515,
      -0.29775485396385193,
      -0.5118482112884521,
      -0.0323045440018177,
      0.05354024097323418,
      -0.7327355146408081,
      0.03747963905334473,
      -0.34529978036880493,
      -0.15618012845516205,
      -0.4438387453556061,
      -0.5742180347442627,
      -0.26399752497673035,
      -0.31452012062072754,
      -0.02017534337937832,
      0.029790615662932396,
      0.022095875814557076,
      0.01208657119423151,
      -0.0061011603102087975,
      -0.012882058508694172,
      -0.010105070658028126,
      0.19991202652454376,
      0.2651973366737366,
      0.36704397201538086,
      0.5502216815948486,
      0.7420620918273926,
      0.5798324346542358,
      0.7267212271690369,
      0.47270667552948,
      -0.08011140674352646,
      0.12400086224079132,
      0.44232985377311707,
      0.7608775496482849,
      0.26437869668006897,
      0.16882745921611786,
      0.4080950617790222,
      -0.39123162627220154,
      -1.1736888885498047,
      -1.118299961090088,
      -0.33929333090782166,
      -0.1451544463634491,
      -0.28374987840652466,
      0.02651018090546131,
      0.007307124324142933,
      0.013218720443546772,
      -0.009260009042918682,
      -0.0024336539208889008,
      0.015054590068757534,
      -0.015209636650979519,
      -0.006831036880612373,
      0.08921673893928528,
      0.17405816912651062,
      0.1405089795589447,
      0.24166713654994965,
      0.8610095977783203,
      0.782240629196167,
      0.3027544319629669,
      0.7748781442642212,
      0.9720578193664551,
      0.7513892650604248,
      0.18646004796028137,
      0.12041371315717697,
      0.21237915754318237,
      0.10927601903676987,
      -0.05767511948943138,
      -0.4179936945438385,
      -0.5951536297798157,
      -0.2575806677341461,
      -0.10697182267904282,
      -0.19553230702877045,
      -0.005784662440419197,
      0.027613414451479912,
      0.024461356922984123,
      0.01958075352013111,
      -0.013631888665258884,
      -0.0073735518380999565,
      0.03960669785737991,
      0.008495018817484379,
      -0.09319724142551422,
      -0.1386207640171051,
      -0.06144620105624199,
      0.039187099784612656,
      -0.1002223789691925,
      0.20414429903030396,
      0.2915576994419098,
      -0.17783665657043457,
      -0.38187915086746216,
      0.14195694029331207,
      0.18297116458415985,
      0.1301010698080063,
      0.45296841859817505,
      0.4316093921661377,
      0.4867566227912903,
      0.6808310747146606,
      0.1991865485906601,
      -0.13018493354320526,
      0.06034119799733162,
      -0.004230024758726358,
      -0.002964375074952841,
      0.015250490047037601,
      0.04680350422859192,
      0.04912257939577103,
      0.03488398343324661,
      0.01335835549980402,
      0.046273499727249146,
      -0.006989209912717342,
      0.03913299739360809,
      -0.006864693481475115,
      -0.0023348983377218246,
      -0.07442772388458252,
      0.001656562671996653,
      0.0784267708659172,
      0.13342313468456268,
      0.11656776815652847,
      0.11922487616539001,
      0.3089735209941864,
      0.2195541262626648,
      0.09648094326257706,
      0.15127219259738922,
      0.09753365814685822,
      0.07079103589057922,
      0.09046443551778793,
      0.030467143282294273,
      0.05880248546600342,
      0.0663389265537262,
      0.06961127370595932,
      -0.014427161775529385,
      -0.0043749031610786915,
      -0.0031993663869798183,
      -0.001840182114392519,
      -0.029437191784381866,
      0.009660983458161354,
      -0.06065560132265091,
      -0.02587902545928955,
      -0.06031515449285507,
      -0.02465173229575157,
      -0.060190506279468536,
      -5.428874865174294E-4,
      -0.03245403617620468,
      -0.03713003545999527,
      -0.036448098719120026,
      -0.02235759049654007,
      -0.0541938915848732,
      -0.049557022750377655,
      -0.032869644463062286,
      -0.018456101417541504,
      0.00897100381553173,
      0.007124376017600298,
      -0.047667913138866425,
      0.001683970564045012,
      -0.035531796514987946,
      -0.055649496614933014,
      -0.056993886828422546,
      -0.0198117196559906,
      -0.05993901938199997,
      -0.0026006298139691353,
      -0.02068692445755005,
      -0.03480691462755203,
      -0.011730587109923363,
      -0.05407371371984482,
      -0.013753550127148628,
      0.006277399603277445,
      -0.032374680042266846,
      -0.044061869382858276,
      -0.02378057688474655,
      -0.027722150087356567,
      -0.02418476715683937,
      -0.04919974505901337,
      0.018459800630807877,
      -0.04529267176985741,
      0.006463379133492708,
      -0.033183757215738297,
      -0.10792680829763412,
      -0.12454178929328918,
      -0.027107685804367065,
      -0.0022925548255443573,
      -0.017090391367673874,
      6.919602164998651E-4,
      0.02196572907269001,
      0.02764704078435898,
      -0.012320148758590221,
      -0.017651326954364777,
      -0.03664253652095795,
      0.0037844874896109104,
      0.0074846274219453335,
      -0.014658262953162193,
      -0.026023197919130325,
      -0.05548867583274841,
      -0.011664407327771187,
      -8.462131954729557E-4,
      -0.017045214772224426,
      -0.027353350073099136,
      -0.02741273120045662,
      -4.6163794468156993E-4,
      -0.006202186457812786,
      -1.1108923354186118E-4,
      -0.024917781352996826,
      -0.07126941531896591,
      -0.06258054822683334,
      -0.24586689472198486,
      -0.43595802783966064,
      -0.5944035649299622,
      -0.37577980756759644,
      -0.09700724482536316,
      0.014254828914999962,
      0.06800927221775055,
      0.09341160953044891,
      0.13668139278888702,
      0.05221986770629883,
      0.03420979902148247,
      -0.0598427951335907,
      -0.008235177025198936,
      0.003168798051774502,
      -0.006911305245012045,
      -0.020025502890348434,
      -0.025933887809515,
      -0.06763676553964615,
      0.008046338334679604,
      -0.037731047719717026,
      0.0015213858569040895,
      0.007968497462570667,
      0.027387335896492004,
      0.008258399553596973,
      0.027075614780187607,
      0.20077747106552124,
      0.24753814935684204,
      0.014886892400681973,
      -0.2594015300273895,
      -0.4856950640678406,
      -0.49969545006752014,
      -0.45112866163253784,
      -0.2723264992237091,
      0.20308241248130798,
      0.3295242190361023,
      0.3658910095691681,
      0.19676627218723297,
      0.1720813810825348,
      0.24021397531032562,
      0.1746796816587448,
      -0.00524217588827014,
      0.02608456090092659,
      -0.023024778813123703,
      -0.006398817058652639,
      -0.011404156684875488,
      -0.03360271453857422,
      -0.05384213104844093,
      0.02428250014781952,
      -0.02225455641746521,
      0.05430904030799866,
      0.15508531033992767,
      0.21062172949314117,
      0.1620587259531021,
      0.11844222992658615,
      0.13529495894908905,
      0.04109204560518265,
      -0.08265185356140137,
      -0.16311240196228027,
      -0.066807322204113,
      -0.273887574672699,
      -0.16155469417572021,
      -0.06707290560007095,
      0.038715966045856476,
      0.19734695553779602,
      0.31497445702552795,
      0.26884016394615173,
      0.3053528964519501,
      0.45388126373291016,
      0.16029676795005798,
      0.0182461217045784,
      0.04075492173433304,
      -0.02955174446105957,
      0.001191214774735272,
      -0.060971297323703766,
      0.021194901317358017,
      0.012344114482402802,
      0.04056161642074585,
      0.06238707900047302,
      0.185323566198349,
      0.21663330495357513,
      0.11805637180805206,
      -0.15407340228557587,
      -0.39694786071777344,
      -0.4169332683086395,
      -0.6310997009277344,
      -0.3381965458393097,
      -0.2449161410331726,
      -0.1824209988117218,
      -0.12569917738437653,
      -0.5726174116134644,
      -0.2180241495370865,
      0.23713622987270355,
      -0.17634104192256927,
      -0.07077944278717041,
      0.2735600769519806,
      0.32907265424728394,
      0.3877541720867157,
      0.08034710586071014,
      3.9310569991357625E-4,
      -0.013494523242115974,
      -0.019238900393247604,
      -0.01930369809269905,
      -0.025527983903884888,
      0.05384698882699013,
      0.0879652351140976,
      0.054337821900844574,
      0.05479571968317032,
      0.020006714388728142,
      0.01519023161381483,
      -0.445564329624176,
      -0.782771110534668,
      -0.6925479173660278,
      -0.34162449836730957,
      -0.4498772621154785,
      -0.06495925784111023,
      -0.33270350098609924,
      -0.5798484086990356,
      -0.5274391770362854,
      -0.07652607560157776,
      -0.2684486210346222,
      -0.24443146586418152,
      0.01286655105650425,
      0.26114654541015625,
      0.39204153418540955,
      0.3320969045162201,
      0.004236846696585417,
      -2.3135467199608684E-4,
      -0.055514492094516754,
      -0.030740220099687576,
      -0.03287387266755104,
      0.017768580466508865,
      -0.03450949862599373,
      -0.0020849816501140594,
      -0.009460942819714546,
      -0.15655086934566498,
      -0.13376517593860626,
      -0.10676156729459763,
      -0.22329483926296234,
      -0.5728135704994202,
      -0.7022154331207275,
      -0.6164726614952087,
      -0.6750884652137756,
      -0.3264027237892151,
      -0.1788826584815979,
      -0.0747077614068985,
      -0.01496026199311018,
      -0.25246596336364746,
      -0.3276008367538452,
      -0.23144076764583588,
      -0.16368405520915985,
      0.22689741849899292,
      0.4930477738380432,
      0.261188268661499,
      0.08212867379188538,
      0.0026977937668561935,
      -0.01009406428784132,
      -0.05323474109172821,
      -0.04906998574733734,
      -0.07270392775535583,
      -0.07074154168367386,
      -0.11934012174606323,
      -0.058862507343292236,
      -0.1548534631729126,
      -0.22346968948841095,
      -0.36142697930336,
      -0.3236809968948364,
      -0.5519038438796997,
      -0.4422292113304138,
      -0.2690417766571045,
      -0.28776589035987854,
      -0.26310816407203674,
      0.6061404347419739,
      0.015047162771224976,
      0.039185743778944016,
      -0.00591037655249238,
      0.06453018635511398,
      0.025276130065321922,
      -0.01557687297463417,
      0.3764774203300476,
      0.4755959212779999,
      0.3547370433807373,
      0.08504136651754379,
      0.0017374713206663728,
      -0.0017404783284291625,
      0.008367439731955528,
      0.0033242900390177965,
      -0.03645593300461769,
      0.0016286862082779408,
      -0.05314254015684128,
      -0.08777990937232971,
      -0.3180105686187744,
      -0.2261926531791687,
      -0.4360352158546448,
      -0.6407811641693115,
      -0.25782090425491333,
      0.09756551682949066,
      0.2582099735736847,
      0.49434927105903625,
      -0.11412752419710159,
      0.2260226160287857,
      0.44633468985557556,
      0.3824276924133301,
      0.2779470980167389,
      0.25534310936927795,
      0.0025918534956872463,
      0.3135004937648773,
      0.5540002584457397,
      0.5233860611915588,
      0.4644041359424591,
      0.15900620818138123,
      0.017294157296419144,
      -0.046821460127830505,
      -0.03908773511648178,
      -0.006363342981785536,
      0.05750555545091629,
      0.05560319870710373,
      3.194207092747092E-4,
      -0.04352536052465439,
      -0.285540372133255,
      -0.34715327620506287,
      -0.422942578792572,
      -0.3739722967147827,
      -0.20777232944965363,
      -0.06283099949359894,
      0.6440190076828003,
      0.6965993046760559,
      -0.20861698687076569,
      -0.3935885727405548,
      -0.17170652747154236,
      0.15873420238494873,
      0.23699511587619781,
      0.4277522563934326,
      0.2395295947790146,
      0.44174355268478394,
      0.6111501455307007,
      0.5693961977958679,
      0.38755086064338684,
      0.18556173145771027,
      0.040729884058237076,
      -0.0062511456198990345,
      0.008992035873234272,
      -0.001964661991223693,
      0.09457118064165115,
      0.08287319540977478,
      -0.06749249994754791,
      -0.11008826643228531,
      -0.21198220551013947,
      -0.28687021136283875,
      -0.35066068172454834,
      -0.32848408818244934,
      -0.27517572045326233,
      0.05372249335050583,
      0.5182065963745117,
      0.7126916646957397,
      -0.2209901660680771,
      -0.5953262448310852,
      -0.2230822890996933,
      -0.23679278790950775,
      0.29276546835899353,
      0.17822343111038208,
      0.34972161054611206,
      0.5207991600036621,
      0.6380173563957214,
      0.5494944453239441,
      0.2710825204849243,
      0.10207297652959824,
      -0.05420563369989395,
      -0.011820292100310326,
      -0.023803547024726868,
      -0.023459846153855324,
      0.050765179097652435,
      0.11082771420478821,
      0.06874168664216995,
      -0.06557971984148026,
      -0.08072740584611893,
      -0.43675732612609863,
      -0.3195991516113281,
      -0.1944999098777771,
      -0.0918973907828331,
      -0.05620156228542328,
      0.5694408416748047,
      0.12713295221328735,
      -0.3152502477169037,
      -0.6095004677772522,
      -0.3699943423271179,
      -0.42152997851371765,
      -0.20218029618263245,
      -0.15218669176101685,
      -0.20664437115192413,
      0.08584713935852051,
      0.09033072739839554,
      -0.015436457470059395,
      0.10529696941375732,
      0.020794857293367386,
      -0.07376180589199066,
      -0.054008014500141144,
      -0.04547424614429474,
      -0.003246626816689968,
      0.003677177708595991,
      0.06879846006631851,
      0.07240559160709381,
      -0.07446491718292236,
      -0.10332802683115005,
      -0.3198627531528473,
      -0.29912087321281433,
      -0.15611153841018677,
      0.14450353384017944,
      0.18786676228046417,
      0.14159347116947174,
      -0.46435436606407166,
      -0.40214836597442627,
      -0.1650063693523407,
      -0.9427761435508728,
      -0.6782300472259521,
      -0.5770063400268555,
      -0.4652896225452423,
      -0.4112095832824707,
      -0.23963159322738647,
      -0.036026932299137115,
      -0.06401771306991577,
      -0.06067952886223793,
      -0.0408325158059597,
      -0.03343269228935242,
      -0.03957521915435791,
      -0.009617220610380173,
      -0.01164183672517538,
      -0.02886648289859295,
      -0.005676524713635445,
      0.0373520590364933,
      0.04064371809363365,
      -0.11734737455844879,
      -0.10753081738948822,
      -0.30120065808296204,
      0.006916867569088936,
      0.06288474798202515,
      -0.07137354463338852,
      0.18881097435951233,
      -0.5980086326599121,
      -0.19135688245296478,
      -0.1832759529352188,
      -0.7178077697753906,
      -0.7660529017448425,
      -0.46162480115890503,
      -0.24969403445720673,
      -0.27236858010292053,
      -0.29742515087127686,
      -0.2740667760372162,
      -0.28433123230934143,
      -0.14979694783687592,
      -0.1144302487373352,
      -0.03897497057914734,
      -0.00483630271628499,
      -0.0246296264231205,
      -0.059549495577812195,
      -0.01576954685151577,
      0.009988254867494106,
      0.07227165997028351,
      0.1734219789505005,
      0.12490241974592209,
      -0.10071055591106415,
      -0.2854599952697754,
      -0.40753448009490967,
      -0.5612220168113708,
      -0.13697010278701782,
      -0.21223929524421692,
      -0.32399311661720276,
      0.14994534850120544,
      -0.374521940946579,
      -0.34070873260498047,
      -0.3430933952331543,
      -0.24612422287464142,
      -0.09446004778146744,
      -0.3228136897087097,
      -0.269925594329834,
      -0.16966193914413452,
      -0.1825527846813202,
      -0.16147829592227936,
      -0.1197085976600647,
      -0.019151922315359116,
      -0.014442229643464088,
      -0.022422458976507187,
      -0.005848209839314222,
      0.03145414590835571,
      0.10481274873018265,
      0.12688882648944855,
      0.21810677647590637,
      0.16748414933681488,
      0.003983671776950359,
      -0.3763448894023895,
      -0.4035215675830841,
      -0.51779705286026,
      0.0902557373046875,
      -0.3926740884780884,
      -0.2382383495569229,
      0.32153838872909546,
      -0.29459527134895325,
      0.2918151319026947,
      -0.02170656993985176,
      -0.24658794701099396,
      -0.24064986407756805,
      -0.5492351055145264,
      -0.28585562109947205,
      -0.1711159348487854,
      -0.1391642838716507,
      -0.09477314352989197,
      -0.12888363003730774,
      -0.046147994697093964,
      -0.031468190252780914,
      -0.053306423127651215,
      0.0032508010044693947,
      -0.008888887241482735,
      0.05310816317796707,
      0.11786558479070663,
      0.3031037151813507,
      0.30662861466407776,
      0.17128001153469086,
      0.2833561301231384,
      -0.06872813403606415,
      -0.15782618522644043,
      -0.5733314156532288,
      -0.5866361260414124,
      0.2308255434036255,
      0.3400718569755554,
      0.5152097344398499,
      0.7885388135910034,
      -0.10420498251914978,
      -0.306671679019928,
      -0.4615152180194855,
      -0.5361446142196655,
