{
  "InputNodes": 784,
  "OutputNodes": 10,
  "OutputBias": {
    "data": [
      -1.4052773714065552,
      -0.15744587779045105,
      -0.7333242297172546,
      -1.942349910736084,
      -1.3448959589004517,
      -0.7185685634613037,
      -1.6246602535247803,
      0.02214031107723713,
      -3.6194822788238525,
      -1.968513011932373
    ],
    "rows": 10,
    "cols": 1
  },
  "HiddenWeights-0": {
    "data": [
      0.011635384522378445,
      0.023864930495619774,
      0.009529651142656803,
      -0.023331863805651665,
      -0.021972639486193657,
      0.022613121196627617,
      0.029864495620131493,
      0.025946510955691338,
      -0.018324384465813637,
      0.0221878532320261,
      0.007839416153728962,
      -0.004789977800101042,
      0.008016658015549183,
      -0.02202734909951687,
      -0.023093948140740395,
      0.028874987736344337,
      0.009661001153290272,
      0.019444437697529793,
      0.03460761532187462,
      0.0225782860070467,
      -0.012491581030189991,
      0.02223351038992405,
      -0.01534919161349535,
      -0.008958526886999607,
      0.00735211418941617,
      -0.01775587536394596,
      0.01649613492190838,
      -0.01856253109872341,
      -0.009897693060338497,
      -0.020801430568099022,
      -0.006251475773751736,
      -0.010885176248848438,
      -0.015721715986728668,
      -0.007614238653331995,
      0.023818040266633034,
      -5.655022105202079E-4,
      -0.01675247773528099,
      -8.646881906315684E-4,
      0.011684062890708447,
      -0.06913310289382935,
      -0.038563620299100876,
      -0.01860698126256466,
      -0.0319882370531559,
      -0.03725937008857727,
      -0.029810389503836632,
      -0.0071070813573896885,
      0.005585741251707077,
      -0.009913359768688679,
      -0.025096533820033073,
      0.02058001048862934,
      -0.03987017646431923,
      -0.02098623849451542,
      0.0060540735721588135,
      0.007578332908451557,
      -0.020165851339697838,
      0.019361348822712898,
      -0.035061243921518326,
      0.0043635317124426365,
      0.03373822942376137,
      -0.012707291170954704,
      -0.030892914161086082,
      -0.012615141458809376,
      -0.0010611288016662002,
      -0.022186821326613426,
      -0.08245570957660675,
      -0.05061262845993042,
      -0.02004506252706051,
      -0.04748954623937607,
      -0.22711431980133057,
      -0.33725303411483765,
      -0.4407678544521332,
      -0.46618714928627014,
      -0.31743019819259644,
      -0.08635778725147247,
      0.09362387657165527,
      -0.029895883053541183,
      -0.08340456336736679,
      -0.07638292014598846,
      -0.011713682673871517,
      -0.02642970345914364,
      -0.004047673661261797,
      -0.013389517553150654,
      0.026141369715332985,
      0.028280550613999367,
      0.03162050247192383,
      -0.019963296130299568,
      -0.02258380316197872,
      0.018725167959928513,
      0.010075800120830536,
      -0.025524267926812172,
      -0.05984548479318619,
      -0.051243752241134644,
      -0.1415402889251709,
      -0.008210771717131138,
      -0.011644965969026089,
      -0.5546015501022339,
      -0.6658696532249451,
      -0.5161076188087463,
      -0.33850449323654175,
      -0.5024040937423706,
      -0.5034979581832886,
      -0.10406845062971115,
      0.5028546452522278,
      0.8714686632156372,
      0.6972107291221619,
      0.6951168179512024,
      0.20873776078224182,
      -0.2711487412452698,
      -0.2292252779006958,
      -0.02779574505984783,
      0.00958994124084711,
      -0.02954309619963169,
      -0.026922104880213737,
      0.02764234133064747,
      -0.003955697640776634,
      -0.03903869912028313,
      -0.061253324151039124,
      -0.2214849293231964,
      -0.22250354290008545,
      -0.4793103039264679,
      -0.9165207743644714,
      -0.5115644335746765,
      -0.2152521163225174,
      0.0445873998105526,
      -0.01005681324750185,
      -0.05248381942510605,
      -0.19217827916145325,
      0.2924349009990692,
      0.8511245250701904,
      0.20629413425922394,
      0.2240416407585144,
      0.29884886741638184,
      0.28913676738739014,
      0.44495952129364014,
      0.3441219925880432,
      0.44123148918151855,
      0.2949254512786865,
      0.13614334166049957,
      0.04595984145998955,
      0.005169310607016087,
      -0.0019857222214341164,
      0.02665955014526844,
      0.023699844256043434,
      -0.05338567867875099,
      -0.3237966299057007,
      -0.38604146242141724,
      -0.7099056839942932,
      -1.1042283773422241,
      -0.7655586004257202,
      0.3689451515674591,
      0.46026816964149475,
      -0.06897810846567154,
      -0.30661123991012573,
      -0.11767201125621796,
      -0.004648929461836815,
      -0.1159742921590805,
      0.3562929034233093,
      0.4198770523071289,
      0.6329181790351868,
      -0.42978328466415405,
      0.5617595314979553,
      0.5830962657928467,
      0.676655113697052,
      0.7155073881149292,
      0.7128567099571228,
      0.3006814420223236,
      0.030764879658818245,
      0.04652901738882065,
      0.017281977459788322,
      0.020961200818419456,
      0.04528957977890968,
      -0.2080720216035843,
      -0.4126861095428467,
      -0.20202364027500153,
      -0.5595743060112,
      -0.5694214701652527,
      -0.29806971549987793,
      0.05656896159052849,
      0.25103917717933655,
      -0.18837293982505798,
      -0.32442474365234375,
      -0.4706367552280426,
      0.11013944447040558,
      -0.0625365599989891,
      0.10391664505004883,
      0.1273774951696396,
      0.3921756446361542,
      1.0928728580474854,
      0.8746628761291504,
      0.8714740872383118,
      0.3811768591403961,
      0.7053794860839844,
      1.0590640306472778,
      0.5210146903991699,
      0.1709671914577484,
      0.07240083068609238,
      -0.006597786210477352,
      -0.03995382785797119,
      0.0325625017285347,
      -0.27864667773246765,
      -0.5272136926651001,
      -0.08959822356700897,
      -0.28585031628608704,
      -0.33210843801498413,
      0.3175017535686493,
      0.1681903898715973,
      0.23591908812522888,
      -0.20289579033851624,
      0.1007022112607956,
      -0.01247546449303627,
      0.09495415538549423,
      0.022132301703095436,
      0.34668198227882385,
      0.7348942756652832,
      0.8340208530426025,
      1.1021618843078613,
      1.077371597290039,
      0.5593010187149048,
      0.9161227345466614,
      0.8297094702720642,
      0.9925037026405334,
      0.6328487992286682,
      0.1455172598361969,
      0.031906455755233765,
      0.026162164285779,
      -0.005107935518026352,
      0.09489740431308746,
      -0.1336147040128708,
      -0.48623812198638916,
      -0.07828142493963242,
      -0.1992647796869278,
      -0.13518239557743073,
      0.023716386407613754,
      0.6038857698440552,
      0.15264669060707092,
      0.6892499923706055,
      0.06617533415555954,
      -0.6993152499198914,
      -0.17210127413272858,
      0.20234939455986023,
      0.2786547839641571,
      0.9018493294715881,
      0.21534588932991028,
      0.36316031217575073,
      0.5201561450958252,
      0.5165664553642273,
      0.5918404459953308,
      0.780110776424408,
      0.8350352048873901,
      0.5511715412139893,
      0.028587570413947105,
      -0.014021986164152622,
      -0.016429899260401726,
      0.042895060032606125,
      0.08188711106777191,
      -0.038696687668561935,
      -0.07405735552310944,
      -0.1292841136455536,
      -0.41029566526412964,
      -0.3611735701560974,
      -0.13158340752124786,
      -0.045721378177404404,
      -0.25019586086273193,
      0.4454708695411682,
      -0.5116691589355469,
      -0.8317750692367554,
      -0.8800802230834961,
      -1.2112197875976562,
      -1.0914539098739624,
      -1.3637125492095947,
      -1.3157069683074951,
      -1.468561053276062,
      -1.6564477682113647,
      -0.6463411450386047,
      -0.8094825148582458,
      -0.6761972904205322,
      -0.11408745497465134,
      0.09164118766784668,
      0.02385798655450344,
      -0.012205242179334164,
      0.03227360546588898,
      0.03151050955057144,
      0.1216043159365654,
      -0.043949324637651443,
      0.08732584118843079,
      -0.26452985405921936,
      -0.32423004508018494,
      -0.012790597043931484,
      0.012583492323756218,
      0.6257137060165405,
      -0.007928888313472271,
      -0.2532441318035126,
      -0.535430908203125,
      -0.5686936974525452,
      -1.180260181427002,
      -1.1172585487365723,
      -1.51016104221344,
      -2.718596935272217,
      -3.729339838027954,
      -3.5197670459747314,
      -2.7710821628570557,
      -2.0580694675445557,
      -2.061915874481201,
      -2.0924901962280273,
      -0.9912351965904236,
      -0.1442166566848755,
      0.034182850271463394,
      0.00743207149207592,
      0.020924853160977364,
      -0.010401413775980473,
      0.15291546285152435,
      0.03435501456260681,
      0.031019099056720734,
      -0.2438851296901703,
      0.07625763863325119,
      0.4172872304916382,
      -0.11213365942239761,
      0.09548180550336838,
      0.0706879273056984,
      -0.531079888343811,
      -0.586641252040863,
      -0.06543514132499695,
      -0.3862816095352173,
      -0.2561354339122772,
      0.33624738454818726,
      -0.10268174111843109,
      -1.0511878728866577,
      -2.2855255603790283,
      -3.252487897872925,
      -2.6270651817321777,
      -2.7813501358032227,
      -2.4004054069519043,
      -1.517270565032959,
      -0.27725541591644287,
      -0.02665354311466217,
      -0.025402696803212166,
      -0.011424806900322437,
      0.031749702990055084,
      0.11229895055294037,
      0.053862471133470535,
      -0.1817210614681244,
      -0.2248210906982422,
      -0.01768648251891136,
      0.05282062664628029,
      0.042068514972925186,
      -0.5693345069885254,
      0.027477150782942772,
      -0.31588420271873474,
      -0.526445209980011,
      0.27118128538131714,
      -0.3795573115348816,
      -0.13612967729568481,
      0.5265368819236755,
      0.8598220944404602,
      0.8741989135742188,
      0.0645274817943573,
      -1.525488257408142,
      -2.0671136379241943,
      -2.215367078781128,
      -2.1996920108795166,
      -1.2520672082901,
      -0.2577318251132965,
      -0.01971621997654438,
      -0.005132740363478661,
      -0.0017125357408076525,
      0.0038114944472908974,
      0.07007633149623871,
      -0.03498760610818863,
      -0.053185105323791504,
      0.19805364310741425,
      -0.143776074051857,
      -0.09236779063940048,
      -0.3519796133041382,
      -0.2914985418319702,
      0.1492723822593689,
      0.41957515478134155,
      0.06474441289901733,
      -0.2087361216545105,
      -0.4681970477104187,
      0.11494334787130356,
      -0.26959460973739624,
      0.5642539262771606,
      -0.1624734103679657,
      -0.24599020183086395,
      0.2797887325286865,
      -0.4469825029373169,
      -0.8632810711860657,
      -1.1437883377075195,
      -0.7651996612548828,
      -0.1745530068874359,
      -0.010600228793919086,
      0.004038258455693722,
      -0.009452753700315952,
      -0.013780024833977222,
      0.0011442808900028467,
      -0.12673832476139069,
      0.18543364107608795,
      0.3235381245613098,
      -0.055929120630025864,
      0.11042026430368423,
      -0.009485381655395031,
      -0.351432740688324,
      -0.09830715507268906,
      0.05307762324810028,
      0.3466860055923462,
      -0.946987509727478,
      -0.014779666438698769,
      0.10409850627183914,
      0.11246584355831146,
      -0.25932490825653076,
      0.18674010038375854,
      -0.037974175065755844,
      0.5527291893959045,
      0.0046910750679671764,
      -0.024696551263332367,
      -0.2564864754676819,
      -0.4055482745170593,
      -0.16071905195713043,
      -0.009969924576580524,
      0.03350100293755531,
      0.0036457933019846678,
      -0.06618925929069519,
      -0.03209693729877472,
      0.012410095892846584,
      -0.06658707559108734,
      0.11068986356258392,
      -0.22144107520580292,
      -0.20303389430046082,
      -0.006619574502110481,
      -0.14207156002521515,
      -0.2082308679819107,
      -0.22886410355567932,
      0.2998024523258209,
      -0.7556905746459961,
      -0.37363752722740173,
      -0.34818509221076965,
      -0.10378949344158173,
      0.583298921585083,
      0.39363935589790344,
      -0.019089210778474808,
      0.11709336936473846,
      -0.12686116993427277,
      0.012677256017923355,
      -0.0837511420249939,
      -0.07951275259256363,
      -0.010567848570644855,
      0.07721671462059021,
      -0.030345989391207695,
      -0.017964119091629982,
      -0.036193203181028366,
      -0.08688915520906448,
      0.0010313598904758692,
      -0.3527033030986786,
      -0.5685167908668518,
      -0.546378493309021,
      -0.46689310669898987,
      0.24878521263599396,
      -0.28277212381362915,
      -0.5031701326370239,
      -0.2780814468860626,
      -0.02249024622142315,
      -0.21099211275577545,
      -0.4673100411891937,
      0.4916501045227051,
      0.5164834260940552,
      0.3942490816116333,
      -0.2664085626602173,
      0.3029487729072571,
      0.3399283289909363,
      0.44774484634399414,
      0.38245901465415955,
      -0.15970803797245026,
      0.05564615875482559,
      0.09010640531778336,
      0.052107494324445724,
      -0.025162817910313606,
      -0.03387051448225975,
      -0.03314094990491867,
      -0.0941932424902916,
      -0.05439576134085655,
      0.10307592898607254,
      -0.3311270475387573,
      0.16877979040145874,
      -0.13149163126945496,
      -0.03277510404586792,
      0.20822645723819733,
      -0.19843535125255585,
      -0.6759213209152222,
      -0.5812366008758545,
      -0.14388838410377502,
      -0.11160600185394287,
      0.35874035954475403,
      0.031028805300593376,
      0.6144708395004272,
      0.7774670124053955,
      0.17211177945137024,
      0.42981186509132385,
      0.14429867267608643,
      0.2751123309135437,
      -0.20833845436573029,
      0.4746125042438507,
      0.2767372131347656,
      0.03755740076303482,
      -0.040848150849342346,
      -0.008152823895215988,
      -0.01424387376755476,
      -0.0335078127682209,
      -0.20130735635757446,
      0.32689687609672546,
      -0.13514648377895355,
      0.031570736318826675,
      0.2941778898239136,
      -0.06536515057086945,
      -0.17270517349243164,
      -0.2839049994945526,
      -1.30987548828125,
      -0.6144341230392456,
      0.05784003809094429,
      0.5263321399688721,
      0.04687293991446495,
      -0.06505774706602097,
      0.3960437774658203,
      0.07013854384422302,
      -0.21594220399856567,
      0.3779822587966919,
      -0.0284177977591753,
      -0.10721828788518906,
      0.10508459806442261,
      0.782354474067688,
      0.11948709934949875,
      0.033559516072273254,
      -0.009152037091553211,
      0.024982532486319542,
      -0.01582196354866028,
      0.08587110787630081,
      -0.09420274943113327,
      0.3436257243156433,
      0.1469912976026535,
      0.1866791546344757,
      0.20381277799606323,
      0.6382260918617249,
      0.21318843960762024,
      -0.14360231161117554,
      0.2625749707221985,
      -0.11832304298877716,
      0.15037332475185394,
      0.5847851037979126,
      -0.22886817157268524,
      -0.5704196095466614,
      -0.05914306640625,
      -0.0573296844959259,
      -0.21207009255886078,
      0.23006124794483185,
      0.20565606653690338,
      -0.16411466896533966,
      0.15451668202877045,
      0.6920114159584045,
      0.1432759165763855,
      0.005768314469605684,
      -0.018917018547654152,
      0.01415546890348196,
      0.006411783397197723,
      0.04849613085389137,
      -0.08631835877895355,
      0.4149658679962158,
      0.3272736370563507,
      -0.2627432942390442,
      -0.0655127763748169,
      0.1364145427942276,
      -0.2502000629901886,
      -0.05752461031079292,
      0.5000199675559998,
      0.34288904070854187,
      -0.14988818764686584,
      -0.29599276185035706,
      0.17071202397346497,
      -0.020316725596785545,
      -0.0031701773405075073,
      -0.1986701339483261,
      0.3918952941894531,
      -0.2625577449798584,
      0.2931436598300934,
      -0.02224995754659176,
      0.019640333950519562,
      0.2809045612812042,
      0.18037846684455872,
      -0.006306203082203865,
      -0.008170925080776215,
      -0.0169034656137228,
      0.011833149008452892,
      -0.06326928734779358,
      -0.09720700234174728,
      0.4133283495903015,
      0.34481167793273926,
      -0.47020718455314636,
      -0.06341950595378876,
      -0.1300564855337143,
      -0.10215301811695099,
      0.5259009003639221,
      0.5527412295341492,
      0.6065284609794617,
      0.49431121349334717,
      0.17703768610954285,
      0.5351338386535645,
      0.11912067979574203,
      0.47940975427627563,
      0.057511620223522186,
      0.22554200887680054,
      0.486002653837204,
      0.48961374163627625,
      0.1841769516468048,
      0.08246070146560669,
      0.2741611897945404,
      0.2188788652420044,
      -0.021292002871632576,
      0.021500958129763603,
      0.002857273444533348,
      -0.007023372687399387,
      -0.047847963869571686,
      -0.14772066473960876,
      0.22839127480983734,
      -0.173228919506073,
      -0.5175495743751526,
      -0.1876181960105896,
      -0.025019492954015732,
      0.037961866706609726,
      -0.09640976786613464,
      -0.0902445837855339,
      0.34567806124687195,
      0.03693278506398201,
      0.5207066535949707,
      0.5083848237991333,
      0.32326123118400574,
      0.21294847130775452,
      -0.018902182579040527,
      0.2677946984767914,
      -0.2625097930431366,
      -0.015406999737024307,
      0.0942654237151146,
      0.18308672308921814,
      0.15586426854133606,
      0.08325277268886566,
      0.030891433358192444,
      0.0275313388556242,
      -0.030833927914500237,
      -0.03540372475981712,
      -0.10211615264415741,
      -0.20224511623382568,
      0.02673487178981304,
      0.06893285363912582,
      0.21571248769760132,
      -0.16978678107261658,
      -0.09589710086584091,
      0.10394458472728729,
      0.023449135944247246,
      -0.5806293487548828,
      -0.43728095293045044,
      -0.7773087620735168,
      0.511871874332428,
      0.042220406234264374,
      0.044887788593769073,
      -0.5415627360343933,
      -0.662262499332428,
      -0.41476455330848694,
      -0.12624531984329224,
      0.0074823712930083275,
      0.09105408936738968,
      0.055165234953165054,
      -0.10541633516550064,
      0.05779695510864258,
      0.009816923178732395,
      -0.027303176000714302,
      -0.02350725792348385,
      -0.011900442652404308,
      -0.05551954731345177,
      -0.1996253877878189,
      -0.28411319851875305,
      -0.09607061743736267,
      0.10043897479772568,
      -0.2375074028968811,
      -0.08988844603300095,
      0.22535398602485657,
      -0.1898057460784912,
      -0.24092815816402435,
      0.17859049141407013,
      0.14511902630329132,
      0.4995458424091339,
      0.455036997795105,
      0.2075522392988205,
      0.3311218321323395,
      0.1943105161190033,
      -0.2213154137134552,
      -0.2633819282054901,
      -0.27544865012168884,
      -0.005506476387381554,
      -0.04156826436519623,
      0.004577955696731806,
      0.03604109585285187,
      -0.027852868661284447,
      -0.013693136163055897,
      0.012049960903823376,
      8.779253112152219E-4,
      -0.01099181268364191,
      0.013179092667996883,
      -0.062256284058094025,
      -0.18997085094451904,
      -0.11279882490634918,
      -0.05701040104031563,
      -0.41434529423713684,
      -0.19090689718723297,
      -0.07420004159212112,
      0.14200112223625183,
      0.2180698812007904,
      -0.1322624534368515,
      0.16335409879684448,
      0.5461410284042358,
      0.4734111428260803,
      0.21488401293754578,
      -0.060536399483680725,
      -0.15823505818843842,
      -0.3403834402561188,
      -0.04680471867322922,
      0.12837667763233185,
      0.050349585711956024,
      -0.025441298261284828,
      0.02096349187195301,
      0.028247376903891563,
      0.014116656966507435,
      0.010948427952826023,
      0.009456423111259937,
      0.024239061400294304,
      0.026018856093287468,
      0.004849095828831196,
      -0.04156055301427841,
      -0.05791524797677994,
      0.0032333633862435818,
      -0.05722774192690849,
      -0.21850460767745972,
      -0.1759202927350998,
      -0.12233427911996841,
      -0.2422696053981781,
      -0.03914125636219978,
      -0.1527969092130661,
      -0.06620300561189651,
      0.11726406216621399,
      -0.09458743035793304,
      -0.12024806439876556,
      -0.027340920642018318,
      -0.10795493423938751,
      -0.013567681424319744,
      0.006540187634527683,
      -0.03234885260462761,
      0.016885342076420784,
      -0.03322969004511833,
      -0.003593029920011759,
      0.005993972532451153,
      0.021504024043679237,
      -0.015301902778446674,
      -0.02502588741481304,
      -0.02003760077059269,
      -0.012787924148142338,
      -0.010367712937295437,
      -0.002413683570921421,
      -0.005938605405390263,
      -0.04108628258109093,
      0.011682518757879734,
      0.05061821639537811,
      0.027084244415163994,
      0.05337877571582794,
      0.04172852262854576,
      0.012959557585418224,
      0.0778895914554596,
      0.05405544489622116,
      0.02717719040811062,
      0.01778453402221203,
      -0.015305687673389912,
      -0.040327709168195724,
      0.013276509009301662,
      0.02150031365454197,
      -0.020565511658787727,
      0.015097244642674923,
      -0.011297213844954967,
      -0.010013568215072155,
      0.0015388175379484892,
      -0.02499561570584774,
      -0.003218746744096279,
      -0.018307099118828773,
      -0.04489358887076378,
      -0.028261391445994377,
      -0.023111002519726753,
      -0.008455508388578892,
      0.004665416665375233,
      -0.05294788256287575,
      -0.024758270010352135,
      0.004863794427365065,
      -0.01675373874604702,
      -0.011676120571792126,
      -0.03608585521578789,
      -0.009803513996303082,
      -0.048919472843408585,
      -0.04020312801003456,
      0.004376921337097883,
      -0.05621354654431343,
      0.0049353730864822865,
      0.013973920606076717,
      0.003039277158677578,
      -0.005368147976696491,
      -0.04455561563372612,
      0.007150585763156414,
      -0.002954329364001751,
      -0.05459998920559883,
      0.006630036048591137,
      -0.023997893556952477,
      -0.04804014042019844,
      -0.04065216705203056,
      -0.011206758208572865,
      -0.03686172887682915,
      -0.03272434324026108,
      0.057997461408376694,
      0.16064202785491943,
      0.07758266478776932,
      0.0146178612485528,
      0.04197084531188011,
      0.021607158705592155,
      0.06569172441959381,
      0.003992145415395498,
      0.02095402032136917,
      0.031689371913671494,
      -0.030702684074640274,
      -0.01818069815635681,
      -0.007340623531490564,
      0.0025287391617894173,
      -0.014060204848647118,
      -0.013894652016460896,
      -0.04550710693001747,
      -0.023250607773661613,
      0.003154423553496599,
      -0.033068958669900894,
      -0.0026031588204205036,
      -0.05711895599961281,
      -0.02534276805818081,
      0.0024046176113188267,
      -0.054405976086854935,
      -0.0010579208610579371,
      -0.013079006224870682,
      -0.01989067532122135,
      0.06897065788507462,
      0.2630557417869568,
      0.24199670553207397,
      0.2218414545059204,
      0.26253700256347656,
      0.25296908617019653,
      0.3582786023616791,
      0.22926975786685944,
      0.2944720387458801,
      0.2875306010246277,
      0.3673137426376343,
      0.3738649785518646,
      0.3375123143196106,
      0.10319116711616516,
      0.13232609629631042,
      0.15593484044075012,
      0.08970000594854355,
      0.00876233447343111,
      -0.012335509993135929,
      -0.02953152172267437,
      -0.05536709353327751,
      -0.010935467667877674,
      -0.041913945227861404,
      0.0029244469478726387,
      0.016747990623116493,
      -0.0021992020774632692,
      0.008479714393615723,
      0.08757293969392776,
      0.12114479392766953,
      0.3480455279350281,
      0.3547185957431793,
      0.4479164481163025,
      0.34058722853660583,
      0.3198845684528351,
      0.537368893623352,
      0.3091060221195221,
      0.2874688506126404,
      0.6064224243164062,
      0.7261070609092712,
      1.0496906042099,
      0.9253694415092468,
      0.14738407731056213,
      0.08299603313207626,
      0.025300579145550728,
      0.1513146013021469,
      0.10278024524450302,
      0.05342833697795868,
      -0.021473819389939308,
      -0.05197513848543167,
      0.010280241258442402,
      -0.05684274807572365,
      -0.004153814632445574,
      0.010168404318392277,
      -0.004887992050498724,
      0.006003060843795538,
      0.3149178922176361,
      0.43948930501937866,
      0.5727543830871582,
      0.7115356922149658,
      0.36186447739601135,
      0.46814122796058655,
      0.5946469902992249,
      0.7275707125663757,
      0.6650140881538391,
      1.146032691001892,
      0.48375582695007324,
      0.34388694167137146,
      0.04583439603447914,
      -0.5090360045433044,
      -0.6226890683174133,
      -0.39535588026046753,
      -0.4314744770526886,
      -0.4249390661716461,
      -0.368900865316391,
      -0.16458965837955475,
      -0.028921646997332573,
      0.014979059807956219,
      -0.0012763793347403407,
      -0.0013432616833597422,
      -0.005592597648501396,
      -0.04546167328953743,
      0.0749691054224968,
      0.3276914656162262,
      0.6283237934112549,
      0.4696776270866394,
      0.5901614427566528,
      0.5939851999282837,
      0.11347067356109619,
      -0.2806438207626343,
      0.17838624119758606,
      0.2790340185165405,
      -0.41698166728019714,
      0.5204574465751648,
      0.0964912697672844,
      0.2810875475406647,
      0.2082369029521942,
      -0.26595377922058105,
      -0.28206339478492737,
      -0.4514153003692627,
      -0.49978941679000854,
      -0.24219490587711334,
      -0.17270340025424957,
      -0.18396322429180145,
      -0.08229895681142807,
      -0.01731114462018013,
      -0.0027509666979312897,
      -0.03021368198096752,
      0.006436023861169815,
      -0.03236889839172363,
      0.1389649659395218,
      0.42465874552726746,
      0.1513533592224121,
      0.12724260985851288,
      0.325051486492157,
      0.35846754908561707,
      0.1412419080734253,
      0.0010239366674795747,
      -0.05608628690242767,
      -0.07577528059482574,
      0.003492225194349885,
      -0.3244215250015259,
      0.29861190915107727,
      0.11566516011953354,
      0.7227378487586975,
      -0.25431811809539795,
      -0.2699899673461914,
      -0.24546492099761963,
      -0.13245108723640442,
      0.07836275547742844,
      0.10544180870056152,
      0.0038193888030946255,
      -0.20508429408073425,
      -0.08534412086009979,
      -0.03515181690454483,
      -0.034331124275922775,
      0.03495605289936066,
      -0.028657326474785805,
      0.20074321329593658,
      0.5152080059051514,
      -0.08298707753419876,
      -0.20552246272563934,
      -0.2279016226530075,
      0.047384463250637054,
      -0.06241713464260101,
      -0.2402738332748413,
      -0.6848315000534058,
      -0.0314193069934845,
      -0.4753974676132202,
      0.062076322734355927,
      0.5738102197647095,
      0.005526691675186157,
      -0.22248193621635437,
      0.15195390582084656,
      -0.1576162874698639,
      -0.4757956862449646,
      -0.13527338206768036,
      -0.013556348159909248,
      0.36702457070350647,
      0.26297903060913086,
      -0.14964810013771057,
      -0.013227155432105064,
      -0.007840955629944801,
      -0.025208087638020515,
      -0.0027451063506305218,
      -0.03493153676390648,
      0.1255408078432083,
      0.39022499322891235,
      0.003194201737642288,
      0.016455013304948807,
      0.050758786499500275,
      -0.4688926637172699,
      -0.3107110261917114,
      -6.905223126523197E-4,
      -0.014951784163713455,
      0.5618060231208801,
      0.5434693098068237,
      -0.09878530353307724,
      0.2498556226491928,
      -0.21477068960666656,
      0.22062425315380096,
      0.29997459053993225,
      -0.12550048530101776,
      -0.231653094291687,
      -0.09994713217020035,
      0.12358687072992325,
      0.2275952398777008,
      -0.026701346039772034,
      -0.13427801430225372,
      0.05305010452866554,
      -0.026719531044363976,
      -0.027013594284653664,
      -0.050741780549287796,
      0.02135848067700863,
      0.1612830013036728,
      0.3523690402507782,
      0.2937332093715668,
      0.3347707688808441,
      -0.07676481455564499,
      -0.281559020280838,
      0.11846707761287689,
      -0.3136086165904999,
      -0.9331374764442444,
      -0.555399477481842,
      0.12449625879526138,
      0.2942185401916504,
      -0.8473541140556335,
      -0.1343996524810791,
      0.4111363887786865,
      -0.5718160271644592,
      -0.2267502248287201,
      0.11241623014211655,
      -0.08435429632663727,
      0.6332698464393616,
      0.3622938096523285,
      0.06067550554871559,
      -0.03669797256588936,
      0.035427823662757874,
      -0.055701885372400284,
      -0.05509151145815849,
      -0.04760424420237541,
      0.021879609674215317,
      0.15956345200538635,
      0.2890286445617676,
      0.5591994524002075,
      0.3949377238750458,
      0.5464429259300232,
      0.35298967361450195,
      -0.24781891703605652,
      -0.12308985739946365,
      -0.2661959230899811,
      -1.0428191423416138,
      0.8337995409965515,
      0.9961406588554382,
      -0.39412689208984375,
      -0.5610717535018921,
      -0.004396419040858746,
      -0.07611183822154999,
      0.031270723789930344,
      -0.4844455122947693,
      0.03397168219089508,
      0.22697457671165466,
      0.3920593857765198,
      0.23953086137771606,
      -0.19900989532470703,
      -0.0595909059047699,
      -0.026484081521630287,
      -0.025449173524975777,
      -0.03497348725795746,
      -0.020072272047400475,
      0.14982065558433533,
      0.18103095889091492,
      0.09075253456830978,
      0.29928573966026306,
      0.511006236076355,
      0.3307957947254181,
      0.36770182847976685,
      -0.7124544382095337,
      -1.1235980987548828,
      -0.5723804831504822,
      1.5253252983093262,
      1.6904394626617432,
      -0.6200448870658875,
      -1.2039142847061157,
      -0.7727270722389221,
      -0.6384096741676331,
      -0.5798845291137695,
      -0.26292338967323303,
      -0.132704496383667,
      -0.3464689552783966,
      -0.10764797776937485,
      0.18754886090755463,
      -0.002605616580694914,
      -0.03045959584414959,
      -0.007739203050732613,
      0.005057486705482006,
      -0.027441011741757393,
      -0.06538867950439453,
      0.022934772074222565,
      -0.12079408019781113,
      0.06412485241889954,
      -0.5994462370872498,
      -0.6214525103569031,
      -1.166664481163025,
      -0.4595112204551697,
      -1.2105430364608765,
      -0.8404226303100586,
      0.019297003746032715,
      1.1131612062454224,
      1.8209706544876099,
      0.7268944978713989,
      -0.21865598857402802,
      -0.18186871707439423,
      -0.140982523560524,
      -0.3137829601764679,
      -0.008769536390900612,
      -0.07571225613355637,
      -0.9819915294647217,
      -0.5013927221298218,
      0.17128722369670868,
      0.23777121305465698,
      5.320963100530207E-4,
      0.007372809574007988,
      -0.039319250732660294,
      -0.03290748968720436,
      0.005804880056530237,
      -0.057214122265577316,
      -0.7011080980300903,
      -0.6412069797515869,
      -1.1013118028640747,
      -1.6062501668930054,
      -1.1252124309539795,
      -0.907089114189148,
      -0.42436936497688293,
      -0.46724480390548706,
      -0.14397144317626953,
      1.438983678817749,
      1.5155751705169678,
      1.1199977397918701,
      0.5462167859077454,
      -0.17792484164237976,
      -0.29576143622398376,
      -0.5621663331985474,
      -0.1989159882068634,
      -0.31498807668685913,
      -0.8951507806777954,
      -0.9401376247406006,
      -0.1017393171787262,
      0.22541546821594238,
      0.1230313628911972,
      0.11034001410007477,
      -0.027964824810624123,
      0.02158035896718502,
      0.014591958373785019,
      -0.21546989679336548,
      -0.766879677772522,
      -1.276900291442871,
      -1.0405198335647583,
      -1.2013435363769531,
      -0.8552765846252441,
      -0.5217902660369873,
      0.14412719011306763,
      -0.11316996812820435,
      0.205907940864563,
      1.2097454071044922,
      1.2791008949279785,
      0.42322781682014465,
      -0.2708497643470764,
      -0.19154588878154755,
      -0.02038094960153103,
      0.06480983644723892,
      -0.9985582232475281,
      0.14881789684295654,
      -0.9475584626197815,
      -0.6716129779815674,
      -0.4153033196926117,
      0.23135055601596832,
      0.13233385980129242,
      0.010673769749701023,
      0.011509747244417667,
      0.0405641607940197,
      0.019456567242741585,
      -0.19010847806930542,
      -0.6194229125976562,
      -0.8409100770950317,
      -0.4391299784183502,
      -0.7752410769462585,
      -0.11509287357330322,
      0.023372869938611984,
      -0.1922779381275177,
      0.045656707137823105,
      0.1821434050798416,
      1.9195890426635742,
      2.1225600242614746,
      0.7496669888496399,
      0.20580613613128662,
      -0.5743414759635925,
      -0.253493994474411,
      -0.16836334764957428,
      -0.0021785865537822247,
      0.45373085141181946,
      -0.3527582883834839,
      -0.034976776689291,
      -0.1809353083372116,
      0.2627600133419037,
      0.12227638065814972,
      -0.039207376539707184,
      0.008305622264742851,
      0.037920888513326645,
      0.043125007301568985,
      0.09887217730283737,
      -0.23460277915000916,
      -0.5869035720825195,
      0.027788639068603516,
      -0.2482742965221405,
      -0.327320396900177,
      0.5398273468017578,
      0.3391188383102417,
      -0.04565843939781189,
      0.48553338646888733,
      2.4922406673431396,
      1.4556246995925903,
      -0.5602930188179016,
      -0.2870216369628906,
      -0.11297616362571716,
      0.029529275372624397,
      -0.0011300890473648906,
      0.013302695006132126,
      0.24774156510829926,
      -0.11590176820755005,
      0.44475439190864563,
      0.16531480848789215,
      0.35935845971107483,
      0.14449982345104218,
      0.02816799469292164,
      -0.003887138096615672,
      -0.009716006927192211,
      0.12294256687164307,
      0.21904122829437256,
      0.08594231307506561,
      -0.36230266094207764,
      -0.31505629420280457,
      0.24706296622753143,
      -0.22593019902706146,
      0.27711161971092224,
      -0.25181031227111816,
      -0.47943681478500366,
      0.8825791478157043,
      1.858862042427063,
      0.6162579655647278,
      -0.9405354261398315,
      -0.1260315626859665,
      -0.3509266972541809,
      -0.407160222530365,
      0.37207508087158203,
      -0.26150843501091003,
      0.4299720823764801,
      0.03426412120461464,
      0.8984174132347107,
      0.3589543104171753,
      0.3044637143611908,
      0.10794073343276978,
      0.010168119333684444,
      -0.02986632101237774,
      -0.02322000451385975,
      0.01188789214938879,
      0.48142436146736145,
      0.25536593794822693,
      0.2919231653213501,
      0.2509479224681854,
      0.25809866189956665,
      0.2928796112537384,
      -0.025133855640888214,
      0.17804980278015137,
      0.2518177926540375,
      1.748652696609497,
      1.5032074451446533,
      -0.08247692883014679,
      -0.4143578112125397,
      0.4724774956703186,
      -0.31289029121398926,
      0.36458730697631836,
      0.2275756299495697,
      0.02665407769382,
      -0.04436267167329788,
      -0.005163402762264013,
      0.571513831615448,
      0.36337921023368835,
      0.14922380447387695,
      0.014579186215996742,
      0.007663701195269823,
      -0.05157264694571495,
      -0.016773803159594536,
      -0.1305120289325714,
      0.20526713132858276,
      0.2419804185628891,
      0.24609191715717316,
      0.3405224084854126,
      0.021826591342687607,
      -0.03556079417467117,
      0.638443112373352,
      1.1389827728271484,
      0.8332504034042358,
      1.0257741212844849,
      0.9259093403816223,
      -0.6829510927200317,
      0.1994083672761917,
      -0.11452964693307877,
      0.12049991637468338,
      0.32236337661743164,
      0.0792739987373352,
      0.10136140137910843,
      -0.12786389887332916,
      0.3524077832698822,
      0.4836980104446411,
      0.16402411460876465,
      -0.0018236240139231086,
      0.002865794114768505,
      -0.014022543095052242,
      -0.018632112070918083,
      -0.014070396311581135,
      -0.05521517992019653,
      0.09571748226881027,
      0.20824813842773438,
      -0.13105738162994385,
      0.24637678265571594,
      0.49874231219291687,
      0.1894800066947937,
      0.7025582194328308,
      1.233898401260376,
      0.7762449383735657,
      0.6698674559593201,
      0.13967494666576385,
      -0.15053486824035645,
      -0.20847390592098236,
      -0.27715033292770386,
      -0.06690709292888641,
      0.3953559696674347,
      0.04710957780480385,
      0.39061471819877625,
      0.3259581923484802,
      0.19870737195014954,
      0.27118903398513794,
      -0.0637921616435051,
      -0.12647293508052826,
      -0.02720336988568306,
      0.008654271252453327,
      -0.028750931844115257,
      -0.03604421764612198,
      0.08778593689203262,
      0.3854297697544098,
      0.20269836485385895,
      -0.1664579212665558,
      -0.1994950920343399,
      0.5302156805992126,
      0.26110005378723145,
      0.4503491222858429,
      0.4142196774482727,
      -0.42744144797325134,
      -0.5444789528846741,
      -0.4198184311389923,
      0.05127396434545517,
      -0.24867713451385498,
      -0.2220231145620346,
      -0.005007043946534395,
      0.04296586290001869,
      0.40878990292549133,
      0.13017232716083527,
      -0.10259050130844116,
      0.14909327030181885,
      0.049577564001083374,
      -0.24193175137043,
      -0.11266592890024185,
      -0.05033406615257263,
      -0.0015991288237273693,
      -0.03854632005095482,
      -0.029195191338658333,
      0.14494289457798004,
      0.2590821385383606,
      0.6015430092811584,
      0.2720816731452942,
      0.3586578071117401,
      0.29328054189682007,
      0.9456450939178467,
      0.47388169169425964,
      0.2065950334072113,
      -0.36602628231048584,
      -0.29866155982017517,
      0.052731215953826904,
      -0.3004593253135681,
      -0.3619667887687683,
      -0.6191225051879883,
      -0.1729125678539276,
      -0.17696528136730194,
      0.38992029428482056,
      -0.0673767477273941,
      -0.19603417813777924,
      -0.024437885731458664,
      0.005101013462990522,
      -0.21522217988967896,
      -0.18716730177402496,
      -0.004556839354336262,
      -0.03799701854586601,
      -0.03597787395119667,
      -0.04437199607491493,
      0.08956311643123627,
      0.20285256206989288,
      0.56852787733078,
      0.4929671883583069,
      0.44302812218666077,
      0.33337095379829407,
      0.035424668341875076,
      0.6204813122749329,
      0.22937992215156555,
      -0.2437589168548584,
      -0.2240533083677292,
      0.489031583070755,
      -0.07884244620800018,
      -0.1515074372291565,
      -0.05127183720469475,
      -0.5492182970046997,
      0.2886742651462555,
      0.3922472894191742,
      -0.3390158414840698,
      -0.2682649791240692,
      -0.26900312304496765,
      -0.07833854109048843,
      -0.24923405051231384,
      -0.09279828518629074,
      -0.0220897626131773,
      -0.021595032885670662,
      0.011995968408882618,
      -0.027938099578022957,
      0.03582533821463585,
      0.09100612252950668,
      0.30587953329086304,
      0.3384120762348175,
      0.2971480190753937,
      0.33544543385505676,
      -0.050832029432058334,
      -0.16717585921287537,
      0.002476320369169116,
      0.11745117604732513,
      0.3914480209350586,
      0.4510083496570587,
      0.08910013735294342,
      -0.14680230617523193,
      -0.017135553061962128,
      -0.47202277183532715,
      0.23173032701015472,
      0.00999657716602087,
      -0.49438995122909546,
      -0.37110206484794617,
      -0.10931842029094696,
      -0.16018478572368622,
      -0.012321130372583866,
      -5.02267328556627E-4,
      -0.030941609293222427,
      -0.007809060160070658,
      0.0019036136800423265,
      -0.056032370775938034,
      -0.037637773901224136,
      -0.058049846440553665,
      0.09730064868927002,
      0.11679048836231232,
      0.16687354445457458,
      0.14688879251480103,
      0.25650233030319214,
      -0.15497343242168427,
      -0.38764050602912903,
      -0.08458646386861801,
      0.04284477233886719,
      0.08071569353342056,
      0.36443382501602173,
      0.3982705771923065,
      0.1148919090628624,
      0.17875492572784424,
      -0.13667798042297363,
      -0.2920491397380829,
      -0.2343774288892746,
      -0.31748586893081665,
      -0.1328260600566864,
      -0.11765673011541367,
      -0.05181605741381645,
      -0.049524225294589996,
      0.012953543104231358,
      -0.013682392425835133,
      -0.03383361175656319,
      -0.021794190630316734,
      -0.010762163437902927,
      0.01182603184133768,
      -1.1795740283560008E-4,
      -0.08270582556724548,
      -0.19693854451179504,
      -0.25619614124298096,
      -0.4351922869682312,
      -0.3671228289604187,
      -0.42596471309661865,
      -0.32991400361061096,
      -0.18965621292591095,
      0.30536219477653503,
      0.2018231600522995,
      -0.030003998428583145,
      -0.0661693587899208,
      -0.17444604635238647,
      -0.11812667548656464,
      -0.14536352455615997,
      -0.10514837503433228,
      -0.17760929465293884,
      -0.06955763697624207,
      -0.020301388576626778,
      -0.039905961602926254,
      -0.013825382106006145,
      -0.011454767547547817,
      -0.05449015274643898,
      -0.0032775159925222397,
      -0.04568402096629143,
      -0.0048742033541202545,
      -0.010877921245992184,
      -0.055138830095529556,
      -0.008573781698942184,
      0.006504836026579142,
      -0.023439258337020874,
      -0.04588039591908455,
      -0.0777445137500763,
      -0.07459300011396408,
      -0.058970727026462555,
      -0.046208567917346954,
      -0.0242470595985651,
      -0.07860714197158813,
      -0.03081405535340309,
      -0.037744052708148956,
      -0.06367846578359604,
      -0.054015688598155975,
      -0.05636928975582123,
      -0.06743529438972473,
      -0.013052013702690601,
      -0.06569172441959381,
      -0.04291338101029396,
      -0.027100374922156334,
      -0.055815357714891434,
      -0.027578914538025856,
      -0.005341557785868645,
      0.004194789100438356,
      0.020752694457769394,
      -0.03279654681682587,
      0.013331933878362179,
      -0.007292910013347864,
      0.01313543040305376,
      0.006260163616389036,
      -0.014759575016796589,
      -0.013600886799395084,
      0.003231530776247382,
      -0.004330196883529425,
      -0.020283199846744537,
      -0.021793920546770096,
      -0.03574729338288307,
      -0.0204141978174448,
      -0.023075934499502182,
      -6.590301054529846E-4,
      -0.03397964686155319,
      -0.027888864278793335,
      0.014497452415525913,
      -0.014942043460905552,
      -0.03889899700880051,
      -0.027056366205215454,
      -0.03107815980911255,
      -0.01654636859893799,
      0.026138123124837875,
      -0.02277364581823349,
      0.017950255423784256,
      0.022717546671628952,
      -0.033166851848363876,
      -0.02598673850297928,
      -0.03473068028688431,
      0.0013327940832823515,
      0.02104688435792923,
      0.016028156504034996,
      0.0232998114079237,
      -0.028597943484783173,
      -0.026807066053152084,
      0.009942948818206787,
      -0.013851196505129337,
      -0.03312549367547035,
      -0.0028990416321903467,
      -0.007293071132153273,
      0.005374898202717304,
      0.0291002057492733,
      -0.005064302124083042,
      -0.020910123363137245,
      -0.0038702611345797777,
      -0.01924707181751728,
      -0.014238683506846428,
      -0.03805289790034294,
      -0.027570350095629692,
      0.02244061604142189,
      -0.035169944167137146,
      -0.02759643644094467,
      -0.00846603699028492,
      0.014826697297394276,
      9.754444472491741E-4,
      -0.03863505274057388,
      0.017932679504156113,
      0.014838133007287979,
      -0.007845243439078331,
      -0.011353593319654465,
      -0.01896459423005581,
      -0.02993650548160076,
      0.028223223984241486,
      -0.03157391399145126,
      6.488661747425795E-4,
      0.021577492356300354,
      -0.042982131242752075,
      -0.029034392908215523,
      0.008412851020693779,
      -0.027189264073967934,
      -0.028894340619444847,
      -0.03912866488099098,
      0.02350347302854061,
      -0.017486466094851494,
      -0.02719656378030777,
      0.02061408944427967,
      0.006546571850776672,
      0.010960590094327927,
      0.006920470390468836,
      -0.008892945013940334,
      0.026886243373155594,
      0.007715722545981407,
      -0.016558881849050522,
      0.02977803908288479,
      -0.0016379546141251922,
      -0.013623885810375214,
      0.017130589112639427,
      -0.03405750170350075,
      0.013204247690737247,
      0.009808649308979511,
      -0.026171699166297913,
      -0.05155523493885994,
      -0.06522715836763382,
      -0.08697038888931274,
      -0.054301705211400986,
      -0.09192302823066711,
      -0.06808025389909744,
      -0.021576102823019028,
      -0.034868717193603516,
      -0.05396408960223198,
      -0.05081983283162117,
      -0.026297662407159805,
      0.03334122151136398,
      0.023658160120248795,
      0.004617731552571058,
      0.020658360794186592,
      -0.016469081863760948,
      0.020833365619182587,
      -0.03081287071108818,
      -0.013761651702225208,
      0.014615642838180065,
      -0.025972692295908928,
      -0.031533218920230865,
      0.018538055941462517,
      -0.04368092864751816,
      -0.0455930121243,
      -0.054560285061597824,
      -0.01304798386991024,
      -0.034513719379901886,
      -0.06077786535024643,
      -0.12437693029642105,
      -0.12222333997488022,
      -0.11113545298576355,
      -0.12186746299266815,
      -0.09851901233196259,
      -0.09418420493602753,
      -0.0063690668903291225,
      0.009685511700809002,
      0.019765198230743408,
      -0.009971514344215393,
      0.08182188868522644,
      0.05346786975860596,
      0.03130679577589035,
      0.03615640848875046,
      0.008729473687708378,
      -0.0037032479885965586,
      -0.03585513308644295,
      0.03143235296010971,
      0.007285628002136946,
      0.010076048783957958,
      0.02328640967607498,
      0.003260847646743059,
      -0.0034304000437259674,
      -0.04586160182952881,
      -0.05271145701408386,
      -0.028121400624513626,
      -0.08013182133436203,
      -0.12031100690364838,
      -0.1964574158191681,
      -0.1848277896642685,
      -0.23489926755428314,
      -0.1885678917169571,
      -0.2353348731994629,
      -0.12965860962867737,
      -0.056902237236499786,
      -0.014323404058814049,
      -0.06885500252246857,
      -0.039933301508426666,
      0.009985111653804779,
      0.06992597877979279,
      0.06658397614955902,
      0.010536366142332554,
      -0.03782111406326294,
      -0.0018549771048128605,
      -0.004155704751610756,
      -0.031927790492773056,
      -0.0160046499222517,
      -0.012215971946716309,
      -0.003299414413049817,
      -0.01158934086561203,
      0.020347382873296738,
      0.0019851760007441044,
      -0.059531427919864655,
      -0.08762795478105545,
      -0.12174592912197113,
      -0.2503010630607605,
      -0.24950645864009857,
      -0.23406824469566345,
      -0.2278737872838974,
      -0.23869259655475616,
      -0.2885041832923889,
      -0.15409421920776367,
      -0.10857251286506653,
      -0.048194922506809235,
      -0.07715975493192673,
      -0.017387524247169495,
      0.011844118125736713,
      0.054081689566373825,
      0.0536515936255455,
      -0.03130136430263519,
      -0.016066458076238632,
      -0.010648855939507484,
      -0.04156368970870972,
      -0.011982282623648643,
      0.030147647485136986,
      0.01817137934267521,
      0.07729189097881317,
      0.023719515651464462,
      0.033869851380586624,
      -0.046646010130643845,
      -0.13994361460208893,
      -0.1964772790670395,
      -0.18849140405654907,
      -0.22587625682353973,
      -0.27585625648498535,
      -0.24771170318126678,
      -0.23635712265968323,
      -0.2902238368988037,
      -0.2896168828010559,
      -0.20102328062057495,
      -0.20521004498004913,
      -0.11764620989561081,
      -0.051048342138528824,
      0.01543085090816021,
      0.047072943300008774,
      0.1030915379524231,
      -0.029742592945694923,
      -0.04693429917097092,
      -0.02563006617128849,
      0.012528285384178162,
      -0.010044761002063751,
      0.0020400553476065397,
      -0.007688102778047323,
      -0.016609305515885353,
      0.06725797802209854,
      0.01613275706768036,
      0.030456965789198875,
      -0.08318152278661728,
      -0.12213218957185745,
      -0.16975396871566772,
      -0.2005525529384613,
      -0.2541922330856323,
      -0.2513461112976074,
      -0.25465694069862366,
      -0.33970746397972107,
      -0.3522191643714905,
      -0.25017985701560974,
      -0.20830309391021729,
      -0.11729767918586731,
      -0.055827558040618896,
      -0.05332453176379204,
      0.006843822076916695,
      0.021861007437109947,
      0.03820371255278587,
      0.017667125910520554,
      -0.06751640886068344,
      -0.03678512945771217,
      0.022699980065226555,
      0.012810486368834972,
      0.020207516849040985,
      -0.0200214646756649,
      -0.001615550834685564,
      0.04963685944676399,
      0.0631314143538475,
      -0.015037087723612785,
      -0.0341935008764267,
      -0.08805195242166519,
      -0.18217597901821136,
      -0.23600608110427856,
      -0.2748611867427826,
      -0.2850264310836792,
      -0.24924583733081818,
      -0.40931373834609985,
      -0.3838411569595337,
      -0.12522920966148376,
      -0.06210620701313019,
      -0.03768211603164673,
      0.050425246357917786,
      -0.031169485300779343,
      -0.050873562693595886,
      0.026675088331103325,
      0.020312193781137466,
      0.01377317775040865,
      0.03256242349743843,
      0.059314265847206116,
      -0.006263033486902714,
      -0.009323131293058395,
      0.0014930330216884613,
      0.019364437088370323,
      0.025247959420084953,
      0.0021854143124073744,
      0.02844945155084133,
      0.027186594903469086,
      0.020717719569802284,
      -0.010492219589650631,
      -0.14078177511692047,
      -0.17772176861763,
      -0.14303816854953766,
      -0.16384759545326233,
      -0.21815375983715057,
      -0.2695629596710205,
      -0.1467248946428299,
      0.06695035845041275,
      0.03693738579750061,
      0.04852307587862015,
      0.13432608544826508,
      0.21121612191200256,
      0.15033669769763947,
      0.11162582039833069,
      0.04856375604867935,
      0.07076742500066757,
      0.08891043066978455,
      0.044364310801029205,
      -0.026040006428956985,
      -0.0209670253098011,
      -0.03110397234559059,
      -0.00930873118340969,
      0.04333820939064026,
      0.04710926115512848,
      0.05099572613835335,
      0.015063539147377014,
      -0.05702843889594078,
      -0.022454800084233284,
      -0.003955800086259842,
      -0.04994264617562294,
      0.11467069387435913,
      0.17029432952404022,
      0.1599043309688568,
      0.18049588799476624,
      0.1279362142086029,
      0.20390672981739044,
      0.22624151408672333,
      0.25545281171798706,
      0.27088722586631775,
      0.14730174839496613,
      0.11887093633413315,
      0.2051720917224884,
      0.14294998347759247,
      0.03204498812556267,
      0.03888651728630066,
      0.008044281043112278,
      -0.044814422726631165,
      -0.0073165870271623135,
      -0.03717568516731262,
      0.025904852896928787,
      0.005129044875502586,
      0.10374156385660172,
      0.019584553316235542,
      -0.03971773386001587,
      0.007215845864266157,
      0.07968126237392426,
      0.05018913000822067,
      0.014670705422759056,
      0.266345739364624,
      0.3941185772418976,
      0.1988215297460556,
      0.2903096377849579,
      0.251753568649292,
      0.24431397020816803,
      0.3335641324520111,
      0.2798636555671692,
      0.0727350115776062,
      0.0060556810349226,
      0.052710555493831635,
      0.1068800613284111,
      0.07247328758239746,
      0.01341191679239273,
      -0.009521118365228176,
      -0.03775450214743614,
      0.0024756125640124083,
      0.019270852208137512,
      0.007838851772248745,
      -0.025026846677064896,
      0.06076228246092796,
      0.023940207436680794,
      0.05716857686638832,
      0.04516274854540825,
      0.014160418882966042,
      0.015993673354387283,
      0.01631857641041279,
      0.06998979300260544,
      0.17352595925331116,
      0.2488832026720047,
      0.2077593058347702,
      0.2162356674671173,
      -0.02642836421728134,
      -0.027456626296043396,
      -0.0050439839251339436,
      0.03998503088951111,
      -0.06947384774684906,
      -0.10500616580247879,
      -0.055081892758607864,
      -0.02329729124903679,
      -0.04698693007230759,
      -0.03757109120488167,
      -0.00888732448220253,
      -0.03587856888771057,
      0.021530717611312866,
      -0.0078086634166538715,
      -0.0033855007495731115,
      -0.004011954180896282,
      0.037599217146635056,
      0.012987792491912842,
      0.0377691350877285,
      0.05883156135678291,
      -2.547109324950725E-4,
      -0.05264366418123245,
      0.06434107571840286,
      0.027618592604994774,
      0.003374407533556223,
      -0.022502057254314423,
      0.07430770993232727,
      -0.00713443523272872,
      -0.1800333857536316,
      -0.21383148431777954,
      -0.12064807116985321,
      -0.16831234097480774,
      -0.16273902356624603,
      -0.12836918234825134,
      -0.06857369095087051,
      -0.10246026515960693,
      -0.061567939817905426,
      -0.04154019057750702,
      -0.04844917356967926,
      0.005218979436904192,
      -0.01644543744623661,
      -0.01762613095343113,
      0.03240036591887474,
      -0.020938772708177567,
      0.005390265956521034,
      -0.02382795698940754,
      -0.046057432889938354,
      -0.014783230610191822,
      0.030944911763072014,
      0.025679975748062134,
      0.015312054194509983,
      -0.09625902026891708,
      -0.144569531083107,
      -0.11433195322751999,
      0.11803542822599411,
      -0.07805755734443665,
      -0.219457745552063,
      -0.17441745102405548,
      -0.2535298764705658,
      -0.14360548555850983,
      -0.04395316541194916,
      -0.045157406479120255,
      -0.10121706873178482,
      -0.05718193203210831,
      -0.08368975669145584,
      0.01564403809607029,
      -0.011444948613643646,
      -0.03286683186888695,
      -0.021350843831896782,
      0.01050569023936987,
      -0.013301336206495762,
      -0.021897606551647186,
      0.00883746612817049,
      0.023865504190325737,
      0.07079050689935684,
      -0.031707294285297394,
      -0.0898587629199028,
      -0.04816987365484238,
      -0.06458567082881927,
      -0.22477056086063385,
      -0.22578087449073792,
      -0.09938950836658478,
      0.04241582751274109,
      -0.044638678431510925,
      -0.12410584837198257,
      -0.1555081605911255,
      -0.19971096515655518,
      -0.10573220998048782,
      0.06385795772075653,
      0.04243320971727371,
      -0.0798666775226593,
      -0.0780048668384552,
      -0.09944941103458405,
      -0.006639708299189806,
      -0.05005906522274017,
      -0.027318749576807022,
      -0.03519388660788536,
      0.002801320282742381,
      -0.035468265414237976,
      -0.028548577800393105,
      -0.01345047727227211,
      -0.02766742743551731,
      0.066729336977005,
      -0.007580813020467758,
      -0.09804510325193405,
      -0.12005153298377991,
      -0.2281222641468048,
      -0.15205202996730804,
      -0.07809296995401382,
      0.11838138848543167,
      0.10711920261383057,
      0.03952419385313988,
      -0.04711580276489258,
      -0.1352318674325943,
      -0.2000642716884613,
      -0.1050836518406868,
      0.024950560182332993,
      0.08183813840150833,
      -0.026345040649175644,
      -0.11558467894792557,
      -0.08068829774856567,
      -0.053500622510910034,
      0.021829642355442047,
      0.012696065939962864,
      0.013379051350057125,
      0.015966050326824188,
      0.02823270857334137,
      -0.00424428703263402,
      -0.02954063005745411,
      0.013375218026340008,
      0.003540929639711976,
      0.03395020216703415,
      -0.12880855798721313,
      -0.19690747559070587,
      -0.09189631044864655,
      -0.0535188689827919,
      0.025492195039987564,
      0.21995770931243896,
      0.04200391843914986,
      0.0024623810313642025,
      -0.17470262944698334,
      -0.26188865303993225,
      -0.20921708643436432,
      -0.02841714397072792,
      -0.01962689682841301,
      -0.05549018457531929,
      -0.09596214443445206,
      -0.12886793911457062,
      -0.06876800954341888,
      -0.021029075607657433,
      0.03267328441143036,
      0.0028880001045763493,
      -0.0012163084466010332,
      0.030948735773563385,
      -0.02726711332798004,
      -0.024827631190419197,
      -0.02484767511487007,
      -0.011587024666368961,
      -0.024703357368707657,
      -0.030618714168667793,
      -0.06034249812364578,
      -0.08318958431482315,
      -0.013568326830863953,
      0.015830790624022484,
      0.11363085359334946,
      0.014321272261440754,
      -0.20628222823143005,
      -0.24604874849319458,
      -0.36695706844329834,
      -0.33065786957740784,
      -0.29589933156967163,
      -0.10423880815505981,
      -0.11457127332687378,
      -0.10806916654109955,
      -0.11087850481271744,
      -0.11147322505712509,
      -0.12973712384700775,
      -0.05579851195216179,
      -0.01624913141131401,
      0.0079829515889287,
      -0.015352662652730942,
      -0.025846412405371666,
      -0.026796594262123108,
      -0.023294726386666298,
      0.020800651982426643,
      -0.013077821582555771,
      -0.07721126079559326,
      -0.12150054425001144,
      0.007240066304802895,
      -0.08564743399620056,
      -0.05398748442530632,
      0.020020741969347,
      -0.020936673507094383,
      -0.07110663503408432,
      -0.2082667052745819,
      -0.3660244643688202,
      -0.39828455448150635,
      -0.35542696714401245,
      -0.25645631551742554,
      -0.097962386906147,
      -0.11740141361951828,
      -0.14261463284492493,
      -0.16000579297542572,
      -0.07514607161283493,
      -0.04253998026251793,
      -0.04280426353216171,
      -0.02457067370414734,
      -0.022233905270695686,
      0.01894456334412098,
      0.0024697172921150923,
      -0.028143713250756264,
      0.009192833676934242,
      -0.006215833593159914,
      -0.028216339647769928,
      -0.004708888474851847,
      -0.006037676241248846,
      0.06010041758418083,
      0.011831361800432205,
      -0.03787720203399658,
      0.015990877524018288,
      0.07699950784444809,
      -0.08123641461133957,
      -0.2113116979598999,
      -0.34831857681274414,
      -0.28470081090927124,
      -0.3009592294692993,
      -0.19806034862995148,
      -0.11268526315689087,
      -0.03409484773874283,
      -0.08134442567825317,
      -0.0926225408911705,
      -0.02890446037054062,
      -0.06868930160999298,
      5.353908054530621E-4,
      0.03459656611084938,
      -0.007955041714012623,
      -0.011817598715424538,
      -0.03164873272180557,
      -0.033582791686058044,
      -0.02747449278831482,
      0.024973146617412567,
      0.024004219099879265,
      -0.02126331441104412,
      0.10522958636283875,
      0.04975276440382004,
      -0.00866924412548542,
      -0.03817908093333244,
      0.08348648995161057,
      0.011252815835177898,
      -0.06408333033323288,
      -0.20856274664402008,
      -0.2485392987728119,
      -0.14220461249351501,
      -0.13600242137908936,
      -0.11032147705554962,
      -0.07129550725221634,
      -0.025734255090355873,
      -0.022632865235209465,
      -0.09699573367834091,
      -0.06638159602880478,
      -0.07261349260807037,
      -0.0661597028374672,
      0.020523563027381897,
      0.02723502740263939,
      -0.0076731047593057156,
      -0.016965068876743317,
      -0.028503138571977615,
      -0.025167424231767654,
      -0.011393238790333271,
      -0.0024217083118855953,
      0.028992926701903343,
      0.08756136894226074,
      0.03435744345188141,
      0.03720361366868019,
      -0.03177510201931,
      0.06992228329181671,
      0.043931636959314346,
      -0.05467583239078522,
      -0.09639023244380951,
      -0.12016882747411728,
      -0.14357733726501465,
      -0.048453569412231445,
      0.034436047077178955,
      0.01714172028005123,
      -0.04512942582368851,
      -0.043239906430244446,
      -0.09315856546163559,
      -0.050452325493097305,
      -0.03202898055315018,
      -0.04560201242566109,
      0.012548770755529404,
      -0.030645599588751793,
      -0.0303054079413414,
      0.00833701342344284,
      0.0022518534678965807,
      0.01928545907139778,
      -0.01359784509986639,
      0.02350524067878723,
      0.03995063900947571,
      0.0735345110297203,
      0.006675084121525288,
      8.826885605230927E-4,
      0.01652105152606964,
      -0.003923542331904173,
      -0.027846932411193848,
      -0.08258838206529617,
      -0.07413046807050705,
      -0.1122930571436882,
      -0.08724741637706757,
      -0.12889039516448975,
      -0.08352963626384735,
      0.0352264866232872,
      -0.04700975865125656,
      -0.09042181819677353,
      -0.08936955779790878,
      -0.029848383739590645,
      -0.028200093656778336,
      -0.027483778074383736,
      -0.02345980517566204,
      -0.01767592877149582,
      -0.019312990829348564,
      0.020950116217136383,
      -0.022034630179405212,
      -0.032185036689043045,
      0.025833358988165855,
      0.017292900010943413,
      -0.013533744029700756,
      -0.019589202478528023,
      -0.010394970886409283,
      -0.0037079842295497656,
      -0.026300739496946335,
      -0.06475811451673508,
      -0.10765020549297333,
      -0.03325602412223816,
      -0.011100240051746368,
      -0.017434800043702126,
      -0.04061172530055046,
      0.031842902302742004,
      0.06306631118059158,
      0.03477727621793747,
      -0.006250521168112755,
      0.012703653424978256,
      -0.049001339823007584,
      -0.018497221171855927,
      0.010938731953501701,
      0.025436434894800186,
      -0.02079661190509796,
      0.006640811916440725,
      0.024873707443475723,
      -0.011366560123860836,
      -0.02936962991952896,
      0.022235702723264694,
      0.030415140092372894,
      0.0019245001021772623,
      0.0034945157822221518,
      -0.05382281169295311,
      -0.018916813656687737,
      -0.030973920598626137,
      -0.04938473552465439,
      -0.0029564558062702417,
      -0.02885848842561245,
      -0.03787045180797577,
      -0.060619767755270004,
      -0.008175293914973736,
      -0.04846252501010895,
      -0.0375782772898674,
      0.016575803980231285,
      -0.024557994678616524,
      -0.03746090829372406,
      1.281785371247679E-4,
      0.01846710778772831,
      0.03085443563759327,
      0.0164761021733284,
      -0.031204529106616974,
      -9.795203804969788E-4,
      -0.033927422016859055,
      -0.01784030720591545,
      -0.025620438158512115,
      0.0017403254751116037,
      -0.02092111110687256,
      0.028914134949445724,
      0.0017759478650987148,
      0.022876715287566185,
      0.015610942617058754,
      0.028517695143818855,
      -1.4389654097612947E-4,
      -0.024528831243515015,
      -0.02294451743364334,
      -0.006408950313925743,
      0.012215495109558105,
      -0.034915026277303696,
      -0.013801148161292076,
      0.018988775089383125,
      0.01166246272623539,
      0.0165706817060709,
      -0.02370673604309559,
      -0.039198487997055054,
      0.022858943790197372,
      0.029727531597018242,
      -0.030504871159791946,
      0.003463451052084565,
      0.023082755506038666,
      0.004343955311924219,
      -0.03425261378288269,
      -0.027704481035470963,
      0.019309911876916885,
      0.04046932980418205,
      0.015234635211527348,
      0.05132075771689415,
      -0.00510694133117795,
      -0.009587676264345646,
      -0.010055008344352245,
      0.052268702536821365,
      0.03319334611296654,
      0.0011573081137612462,
      -0.005607245955616236,
      0.005744329188019037,
      -0.014788848347961903,
      0.033663559705019,
      -0.01982082612812519,
      0.029223820194602013,
      0.02791212685406208,
      0.03255413845181465,
      0.04211470112204552,
      0.024676809087395668,
      0.012597816996276379,
      0.011719689704477787,
      0.02635282464325428,
      0.037135180085897446,
      0.006602792534977198,
      0.04507770016789436,
      -0.008751402609050274,
      -0.014891072176396847,
      -0.014441096223890781,
      0.018644986674189568,
      0.04272853955626488,
      0.050157565623521805,
      0.013644886203110218,
      0.04959636554121971,
      0.01872098259627819,
      -0.022674093022942543,
      -0.07118064910173416,
      0.026998622342944145,
      0.01563170738518238,
      -0.027937864884734154,
      0.01401066966354847,
      -0.010998292826116085,
      0.030690213665366173,
      0.016344783827662468,
      0.042557019740343094,
      0.07844891399145126,
      0.04864663630723953,
      0.06460645794868469,
      -0.025958484038710594,
      0.022429855540394783,
      -0.050335388630628586,
      -0.0045313783921301365,
      0.0031147811096161604,
      -0.014401870779693127,
      -0.008971738629043102,
      0.007591004949063063,
      -0.011241118423640728,
      0.04029930755496025,
      0.025453487411141396,
      -0.011060458607971668,
      -0.009702621027827263,
      -0.005898610223084688,
      -0.010028415359556675,
      -0.02094353921711445,
      -0.15508420765399933,
      -0.08320887386798859,
      -0.053341858088970184,
      -0.18030226230621338,
      -0.003041601739823818,
      0.12674658000469208,
      0.48223161697387695,
      0.36989855766296387,
      0.42511820793151855,
      0.4765283167362213,
      0.49449723958969116,
      0.4385606646537781,
      0.3753100633621216,
      0.06143813207745552,
      -0.11176306754350662,
      -0.13913176953792572,
      -0.05832018703222275,
      -0.0796806812286377,
      -0.019109779968857765,
      0.053968723863363266,
      0.025785954669117928,
      -0.01049602311104536,
      0.049579184502363205,
      0.0487891361117363,
      0.005860832054167986,
      0.033710457384586334,
      -0.03308481723070145,
      -0.08850108832120895,
      -0.18348711729049683,
      -0.3439958691596985,
      -0.5271355509757996,
      -0.3447279930114746,
      -0.14124928414821625,
      -8.67069757077843E-4,
      -0.3524894416332245,
      -0.18549346923828125,
      0.1273275911808014,
      0.30813834071159363,
      0.6291119456291199,
      0.5580208897590637,
      0.4108736515045166,
      -0.05630624666810036,
      -0.10540686547756195,
      -0.07296983152627945,
      -0.10915400832891464,
      -0.070549376308918,
      -0.07009456306695938,
      0.031938131898641586,
      0.005314613226801157,
      0.0056016347371041775,
      0.025557084009051323,
      0.00795358419418335,
      -0.005165599752217531,
      -0.0017120199045166373,
      0.006753989029675722,
      -0.1017465740442276,
      -0.2829644978046417,
      -0.40869346261024475,
      -0.3630966544151306,
      -0.38371625542640686,
      -0.13918885588645935,
      0.12230288237333298,
      0.430541068315506,
      0.36556190252304077,
      0.34287431836128235,
      0.5391030311584473,
      0.2591879665851593,
      0.10935799777507782,
      0.2906281054019928,
      0.17870056629180908,
      0.2790040075778961,
      0.2889728546142578,
      0.19751740992069244,
      0.23132260143756866,
      0.09035991132259369,
      0.010507562197744846,
      -0.01549146044999361,
      -0.0018793590134009719,
      -0.008129537105560303,
      0.04153140261769295,
      0.056584667414426804,
      0.02689315192401409,
      0.1400744616985321,
      0.11689964681863785,
      0.07947468757629395,
      -0.13081465661525726,
      0.15130500495433807,
      0.3916226327419281,
      0.6518519520759583,
      0.7449595928192139,
      0.9888638854026794,
      1.3361355066299438,
      0.6842084527015686,
      0.4148380160331726,
      -0.24727946519851685,
      -0.5324755311012268,
      -0.32774651050567627,
      -0.15926863253116608,
      0.5030229091644287,
      0.6250324249267578,
      0.5124024152755737,
      0.3829880356788635,
      0.160114124417305,
      0.024970723316073418,
      0.01040287408977747,
      0.0017846360569819808,
      0.04781877622008324,
      0.026424730196595192,
      0.03924309462308884,
      0.10968968272209167,
      0.37227368354797363,
      0.29658031463623047,
      0.2795112133026123,
      0.30538660287857056,
      0.41257789731025696,
      0.3122166395187378,
      -0.7789674997329712,
      -0.4278261661529541,
      -0.5963349938392639,
      -0.49627572298049927,
      -0.8772797584533691,
      -0.935935914516449,
      -0.7981885075569153,
      -0.2953551411628723,
      0.40347039699554443,
      1.0333962440490723,
      0.8597008585929871,
      0.9872244000434875,
      0.9027223587036133,
      0.567503809928894,
      0.1474553793668747,
      0.09541992843151093,
      0.011818020604550838,
      0.04865337535738945,
      0.026454472914338112,
      -0.028770936653017998,
      0.1157132163643837,
      0.1807548552751541,
      0.48252078890800476,
      0.35648083686828613,
      0.5938846468925476,
      0.22579890489578247,
      0.43823152780532837,
      0.042689625173807144,
      -0.006215712055563927,
      -0.18078379333019257,
      -0.23844920098781586,
      -1.0310873985290527,
      -1.0841288566589355,
      -0.36152777075767517,
      0.7577256560325623,
      0.5535601377487183,
      1.1675809621810913,
      1.2028858661651611,
      1.2755500078201294,
      1.3430157899856567,
      1.1518672704696655,
      0.5088359713554382,
      0.25191617012023926,
      0.21659784018993378,
      -0.0020354643929749727,
      0.02991594187915325,
      -0.01978776417672634,
      0.04031404107809067,
      0.23762734234333038,
      0.40297365188598633,
      0.5395363569259644,
      0.3079143166542053,
      0.7878713607788086,
      0.6396803259849548,
      0.05961410328745842,
      0.039430808275938034,
      -0.07808230072259903,
      -0.23367543518543243,
      -0.23115870356559753,
      -0.2852325737476349,
      0.3036779463291168,
      0.7481693625450134,
      1.40726900100708,
      1.0339560508728027,
      0.44988563656806946,
      0.9308271408081055,
      1.4911699295043945,
      1.3919252157211304,
      0.997119665145874,
      0.6244143843650818,
      0.3873651623725891,
      0.09965474903583527,
      0.035777363926172256,
      0.0404294990003109,
      0.03595459833741188,
      0.05827871337532997,
      0.18426986038684845,
      0.45406848192214966,
      0.399212509393692,
      0.4975137710571289,
      0.36692315340042114,
      0.19980980455875397,
      -0.5629072189331055,
      -0.6311002373695374,
      -0.8754079937934875,
      -0.7222638130187988,
      0.11793208867311478,
      -0.2635681629180908,
      0.7663475275039673,
      0.7076618671417236,
      0.4316781759262085,
      -0.025324136018753052,
      -0.15471534430980682,
      0.3074102997779846,
      1.0285136699676514,
      0.9945067763328552,
      0.8761418461799622,
      0.49463599920272827,
      0.26933369040489197,
      0.18949170410633087,
      0.09563454240560532,
      0.03650114685297012,
      0.044608138501644135,
      0.1612665355205536,
      0.09138397872447968,
      0.3467274308204651,
      -0.10672112554311752,
      -0.44905251264572144,
      -0.39055997133255005,
      -0.39718887209892273,
      -0.08769774436950684,
      -0.23524530231952667,
      -0.9725371599197388,
      0.0317976288497448,
      0.08877228200435638,
      -0.0650024563074112,
      0.2747851312160492,
      -0.19456174969673157,
      -0.22503867745399475,
      -0.6736035943031311,
      -1.1025795936584473,
      -0.38683319091796875,
      0.22146396338939667,
      0.6975301504135132,
      0.6224290728569031,
      0.530771791934967,
      0.36879000067710876,
      0.13944604992866516,
      0.0770510733127594,
      0.021706150844693184,
      0.03966369479894638,
      0.10775570571422577,
      0.12588433921337128,
      -0.02401750348508358,
      -0.33924540877342224,
      -0.4117799997329712,
      -0.6166273355484009,
      -0.8234496712684631,
      -0.05785883590579033,
      0.6077439188957214,
      0.34663936495780945,
      -0.051833365112543106,
      -0.13858214020729065,
      -0.1458228975534439,
      0.030187765136361122,
      -0.3249511122703552,
      -0.8139092326164246,
      -0.7124199867248535,
      -1.124057650566101,
      -1.012054204940796,
      0.0707942321896553,
      0.2279312014579773,
      0.048660483211278915,
      -0.005696540232747793,
      0.043055519461631775,
      0.1281803697347641,
      0.006346290465444326,
      0.03653432056307793,
      0.07963216304779053,
      0.07441414892673492,
      0.27687349915504456,
      -0.3161453306674957,
      -0.6073122620582581,
      -0.4421883225440979,
      -0.14018258452415466,
      -0.1265319436788559,
      0.037821561098098755,
      0.42123761773109436,
      -0.15089145302772522,
      -0.4978157877922058,
      -0.3370189964771271,
      -0.5391906499862671,
      -0.5342116355895996,
      -0.5949552059173584,
      -0.41813981533050537,
      -0.442671537399292,
      -0.8197351694107056,
      0.032215770334005356,
      0.17134840786457062,
      -0.1940840780735016,
      -0.16516268253326416,
      -0.3234257996082306,
      -0.22797533869743347,
      -0.029060611501336098,
      -7.001859485171735E-4,
      0.009859495796263218,
      0.034798577427864075,
      0.047097716480493546,
      0.19396184384822845,
      0.13710090517997742,
      0.01361615676432848,
      0.30761340260505676,
      -0.4124237895011902,
      0.033313486725091934,
      -0.31762000918388367,
      -0.6660920977592468,
      -0.22514161467552185,
      -0.16400957107543945,
      -0.5233702659606934,
      -0.30802878737449646,
      0.025134490802884102,
      -0.41965892910957336,
      0.18498468399047852,
      -0.2179029881954193,
      -0.4326084852218628,
      0.5046452283859253,
      0.3378835618495941,
      -0.004806365352123976,
      -0.16227613389492035,
      -0.47698065638542175,
      -0.40066492557525635,
      -0.3040136694908142,
      -0.12332282960414886,
      0.030308770015835762,
      -0.010912005789577961,
      0.02102932147681713,
      0.11110442876815796,
      0.2425706386566162,
      0.6285387873649597,
      0.38339734077453613,
      -0.2988322377204895,
      -0.13369981944561005,
      -0.07583083212375641,
      -0.05743681639432907,
      -0.07374538481235504,
      -0.06670881062746048,
      -0.28546640276908875,
      0.18718279898166656,
      -0.15996016561985016,
      -0.8363857269287109,
      -0.13884373009204865,
      -0.3219480514526367,
      0.8312323689460754,
      0.42027634382247925,
      -0.06459653377532959,
      -0.11238998919725418,
      -0.08976172655820847,
      -0.4060356616973877,
      -0.49590128660202026,
      -0.3486318290233612,
      0.03572582080960274,
      0.006115698721259832,
      0.05067248269915581,
      0.030811404809355736,
      -0.08580979704856873,
      -0.21769115328788757,
      0.24533715844154358,
      0.0062133246101439,
      0.058756064623594284,
      -0.09704941511154175,
      0.11399494856595993,
      0.4263453781604767,
      -0.04286330193281174,
      0.06307961046695709,
      -0.10401620715856552,
      0.4269405007362366,
      -0.6577337980270386,
      -0.9918328523635864,
      -0.2680306136608124,
      0.14577658474445343,
      0.008131714537739754,
      0.039169929921627045,
      -0.16832461953163147,
      0.3128505349159241,
      0.42931121587753296,
      -0.36612167954444885,
      -0.5290560722351074,
      -0.06831447780132294,
      -0.021170010790228844,
      0.02843671850860119,
      0.012245873920619488,
      0.010731754824519157,
      -0.21290084719657898,
      -0.5066409707069397,
      0.01636863686144352,
      -0.3460117280483246,
      0.12344788014888763,
      0.6647809743881226,
      0.07355580478906631,
      -0.019682910293340683,
      -0.6960784792900085,
      0.31672999262809753,
      0.3049134910106659,
      -0.2607932686805725,
      -0.2611726224422455,
      0.0469924658536911,
      -0.9058718085289001,
      -0.14635668694972992,
      0.31681349873542786,
      0.23625639081001282,
      -0.3522743284702301,
      -0.26869460940361023,
      0.28104400634765625,
      -0.29818713665008545,
      -0.7716175317764282,
      -0.45689788460731506,
      -0.037672027945518494,
      0.03574791178107262,
      0.05217896029353142,
      -0.016966907307505608,
      -0.19937138259410858,
      -0.3443676829338074,
      0.19445399940013885,
      -0.40341916680336,
      -0.038967348635196686,
      0.2453731745481491,
      0.38180986046791077,
      -0.3395262658596039,
      -0.12068354338407516,
      -0.20385868847370148,
      0.04698603227734566,
      0.343357115983963,
      -0.4106212854385376,
      -0.07401254028081894,
      -0.396375834941864,
      0.27558502554893494,
      0.32392311096191406,
      0.46624821424484253,
      0.06191930174827576,
      0.06075223162770271,
      0.10242046415805817,
      0.05318184942007065,
      -0.5546528697013855,
      -0.07983100414276123,
      -0.029198305681347847,
      -0.007339731324464083,
      2.544265007600188E-4,
      0.08232733607292175,
      -0.055083274841308594,
      -0.2730472683906555,
      -0.025881856679916382,
      -0.32251331210136414,
      -0.015701349824666977,
      0.29457414150238037,
      0.23429210484027863,
      -0.28550684452056885,
      0.04997970536351204,
      -0.2028946429491043,
      0.15187376737594604,
      -0.3188336193561554,
      -0.4861963391304016,
      -0.5006973743438721,
      0.3619050979614258,
      0.4831777513027191,
      0.32907795906066895,
      0.7805269956588745,
      0.19826801121234894,
      -0.11150138825178146,
      -0.27032673358917236,
      -0.0904153361916542,
      -0.16543973982334137,
      0.03096192143857479,
      0.036380987614393234,
      0.002147736493498087,
      -0.0013874884461984038,
      0.05480441451072693,
      0.23428745567798615,
      0.055270757526159286,
      -0.07279036194086075,
      0.13963225483894348,
      0.009505237452685833,
      0.44673851132392883,
      0.12401387840509415,
      -0.2080489844083786,
      -0.23102305829524994,
      -0.6945725083351135,
      -0.2550809383392334,
      -0.3251774311065674,
      -0.28517577052116394,
      0.3586989939212799,
      0.7601736783981323,
      0.4428287744522095,
      0.4037950932979584,
      0.4129452705383301,
      -0.010457072407007217,
      -0.454264372587204,
      -0.3531787693500519,
      0.08511517941951752,
      0.07631555199623108,
      0.06896964460611343,
      0.006881094072014093,
      0.04621880128979683,
      0.012783545069396496,
      0.06746113300323486,
      0.10009998828172684,
      0.13950839638710022,
      0.1865578442811966,
      0.5643151998519897,
      0.20452725887298584,
      0.044541314244270325,
      0.2635822594165802,
      0.31360283493995667,
      0.06814970821142197,
      0.15449076890945435,
      0.3135806620121002,
      0.8700639009475708,
      0.7739161252975464,
      1.1880322694778442,
      0.7924969792366028,
      0.24201606214046478,
      0.08901900053024292,
      0.033823683857917786,
      -0.01162172481417656,
      -0.020646486431360245,
      -0.10058966279029846,
      -0.12945282459259033,
      -0.1217283308506012,
      0.04795326292514801,
      0.03728847950696945,
      -0.013141249306499958,
      0.01920701377093792,
      0.0383114255964756,
      -0.016644231975078583,
      0.03363322094082832,
      0.2596122920513153,
      0.2125532180070877,
      -0.026130475103855133,
      0.16150598227977753,
      0.0857112854719162,
      0.26316899061203003,
      0.6866961121559143,
      0.17901530861854553,
      0.6933448910713196,
      0.9202677607536316,
      0.8526612520217896,
      0.6583430171012878,
      0.4400084912776947,
      0.31346946954727173,
      0.35483014583587646,
      0.09088915586471558,
      0.19202983379364014,
      0.12067532539367676,
      -0.11950839310884476,
      -0.007005725521594286,
      -0.08144655078649521,
      0.05367230996489525,
      -0.005639562848955393,
      0.03365242853760719,
      -0.012462255544960499,
      0.02493075281381607,
      -0.11483802646398544,
      -0.04731038585305214,
      0.21782410144805908,
      0.2907213866710663,
      0.3241555094718933,
      0.515897810459137,
      0.1995907574892044,
      -0.02343875542283058,
      0.7925822734832764,
      0.18155471980571747,
      0.1533043384552002,
      0.7257673740386963,
      0.5956990718841553,
      0.4277295172214508,
      0.7015364170074463,
      0.7217147350311279,
      0.7944515347480774,
      0.423361212015152,
      0.5761133432388306,
      0.3471110463142395,
      0.2374572604894638,
      0.08976299315690994,
      -0.03230558708310127,
      0.0162582378834486,
      0.01763317920267582,
      0.04867714270949364,
      0.005583306308835745,
      0.010476085357367992,
      -0.07839872688055038,
      -0.009542228654026985,
      0.12456437200307846,
      0.37672239542007446,
      0.6544021368026733,
      0.6252188086509705,
      0.8298496603965759,
      0.8600181341171265,
      1.3306128978729248,
      1.445136547088623,
      1.677333116531372,
      1.1492671966552734,
      1.3436024188995361,
      1.1439411640167236,
      1.1738312244415283,
      0.2617945075035095,
      0.24562549591064453,
      0.25520750880241394,
      0.386974960565567,
      0.1847388595342636,
      0.15711179375648499,
      -0.05153416469693184,
      -0.042889125645160675,
      0.03618369624018669,
      0.020721329376101494,
      -0.006860470864921808,
      0.007623534183949232,
      0.0016042051138356328,
      0.0281208585947752,
      0.08976777642965317,
      0.20965903997421265,
      0.4754534065723419,
      0.5514883995056152,
      0.4352545142173767,
      0.7105772495269775,
      0.5686935186386108,
      0.5310707688331604,
      0.5187710523605347,
      0.40241724252700806,
      -0.19738361239433289,
      -0.2052673101425171,
      -0.20465724170207977,
      -0.6247321963310242,
      -0.5721593499183655,
      -0.3848359286785126,
      -0.22309176623821259,
      -0.3134400546550751,
      -0.21028438210487366,
      -0.014376463368535042,
      -0.029851408675312996,
      0.0025749513879418373,
      0.04515567794442177,
      0.0425540991127491,
      0.023503480479121208,
      0.0033107521012425423,
      -0.00443394435569644,
      0.05668879672884941,
      0.08635809272527695,
      0.1055423840880394,
      0.12404550611972809,
      0.1611287146806717,
      0.24134904146194458,
      0.25559189915657043,
      0.19981741905212402,
      0.15945135056972504,
      -0.07729006558656693,
      -0.2585395574569702,
      -0.9218437075614929,
      -0.9526365399360657,
      -1.0955833196640015,
      -0.8935838937759399,
      -0.8562667369842529,
      -0.4105316400527954,
      -0.5662316083908081,
      -0.31727904081344604,
      -0.04985417425632477,
      0.02855885587632656,
      0.02575545944273472,
      0.03860130533576012,
      0.0486915223300457,
      0.019389616325497627,
      -0.01341282669454813,
      0.04563683643937111,
      0.010744155384600163,
      0.021067118272185326,
      -0.01372956857085228,
      -0.023668071255087852,
      -0.04058322310447693,
      -0.015543258748948574,
      -0.06616932153701782,
      -0.13804800808429718,
      -0.10667919367551804,
      -0.31355059146881104,
      -0.5366883873939514,
      -0.3037465810775757,
      -0.45526376366615295,
      -0.2168465256690979,
      -0.39289015531539917,
      -0.5757578611373901,
      -0.3474779427051544,
      -0.16193003952503204,
      -0.20902268588542938,
      -0.0857057198882103,
      0.011470071040093899,
      0.0318334586918354,
      0.005973525810986757,
      0.005567863117903471,
      0.0161087978631258,
      0.00293371407315135,
      0.00388906616717577,
      0.041357140988111496,
      0.03335873410105705,
      0.03146765008568764,
      -0.016075586900115013,
      0.005843645427376032,
      0.032011765986680984,
      0.003074618289247155,
      0.012925880029797554,
      0.044160183519124985,
      0.07857285439968109,
      0.030267266556620598,
      -0.04116739705204964,
      -0.03465842455625534,
      -0.12707467377185822,
      -0.045345548540353775,
      0.007372163701802492,
      0.10985544323921204,
      0.05980733036994934,
      -0.024005861952900887,
      -0.0045268540270626545,
      0.09190194308757782,
      0.06044655665755272,
      0.041858356446027756,
      0.010467343963682652,
      0.04128545895218849,
      -0.012043035589158535,
      0.03321664407849312,
      0.011079739779233932,
      0.0022261820267885923,
      -0.006282379385083914,
      -0.01725395955145359,
      -0.035840775817632675,
      -0.033266160637140274,
      -0.030140316113829613,
      -0.005265552084892988,
      -0.0240094605833292,
      -0.03435960039496422,
      -0.03422172740101814,
      -7.280617719516158E-4,
      -0.04702068492770195,
      -0.06579148024320602,
      -0.038240786641836166,
      -0.0014603008748963475,
      -0.01840832270681858,
      -0.05508517846465111,
      -0.009420931339263916,
      -0.034409720450639725,
      -0.022352801635861397,
      0.01195475086569786,
      0.009816879406571388,
      -0.011289447546005249,
      -0.010423343628644943,
      -0.01434248872101307,
      -0.003154866863042116,
      -0.010167345404624939,
      -0.04933277890086174,
      0.005125774536281824,
      0.009677005931735039,
      -0.05412318930029869,
      -0.05329545959830284,
      -0.013414964079856873,
      -0.06473635882139206,
      -0.10346545279026031,
      -0.15497910976409912,
      -0.19414560496807098,
      -0.11980360001325607,
      -0.16345830261707306,
      -0.14494822919368744,
      -0.1301078200340271,
      -0.07926540076732635,
      -0.01970279961824417,
      -0.05164479464292526,
      -0.05525130778551102,
      -0.11871907114982605,
      -0.062214355915784836,
      -0.1316589117050171,
      -0.11200186610221863,
      -0.07766247540712357,
      -0.062104757875204086,
      -0.05149746313691139,
      -0.030875615775585175,
      -0.016369109973311424,
      -0.014885319396853447,
      -0.032415036112070084,
      -0.003547666361555457,
      -0.05081852898001671,
      0.007892976514995098,
      0.009674467146396637,
      -0.05169102922081947,
      -0.08215078711509705,
      -0.29202672839164734,
      -0.34630286693573,
      -0.34714275598526,
      -0.5806387066841125,
      -0.650253415107727,
      -0.6088022589683533,
      -0.5016500353813171,
      -0.3963206112384796,
      -0.32616499066352844,
      -0.1774458885192871,
      0.14379511773586273,
      -0.25684505701065063,
      -0.5513607859611511,
      -0.29945120215415955,
      -0.2678922414779663,
      -0.19313348829746246,
      -0.10014258325099945,
      -0.025026889517903328,
      -0.011533157899975777,
      -0.03172004595398903,
      -0.04143436625599861,
      -0.024658920243382454,
      -0.0361664704978466,
      -0.023519910871982574,
      -0.02015610970556736,
      -0.051091331988573074,
      -0.041527945548295975,
      -0.18764539062976837,
      -0.44173258543014526,
      -0.6120714545249939,
      -0.7629611492156982,
      -0.7294034361839294,
      -0.6889688968658447,
      -0.7104813456535339,
      -0.7770763635635376,
      -0.9328886866569519,
      -0.7763814926147461,
      -0.49782246351242065,
      -0.6311283111572266,
      -0.5550764799118042,
      -0.7646843194961548,
      -0.8360342383384705,
      -0.7894507646560669,
      -0.18821951746940613,
      -0.18067051470279694,
      -0.09542778879404068,
      -0.005642544943839312,
      -0.0037078349851071835,
      -0.003866794053465128,
      -0.032884981483221054,
      0.006508825812488794,
      -0.023772791028022766,
      -0.04169589281082153,
      -0.03241217881441116,
      0.0279268529266119,
      -0.051310401409864426,
      -0.12758463621139526,
      0.1214672327041626,
      -0.14467377960681915,
      0.18208937346935272,
      0.6907370090484619,
      0.26582765579223633,
      -0.1265956610441208,
      0.2352011352777481,
      -0.3067958950996399,
      0.475746214389801,
      -0.10824676603078842,
      -0.004800173919647932,
      -0.11538369953632355,
      0.10129354149103165,
      -0.4663936197757721,
      -0.10778472572565079,
      -0.20832592248916626,
      -0.2052578181028366,
      -0.09548332542181015,
      0.014826975762844086,
      -0.033496443182229996,
      -0.040657300502061844,
      0.01477905735373497,
      -0.0038810051046311855,
      0.022698309272527695,
      -0.014749119058251381,
      0.1702018529176712,
      0.24421006441116333,
      0.025066949427127838,
      0.04331778734922409,
      -0.1331022083759308,
      -0.33604833483695984,
      0.7127884030342102,
      0.5679575800895691,
      -0.04887263849377632,
      0.43315863609313965,
      0.054699331521987915,
      -0.22940725088119507,
      -0.03988761082291603,
      0.22840231657028198,
      -0.03574172779917717,
      0.040349118411540985,
      0.1908687949180603,
      0.17947040498256683,
      -0.22363078594207764,
      -0.083115354180336,
      -0.1397199034690857,
      0.004375079181045294,
      -0.04319829121232033,
      -0.0406084842979908,
      -0.046894583851099014,
      -0.06023877114057541,
      0.1362738311290741,
      0.08262894302606583,
      0.10325636714696884,
      0.31639185547828674,
      0.12196087092161179,
      0.45220959186553955,
      0.25735270977020264,
      -0.07056845724582672,
      -0.3027438819408417,
      0.5366635918617249,
      0.41630494594573975,
      0.39899128675460815,
      -0.09534867852926254,
      0.4763895571231842,
      0.6622267365455627,
      0.19803358614444733,
      0.021980544552206993,
      0.49028462171554565,
      0.48218417167663574,
      0.28251364827156067,
      0.22205877304077148,
      -0.34700027108192444,
      -0.10642572492361069,
      0.0035995279904454947,
      -0.05023997649550438,
      7.90843041613698E-4,
      0.012373730540275574,
      0.027005130425095558,
      0.14002551138401031,
      0.2914277911186218,
      0.24801117181777954,
      0.15756885707378387,
      -0.32772812247276306,
      0.16003301739692688,
      0.2622913718223572,
      0.3184206187725067,
      -0.07564101368188858,
      -0.11960019916296005,
      0.26703235507011414,
      -0.5113694667816162,
      -0.1017746776342392,
      0.3349595069885254,
      -0.16131994128227234,
      0.15835565328598022,
      0.14427965879440308,
      0.3131774663925171,
      0.03807231783866882,
      0.6933466792106628,
      0.09210638701915741,
      -0.6278092265129089,
      -0.46837836503982544,
      -0.008899937383830547,
      -0.03300410881638527,
      -0.05197624862194061,
      -0.03212183713912964,
      0.0038827264215797186,
      0.15096935629844666,
      0.43836358189582825,
      0.5155236124992371,
      0.6736758351325989,
      0.16779357194900513,
      -0.011345447041094303,
      -0.1952267289161682,
      -0.03215300664305687,
      -0.21025660634040833,
      -0.15170498192310333,
      0.843039333820343,
      -0.03001256287097931,
      -0.11345428228378296,
      0.5715883374214172,
      -0.293660432100296,
      0.7227602005004883,
      0.855293333530426,
      -0.09764594584703445,
      0.5762017965316772,
      0.37583208084106445,
      -0.8652047514915466,
      -0.8287931680679321,
      -0.33144548535346985,
      0.3016396462917328,
      0.08833006024360657,
      -0.03358728066086769,
      -0.042873382568359375,
      -0.0644606500864029,
      0.029719846323132515,
      0.03713565692305565,
      0.6280009150505066,
      0.5942620635032654,
      0.41318604350090027,
      0.01515809353441,
      0.4405636787414551,
      0.4242734909057617,
      0.06694944947957993,
      0.04819674789905548,
      -0.33850300312042236,
      -0.5285828709602356,
      0.21059955656528473,
      1.1224772930145264,
      1.2975285053253174,
      0.5564357042312622,
      0.8531930446624756,
      0.3752589225769043,
      0.06355875730514526,
      0.34297528862953186,
      -0.28585267066955566,
      -0.9398612380027771,
      -0.16545215249061584,
      0.004957467783242464,
      0.012215197086334229,
      -0.004053442273288965,
      -0.0530983991920948,
      -0.05043451488018036,
      -0.037231314927339554,
      -0.2158806025981903,
      0.23972004652023315,
      0.22815369069576263,
      -0.10276518762111664,
      -0.16956768929958344,
      -0.15124580264091492,
      -0.1350083202123642,
      0.0180661641061306,
      -0.15471535921096802,
      -0.28132060170173645,
      0.13070572912693024,
      1.1118650436401367,
      0.851027250289917,
      0.7904701232910156,
      0.8645744919776917,
      2.055375814437866,
      0.8394708037376404,
      0.6780446171760559,
      0.6235302090644836,
      -0.3887397348880768,
      -1.1352770328521729,
      -0.5907785296440125,
      -0.08336962759494781,
      1.306111371377483E-4,
      -0.0168058630079031,
      -0.04587772861123085,
      -0.11507468670606613,
      -0.031639713793992996,
      0.05565587803721428,
      0.378114253282547,
      0.24020880460739136,
      -0.0334237776696682,
      -0.43772128224372864,
      0.012953960336744785,
      -0.5158712267875671,
      -0.6915301084518433,
      -0.14851947128772736,
      -0.5706332325935364,
      1.6553144454956055,
      1.822015404701233,
      0.13264727592468262,
      0.7127434015274048,
      0.17785502970218658,
      0.8849964141845703,
      1.2361476421356201,
      0.6990562677383423,
      0.46455925703048706,
      -0.7330809831619263,
      -1.1098612546920776,
      -0.5710164308547974,
      -0.10928467661142349,
      0.02350139431655407,
      -0.0376771055161953,
      -0.0683533176779747,
      -0.134233757853508,
      -0.0126464469358325,
      0.07738814502954483,
      0.005695740692317486,
      -0.5636391043663025,
      -0.6858710646629333,
      -0.10946118831634521,
      -0.23548981547355652,
      -0.7805051803588867,
      -0.8015424013137817,
      -1.0203468799591064,
      -0.11970508843660355,
      0.9747942686080933,
      0.5747542977333069,
      0.6114233732223511,
      0.842826247215271,
      -0.20119668543338776,
      0.7983825206756592,
      0.792893648147583,
      0.9769729375839233,
      -0.04184607416391373,
      -0.7213799953460693,
      -0.4785800278186798,
      -0.1787496954202652,
      -0.14781782031059265,
      -0.022127723321318626,
      0.012220704928040504,
      -0.0484982393682003,
      -0.07047362625598907,
      0.06847264617681503,
      0.10528898239135742,
      -0.8647546172142029,
      -0.6217139959335327,
      0.08455231785774231,
      0.11916074901819229,
      -0.14796118438243866,
      -0.7183436155319214,
      -0.19672732055187225,
      -0.21400170028209686,
      0.5405710935592651,
      1.0085186958312988,
      0.9470871090888977,
      1.2606641054153442,
      0.9374281764030457,
      0.7740132212638855,
      1.6850963830947876,
      1.4472644329071045,
      -0.31251588463783264,
      -1.066939353942871,
      -1.3915016651153564,
      -0.7732406258583069,
      0.16672813892364502,
      0.14559312164783478,
      0.06358104199171066,
      -0.01882624439895153,
      -0.04355775937438011,
      -0.08116921037435532,
      0.10438787937164307,
      0.21135015785694122,
      -0.38067230582237244,
      -0.4305574595928192,
      0.10787162184715271,
      -0.5612751245498657,
      -0.6959371566772461,
      -1.0209827423095703,
      -0.027178237214684486,
      0.3080490529537201,
      0.5215486884117126,
      0.6358520984649658,
      0.21797768771648407,
      0.6884102821350098,
      1.1129674911499023,
      1.5903992652893066,
      1.0953367948532104,
      0.1341395229101181,
      -0.8647401928901672,
      -1.5282981395721436,
      -1.312547206878662,
      -0.7301391959190369,
      0.2606402635574341,
      0.1438654214143753,
      -0.030667146667838097,
      -0.008257804438471794,
      -0.013026086613535881,
      -0.014429088681936264,
      0.2414136528968811,
      0.49227216839790344,
      -0.23559601604938507,
      -0.23097632825374603,
      -0.4819864332675934,
      -0.09211692214012146,
      -0.6543689370155334,
      -1.2169189453125,
      0.2808688282966614,
      0.2081410139799118,
      0.6718650460243225,
      0.24556633830070496,
      0.30665162205696106,
      1.1756236553192139,
      0.9668035507202148,
      0.9091686010360718,
      0.22232688963413239,
      -1.2681552171707153,
      -1.2505877017974854,
      -0.21918165683746338,
      -0.7228257060050964,
      -0.7772072553634644,
      0.16380520164966583,
      0.12481017410755157,
      0.06541042029857635,
      -0.005182926077395678,
      -0.03736844286322594,
      -0.015173358842730522,
      0.1208912655711174,
      0.38292405009269714,
      0.17481790482997894,
      -0.3458268940448761,
      -0.5062631964683533,
      -0.2907639145851135,
      -0.13328735530376434,
      -0.510769248008728,
      0.1968289017677307,
      1.052298903465271,
      0.6080101728439331,
      0.25907576084136963,
      0.8442996740341187,
      1.736356496810913,
      0.9731320142745972,
      0.16626396775245667,
      -0.7209665775299072,
      -1.0291365385055542,
      -0.3917183578014374,
      -0.20901840925216675,
      0.030322667211294174,
      -0.40803447365760803,
      0.24400565028190613,
      0.17763787508010864,
      0.08228228241205215,
      -0.03859901800751686,
      -0.04663708433508873,
      0.021359039470553398,
      0.12351400405168533,
      0.4787766635417938,
      -0.22124652564525604,
      -0.7419044375419617,
      -0.19105766713619232,
      -0.18941202759742737,
      0.21442462503910065,
      0.13970883190631866,
