{
  "InputNodes": 784,
  "OutputNodes": 10,
  "OutputBias": {
    "data": [
      -2.89550518989563,
      -1.3543823957443237,
      -1.071412205696106,
      -2.3905200958251953,
      -2.4266185760498047,
      -2.6791269779205322,
      -2.5791854858398438,
      0.16700296103954315,
      -5.582287311553955,
      -3.412473678588867
    ],
    "rows": 10,
    "cols": 1
  },
  "HiddenWeights-0": {
    "data": [
      0.004487099125981331,
      -2.4845125153660774E-4,
      -0.03708057850599289,
      -0.0015766603173688054,
      -0.04393855482339859,
      0.0035987389273941517,
      0.006570762023329735,
      -0.04806016385555267,
      -0.0070732226595282555,
      -0.051835522055625916,
      -0.018806155771017075,
      -0.017439018934965134,
      -0.027749553322792053,
      5.836822092533112E-4,
      -0.05559992790222168,
      -0.06214642524719238,
      -0.016054697334766388,
      0.006113900803029537,
      -0.04324205219745636,
      -0.01390671543776989,
      -0.0452563613653183,
      -0.045533858239650726,
      -1.7994613153859973E-4,
      -5.805549444630742E-4,
      -0.05332591384649277,
      -0.03590332716703415,
      -0.01750832051038742,
      -0.008057252503931522,
      -0.05481317639350891,
      -0.00585706252604723,
      -0.032298944890499115,
      -0.006633780896663666,
      -0.02235906943678856,
      -0.025220472365617752,
      -0.02332209050655365,
      -0.054107800126075745,
      -0.028694666922092438,
      -0.005590940359979868,
      -0.04583487659692764,
      -0.04198829084634781,
      -0.03903106972575188,
      -0.0018194927833974361,
      -0.006383093073964119,
      -0.04676646366715431,
      -0.00598868727684021,
      -0.03205683082342148,
      -0.015030549839138985,
      -0.04623137414455414,
      -0.0393289215862751,
      -0.024811964482069016,
      -0.008390216156840324,
      -0.041262898594141006,
      -0.027527455240488052,
      -0.03566382825374603,
      0.005546437576413155,
      0.004218060523271561,
      -0.016240965574979782,
      -0.0544867217540741,
      -0.057873278856277466,
      0.004152501001954079,
      -0.021225720643997192,
      0.0013042829232290387,
      -0.006813284009695053,
      -0.03815445676445961,
      0.004035800229758024,
      -0.017124060541391373,
      -0.045616380870342255,
      -0.12134347856044769,
      -0.07180894911289215,
      -0.03326787054538727,
      -0.06113046407699585,
      -0.14640454947948456,
      -0.09821680933237076,
      -0.06502721458673477,
      -0.019039856269955635,
      -0.04535318538546562,
      -0.05520685017108917,
      0.004018154460936785,
      -0.05766730755567551,
      -0.02393456920981407,
      -0.016339950263500214,
      -0.033682577311992645,
      -0.018575623631477356,
      -0.021230190992355347,
      -0.024372704327106476,
      -0.0541912317276001,
      -0.006127520464360714,
      -0.028483271598815918,
      -0.047157008200883865,
      -0.05761595815420151,
      -0.023507067933678627,
      -0.008372548967599869,
      -0.10244528949260712,
      -0.09651932865381241,
      -0.14223110675811768,
      -0.21426256000995636,
      -0.2174147218465805,
      -0.2562299370765686,
      -0.22803418338298798,
      -0.3806025981903076,
      -0.23349197208881378,
      -0.08081675320863724,
      -0.06354037672281265,
      -0.043007925152778625,
      -0.027370531111955643,
      -0.032654840499162674,
      0.00788826309144497,
      0.009139223955571651,
      -0.04394852742552757,
      -0.014663263224065304,
      -0.027821969240903854,
      5.969870835542679E-4,
      -0.003457950195297599,
      -0.014903834089636803,
      -0.037405986338853836,
      -0.00861326139420271,
      -0.00944941770285368,
      -0.022306811064481735,
      -0.05053294822573662,
      -0.059958316385746,
      -0.1659563183784485,
      -0.2445284128189087,
      -0.2846158444881439,
      -0.29943546652793884,
      -0.16354624927043915,
      -0.03393900394439697,
      -0.13208554685115814,
      -0.3269966244697571,
      -0.3104594051837921,
      -0.1152421161532402,
      -0.1644430160522461,
      -0.34591132402420044,
      -0.1593383103609085,
      -0.07630442827939987,
      -0.0543607696890831,
      -0.02543492428958416,
      -0.12627433240413666,
      -0.12208349257707596,
      -0.02353477105498314,
      -0.001941725262440741,
      8.505147416144609E-4,
      -0.02303837612271309,
      -0.056896843016147614,
      -0.057001300156116486,
      -0.012160023674368858,
      -0.005788808222860098,
      -0.23680321872234344,
      -0.37304040789604187,
      -0.2583386301994324,
      -0.3628811538219452,
      -0.594272792339325,
      -0.5138418674468994,
      -0.32887011766433716,
      -0.025497373193502426,
      0.2213912457227707,
      0.1409769207239151,
      0.38512855768203735,
      0.06864745169878006,
      -0.1603255271911621,
      -0.6291895508766174,
      -0.5712867379188538,
      -0.35313525795936584,
      -0.187971830368042,
      -0.23967614769935608,
      -0.29706013202667236,
      -0.09582090377807617,
      -0.06000888720154762,
      -0.03000326082110405,
      -0.0028983873780816793,
      -0.013220677152276039,
      -0.004804248455911875,
      0.008209798485040665,
      0.08696410059928894,
      0.05237090215086937,
      -0.3012431561946869,
      -0.6076475977897644,
      -0.3642212450504303,
      -0.6441456079483032,
      -0.5839415192604065,
      -0.3370871841907501,
      0.021285774186253548,
      -0.14325346052646637,
      -0.17479495704174042,
      -0.3624000549316406,
      0.13783027231693268,
      0.36596694588661194,
      0.11683245748281479,
      -0.3229290843009949,
      -0.2645392417907715,
      -0.12887030839920044,
      -0.12145978212356567,
      -0.26082026958465576,
      -0.3601348102092743,
      -0.20313996076583862,
      0.006027705501765013,
      -0.029614264145493507,
      -0.02683519572019577,
      -0.04341479390859604,
      0.05988597124814987,
      0.14807409048080444,
      0.12445104122161865,
      -0.10870660841464996,
      -0.16129669547080994,
      0.08378547430038452,
      -0.05551595240831375,
      -0.10185960680246353,
      -0.11679046601057053,
      -0.025256650522351265,
      -0.09938060492277145,
      -0.35792067646980286,
      0.19147609174251556,
      0.009542717598378658,
      0.3475281298160553,
      0.01148983370512724,
      -0.04166654124855995,
      -0.29090720415115356,
      -0.15127074718475342,
      -0.33863773941993713,
      -0.19550903141498566,
      -0.2249298095703125,
      -0.23830392956733704,
      -0.037525299936532974,
      0.014432440511882305,
      -0.01519867219030857,
      0.011012520641088486,
      -0.039041273295879364,
      0.018839629366993904,
      0.047949984669685364,
      0.15162955224514008,
      -0.034018032252788544,
      -0.025179926306009293,
      0.5432131290435791,
      0.07192926853895187,
      -0.2471385896205902,
      0.040751539170742035,
      -0.1603829264640808,
      -0.7189714908599854,
      -0.36739233136177063,
      -0.13620926439762115,
      0.0884057879447937,
      -0.08615103363990784,
      -0.18229638040065765,
      0.052756235003471375,
      -0.23377881944179535,
      -0.08136485517024994,
      -0.07521502673625946,
      -0.10284127295017242,
      0.06842079758644104,
      -0.0056509035639464855,
      0.05791743844747543,
      -0.05561849847435951,
      -0.028383374214172363,
      -0.04623265564441681,
      -0.02520373836159706,
      -0.07415484637022018,
      -0.05271090939640999,
      0.14487768709659576,
      -0.16979700326919556,
      0.13618803024291992,
      0.6820042729377747,
      -0.14512600004673004,
      -0.09285899251699448,
      -0.32275858521461487,
      -0.2619231343269348,
      -0.06836584955453873,
      -0.02496497891843319,
      -0.15939012169837952,
      -0.4995504915714264,
      -0.32824745774269104,
      -0.5394296050071716,
      -0.006217026151716709,
      0.06854476779699326,
      0.3789011836051941,
      0.28754833340644836,
      -0.09741280227899551,
      -0.25782716274261475,
      0.03441113233566284,
      -0.05138131603598595,
      -0.06427024304866791,
      -0.055581558495759964,
      -0.003985092509537935,
      -0.08876931667327881,
      -0.20175020396709442,
      -0.08676762133836746,
      0.08979538828134537,
      0.06436531990766525,
      0.4918631315231323,
      0.3755052983760834,
      0.3163605332374573,
      0.4542345404624939,
      1.027006983757019,
      0.973666250705719,
      0.40230831503868103,
      0.17963208258152008,
      -0.5829727649688721,
      -0.6086327433586121,
      -0.42792174220085144,
      -0.038570549339056015,
      0.0534568689763546,
      0.363239586353302,
      0.03961370140314102,
      0.17646169662475586,
      0.27871599793434143,
      0.07773701846599579,
      0.11484092473983765,
      0.0071125635877251625,
      -0.013441905379295349,
      -0.018323376774787903,
      -0.03519919887185097,
      -0.04936598241329193,
      -0.12125091254711151,
      0.022011682391166687,
      0.3935251235961914,
      0.49042338132858276,
      0.484120637178421,
      0.6108505129814148,
      0.0924958661198616,
      0.7422952055931091,
      0.8961828351020813,
      0.6120766997337341,
      -0.1471375972032547,
      -0.21477188169956207,
      -0.5233320593833923,
      0.3111295998096466,
      0.05907038599252701,
      -0.21859444677829742,
      0.09762011468410492,
      0.03205461427569389,
      -0.06704100221395493,
      0.10624939948320389,
      0.18091793358325958,
      0.1616005301475525,
      -0.10771653801202774,
      0.07987954467535019,
      0.030017651617527008,
      -0.00962415523827076,
      -0.013531941920518875,
      0.006026562303304672,
      -0.002256210660561919,
      -0.03143330290913582,
      0.27761855721473694,
      0.42651864886283875,
      0.04158489406108856,
      0.7730467319488525,
      0.8055180311203003,
      0.4972569942474365,
      0.8544235825538635,
      -0.04543647542595863,
      -0.9855573177337646,
      -0.9301952719688416,
      -0.08624659478664398,
      0.7617295384407043,
      0.3975558876991272,
      -0.27668559551239014,
      0.3624088764190674,
      0.12371743470430374,
      -0.11759770661592484,
      -0.06285614520311356,
      -0.03384311497211456,
      -0.17040421068668365,
      -0.13833065330982208,
      0.07214605808258057,
      0.013593792915344238,
      -0.04456130787730217,
      0.0036278406623750925,
      0.012723405845463276,
      0.04014620557427406,
      -0.019647296518087387,
      0.2469097226858139,
      0.7952646017074585,
      0.35165292024612427,
      0.5072057843208313,
      0.9040147066116333,
      0.06953843683004379,
      -0.04279119893908501,
      -0.9653941988945007,
      -1.3831313848495483,
      -0.9028350710868835,
      -0.12882930040359497,
      -0.037283238023519516,
      -0.08767426013946533,
      -0.1599951535463333,
      -0.041215766221284866,
      -0.5240821838378906,
      -0.3228550851345062,
      -0.2492666393518448,
      -0.3108862638473511,
      -0.28617772459983826,
      -0.1979064792394638,
      -0.08394357562065125,
      -0.040718212723731995,
      -0.04600512608885765,
      -0.020800959318876266,
      -0.054337821900844574,
      0.0145467733964324,
      0.028335334733128548,
      -0.09005699306726456,
      0.1654679924249649,
      -0.20839515328407288,
      0.11398138850927353,
      0.5406782627105713,
      -0.5426616668701172,
      -1.045884132385254,
      -1.3378902673721313,
      -1.1056479215621948,
      -0.6118620038032532,
      -0.3322600722312927,
      0.06930611282587051,
      -0.2953729033470154,
      -0.16975700855255127,
      -0.5857357382774353,
      -0.5067804455757141,
      -0.6696746945381165,
      -0.1831006109714508,
      -0.03951701894402504,
      -0.11320498585700989,
      -0.3782275915145874,
      -0.18046681582927704,
      -0.020241599529981613,
      -0.01027892529964447,
      -0.00448246393352747,
      -0.046327318996191025,
      0.059459004551172256,
      0.22899189591407776,
      -0.1315837949514389,
      -0.12076607346534729,
      -0.16011422872543335,
      -0.06711111217737198,
      -0.36175650358200073,
      -1.0460749864578247,
      -1.5060815811157227,
      -1.0705372095108032,
      -0.35859477519989014,
      -0.007633165922015905,
      0.10051970183849335,
      -0.03998367488384247,
      -0.45916205644607544,
      -0.16589392721652985,
      -0.005375747103244066,
      -0.10993285477161407,
      0.12664158642292023,
      0.1622028797864914,
      0.09260864555835724,
      -0.16491912305355072,
      -0.21308137476444244,
      -0.08946719765663147,
      -0.03135446831583977,
      -0.05921761691570282,
      -0.04309463128447533,
      -0.02074773982167244,
      0.01272986177355051,
      0.017544427886605263,
      -0.3576616048812866,
      -0.541934072971344,
      -0.20896340906620026,
      -0.7271814346313477,
      -1.1355795860290527,
      -1.4701107740402222,
      -1.005898356437683,
      -0.1767905205488205,
      0.22056710720062256,
      0.44446077942848206,
      0.14411772787570953,
      0.11348354816436768,
      0.026690669357776642,
      0.3797646164894104,
      0.07078346610069275,
      0.25809958577156067,
      0.13199707865715027,
      0.31259024143218994,
      0.012867499142885208,
      -0.20617207884788513,
      -0.04151592031121254,
      0.0654347613453865,
      -0.034842535853385925,
      -0.059622686356306076,
      -0.029975399374961853,
      -0.04168027266860008,
      -0.0014535554219037294,
      -0.2656434178352356,
      -0.679144024848938,
      -0.6727811694145203,
      -0.5699357390403748,
      -0.9222006797790527,
      -1.3628672361373901,
      -1.2147512435913086,
      0.04704517126083374,
      0.4363710284233093,
      0.5650070309638977,
      0.40474024415016174,
      0.22016017138957977,
      0.040932025760412216,
      0.11925195902585983,
      0.12777318060398102,
      -0.06556827574968338,
      -0.18029744923114777,
      0.08624168485403061,
      0.09179022908210754,
      -0.0674835741519928,
      -0.1846207082271576,
      -0.013978780247271061,
      0.1721482127904892,
      -0.05295652896165848,
      -0.04696045070886612,
      -0.019126996397972107,
      -0.019295282661914825,
      -0.03371467813849449,
      -0.2341568022966385,
      -0.42989954352378845,
      -0.46992266178131104,
      -0.5341485738754272,
      -0.3556239604949951,
      -0.31038904190063477,
      -0.27416908740997314,
      0.053173284977674484,
      0.4303169250488281,
      0.35714563727378845,
      0.23816150426864624,
      0.2520614266395569,
      -5.477879894897342E-4,
      0.5251642465591431,
      0.005057039670646191,
      0.008038356900215149,
      -0.04148796573281288,
      -0.06848262995481491,
      0.09245400130748749,
      -0.03201413154602051,
      -0.3178013265132904,
      -0.05509701743721962,
      0.009888402186334133,
      -0.022745169699192047,
      -0.009283306077122688,
      -0.006830322556197643,
      0.001182444510050118,
      -0.0477030873298645,
      -0.16352011263370514,
      -0.11766985058784485,
      -0.287253737449646,
      -0.4209524989128113,
      -0.4643200933933258,
      0.09031172841787338,
      -0.03978847339749336,
      -0.10498733818531036,
      0.1260286569595337,
      -0.21457244455814362,
      -0.3521485924720764,
      -0.03296620398759842,
      -0.11018224060535431,
      0.04243950545787811,
      -0.01274536456912756,
      3.2511286553926766E-4,
      0.22306884825229645,
      0.13573101162910461,
      -2.3542424605693668E-4,
      -0.23557035624980927,
      -0.2454748898744583,
      -0.0904674082994461,
      -0.04454910755157471,
      -0.02745889127254486,
      0.004824852105230093,
      -0.01806698739528656,
      -0.017284061759710312,
      -0.04597223922610283,
      -0.1400560736656189,
      -0.15214420855045319,
      -0.3137436509132385,
      -0.24923792481422424,
      -0.24299567937850952,
      -0.15022026002407074,
      -0.1380278766155243,
      0.1636585295200348,
      -0.08121046423912048,
      0.09470316767692566,
      0.1526634395122528,
      0.1089199036359787,
      -0.01692231558263302,
      -0.31520456075668335,
      -0.07784249633550644,
      -0.1354246884584427,
      -0.11306409537792206,
      0.1701902598142624,
      -0.15814070403575897,
      0.00968871358782053,
      -0.09770768135786057,
      0.0070397877134382725,
      -0.0661664754152298,
      -0.08061274141073227,
      -0.035678207874298096,
      -0.015282558277249336,
      -0.04206116870045662,
      -0.027586955577135086,
      -0.020171605050563812,
      -0.14196352660655975,
      0.07806529104709625,
      -0.19672709703445435,
      -0.530724823474884,
      -0.04741000384092331,
      0.26943889260292053,
      -0.03550821915268898,
      -0.4500367045402527,
      -0.2857727110385895,
      -0.016332272440195084,
      0.02326471358537674,
      -0.2500254511833191,
      -0.12033717334270477,
      0.21909666061401367,
      -0.058258965611457825,
      0.1388012319803238,
      0.16132687032222748,
      -0.2184598445892334,
      -0.07338416576385498,
      0.20443829894065857,
      0.10679282993078232,
      0.024805143475532532,
      -0.010227357037365437,
      -0.005177917890250683,
      0.008005226030945778,
      -0.035088278353214264,
      -0.04104693606495857,
      -0.04074392095208168,
      -0.004007205367088318,
      0.21250569820404053,
      0.21622784435749054,
      0.11424361169338226,
      0.5284950733184814,
      0.4426949620246887,
      -0.14691519737243652,
      -0.33620208501815796,
      -0.14953811466693878,
      -0.16051802039146423,
      0.1364896148443222,
      0.0921459048986435,
      -0.1293206810951233,
      0.07475603371858597,
      -0.24661222100257874,
      -0.11495573818683624,
      -0.12249784171581268,
      -0.047768112272024155,
      0.06543639302253723,
      0.14078070223331451,
      0.09574057161808014,
      0.1084272563457489,
      -0.027596507221460342,
      -0.018891889601945877,
      -0.03791395574808121,
      -0.03315896540880203,
      -0.03481627628207207,
      -0.12614557147026062,
      0.06126359477639198,
      0.28025317192077637,
      0.2664242684841156,
      0.3377044200897217,
      0.26864367723464966,
      0.038865331560373306,
      -0.1888696402311325,
      -0.13656684756278992,
      0.040843941271305084,
      -0.6419656872749329,
      -0.11193544417619705,
      0.18120107054710388,
      -0.13529057800769806,
      -0.27230170369148254,
      -0.21164241433143616,
      0.08930683881044388,
      -0.10462667793035507,
      0.08751693367958069,
      -0.06514011323451996,
      0.05900959670543671,
      0.10585804283618927,
      0.042098335921764374,
      0.004741936922073364,
      -0.057093873620033264,
      -0.013020498678088188,
      -0.05090435594320297,
      -0.04129043221473694,
      -0.05277576297521591,
      0.020016899332404137,
      0.2222183793783188,
      0.0944322794675827,
      0.08371997624635696,
      -0.13021859526634216,
      -0.17495180666446686,
      -0.09197737276554108,
      -0.06408301740884781,
      -0.13289235532283783,
      -0.4553251266479492,
      0.16825446486473083,
      0.03807386755943298,
      -0.21960903704166412,
      0.029889877885580063,
      0.1109263002872467,
      0.3266806900501251,
      -0.05217214673757553,
      0.10850132256746292,
      -0.09915339201688766,
      -0.11355403065681458,
      0.04833000898361206,
      0.005021114833652973,
      -0.02714824303984642,
      -0.041111819446086884,
      0.00517667643725872,
      -0.013517802581191063,
      -0.00972842238843441,
      -0.004793168045580387,
      -0.01307664718478918,
      -0.030757799744606018,
      0.053425852209329605,
      -0.16460689902305603,
      -0.27535152435302734,
      0.06588080525398254,
      -0.14814230799674988,
      -0.3395755887031555,
      -0.18286211788654327,
      -0.12882231175899506,
      -0.21672624349594116,
      0.22107979655265808,
      -0.007876803167164326,
      0.07968720048666,
      0.5309122800827026,
      0.6041860580444336,
      0.04409525543451309,
      0.12652066349983215,
      0.08093070983886719,
      -0.10507626086473465,
      -0.07615072280168533,
      -0.021031204611063004,
      0.006552147679030895,
      0.003968477249145508,
      -0.028116624802350998,
      -0.02228524535894394,
      -0.01590791530907154,
      -0.008041533641517162,
      -0.023420987650752068,
      0.013915296643972397,
      0.15715093910694122,
      -0.08674893528223038,
      -0.134663924574852,
      -0.2783318758010864,
      -0.6478171944618225,
      -0.7296714186668396,
      -0.7022529244422913,
      -0.2848648428916931,
      -0.13182316720485687,
      -0.36279329657554626,
      -0.39002445340156555,
      -0.2728303372859955,
      0.1292974203824997,
      0.3611524999141693,
      0.07470978796482086,
      0.020583737641572952,
      0.07777485251426697,
      -0.026971779763698578,
      -0.054588183760643005,
      -0.05900409445166588,
      -0.008631585165858269,
      -0.007589974440634251,
      -0.009473083540797234,
      -0.03774792701005936,
      -0.02770105004310608,
      -0.050622373819351196,
      -0.059019338339567184,
      -0.05925249680876732,
      -0.029554951936006546,
      -0.0373975932598114,
      -0.13874360918998718,
      -0.11661980301141739,
      0.07809383422136307,
      -0.057386696338653564,
      -0.13784855604171753,
      -0.11339839547872543,
      -0.20746618509292603,
      -0.3225783407688141,
      -0.16967560350894928,
      -0.11591073125600815,
      -0.10773779451847076,
      -0.0145765021443367,
      -0.0792916789650917,
      -0.029636820778250694,
      0.012472467496991158,
      -0.01427956111729145,
      -0.039180874824523926,
      -0.05297376960515976,
      -0.045260071754455566,
      -0.0032579137478023767,
      -0.017277400940656662,
      0.024555891752243042,
      0.006835597567260265,
      0.04715977609157562,
      -0.007994596846401691,
      0.018400222063064575,
      -0.015967339277267456,
      0.004250496160238981,
      0.002434203866869211,
      0.008668443188071251,
      -0.013731883838772774,
      0.004859154112637043,
      -0.01676301658153534,
      0.033016137778759,
      -0.009357372298836708,
      -0.0072389221750199795,
      -0.016741391271352768,
      0.013677924871444702,
      -0.019219398498535156,
      0.03467275947332382,
      0.028103288263082504,
      0.032502129673957825,
      0.01481492817401886,
      0.026260681450366974,
      0.0490136593580246,
      0.04137446731328964,
      -0.005195123143494129,
      0.0021303584799170494,
      0.044549740850925446,
      0.0038883581291884184,
      0.043517403304576874,
      -0.014557460322976112,
      0.0331454798579216,
      -0.013907752931118011,
      0.005577342584729195,
      -0.01904236525297165,
      0.007371146231889725,
      -0.03764140605926514,
      -0.015946580097079277,
      -0.05335463583469391,
      -0.049112945795059204,
      -0.033518217504024506,
      -0.02483808994293213,
      0.02661162056028843,
      -0.09696993231773376,
      -0.05139237642288208,
      0.049618158489465714,
      0.0450512059032917,
      0.008470239117741585,
      0.03568049520254135,
      -0.014816215261816978,
      -0.006381720304489136,
      0.010420538485050201,
      0.02178426831960678,
      0.04753845930099487,
      0.023800291121006012,
      0.035820700228214264,
      -0.006070500239729881,
      -0.00956716574728489,
      -0.013498753309249878,
      0.03390836715698242,
      -0.003119473345577717,
      0.025920424610376358,
      0.04631967097520828,
      -0.07327175885438919,
      -0.2255689948797226,
      -0.4588276743888855,
      -0.523194432258606,
      -0.5743892192840576,
      -0.21500296890735626,
      -0.4257819354534149,
      0.3454819619655609,
      -0.038713980466127396,
      -0.2526942789554596,
      -0.09160509705543518,
      0.2759077548980713,
      0.1509012132883072,
      -0.06576977670192719,
      -0.008977161720395088,
      -0.0460556223988533,
      -0.04579606652259827,
      -0.014869237318634987,
      -0.007420023903250694,
      -0.006420928984880447,
      0.038404881954193115,
      0.0205056294798851,
      -0.004780684597790241,
      -0.019883502274751663,
      0.027244172990322113,
      0.012675762176513672,
      0.014890551567077637,
      -0.07025884091854095,
      -0.3123735189437866,
      -0.7488679885864258,
      -1.1633607149124146,
      -1.6345587968826294,
      -1.15525221824646,
      -0.7278355956077576,
      -0.5993338227272034,
      0.44495272636413574,
      -0.302015483379364,
      -0.10988420993089676,
      0.2305249124765396,
      0.26124659180641174,
      0.25335827469825745,
      0.026787495240569115,
      -0.24387717247009277,
      -0.33181077241897583,
      -0.13789302110671997,
      0.030972441658377647,
      0.030452262610197067,
      0.04579240828752518,
      0.03129590302705765,
      0.015243642032146454,
      -0.01842084899544716,
      0.008448358625173569,
      0.0412505604326725,
      -0.012874098494648933,
      -0.12260109186172485,
      -0.2505013644695282,
      -0.05569010227918625,
      -0.44028279185295105,
      -0.8436172008514404,
      -1.420076608657837,
      -1.3571827411651611,
      0.016429470852017403,
      -0.2215116024017334,
      -0.9725214838981628,
      -1.0769821405410767,
      -0.40142518281936646,
      0.6246119141578674,
      -0.04812883213162422,
      -0.13664951920509338,
      0.10135437548160553,
      -0.2553229331970215,
      0.09529617428779602,
      -0.10719355195760727,
      -0.005061945877969265,
      -0.05605001747608185,
      0.01679355651140213,
      0.025008272379636765,
      -0.0015442101284861565,
      -0.007658084388822317,
      0.13200461864471436,
      0.038832999765872955,
      0.018509043380618095,
      -0.1359342336654663,
      -0.2408314198255539,
      -0.5406013131141663,
      -1.458841323852539,
      -1.7543526887893677,
      -1.5534298419952393,
      -0.7128682732582092,
      -0.9275475740432739,
      -0.5741338729858398,
      0.21972066164016724,
      -0.9101738333702087,
      -0.732100248336792,
      -1.0524283647537231,
      -1.3040696382522583,
      0.1063433289527893,
      0.34441983699798584,
      0.45633625984191895,
      0.4893190562725067,
      0.07154763489961624,
      -0.24114209413528442,
      -0.025221629068255424,
      0.04320201277732849,
      0.03202985227108002,
      -0.02174420654773712,
      -0.038520362228155136,
      0.30698269605636597,
      0.18802477419376373,
      -0.30255696177482605,
      -0.526611864566803,
      -1.426268219947815,
      -1.9216951131820679,
      -1.7482850551605225,
      -1.020775556564331,
      -0.020695827901363373,
      -0.8081010580062866,
      -1.2242428064346313,
      -0.5577915906906128,
      -0.8768167495727539,
      -0.9365013837814331,
      -1.6970304250717163,
      0.2450047731399536,
      0.05981310084462166,
      -0.2271047830581665,
      -1.095157504081726,
      -0.8675234913825989,
      0.8539990186691284,
      0.010293659754097462,
      -0.45066219568252563,
      0.04660238325595856,
      0.043430130928754807,
      0.04432567209005356,
      -0.02308814972639084,
      -0.26612186431884766,
      -0.029606830328702927,
      -0.09933033585548401,
      -0.6484992504119873,
      -1.189621090888977,
      -1.9326165914535522,
      -2.6294164657592773,
      -1.6448590755462646,
      -0.5453276038169861,
      -1.2175551652908325,
      -0.03079276531934738,
      -0.01823216862976551,
      -0.46033963561058044,
      -1.2108135223388672,
      -0.07982484251260757,
      -0.16993694007396698,
      -0.8423222899436951,
      0.5389734506607056,
      0.5519062280654907,
      -0.034798942506313324,
      0.4791502058506012,
      0.926137387752533,
      0.17980054020881653,
      -0.08470951020717621,
      -0.06121598556637764,
      2.0054007472936064E-4,
      -0.01472875289618969,
      0.017669297754764557,
      -0.23396363854408264,
      -0.03620119020342827,
      -0.19577457010746002,
      -0.5655316710472107,
      -1.370316505432129,
      -1.7636998891830444,
      -1.7181063890457153,
      -0.8615822792053223,
      -0.44788435101509094,
      -0.6551480293273926,
      -0.019234932959079742,
      -0.7538212537765503,
      0.13247227668762207,
      0.06926115602254868,
      -1.3931926488876343,
      0.8825899958610535,
      -0.48442158102989197,
      -0.05855860188603401,
      0.07465574145317078,
      -0.0451640859246254,
      0.21102876961231232,
      0.17501091957092285,
      0.1369481384754181,
      -0.09757902473211288,
      -0.13020692765712738,
      0.058422379195690155,
      0.015696212649345398,
      -0.04997720569372177,
      -0.16857469081878662,
      -0.009760674089193344,
      -0.15347445011138916,
      -0.5126776695251465,
      -1.077156662940979,
      -1.8653596639633179,
      -1.8813378810882568,
      -1.0093594789505005,
      0.16014958918094635,
      0.18377624452114105,
      0.17337611317634583,
      -1.1237883567810059,
      0.6343190670013428,
      0.3712112307548523,
      0.2909369170665741,
      -1.102597713470459,
      -0.8712096810340881,
      -0.901528537273407,
      -0.4612656235694885,
      -0.21737560629844666,
      -0.6317798495292664,
      -0.36301517486572266,
      -0.15580877661705017,
      -0.4014147222042084,
      0.0410132110118866,
      -0.14754462242126465,
      0.02239580824971199,
      -0.002237603534013033,
      -0.042798832058906555,
      -0.14689676463603973,
      -0.2992455065250397,
      -0.4769819974899292,
      -1.2768349647521973,
      -1.9117861986160278,
      -1.2334518432617188,
      -0.7846540212631226,
      -0.2860877215862274,
      -0.09148019552230835,
      -0.34751757979393005,
      0.3837501108646393,
      1.1766630411148071,
      1.3367568254470825,
      0.5283920764923096,
      -0.6731747388839722,
      -1.3695465326309204,
      -0.6274660229682922,
      -1.032331943511963,
      -0.3100631535053253,
      0.04245787858963013,
      0.9761959910392761,
      1.1162103414535522,
      0.8037692308425903,
      0.20677459239959717,
      -0.049731314182281494,
      0.010961858555674553,
      0.014875994995236397,
      -0.007610060274600983,
      -0.12804202735424042,
      -0.2538937032222748,
      -0.45228835940361023,
      -1.0028494596481323,
      -1.3020789623260498,
      -1.0264583826065063,
      -0.5588244795799255,
      -0.44302916526794434,
      -0.592172384262085,
      0.6320626735687256,
      0.7434450387954712,
      0.7586186528205872,
      2.046422004699707,
      1.1708837747573853,
      -0.3347364366054535,
      -0.5028938055038452,
      -1.733328938484192,
      -1.2556272745132446,
      -0.1528031975030899,
      0.06289971619844437,
      1.0422484874725342,
      1.2255736589431763,
      0.6052756905555725,
      -0.04577646031975746,
      0.130437970161438,
      0.01986616477370262,
      0.002961957361549139,
      -0.01839165762066841,
      -0.02580682560801506,
      -0.22662700712680817,
      -0.5675014853477478,
      -0.5666581988334656,
      -0.8517858982086182,
      -0.5184040069580078,
      0.009277106262743473,
      -0.36434584856033325,
      -0.30828750133514404,
      1.7363102436065674,
      0.6806809306144714,
      1.9479281902313232,
      0.9949571490287781,
      0.33154812455177307,
      0.28873535990715027,
      -0.6836443543434143,
      -2.371824264526367,
      -2.5744705200195312,
      -1.077496886253357,
      -0.9159825444221497,
      -0.5530374646186829,
      -0.2002122700214386,
      -0.0955594927072525,
      -0.25552478432655334,
      0.10970980674028397,
      -0.0057566286996006966,
      0.04675205051898956,
      -0.04692468047142029,
      -0.004277398344129324,
      -0.15809430181980133,
      -0.3009825348854065,
      -0.3882945775985718,
      -0.7813530564308167,
      0.3593417704105377,
      0.3575606644153595,
      -0.0762941837310791,
      0.14714033901691437,
      0.6180915832519531,
      -0.19119274616241455,
      1.1423237323760986,
      0.05393775552511215,
      1.2524985074996948,
      0.7677017450332642,
      -0.0972309410572052,
      -2.7659640312194824,
      -2.229764938354492,
      -0.985283613204956,
      -1.2598674297332764,
      -0.9920974969863892,
      -0.6437209248542786,
      -0.4764064848423004,
      -0.2601419687271118,
      -0.018924064934253693,
      -0.00617825984954834,
      0.040511004626750946,
      -0.003162197768688202,
      0.07366681843996048,
      -0.049786996096372604,
      -0.05719272047281265,
      -0.8223677277565002,
      -1.037091612815857,
      -0.0489356704056263,
      0.3866981267929077,
      -0.17078016698360443,
      -0.8985868096351624,
      -0.1193835511803627,
      0.6415576338768005,
      0.28145456314086914,
      -0.11110369116067886,
      1.1047730445861816,
      0.1877834051847458,
      -0.12321430444717407,
      -1.765487551689148,
      -1.4775224924087524,
      -0.9067659974098206,
      -0.6227946877479553,
      -0.44526544213294983,
      0.007342231925576925,
      -0.18266934156417847,
      -0.02937808632850647,
      0.006867279298603535,
      -0.02056990936398506,
      0.03341683745384216,
      0.07207927852869034,
      -0.029635265469551086,
      0.15521244704723358,
      0.22957532107830048,
      -0.10048911720514297,
      -0.4593813419342041,
      -0.5637578964233398,
      -0.21575622260570526,
      -0.29472774267196655,
      -0.1888415813446045,
      -0.23503674566745758,
      0.3977871537208557,
      0.6726047396659851,
      0.23389695584774017,
      0.7481570243835449,
      -0.009964889846742153,
      -1.2727469205856323,
      -1.2187371253967285,
      -0.8749847412109375,
      -0.4415653645992279,
      -0.7438932657241821,
      -0.49010246992111206,
      -0.12569405138492584,
      -0.17789462208747864,
      -0.06515982747077942,
      0.024149615317583084,
      0.027400780469179153,
      0.025297701358795166,
      0.037101730704307556,
      -0.09091940522193909,
      0.012653021141886711,
      1.025070071220398,
      0.35996291041374207,
      -0.30025941133499146,
      -1.6527341604232788,
      -0.8786905407905579,
      -1.1077851057052612,
      0.09033110737800598,
      -0.04202749952673912,
      0.5130016207695007,
      0.24380084872245789,
      -0.08939754962921143,
      0.824828565120697,
      -1.6140426397323608,
      -1.7164288759231567,
      -1.3227638006210327,
      -0.5542780756950378,
      -0.35176539421081543,
      -0.5356813669204712,
      -0.18417885899543762,
      0.12168201804161072,
      -0.0021076886914670467,
      -0.03265032917261124,
      -0.014147885143756866,
      0.042567454278469086,
      0.031268760561943054,
      -0.0334671288728714,
      -0.16379599273204803,
      -0.040864497423172,
      0.6946227550506592,
      0.2649776339530945,
      -0.8605757355690002,
      -0.42158374190330505,
      -0.4380766451358795,
      -0.9500793218612671,
      -0.5720923542976379,
      -0.5573919415473938,
      0.4452396035194397,
      0.44207265973091125,
      -0.2738405466079712,
      -0.5310147404670715,
      -1.3941570520401,
      -1.0219115018844604,
      -0.6882241368293762,
      -0.6612761616706848,
      -0.7291913032531738,
      -0.7178828120231628,
      -0.41403067111968994,
      -0.00491495244204998,
      0.04992513358592987,
      -0.00954950600862503,
      0.005216436460614204,
      0.015607771463692188,
      -0.01832570508122444,
      0.02379850298166275,
      -0.18707777559757233,
      0.012656808830797672,
      -0.03275935351848602,
      -0.49285218119621277,
      0.15749062597751617,
      0.2746411859989166,
      0.4170073866844177,
      -0.04708922281861305,
      -0.37509885430336,
      -0.40204423666000366,
      0.2591511905193329,
      1.0192500352859497,
      -0.02805636078119278,
      -1.1468604803085327,
      0.06029106304049492,
      0.7764750123023987,
      -0.3026595115661621,
      -0.3679189682006836,
      -0.3514331877231598,
      -0.9854026436805725,
      -0.8835254907608032,
      -0.11864200979471207,
      0.18541112542152405,
      0.0098506398499012,
      0.029415488243103027,
      0.022091325372457504,
      0.009193412959575653,
      -0.029803983867168427,
      -0.2704039216041565,
      -0.2568931579589844,
      -0.27155372500419617,
      -0.5345606207847595,
      0.06041682884097099,
      -1.2486685514450073,
      0.8433417081832886,
      0.2311892807483673,
      0.403067946434021,
      0.5327533483505249,
      1.1342864036560059,
      -0.4920266270637512,
      0.042986299842596054,
      0.4495321214199066,
      0.08368933200836182,
      0.04761253297328949,
      0.5028367638587952,
      -0.09281542152166367,
      -0.28590095043182373,
      -0.9110612273216248,
      -0.5858933329582214,
      -0.02590695209801197,
      0.2698334753513336,
      0.006543896626681089,
      0.030880799517035484,
      -0.005787581205368042,
      0.006087269634008408,
      -0.07795561850070953,
      -0.46884453296661377,
      -0.6534141898155212,
      -0.6796131134033203,
      -0.16192200779914856,
      -0.4982585310935974,
      1.3095643520355225,
      0.17743328213691711,
      -0.24422064423561096,
      0.3591655194759369,
      0.29161661863327026,
      -0.20140568912029266,
      0.41897889971733093,
      -0.5724703669548035,
      0.46438637375831604,
      0.2506560683250427,
      1.0747087001800537,
      1.6832025051116943,
      0.048250630497932434,
      -0.33797115087509155,
      -0.9053396582603455,
      -0.7347947955131531,
      0.009928727522492409,
      0.08226988464593887,
      0.014795904979109764,
      0.030055712908506393,
      0.03756573051214218,
      -0.013626227155327797,
      -0.17797808349132538,
      -0.317081093788147,
      -0.34168633818626404,
      0.09742458909749985,
      -0.04480618238449097,
      -0.13937576115131378,
      0.20701849460601807,
      -0.05830999091267586,
      0.08506078273057938,
      -0.039940621703863144,
      -1.0132207870483398,
      -0.4633042812347412,
      0.6701550483703613,
      -0.18176056444644928,
      0.1537080556154251,
      -0.013956217095255852,
      0.2969919741153717,
      0.17130059003829956,
      0.2882077693939209,
      -0.7241563200950623,
      -1.1992872953414917,
      -0.5911970734596252,
      -0.05893878638744354,
      0.03897957503795624,
      0.0036022868007421494,
      0.03735797852277756,
      5.002829129807651E-4,
      0.0027441447600722313,
      -0.12753401696681976,
      -0.2607852518558502,
      -0.4125676453113556,
      0.2919870615005493,
      0.394505113363266,
      -0.10364876687526703,
      -0.012907429598271847,
      -0.1922270953655243,
      -0.25377827882766724,
      -1.013185739517212,
      -0.3078157305717468,
      -0.48455190658569336,
      0.3360203504562378,
      -0.5693668127059937,
      -0.1342817097902298,
      0.23490706086158752,
      0.7296122312545776,
      -0.0213672686368227,
      -0.30152249336242676,
      -0.714823305606842,
      -0.6287021040916443,
      -0.13175737857818604,
      -0.028992068022489548,
      0.015197018161416054,
      -0.0055913059040904045,
      0.04160985350608826,
      -0.002058429876342416,
      -0.009602060541510582,
      0.03362656384706497,
      -0.4055337905883789,
      -0.6878225207328796,
      0.5385226011276245,
      0.8789960741996765,
      -0.6973209381103516,
      0.14148737490177155,
      -0.7538660764694214,
      -0.3369201421737671,
      -0.6576928496360779,
      0.61685711145401,
      -1.3647559881210327,
      -1.6080433130264282,
      0.3682512640953064,
      0.5193557739257812,
      0.9274348616600037,
      0.4642397165298462,
      0.07535680383443832,
      -0.6290537714958191,
      -0.8195706605911255,
      -0.22546477615833282,
      -0.17326603829860687,
      -0.011434521526098251,
      0.07545763999223709,
      0.08240391314029694,
      0.04714684188365936,
      -9.298303630203009E-4,
      0.03586742281913757,
      4.2686634697020054E-4,
      -0.21025756001472473,
      -0.44228145480155945,
      -0.6030977964401245,
      -0.2380523681640625,
      -0.022324154153466225,
      -0.1533823013305664,
      -0.6227055191993713,
      0.210391566157341,
      -0.9849589467048645,
      -0.47970056533813477,
      -1.223656177520752,
      -0.5310607552528381,
      -1.093739628791809,
      -1.4122788906097412,
      0.1938396543264389,
      0.3059592843055725,
      -0.003212967189028859,
      -0.6945922374725342,
      -0.7727595567703247,
      -0.35202664136886597,
      0.0481792651116848,
      0.02428489923477173,
      0.054348789155483246,
      -0.01704525575041771,
      0.0392356738448143,
      0.005911511369049549,
      0.047349102795124054,
      0.03321947157382965,
      -0.003948155790567398,
      -0.1909385323524475,
      -0.15652772784233093,
      -0.02659195102751255,
      -0.1758131980895996,
      -0.12769129872322083,
      -0.39391791820526123,
      -1.1266189813613892,
      -0.8310203552246094,
      -0.9228764176368713,
      -0.20528151094913483,
      -0.40296196937561035,
      -1.0761268138885498,
      -0.6385745406150818,
      -0.19682550430297852,
      -0.2250787764787674,
      -0.43729424476623535,
      -0.27014249563217163,
      0.009928416460752487,
      0.07085296511650085,
      0.018205642700195312,
      -0.0011222932953387499,
      0.04237028956413269,
      0.02672535926103592,
      0.017405826598405838,
      -0.015168309211730957,
      0.0032177111133933067,
      0.03764928877353668,
      -0.0030775293707847595,
      0.0586763396859169,
      -0.08457180857658386,
      -0.19798724353313446,
      -0.2474813014268875,
      -0.04154988378286362,
      0.20526549220085144,
      -0.08704040199518204,
      -0.33846282958984375,
      0.39445239305496216,
      -0.3562300503253937,
      -0.18346214294433594,
      0.3425409197807312,
      0.3526236414909363,
      0.009330449625849724,
      -0.22233839333057404,
      -0.13806989789009094,
      0.010636474937200546,
      -0.012595752254128456,
      -0.009730719029903412,
      0.03495417907834053,
      0.0017158103873953223,
      -0.011584872379899025,
      -0.010940680280327797,
      0.03629319369792938,
      0.0051805488765239716,
      0.03043244034051895,
      0.04483345150947571,
      -0.01631658524274826,
      0.04924201965332031,
      0.008691346272826195,
      0.019285496324300766,
      0.04250139743089676,
      -0.0164857916533947,
      0.028965849429368973,
      0.0024210354313254356,
      -0.10271160304546356,
      0.16008779406547546,
      4.111535381525755E-4,
      0.08334334939718246,
      0.06598082929849625,
      0.048972174525260925,
      0.04151098430156708,
      0.106156125664711,
      -0.012612693011760712,
      -0.01527462713420391,
      0.04067673534154892,
      8.923637215048075E-4,
      0.04689361900091171,
      0.024176612496376038,
      0.0022737979888916016,
      0.0227823406457901,
      -0.01923176273703575,
      -0.027111245319247246,
      -0.05216515436768532,
      -0.02080274187028408,
      -0.014078049920499325,
      -0.04672669991850853,
      -8.558762492612004E-4,
      -0.047707509249448776,
      -0.04716216400265694,
      -0.03671536222100258,
      -0.053972501307725906,
      0.009515282697975636,
      -0.024385062977671623,
      -0.05311346426606178,
      -0.020832842215895653,
      -0.007557163946330547,
      0.0037475363351404667,
      -0.058108244091272354,
      -0.058305222541093826,
      0.010760280303657055,
      -0.02911454625427723,
      0.008591345511376858,
      -0.058537695556879044,
      -0.02345682494342327,
      0.0058469465002417564,
      -0.05204441770911217,
      -0.016073018312454224,
      -0.0047039007768034935,
      -0.02464487962424755,
      -0.006831777282059193,
      -0.04132755473256111,
      -0.0329163558781147,
      -0.005253009498119354,
      -0.0235129464417696,
      -0.03576048091053963,
      -0.04677174612879753,
      -0.03214769437909126,
      -0.04694546014070511,
      -0.012993243522942066,
      -7.890035631135106E-4,
      -0.01874251291155815,
      0.027694983407855034,
      -0.036364514380693436,
      -0.04921586439013481,
      0.004507838282734156,
      0.10765489935874939,
      0.059782978147268295,
      -0.021420003846287727,
      -0.002758430317044258,
      -0.010455870069563389,
      -0.03124859742820263,
      -0.009789077565073967,
      -0.021930862218141556,
      0.011033843271434307,
      -0.027963673695921898,
      -0.05341097339987755,
      -0.0027151452377438545,
      -0.05730602517724037,
      0.0012993653072044253,
      -0.05985060706734657,
      0.00768539123237133,
      -0.035069409757852554,
      -0.012317410670220852,
      -0.023805951699614525,
      -0.04371517896652222,
      -0.04798432067036629,
      -0.11233050376176834,
      -0.1685248166322708,
      -0.29299959540367126,
      -0.1054772213101387,
      -0.23920312523841858,
      -0.323596715927124,
      -0.32940879464149475,
      -0.21182410418987274,
      -0.2185409516096115,
      -0.2770305871963501,
      -0.25225359201431274,
      -0.25254157185554504,
      -0.19913731515407562,
      -0.08232460916042328,
      -0.01665223389863968,
      0.007766108959913254,
      -0.036425571888685226,
      -0.02770940773189068,
      -0.04354451969265938,
      -0.04261438921093941,
      -0.01843799091875553,
      -0.04362735152244568,
      0.020645741373300552,
      0.011692105792462826,
      -0.06704286485910416,
      -0.0332079753279686,
      -0.03786948695778847,
      -0.023632779717445374,
      -0.17334412038326263,
      -0.05582621321082115,
      0.1116287037730217,
      0.532874584197998,
      0.23864682018756866,
      0.6006361842155457,
      0.44650691747665405,
      0.24823583662509918,
      0.546227216720581,
      0.6919456124305725,
      -0.001630305778235197,
      0.27721548080444336,
      -0.10308612883090973,
      -0.14194084703922272,
      -0.03206012025475502,
      -0.007265395950525999,
      0.032617565244436264,
      -0.03451179340481758,
      -0.02754451520740986,
      -0.022653790190815926,
      -0.042744431644678116,
      -0.03901265189051628,
      0.010766573250293732,
      -0.01248109433799982,
      -0.002192836720496416,
      0.0064122797921299934,
      -0.2010422646999359,
      -0.3339371979236603,
      -0.3798193037509918,
      -0.1231229230761528,
      0.23323529958724976,
      -0.0289184357970953,
      -0.20260559022426605,
      0.15472719073295593,
      0.38878244161605835,
      0.36317598819732666,
      0.5387085676193237,
      0.5081377625465393,
      0.24506373703479767,
      0.2576179504394531,
      0.0553605742752552,
      0.0841936394572258,
      -0.1650198996067047,
      0.08774430304765701,
      0.11224567145109177,
      0.02198307029902935,
      -0.046427901834249496,
      -0.013776571489870548,
      -0.05254693701863289,
      -0.04988888278603554,
      0.012038690969347954,
      -0.1509486436843872,
      0.15107561647891998,
      0.05895094573497772,
      -0.325544536113739,
      -0.5422462821006775,
      -0.15557003021240234,
      -0.17877356708049774,
      -0.06514887511730194,
      -0.008423530496656895,
      0.1453041434288025,
      -0.3336547315120697,
      0.1279495358467102,
      0.010102207772433758,
      -0.20833580195903778,
      0.18142788112163544,
      -0.26816439628601074,
      -0.2531038224697113,
      -0.06151486188173294,
      -0.01889377273619175,
      -0.38449394702911377,
      -0.021487191319465637,
      0.15277592837810516,
      0.004145591985434294,
      -0.08563428372144699,
      -0.02445102669298649,
      -0.030120428651571274,
      9.627982508391142E-4,
      0.10925322026014328,
      0.04930730164051056,
      0.25230395793914795,
      0.1421886384487152,
      -0.3145958483219147,
      -0.048305246978998184,
      -0.19333882629871368,
      0.277233362197876,
      -0.0043637631461024284,
      0.3056391477584839,
      0.49787139892578125,
      0.04872047156095505,
      -0.22967146337032318,
      -0.07473837584257126,
      -0.18521945178508759,
      0.6062150001525879,
      0.6273127198219299,
      -0.08586200326681137,
      0.2130013108253479,
      0.10189978778362274,
      -0.401478111743927,
      0.019354648888111115,
      0.15819360315799713,
      0.006542835384607315,
      -0.0261160209774971,
      0.011332080699503422,
      -0.03815920278429985,
      -0.030281679704785347,
      0.26779183745384216,
      0.19984719157218933,
      0.003138735191896558,
      -0.2450471967458725,
      -0.3098137378692627,
      -0.34371715784072876,
      -0.45429283380508423,
      -0.33050936460494995,
      -0.9623359441757202,
      -0.17817279696464539,
      -0.5044845342636108,
      0.3349495232105255,
      0.5817061066627502,
      0.4046095907688141,
      -0.1610487401485443,
      0.1058037281036377,
      0.1697298288345337,
      0.28705376386642456,
      0.27879077196121216,
      0.1763971894979477,
      0.10995597392320633,
      -0.2260759174823761,
      0.1486203372478485,
      -0.06552056968212128,
      0.0030941558070480824,
      -0.035869766026735306,
      -0.01535409688949585,
      -0.07448335736989975,
      0.17085859179496765,
      0.058243922889232635,
      -0.34549885988235474,
      -0.5528553128242493,
      -0.30283939838409424,
      -0.20256370306015015,
      -0.9675232172012329,
      -0.9418768286705017,
      -0.6703505516052246,
      -0.520880937576294,
      -0.9667808413505554,
      -0.45725536346435547,
      -0.21613778173923492,
      0.3964512348175049,
      -0.4361041188240051,
      0.2048487663269043,
      -0.12108253687620163,
      -0.4190598130226135,
      0.3640419542789459,
      0.5885331034660339,
      -0.0033688002731651068,
      -0.03906508907675743,
      -0.16272124648094177,
      -0.01253511756658554,
      -0.03565992787480354,
      -0.01037166640162468,
      0.08556549996137619,
      6.24561682343483E-4,
      0.1517532467842102,
      -0.19357161223888397,
      -0.5122319459915161,
      -0.29572468996047974,
      -0.327834814786911,
      -0.5399070978164673,
      -1.0130047798156738,
      -0.6784790754318237,
      -0.9011138677597046,
      -0.40422457456588745,
      -0.5871580243110657,
      0.2701512277126312,
      -0.21689574420452118,
      -0.3786884844303131,
      0.7939397096633911,
      -0.11644803732633591,
      -0.2263277769088745,
      -0.6373404264450073,
      -0.25412264466285706,
      0.48375412821769714,
      0.22466810047626495,
      0.16528165340423584,
      0.2477174997329712,
      0.024582799524068832,
      0.011135163716971874,
      0.005123855546116829,
      -0.01962236315011978,
      0.12936118245124817,
      0.08495794236660004,
      -0.33236974477767944,
      -0.19402334094047546,
      -0.43554824590682983,
      -0.7219334840774536,
      -0.8749321103096008,
      -0.48182249069213867,
      -0.39625388383865356,
      -0.4060397148132324,
      -0.35251858830451965,
      0.34510642290115356,
      0.1615132987499237,
      0.44976311922073364,
      0.6148663759231567,
      -0.05756087228655815,
      -0.2480054646730423,
      0.1395423710346222,
      0.4468132555484772,
      0.1083187684416771,
      1.0297844409942627,
      0.7398825883865356,
      0.6523739099502563,
      0.7164719104766846,
      0.1434715986251831,
      -0.037093985825777054,
      -0.02311910316348076,
      0.022397484630346298,
      0.221964031457901,
      0.032596200704574585,
      -0.09100260585546494,
      -0.3178899884223938,
      -0.467195063829422,
      0.040660131722688675,
      0.2522425949573517,
      0.051502540707588196,
      0.32512104511260986,
      0.7492888569831848,
      -0.23111054301261902,
      0.8317379951477051,
      1.4436490535736084,
      1.3568843603134155,
      0.010914191603660583,
      0.7885130047798157,
      0.47993946075439453,
      0.21008852124214172,
      0.4221910834312439,
      -0.03709261864423752,
      1.0118180513381958,
      0.7161217331886292,
      0.5848409533500671,
      0.21837246417999268,
      0.1404699683189392,
      0.011211392469704151,
      -0.009610266424715519,
      0.0038954466581344604,
      0.12683585286140442,
      0.3445238471031189,
      0.27702027559280396,
      0.2572139501571655,
      0.23704621195793152,
      0.19463816285133362,
      0.24494056403636932,
      0.33906614780426025,
      0.6175793409347534,
      0.4356704652309418,
      -0.4071630537509918,
      -0.3998526334762573,
      0.747077226638794,
      0.6492817997932434,
      0.25362110137939453,
      0.3690863251686096,
      0.45183059573173523,
      0.19044673442840576,
      -0.13896505534648895,
      -0.4575289785861969,
      0.6215629577636719,
      0.5183397531509399,
      -0.27365949749946594,
      0.04444113001227379,
      0.14284545183181763,
      -0.005086195655167103,
      0.005980496294796467,
      0.0014417736092582345,
      0.011057954281568527,
      0.3372955620288849,
      0.5827820301055908,
      0.3483410179615021,
      0.4150278866291046,
      0.37713825702667236,
      0.15515387058258057,
      -0.07093033194541931,
      -0.7535474896430969,
      -0.44370028376579285,
      -0.15499944984912872,
      -0.3907797932624817,
      0.0701860561966896,
      -0.6932916641235352,
      0.3845319449901581,
      -0.1222984790802002,
      -0.4748203754425049,
      0.36082831025123596,
      0.08707412332296371,
      -0.13392682373523712,
      0.1937345713376999,
      -0.3043133020401001,
      -0.6950828433036804,
      -0.25465068221092224,
      -0.06287239491939545,
      -0.061422523111104965,
      -0.0455351285636425,
      -0.017473358660936356,
      0.04929213225841522,
      0.20945288240909576,
      0.23592928051948547,
      0.2485700398683548,
      0.29595592617988586,
      -0.3615330159664154,
      -0.5890441536903381,
      -0.6304330825805664,
      -0.26542720198631287,
      -0.5579806566238403,
      -0.4891414940357208,
      -0.364225834608078,
      -0.3063521683216095,
      0.13610805571079254,
      0.11908769607543945,
      0.103279709815979,
      -0.1836708039045334,
      -0.4005691111087799,
      0.3150562047958374,
      -0.11664103716611862,
      -0.007921358570456505,
      -0.18906286358833313,
      -0.14418071508407593,
      -0.2786511778831482,
      -0.08950190991163254,
      -0.02333929017186165,
      -0.04657626524567604,
      -0.04089470952749252,
      -0.053279269486665726,
      -0.007699913345277309,
      0.19756421446800232,
      0.5148501992225647,
      0.303507536649704,
      0.21227502822875977,
      -0.24981090426445007,
      -0.30624327063560486,
      -0.16724903881549835,
      -0.7045832276344299,
      -0.8073897957801819,
      -1.4216352701187134,
      -0.943778932094574,
      -0.3913077414035797,
      -0.45887550711631775,
      0.06953418254852295,
      0.2679976224899292,
      0.11923733353614807,
      0.6791983246803284,
      -0.09988056868314743,
      0.06553340703248978,
      0.3367927074432373,
      0.24587349593639374,
      -0.4988291561603546,
      -0.23505112528800964,
      -0.08237678557634354,
      -0.0573706217110157,
      -0.05069148913025856,
      -0.020154012367129326,
      0.06300609558820724,
      0.17521049082279205,
      0.9998617768287659,
      0.3946553170681,
      0.21435745060443878,
      0.6301247477531433,
      -0.3289196789264679,
      -0.013033672235906124,
      -0.7443328499794006,
      -1.1559598445892334,
      -1.0605720281600952,
      -0.9761913418769836,
      -0.17660178244113922,
      -0.434989333152771,
      -0.07517613470554352,
      -0.25593212246894836,
      -0.09501700848340988,
      0.11339791864156723,
      -1.0729637145996094,
      -0.039426740258932114,
      0.03801689296960831,
      -0.13831132650375366,
      -0.6938064694404602,
      -0.3141312599182129,
      -0.10332517325878143,
      0.0016635701758787036,
      -0.027965139597654343,
      -0.0013578380458056927,
      0.25758007168769836,
      0.035541512072086334,
      0.4433654844760895,
      0.33401331305503845,
      0.618999183177948,
      0.9991881251335144,
      0.287288099527359,
      -0.07501371204853058,
      -0.5052023530006409,
      -0.04458964616060257,
      -0.4282118082046509,
      -0.9607393145561218,
      -0.3093474209308624,
      -0.18480810523033142,
      0.008976917713880539,
      -0.5783376097679138,
      0.008477230556309223,
      -0.7318640947341919,
      -0.5304291844367981,
      0.13164742290973663,
      0.05185359716415405,
      -0.14931876957416534,
      -0.45387327671051025,
      -0.04957940801978111,
      0.03338436782360077,
      0.01338826585561037,
      -0.017931411042809486,
      0.053557854145765305,
      0.22649496793746948,
      -0.3204639256000519,
      -0.43521422147750854,
      -0.12416902929544449,
      -0.08612782508134842,
      0.7927358746528625,
      0.32005801796913147,
      0.5751160979270935,
      0.8040875196456909,
      0.20315106213092804,
      -0.04719239100813866,
      -0.26512444019317627,
      0.3326766788959503,
      -0.5641096830368042,
      -0.08068224787712097,
      -0.11848090589046478,
      -0.054756976664066315,
      -0.6109830141067505,
      -0.587675929069519,
      -0.277426540851593,
      -0.7264961004257202,
      -0.6391307711601257,
      -0.2426719218492508,
      -0.0535692535340786,
      -0.06568758934736252,
      -0.004785886965692043,
      -0.02009531296789646,
      0.020831437781453133,
      -0.20227545499801636,
      -0.47571805119514465,
      -0.46561768651008606,
      -0.5790089964866638,
      -0.8211580514907837,
      -0.13421039283275604,
      -0.1855609118938446,
      0.09540057182312012,
      0.11182311177253723,
      1.0001543760299683,
      0.15076418220996857,
      -0.24197348952293396,
      -0.31112945079803467,
      -0.47516581416130066,
      0.044667214155197144,
      -0.24613986909389496,
      -0.09600649029016495,
      -0.36898499727249146,
      -0.8986663818359375,
      -0.5021931529045105,
      -0.46368882060050964,
      -0.13783706724643707,
      -0.11649195849895477,
      -0.05354084074497223,
      -0.021295003592967987,
      0.00821868795901537,
      -0.03901856020092964,
      -0.12995636463165283,
      -0.4055638015270233,
      -0.6221511363983154,
      -0.3466954529285431,
      -0.3195406198501587,
      -0.8226767182350159,
      0.18013888597488403,
      0.38316234946250916,
      0.5901966094970703,
      -0.023882942274212837,
      -0.19197434186935425,
      -0.08524574339389801,
      -0.16174004971981049,
      -0.34336116909980774,
      -0.42174863815307617,
      -0.3622916638851166,
      -0.8114780187606812,
      -0.779636800289154,
      -0.7081024646759033,
      -1.0137768983840942,
      -0.9035202264785767,
      -0.5136575102806091,
      -0.1388101428747177,
      -0.07609596103429794,
      -0.04454325512051582,
      -0.03412186726927757,
      -0.00792260468006134,
      -0.04840819165110588,
      -0.20511990785598755,
      -0.4282348155975342,
      -0.5702956914901733,
      -0.5808451771736145,
      -0.03835393488407135,
      -0.38447001576423645,
      0.45477455854415894,
      0.5640384554862976,
      0.03560950607061386,
      -0.18634852766990662,
      0.1803109496831894,
      -0.11264132708311081,
      -0.10655391216278076,
      -0.7075528502464294,
      -0.1346660852432251,
      -0.48954421281814575,
      -0.682367205619812,
      -0.757996141910553,
      -0.43004176020622253,
      -0.5787376165390015,
      -0.7600247859954834,
      -0.4548789858818054,
      -0.2342143952846527,
      -0.15851683914661407,
      -0.029939891770482063,
      -0.012536936439573765,
      -0.04806406423449516,
      -0.0033045848831534386,
      -0.035835471004247665,
      -0.22012704610824585,
      -0.4355408847332001,
      -0.421808123588562,
      0.0475093275308609,
      -0.2895594835281372,
      0.03854963183403015,
      0.2310861349105835,
      0.21190617978572845,
      0.1045646145939827,
      -0.09847109764814377,
      0.271553635597229,
      0.6608679890632629,
      -0.16045081615447998,
      0.029668638482689857,
      -0.01712828502058983,
      -0.3007665276527405,
      -0.678766131401062,
      -0.11427123099565506,
      -0.20591849088668823,
      -0.07389473915100098,
      -0.018135584890842438,
      -0.15310589969158173,
      -0.1083146408200264,
      0.007084031123667955,
      -0.02836245857179165,
      -0.031178027391433716,
      -0.055387746542692184,
      -0.030464615672826767,
      0.10095284134149551,
      -0.019654421135783195,
      -0.006407647393643856,
      -0.14717061817646027,
      -0.22623944282531738,
      -0.5814729332923889,
      -0.8336279988288879,
      -0.7754948139190674,
      -1.0819973945617676,
      -0.7481063604354858,
      -0.2720455527305603,
      -0.6606652736663818,
      -0.23943297564983368,
      -0.2538153827190399,
      0.5377295613288879,
      0.2683126926422119,
      -0.04209156706929207,
      0.028622519224882126,
      0.10867542028427124,
      0.27832651138305664,
      0.12762600183486938,
      0.04501583054661751,
      -0.10989171266555786,
      -0.056847911328077316,
      -0.03959687426686287,
      2.5493843713775277E-4,
      -0.013543558306992054,
      -0.03886960446834564,
      0.0908372551202774,
      0.1862223595380783,
      0.2662862539291382,
      0.43720543384552,
      0.017847051844000816,
      -0.4316680133342743,
      -0.7666766047477722,
      -0.2180458903312683,
      -0.619132399559021,
      -0.24756231904029846,
      -0.0998186245560646,
      -0.2142208069562912,
      -0.38337424397468567,
      -0.35657739639282227,
      0.23870627582073212,
      0.05002257600426674,
      0.06599757075309753,
      0.43464982509613037,
      0.44495701789855957,
      0.277548223733902,
      0.23571859300136566,
      0.10506176203489304,
      -0.12901343405246735,
      -0.011446894146502018,
      0.006354396231472492,
      0.004133409820497036,
      -0.0452396534383297,
      -0.015254232101142406,
      5.689644021913409E-4,
      0.06491239368915558,
      0.2821562886238098,
      0.3036952614784241,
      0.27568748593330383,
      0.17524175345897675,
      0.15997079014778137,
      -0.024846473708748817,
      0.22028030455112457,
      0.15881742537021637,
      0.03475652635097504,
      -0.10311601310968399,
      -0.07275477051734924,
      0.185357928276062,
      0.2211485207080841,
      0.5048867464065552,
      0.833350658416748,
      0.747769296169281,
      0.7229722142219543,
      0.3027251660823822,
      0.13373245298862457,
      0.051907919347286224,
      -0.044079478830099106,
      -0.04553546383976936,
      -0.054572928696870804,
      -0.02391163818538189,
      -0.05281500890851021,
      -0.006342186592519283,
      -0.0526200495660305,
      0.030242377892136574,
      0.07435347884893417,
      0.09292475879192352,
      0.11731044948101044,
      0.09754865616559982,
      0.2087474763393402,
      0.309209942817688,
      0.321431964635849,
      0.31415441632270813,
      0.4154227375984192,
      0.5151349902153015,
      0.24575895071029663,
      0.33181288838386536,
      0.24175383150577545,
      0.3671971261501312,
      0.423396497964859,
      0.4894719123840332,
      0.3882385492324829,
      0.06869476288557053,
      -0.034656599164009094,
      0.0190911702811718,
      -0.04929960146546364,
      -0.032999079674482346,
      0.003910366911441088,
      -0.004571493715047836,
      -0.05483613535761833,
      -0.025853006169199944,
      -0.030607124790549278,
      -0.006058555096387863,
      -0.02522926591336727,
      -0.011209479533135891,
      -0.019475476816296577,
      0.035556212067604065,
      -0.03947581350803375,
      -0.01426069624722004,
      -0.0057597532868385315,
      -0.03094903938472271,
      -0.14970549941062927,
      -0.0401235856115818,
      -0.11095117777585983,
      -0.13079500198364258,
      -0.10076587647199631,
      0.06605269759893417,
      0.1023024246096611,
      0.0013773158425465226,
      0.08107618987560272,
      0.005761176347732544,
      -0.0029129311442375183,
      -0.033468130975961685,
      -0.05057070031762123,
      0.0034493207931518555,
      0.007130196783691645,
      -0.03552168607711792,
      -0.037188559770584106,
      -0.027501897886395454,
      -0.05890662223100662,
      -0.02561844326555729,
      -0.06482546031475067,
      -0.03858485817909241,
      0.0022061399649828672,
      -0.057241857051849365,
      -0.014862415380775928,
      -0.04402439296245575,
      -0.010654416866600513,
      -0.040594540536403656,
      -0.052150823175907135,
      -0.03657269477844238,
      8.759938064031303E-4,
      -0.013758585788309574,
      -0.010494592599570751,
      -0.005483598913997412,
      -0.049108974635601044,
      -0.012315935455262661,
      -0.026885950937867165,
      -0.05865722894668579,
      -0.0034418890718370676,
      -0.058714717626571655,
      -0.067174032330513,
      -0.0011319946497678757,
      -0.004711671266704798,
      -4.590458993334323E-4,
      -0.0470026433467865,
      -0.012740532867610455,
      -0.015473691746592522,
      -0.0066596451215445995,
      -0.02129504270851612,
      0.008835812099277973,
      0.05257548391819,
      -0.007609822321683168,
      0.15088613331317902,
      0.18463653326034546,
      0.37695369124412537,
      0.7958325147628784,
      0.3669031262397766,
      6.38589495792985E-4,
      0.2704612612724304,
      0.14709550142288208,
      0.20988771319389343,
      0.09284801781177521,
      0.14506176114082336,
      0.0817459374666214,
      0.0423637256026268,
      -0.01902962289750576,
      0.027074163779616356,
      -0.043351784348487854,
      -0.05829011648893356,
      -0.06413072347640991,
      -0.04596306383609772,
      0.0024295563343912363,
      0.002428658539429307,
      -0.01358118373900652,
      -0.019337298348546028,
      0.0011817291378974915,
      -0.05801694095134735,
      -0.021375803276896477,
      0.2039562463760376,
      0.25580453872680664,
      0.5244683623313904,
      0.8276966214179993,
      0.883872926235199,
      1.2965610027313232,
      0.636931300163269,
      0.2691100835800171,
      0.6145653128623962,
      0.5941119194030762,
      0.5259094834327698,
      0.4167911410331726,
      0.2913804352283478,
      0.11569143831729889,
      0.22128331661224365,
      0.20734058320522308,
      0.08153198659420013,
      0.0022173963952809572,
      -0.028132779523730278,
      -0.013019454665482044,
      -0.03360781818628311,
      -0.007331121247261763,
      -0.06100364774465561,
      -0.03855987638235092,
      -0.022820880636572838,
      -0.01875203289091587,
      -0.042461931705474854,
      0.015030527487397194,
      0.41371098160743713,
      0.5302193760871887,
      0.7536415457725525,
      1.015730619430542,
      1.0518715381622314,
      1.5884554386138916,
      1.573979139328003,
      0.7691051959991455,
      0.5328414440155029,
      0.6636626124382019,
      0.7928918600082397,
      -0.09139484912157059,
      -0.5128668546676636,
      0.4222010672092438,
      0.5185179114341736,
      0.0421578511595726,
      0.13695581257343292,
      -0.023378310725092888,
      -0.06937496364116669,
      -0.00817824061959982,
      -0.05283215641975403,
      -0.06416426599025726,
      -0.03555673360824585,
      -0.057574644684791565,
      -0.05688183009624481,
      -0.22951090335845947,
      -0.09254301339387894,
      0.15753862261772156,
      0.7613591551780701,
      0.9273974895477295,
      0.878714919090271,
      1.2722102403640747,
      1.3665637969970703,
      1.7802339792251587,
      1.2990758419036865,
      1.6483467817306519,
      1.7696305513381958,
      1.7846193313598633,
      1.360002875328064,
      1.0071570873260498,
      -0.7363512516021729,
      -0.3709374666213989,
      0.11383485794067383,
      -0.40653130412101746,
      -0.5399132370948792,
      -0.6397000551223755,
      0.2644132375717163,
      0.11686144769191742,
      0.017794443294405937,
      -0.03425823152065277,
      -0.06719408929347992,
      -9.685004479251802E-4,
      -0.015120482072234154,
      -0.10337767750024796,
      0.10693056136369705,
      0.49132704734802246,
      0.9066969156265259,
      -0.2643130421638489,
      -0.1511201411485672,
      0.9656437635421753,
      -0.09261786937713623,
      -0.3009251058101654,
      -0.3603954017162323,
      1.051452875137329,
      -0.6465942859649658,
      0.2386581003665924,
      0.37421420216560364,
      0.3917125165462494,
      0.86273592710495,
      0.8570647835731506,
      1.315316081047058,
      0.46917951107025146,
      -0.36314690113067627,
      -0.37680622935295105,
      0.27701491117477417,
      0.18957699835300446,
      -0.03618898615241051,
      -0.053585879504680634,
      -0.06051378697156906,
      -0.1327136754989624,
      -0.2262209951877594,
      -0.8242051601409912,
      -0.7998548150062561,
      -0.7442153692245483,
      0.2464376986026764,
      -0.9932570457458496,
      -1.2118901014328003,
      -0.047936517745256424,
      -0.4241480231285095,
      -0.9364013671875,
      0.011953405104577541,
      0.32758355140686035,
      -0.7382944226264954,
      0.7469578981399536,
      -0.9369081258773804,
      0.16798992455005646,
      0.7753852009773254,
      -0.6932005882263184,
      -0.4302932620048523,
      0.1683732569217682,
      0.24004440009593964,
      -0.4859652519226074,
      -0.04411224275827408,
      -0.13204079866409302,
      -0.05320354551076889,
      -0.012700608000159264,
      0.022336358204483986,
      -0.2257375717163086,
      -0.784530520439148,
      -0.9875224828720093,
      -0.06220086291432381,
      -0.20457258820533752,
      -0.46926429867744446,
      0.10829345881938934,
      -0.14800706505775452,
      -0.3000447154045105,
      0.5620920062065125,
      0.11444022506475449,
      -1.0898849964141846,
      -0.895348072052002,
      -0.2483687698841095,
      -0.017728975042700768,
      -0.7960054874420166,
      -0.3080582618713379,
      -0.28249478340148926,
      -0.6084745526313782,
      -0.13112394511699677,
      0.2452808916568756,
      0.043667424470186234,
      -0.16159620881080627,
      -0.08424797654151917,
      -0.20911447703838348,
      -0.07582863420248032,
      -0.043745506554841995,
      -0.01702035591006279,
      -0.13965290784835815,
      -0.5739226341247559,
      -0.5252162218093872,
      -0.07790286839008331,
      0.17890039086341858,
      -0.3843047022819519,
      0.09714570641517639,
      -0.9514884352684021,
      0.5946645140647888,
      -0.32324525713920593,
      0.5457181930541992,
      0.8568610548973083,
      0.24828913807868958,
      -0.10010579228401184,
      0.2631068825721741,
      0.024073975160717964,
      0.1758604198694229,
      0.5738139152526855,
      -0.0023822481743991375,
      0.5773169994354248,
      -0.1924411505460739,
      -0.011223857291042805,
      -0.26657038927078247,
      0.1614503115415573,
      -0.1361643224954605,
      -0.00572357838973403,
      -0.016464898362755775,
      -0.025866154581308365,
      -0.0974189043045044,
      -0.21063071489334106,
      0.025416318327188492,
      0.18518765270709991,
      -0.7554912567138672,
      0.05335022136569023,
      -0.0641341358423233,
      -0.9719030261039734,
      -0.18189767003059387,
      -0.8847565650939941,
      -1.0260323286056519,
      -0.20332598686218262,
      -0.3140300214290619,
      -0.42631155252456665,
      -0.4943995773792267,
      -1.0161014795303345,
      -0.36032819747924805,
      -0.539591908454895,
      -0.7365819215774536,
      0.31905117630958557,
      -0.8165399432182312,
      1.1720333099365234,
      1.2085515260696411,
      0.37718966603279114,
      -0.12089348584413528,
      -0.23222608864307404,
      -0.06059496849775314,
      -0.06075140833854675,
      0.04661693423986435,
      -0.1881483942270279,
      0.2689180076122284,
      -0.4891285002231598,
      -0.47651344537734985,
      -0.3429568409919739,
      0.8354213833808899,
      -0.8117926716804504,
      0.23088860511779785,
      0.5760288834571838,
      -0.029707472771406174,
      -1.1409317255020142,
      0.35580578446388245,
      -0.8478646874427795,
      -0.5296519994735718,
      -0.5545947551727295,
      -0.2597056031227112,
      -0.843747615814209,
      0.24659651517868042,
      -0.7386416792869568,
      0.5561928153038025,
      1.1252425909042358,
      0.9303656220436096,
      -0.28481191396713257,
      -0.042601365596055984,
      -0.114325612783432,
      -0.034547410905361176,
      -0.08370603621006012,
      -0.015165738761425018,
      -0.09211694449186325,
      -0.06430049985647202,
      -0.633332371711731,
      -0.047915782779455185,
      -0.3228093683719635,
      -0.7304033637046814,
      -0.9022675156593323,
      -0.19390356540679932,
      -1.0907976627349854,
      0.20157042145729065,
      -0.02042357064783573,
      0.3152976930141449,
      -1.511367678642273,
      -0.4152035117149353,
      -1.1849063634872437,
      -0.7426527738571167,
      0.3901805877685547,
      -0.4863782227039337,
      -0.6079204678535461,
      0.560745358467102,
      1.0047850608825684,
      1.2824857234954834,
      0.0577918142080307,
      0.09987811744213104,
      -0.03869295120239258,
      -0.02062208764255047,
      -0.07131567597389221,
      -0.037066273391246796,
      0.3925929069519043,
      0.3322775363922119,
      0.6719785332679749,
      0.2612248361110687,
      0.2653273642063141,
      -0.41851139068603516,
      0.9827845692634583,
      -0.41913750767707825,
      -0.3900243639945984,
      0.49241968989372253,
      0.21390403807163239,
      0.09639764577150345,
      -1.2593724727630615,
      -0.07137138396501541,
      -0.18911324441432953,
      -1.0263149738311768,
      -0.14077520370483398,
      0.5589084625244141,
      -0.14459051191806793,
      -0.26048365235328674,
      1.199113130569458,
      0.9002902507781982,
      -0.14861877262592316,
      -0.19661931693553925,
      -0.16052605211734772,
      -0.013521780259907246,
      -0.04563320800662041,
      -0.025015544146299362,
      0.44179096817970276,
      -0.059213243424892426,
      -0.020519761368632317,
      -0.3213132321834564,
      -0.1633387804031372,
      -0.9474980235099792,
      -0.48912766575813293,
      -0.7091259956359863,
      0.08619660884141922,
      0.19602727890014648,
      -0.061525098979473114,
      0.0532492995262146,
      -0.7054719924926758,
      -1.0990922451019287,
      -0.3884677290916443,
      0.3415304124355316,
      -0.8420867919921875,
      -0.35074567794799805,
      -0.15932156145572662,
      -0.6430556178092957,
      0.6708511710166931,
      0.4684934914112091,
      -0.13167397677898407,
      0.021389855071902275,
      0.003246412379667163,
      -0.03114747256040573,
      -0.002506834687665105,
      0.006385690998286009,
      0.23124279081821442,
      -1.107440710067749,
      -0.5472382307052612,
      -0.8107436895370483,
      -0.5841823220252991,
      -0.2568527162075043,
      -0.07833347469568253,
      -0.4386341869831085,
      0.09314481168985367,
      0.19011114537715912,
      -0.19794408977031708,
      0.45698708295822144,
      0.2347625494003296,
      -0.16518886387348175,
      -1.0253947973251343,
      -0.1921621710062027,
      -1.4529811143875122,
      -0.7496729493141174,
      -0.4834108352661133,
      -0.3435765206813812,
      0.5990326404571533,
      0.43853676319122314,
      -0.06167380511760712,
      0.011885734274983406,
      -0.06875555217266083,
      -0.009336146526038647,
      -0.015290288254618645,
      0.08541087806224823,
      0.11580824851989746,
      -1.0975991487503052,
      -0.6157578229904175,
      -0.5932056307792664,
      -0.01548932958394289,
      -0.7517398595809937,
      -0.2559453845024109,
      -1.1601576805114746,
      -0.3278560936450958,
      0.7960963249206543,
      0.0670773983001709,
      1.3949050903320312,
      -2.053281307220459,
      -0.18174104392528534,
      -1.5076329708099365,
      -0.5214223265647888,
      -0.920540452003479,
      -0.5812599658966064,
      -0.4925191104412079,
      0.38904666900634766,
      0.1978204995393753,
      0.5793622136116028,
      0.33395811915397644,
      -0.036348503082990646,
      -0.021766608580946922,
      -0.03847160190343857,
      -0.049122340977191925,
      0.10844352841377258,
      0.18286743760108948,
      -0.6082274317741394,
      -0.45896169543266296,
      -0.8510687351226807,
      0.212419793009758,
      -1.6857410669326782,
      0.5632201433181763,
      0.6664077043533325,
      -0.1355305016040802,
      -0.032821595668792725,
      0.8985793590545654,
      1.059236764907837,
      -0.6572858095169067,
      -0.26181918382644653,
      -0.8172023892402649,
      -0.9555444121360779,
      -0.15620683133602142,
      0.09558743983507156,
      0.44656476378440857,
      0.6257398724555969,
      0.7951001524925232,
      1.0572112798690796,
      0.3342130482196808,
      -0.02612793631851673,
      -0.043094098567962646,
      -0.033395931124687195,
      -0.02086549438536167,
      0.05507736653089523,
      0.15392470359802246,
      0.1336769461631775,
      0.3570155203342438,
      -0.3941797614097595,
      -1.092402696609497,
      -0.3786327540874481,
      -0.6114704012870789,
      0.3639097511768341,
      1.374018907546997,
      -0.02599724754691124,
      -0.3330547511577606,
      0.3567825257778168,
      -0.5092935562133789,
      -0.693365216255188,
      -0.8962570428848267,
      0.22761142253875732,
      -0.1426505297422409,
      -0.22716011106967926,
      -0.0436127744615078,
      0.29095444083213806,
      0.22414171695709229,
      0.510089635848999,
      -0.1802116334438324,
      -0.28878524899482727,
      -0.0525519959628582,
      -0.05346246808767319,
      -0.03858661651611328,
      -0.007791802752763033,
      0.2146942913532257,
      0.42208024859428406,
      0.5262706875801086,
      -0.03625191003084183,
      0.025129036977887154,
      -0.3950798809528351,
      -0.15349425375461578,
      -0.6398575901985168,
      0.6211574673652649,
      0.21748575568199158,
      -0.7643344402313232,
      -0.04686708748340607,
      -0.04558105394244194,
      0.21202847361564636,
      -0.6413484811782837,
      0.33702126145362854,
      -0.03564073517918587,
      -0.3448254466056824,
      0.19476863741874695,
      0.5998150706291199,
      0.8389900922775269,
      0.586101233959198,
      -0.08571919798851013,
      -0.20024703443050385,
      -0.051222097128629684,
      -0.012833724729716778,
      0.008123847655951977,
      0.02015315741300583,
      0.053098320960998535,
      0.6740671992301941,
      0.5243067741394043,
      0.8932878375053406,
      0.9352593421936035,
      0.2762274146080017,
      0.5551597476005554,
      1.4683482646942139,
      -0.2758570611476898,
      0.14969263970851898,
      0.017328914254903793,
      -0.8265436291694641,
      0.41488808393478394,
      0.617111086845398,
      1.0583186149597168,
      0.6571236252784729,
      0.22073149681091309,
      0.05854271352291107,
      0.7192379236221313,
      1.572251796722412,
      1.4240671396255493,
      0.3254328966140747,
      0.08253619074821472,
      -0.046683259308338165,
      -0.0387091264128685,
      0.001345199067145586,
      0.006481371354311705,
      0.022352665662765503,
      0.2639065384864807,
      1.115990400314331,
      1.6273596286773682,
      2.1889748573303223,
      2.7074990272521973,
      3.0537235736846924,
      3.1375863552093506,
      2.11962628364563,
      2.4151086807250977,
      3.004784345626831,
      2.293361186981201,
      2.2085752487182617,
      1.1596745252609253,
      1.3618239164352417,
      0.2113836407661438,
      1.3612697124481201,
      0.8784179091453552,
      1.7925697565078735,
      1.5776220560073853,
      1.9391944408416748,
      1.2467321157455444,
      -0.2979450821876526,
      -0.12831838428974152,
      -0.07529297471046448,
      -0.0036270010750740767,
      -0.03869771212339401,
      -0.06542836129665375,
      0.015869826078414917,
      0.3073320686817169,
      0.8915020227432251,
      2.1082472801208496,
      2.323929786682129,
      1.8343769311904907,
      1.0404565334320068,
      1.9266457557678223,
      1.2791590690612793,
      1.6215863227844238,
      1.829776644706726,
      1.918206810951233,
      1.708710789680481,
      2.4195563793182373,
      0.5835999250411987,
      1.976453185081482,
      1.3869107961654663,
      0.6422473788261414,
      0.7668617963790894,
      0.48313018679618835,
      1.295367956161499,
      0.8389432430267334,
      -0.26506921648979187,
      -0.0934877097606659,
      -0.05985472351312637,
      -0.06382250785827637,
      -0.04304133355617523,
      -0.02903321571648121,
      -0.06747850775718689,
      0.007388745434582233,
      0.1866823434829712,
      0.7180764079093933,
      0.7767795920372009,
      -0.045625247061252594,
      -0.026717493310570717,
      0.11229420453310013,
      -0.13478747010231018,
      -0.19004608690738678,
      -0.6746357083320618,
      0.12771481275558472,
      -0.1548367738723755,
      0.6390836238861084,
      0.4349167048931122,
      0.9849213361740112,
      0.9717860817909241,
      0.47593218088150024,
      0.38297635316848755,
      0.6341565251350403,
      0.7402356863021851,
      0.3636663258075714,
      -0.17531102895736694,
      0.05969851836562157,
      -0.06432925164699554,
      -0.06577436625957489,
      -0.04686389118432999,
      -0.04058762639760971,
      0.10480082780122757,
      0.007982651703059673,
      -0.5390785932540894,
      -0.5108243227005005,
      -0.8322333097457886,
      -1.0026546716690063,
      0.158454030752182,
      0.44530001282691956,
      0.7046985030174255,
      0.3980804681777954,
      0.3368518352508545,
      0.4778609871864319,
      0.37838509678840637,
      1.4433616399765015,
      1.1344616413116455,
      0.0925711840391159,
      1.5427346229553223,
      1.1213340759277344,
      1.2646719217300415,
      0.31959468126296997,
      0.4620284140110016,
      0.33017295598983765,
      -0.11571472883224487,
      -0.0626622885465622,
      -0.025709981098771095,
      -0.041638560593128204,
      -0.0043455976992845535,
      -0.010797443799674511,
      -0.03884032368659973,
      -0.05943310260772705,
      -1.0545637607574463,
      -1.7950352430343628,
      -1.5223222970962524,
      -1.1161620616912842,
      -0.3023996353149414,
      0.01089155487716198,
      0.23504160344600677,
      0.08798763900995255,
      0.8924874663352966,
      1.1211079359054565,
      1.0297878980636597,
      1.2718186378479004,
      0.6833653450012207,
      -0.027955489233136177,
      1.9718061685562134,
      1.8166509866714478,
      0.05779913812875748,
      -0.9056914448738098,
      -0.42320868372917175,
      -0.46626541018486023,
      0.0700804740190506,
      0.020513037219643593,
      -0.02523035742342472,
      -0.06388236582279205,
      -0.0037704333662986755,
      -0.05503387004137039,
      -0.04408540576696396,
      -0.12395405769348145,
      -0.5928045511245728,
      -1.0138516426086426,
      -0.5561296939849854,
      -0.6803339719772339,
      -0.4390144348144531,
      -0.3937554359436035,
      0.13419881463050842,
      -0.3118467926979065,
      0.5117336511611938,
      0.1546603888273239,
      0.15818394720554352,
      0.8096551895141602,
      0.21754170954227448,
      0.8236660361289978,
      0.3186926245689392,
      0.8573657274246216,
      -0.37265610694885254,
      -0.7442151308059692,
      -0.5238287448883057,
      -0.40088745951652527,
      -0.06686286628246307,
      -0.00172702525742352,
      -0.0019303371664136648,
      -0.05246894061565399,
      -0.012475804425776005,
      -0.03715670108795166,
      -0.013887719251215458,
      -0.022368287667632103,
      -0.046906083822250366,
      -0.13618454337120056,
      -0.2800682485103607,
      -0.2536364495754242,
      -0.37514758110046387,
      -0.8098879456520081,
      -0.530096709728241,
      -0.4969232976436615,
      -0.6484745144844055,
      -1.0471360683441162,
      -1.5870883464813232,
      -1.0201693773269653,
      -0.28924262523651123,
      0.17496202886104584,
      0.1348828375339508,
      -0.2339608073234558,
      -0.461402952671051,
      -0.3092014193534851,
      -0.20246273279190063,
      -0.047753557562828064,
      -0.0033418822567909956,
      -0.05020006746053696,
      -0.013628783635795116,
      -0.03785867989063263,
      -0.028715303167700768,
      -0.03966027498245239,
      -0.06461718678474426,
      -0.0393359437584877,
      -0.03249499946832657,
      -0.06984436511993408,
      -0.05208270251750946,
      -0.011420542374253273,
      -0.060934584587812424,
      -0.06172279268503189,
      -0.06330330669879913,
      -0.022182976827025414,
      -0.03327646851539612,
      -0.06382802873849869,
      -0.1257450431585312,
      -0.04605390131473541,
      -0.013659484684467316,
      -0.02795611135661602,
      -0.16816826164722443,
      -0.0829988345503807,
      -0.014682523906230927,
      -0.06673564016819,
      -0.056910865008831024,
      -0.05173373967409134,
      -0.00845752377063036,
      -0.052942655980587006,
      -0.041050948202610016,
      -0.050668179988861084,
      -0.04688020795583725,
      -0.03594367951154709,
      -0.02375996671617031,
      -0.023442668840289116,
      -0.03064229153096676,
      -0.039190247654914856,
      -0.04118293523788452,
      -0.020284472033381462,
      -0.0066169919446110725,
      0.01746177487075329,
      -0.04276543855667114,
      5.063283024355769E-4,
      -0.01126058865338564,
      -0.002634209580719471,
      0.011765184812247753,
      0.015686124563217163,
      -0.009923423640429974,
      0.01960558257997036,
      -0.00685802660882473,
      -0.002296909224241972,
      0.013247004710137844,
      -0.033478476107120514,
      -0.02167731337249279,
      -0.020030243322253227,
      -0.026113802567124367,
      0.019042624160647392,
      -0.007141159847378731,
      0.002377069089561701,
      0.01579052396118641,
      -0.026219302788376808,
      -0.03608722239732742,
      -0.0027902107685804367,
      -0.025675134733319283,
      -0.04585186019539833,
      0.004900221712887287,
      0.0013024217914789915,
      -0.028753699734807014,
      0.010543569922447205,
      0.0055135018192231655,
      -0.014963528141379356,
      -0.020875219255685806,
      -0.030969226732850075,
      -0.022963564842939377,
      0.008921113796532154,
      -0.008496856316924095,
      0.006290365010499954,
      -0.036612700670957565,
      -0.011942753568291664,
      -0.020474599674344063,
      0.01650061085820198,
      -0.014579378068447113,
      0.007130059413611889,
      -0.02003064937889576,
      0.010869930498301983,
      -0.020546929910779,
      0.004361274652183056,
      0.016845351085066795,
      -0.01242386270314455,
      0.006271321326494217,
      -0.033156778663396835,
      -0.042206477373838425,
      -0.002655600430443883,
      -0.038094423711299896,
      0.0035802198108285666,
      -0.016780730336904526,
      -0.01257933396846056,
      -0.0331091471016407,
      -0.026659201830625534,
      -0.0045301783829927444,
      0.015304426662623882,
      -0.01895909383893013,
      -0.10658486187458038,
      -0.05547136068344116,
      -2.9679216095246375E-4,
      0.03749227151274681,
      -0.016416938975453377,
      -0.03097134828567505,
      -0.03786154091358185,
      -0.017417501658201218,
      0.023501122370362282,
      -0.0041193049401044846,
      -0.047695886343717575,
      0.00759341474622488,
      -0.022293681278824806,
      2.8573573217727244E-4,
      -0.020536260679364204,
      -0.024185584858059883,
      -0.0012596474261954427,
      -0.005889506079256535,
      -0.02719474583864212,
      0.0014833102468401194,
      0.05129462480545044,
      0.03329195827245712,
      0.021034371107816696,
      0.12562906742095947,
      0.1957864761352539,
      0.10894788056612015,
      -0.014516555704176426,
      -0.15760545432567596,
      -0.001625393400900066,
      -0.014110072515904903,
      -0.032796718180179596,
      -0.07225722074508667,
      -0.015180868096649647,
      -0.060307398438453674,
      0.006930154282599688,
      0.03255045413970947,
      7.297757547348738E-4,
      -0.03205927833914757,
      -0.01345836091786623,
      -0.03258514404296875,
      -0.003538991790264845,
      0.004256445914506912,
      0.003940500784665346,
      -0.015926022082567215,
      -0.002881884342059493,
      -0.031705591827631,
      0.0646209791302681,
      0.10056118667125702,
      0.10718316584825516,
      0.0487869530916214,
      -0.08280357718467712,
      0.002277725376188755,
      -0.031871046870946884,
      -0.15370936691761017,
      0.05104037746787071,
      0.08887472748756409,
      0.08132407814264297,
      0.07778693735599518,
      0.09558599442243576,
      -0.004076716024428606,
      -0.07442063093185425,
      -0.10814496874809265,
      -0.09587650001049042,
      -0.012758960016071796,
      -0.008275490254163742,
      -0.018786408007144928,
      -0.05233503878116608,
      -5.08591765537858E-4,
      -0.04731462523341179,
      0.021251918748021126,
      0.004619949497282505,
      -0.029047269374132156,
      -0.007409277837723494,
      -0.0367099829018116,
      0.11103684455156326,
      0.24629929661750793,
      0.10129394382238388,
      -0.08538948744535446,
      -0.03167462348937988,
      -0.10407567769289017,
      -0.045817047357559204,
      -0.009213215671479702,
      -0.16501441597938538,
      -0.2954326570034027,
      -0.1657319962978363,
      -0.07282903045415878,
      -0.043997302651405334,
      -0.10417937487363815,
      0.0018747553694993258,
      -0.054322537034749985,
      -0.0604107640683651,
      -0.07190559804439545,
      -0.020183099433779716,
      -0.07773289829492569,
      -0.04985523596405983,
      -0.04682391881942749,
      -0.012618114240467548,
      -0.04520431160926819,
      -0.020165687426924706,
      -0.023567277938127518,
      -0.014909780584275723,
      0.008946225978434086,
      0.185927152633667,
      0.3242843449115753,
      0.19757512211799622,
      0.14183971285820007,
      0.3292953073978424,
      0.4262450933456421,
      0.35427096486091614,
      0.38320744037628174,
      0.3074299693107605,
      0.4146653115749359,
      0.05599413439631462,
      0.04230238497257233,
      0.02340472862124443,
      -0.09251638501882553,
      -0.04022468253970146,
      -0.053572628647089005,
      -0.11774533241987228,
      -0.13164469599723816,
      -0.12139969319105148,
      -0.08095676451921463,
      0.01789548620581627,
      -0.039944034069776535,
      0.003886276390403509,
      0.00197189231403172,
      -0.040532343089580536,
      -0.00417458638548851,
      -0.007522564381361008,
      -0.09014958888292313,
      0.11687159538269043,
      0.18000005185604095,
      0.08906172960996628,
      0.11035480350255966,
      0.28868889808654785,
      0.17179666459560394,
      0.1859264075756073,
      0.019380055367946625,
      0.24807095527648926,
      0.3594644069671631,
      0.39474067091941833,
      0.04774491488933563,
      -0.10026673227548599,
      -0.13942517340183258,
      -0.23324529826641083,
      -0.24825260043144226,
      -0.07837904244661331,
      -0.1039569079875946,
      -0.09249025583267212,
      -0.028179315850138664,
      -0.022720107808709145,
      -0.04917405545711517,
      -0.01942608691751957,
      0.0028867661021649837,
      0.00873241014778614,
      -0.018277660012245178,
      -0.12789398431777954,
      -0.020139088854193687,
      0.10617871582508087,
      0.07312095165252686,
      -0.13760370016098022,
      0.05071556940674782,
      -0.003304629120975733,
      -0.10107061266899109,
      -0.1794116199016571,
      -0.4364878535270691,
      -0.487783819437027,
      -0.12239257246255875,
      0.12213059514760971,
      -0.06382011622190475,
      -0.12460355460643768,
      -0.17899902164936066,
      -0.21135520935058594,
      -0.19454601407051086,
      -0.06973498314619064,
      -0.042794596403837204,
      -0.004152039531618357,
      -0.0471503846347332,
      -0.028923511505126953,
      -0.02505370043218136,
      -0.05061257258057594,
      0.01551563199609518,
      0.020011957734823227,
      -0.04411005601286888,
      -0.17385506629943848,
      0.0027787089347839355,
      0.0705232098698616,
      0.16418422758579254,
      0.09543392062187195,
      -0.149955153465271,
      -0.22804999351501465,
      -0.2202530801296234,
      -0.2287290245294571,
      -0.5624455213546753,
      -0.9054431915283203,
      -0.6357467770576477,
      -0.46245744824409485,
      -0.29818224906921387,
      -0.031604766845703125,
      -0.15940715372562408,
      0.045411016792058945,
      -0.20265057682991028,
      0.03699388727545738,
      0.07732019573450089,
      0.016651470214128494,
      -0.05401105061173439,
      -0.008886034600436687,
      0.01855071261525154,
      0.01839049905538559,
      0.018098464235663414,
      -0.02312931977212429,
      -0.03847835958003998,
      -0.10251011699438095,
      -0.07205776125192642,
      0.05657314509153366,
      0.0775962844491005,
      0.12648186087608337,
      -0.15212154388427734,
      -0.346714586019516,
      -0.08246991783380508,
      -0.41139668226242065,
      -0.6886394023895264,
      -0.6646052002906799,
      -0.5865666270256042,
      -0.31072452664375305,
      -0.09608378261327744,
      0.11440210789442062,
      -0.07252951711416245,
      -0.01663949340581894,
      0.058891210705041885,
      0.07379589974880219,
      0.104152150452137,
      -0.014786719344556332,
      -0.07861273735761642,
      0.04051358252763748,
      0.0032872518058866262,
      -0.042099323123693466,
      -0.022774191573262215,
      0.006802511401474476,
      -0.012072887271642685,
      -0.038472529500722885,
      -0.15244103968143463,
      -0.08977045863866806,
      -0.2149806022644043,
      -0.16026118397712708,
      -0.3215285539627075,
      -0.41111838817596436,
      -0.22771936655044556,
      -0.42506545782089233,
      -0.6261840462684631,
      -0.7929425239562988,
      -0.9179098010063171,
      -0.40066206455230713,
      0.09061435610055923,
      -5.632667453028262E-4,
      -0.19953158497810364,
      -0.05768173933029175,
      0.10705966502428055,
      0.029776593670248985,
      -0.004333743825554848,
      -0.02535240165889263,
      -0.10332349687814713,
      -0.01627199724316597,
      -0.051867373287677765,
      -0.025234198197722435,
      0.018154645338654518,
      -0.04039870947599411,
      0.01377065945416689,
      -0.07180331647396088,
      -0.16025009751319885,
      -0.14882369339466095,
      -0.24658577144145966,
      -0.30654704570770264,
      -0.2744361460208893,
      -0.445770263671875,
      -0.38112565875053406,
      -0.4246686100959778,
      -0.4998556673526764,
      -0.7998788356781006,
      -0.871394693851471,
      -0.48633477091789246,
      0.18267259001731873,
      -0.1860717236995697,
      -0.14515626430511475,
      -0.03927908092737198,
      -0.15491481125354767,
      -0.050021179020404816,
      -0.11265914887189865,
      -0.17038272321224213,
      -0.0903496965765953,
      0.023694396018981934,
      0.00897942204028368,
      -0.045241594314575195,
      -0.047693293541669846,
      -0.017912492156028748,
      0.023294571787118912,
      -0.09219305217266083,
      -0.22508572041988373,
      -0.3054939806461334,
      -0.23769249022006989,
      -0.265277624130249,
      -0.30899783968925476,
      -0.4399276673793793,
      -0.47612473368644714,
      -0.45651206374168396,
      -0.4763116240501404,
      -0.5870249271392822,
      -0.7818637490272522,
      -0.5082133412361145,
      -0.13432711362838745,
      -0.34296756982803345,
      -0.16993875801563263,
      -0.21648310124874115,
      -0.11336783319711685,
      -0.012922213412821293,
      -0.07671354711055756,
      -0.2607212960720062,
      -0.037433698773384094,
      0.002269050572067499,
      0.008533501997590065,
      0.019215432927012444,
      0.013361004181206226,
      -0.03884841129183769,
      -0.04605582356452942,
      -0.03985605761408806,
      -0.21773721277713776,
      -0.35840800404548645,
      -0.14016883075237274,
      -0.25372743606567383,
      -0.3581255078315735,
      -0.328555166721344,
      -0.3840521275997162,
      -0.3636542558670044,
      -0.38669946789741516,
      -0.7002108693122864,
      -0.6610336303710938,
      -0.21506744623184204,
      0.16546732187271118,
      -0.19054624438285828,
      -0.15071432292461395,
      -0.057313017547130585,
      0.04636121541261673,
      0.04044554382562637,
      -0.030714495107531548,
      -0.14810726046562195,
      -0.04090471193194389,
      0.015902817249298096,
      0.035317376255989075,
      0.022901706397533417,
      0.01246142853051424,
      -0.0013748753117397428,
      -0.040240176022052765,
      -0.050288643687963486,
      -0.15994171798229218,
      -0.3252825438976288,
      -0.3208771347999573,
      -0.34449848532676697,
      -0.31685900688171387,
      -0.249355286359787,
      -0.2903784513473511,
      -0.2159457504749298,
      -0.27088356018066406,
      -0.5091910362243652,
      -0.3121963441371918,
      0.01117013394832611,
      0.18736977875232697,
      -0.2586223781108856,
      0.01552595105022192,
      0.34049224853515625,
      0.07588697224855423,
      0.1691075712442398,
      -0.11502930521965027,
      -0.13380660116672516,
      0.0011653794208541512,
      0.03234104439616203,
      0.029256297275424004,
      0.007342086173593998,
      -0.007981698028743267,
      0.005091027356684208,
      -0.009703989140689373,
      -0.04473736137151718,
      -0.09471160173416138,
      -0.3740605115890503,
      -0.48148471117019653,
      -0.5268566608428955,
      -0.40136176347732544,
      -0.3145752251148224,
      -0.22469931840896606,
      -0.31259116530418396,
      -0.41707485914230347,
      -0.602963387966156,
      -0.3866330683231354,
      0.1730283498764038,
      0.1577703207731247,
      -0.13481688499450684,
      0.08861107379198074,
      0.23796236515045166,
      0.06070208176970482,
      0.1351330280303955,
      -0.014342772774398327,
      0.09594935178756714,
      0.03570080175995827,
      0.018034987151622772,
      -0.0016158610815182328,
      0.012837697751820087,
      0.012775060720741749,
      -0.030170993879437447,
      -0.0393265075981617,
      -0.01746818609535694,
      -0.06875406205654144,
      -0.3330062925815582,
      -0.4126035273075104,
      -0.3943190276622772,
      -0.46859240531921387,
      -0.4035230576992035,
      -0.20755766332149506,
      -0.2509218752384186,
      -0.5225174427032471,
      -0.3720930814743042,
