{
  "InputNodes": 784,
  "OutputNodes": 10,
  "OutputBias": {
    "data": [
      -1.498681664466858,
      -0.9416170120239258,
      -1.7933932542800903,
      -2.773707151412964,
      -2.308947801589966,
      0.1522599756717682,
      -1.7409740686416626,
      -1.3001347780227661,
      -4.339507102966309,
      -2.7195992469787598
    ],
    "rows": 10,
    "cols": 1
  },
  "HiddenWeights-0": {
    "data": [
      -0.029353657737374306,
      -0.046586550772190094,
      -0.020497528836131096,
      -0.026727257296442986,
      0.0017859881045296788,
      -0.003943882882595062,
      -0.039302922785282135,
      0.015848105773329735,
      -0.019415834918618202,
      -0.028377549722790718,
      -0.02723793126642704,
      -0.027017930522561073,
      -0.03798471391201019,
      -0.0013533950550481677,
      -0.04482628405094147,
      5.439213709905744E-4,
      0.004504970274865627,
      -0.036237992346286774,
      0.0020183620508760214,
      -0.010289212688803673,
      0.009835492819547653,
      -0.037535399198532104,
      -0.03240295499563217,
      -0.03352614492177963,
      -5.2943061746191233E-5,
      0.015314225107431412,
      -0.02268264628946781,
      -0.007793044205754995,
      -0.00656609982252121,
      -0.04577507823705673,
      -0.013465365394949913,
      0.015112817287445068,
      -0.003847989719361067,
      -0.02115289308130741,
      -6.440653814934194E-4,
      -0.02247079275548458,
      0.012731226161122322,
      0.005038164090365171,
      0.010335393249988556,
      0.08895185589790344,
      0.04722420126199722,
      0.045450665056705475,
      0.09926823526620865,
      0.13071493804454803,
      0.04752505570650101,
      0.08787748962640762,
      0.05442582815885544,
      0.01891239732503891,
      0.016963444650173187,
      0.03026467002928257,
      -0.0321974903345108,
      0.020833557471632957,
      -0.00639832578599453,
      -0.005090445280075073,
      -0.007267414126545191,
      -0.025953495875000954,
      -0.03148716688156128,
      0.017589105293154716,
      -0.0030171533580869436,
      -0.02375273033976555,
      -0.020757924765348434,
      0.015665212646126747,
      -0.0406264029443264,
      0.003011289518326521,
      -0.06107950955629349,
      -0.27325043082237244,
      0.006039222702383995,
      0.1335350126028061,
      0.12874503433704376,
      0.3010600805282593,
      0.680711567401886,
      0.29330700635910034,
      0.10686134546995163,
      0.5082843899726868,
      0.5915371775627136,
      0.6997646689414978,
      0.4435773193836212,
      0.27797040343284607,
      0.23540735244750977,
      0.17925173044204712,
      -0.031160734593868256,
      -0.07768341898918152,
      -6.711038877256215E-4,
      -0.020202917978167534,
      -0.01610364206135273,
      -0.023994067683815956,
      -0.03875841572880745,
      0.013650775887072086,
      -0.012137120589613914,
      0.05738339573144913,
      0.014571113511919975,
      -0.029583541676402092,
      -0.17820681631565094,
      -0.5883419513702393,
      -0.331890344619751,
      -0.5803918242454529,
      -0.3751983642578125,
      -0.3038382828235626,
      0.509872317314148,
      0.9623063802719116,
      9.482312598265707E-4,
      0.06568353623151779,
      0.5573967695236206,
      0.49576637148857117,
      0.58028244972229,
      0.45610272884368896,
      0.5868046879768372,
      0.5104691386222839,
      0.18906281888484955,
      -0.022648315876722336,
      0.07132424414157867,
      -0.015203910879790783,
      -0.005153807811439037,
      -0.047964878380298615,
      -0.052104704082012177,
      -0.02791043557226658,
      0.0436101071536541,
      0.1774234175682068,
      0.009968843311071396,
      0.22252357006072998,
      0.32728058099746704,
      -0.31850990653038025,
      0.3976367115974426,
      0.4169202446937561,
      0.23909038305282593,
      -0.4874240458011627,
      -0.29555776715278625,
      0.4673786461353302,
      0.08243431150913239,
      0.7270476222038269,
      0.1974203735589981,
      -0.27732133865356445,
      0.21127401292324066,
      0.8193420767784119,
      0.7390587329864502,
      0.5231673717498779,
      0.4352843761444092,
      0.2151828408241272,
      0.039755094796419144,
      -0.040071576833724976,
      -0.027888739481568336,
      -0.029944198206067085,
      -0.04616852104663849,
      -0.05179914832115173,
      -0.16609619557857513,
      0.2593786120414734,
      0.19754835963249207,
      0.15917666256427765,
      -0.10102201253175735,
      0.17797352373600006,
      0.4867914021015167,
      -0.7728706002235413,
      -0.5132032632827759,
      -0.848801851272583,
      0.11227726936340332,
      -0.2746993899345398,
      -0.07572381943464279,
      0.7887219786643982,
      -0.22562041878700256,
      0.1390259712934494,
      0.48938998579978943,
      -0.6329795718193054,
      -0.12033980339765549,
      -0.253621906042099,
      0.27772682905197144,
      0.3205326795578003,
      0.011518197134137154,
      -0.006801172625273466,
      -0.006727314088493586,
      -0.013834290206432343,
      -0.0034214516635984182,
      -0.20824791491031647,
      -0.3170148432254791,
      -0.06754694879055023,
      -0.5814785957336426,
      -0.14116455614566803,
      0.1832766830921173,
      -0.2706014811992645,
      -0.36269304156303406,
      0.06542850285768509,
      -0.3008355498313904,
      -0.5353660583496094,
      -0.48008763790130615,
      0.1371745765209198,
      -0.19253811240196228,
      0.4608719050884247,
      -0.15117093920707703,
      0.0677170604467392,
      0.853886067867279,
      0.41113409399986267,
      0.4179466962814331,
      0.23991511762142181,
      0.2296869307756424,
      0.47889161109924316,
      0.06481894105672836,
      0.06265221536159515,
      -0.045192018151283264,
      0.0226521547883749,
      -0.022935030981898308,
      -0.11437317728996277,
      -0.14763742685317993,
      -0.1629888266324997,
      -0.49590861797332764,
      -0.09368166327476501,
      -0.554476261138916,
      -0.27953076362609863,
      0.09688897430896759,
      -0.22516919672489166,
      0.08455269783735275,
      -0.5569445490837097,
      -0.1922445446252823,
      0.42992278933525085,
      -0.10769852995872498,
      0.2506538927555084,
      -0.04759729653596878,
      -0.589465856552124,
      -0.14239975810050964,
      -0.17438742518424988,
      -0.4931268095970154,
      0.8856223821640015,
      1.068044900894165,
      0.6339462399482727,
      0.14312788844108582,
      0.05087979882955551,
      0.005438689142465591,
      0.014723090454936028,
      0.16257573664188385,
      0.1393526792526245,
      -0.38871246576309204,
      -0.3327339291572571,
      0.0741300880908966,
      -0.13425803184509277,
      -0.47676387429237366,
      0.3099565804004669,
      -0.10132743418216705,
      0.19168920814990997,
      0.5984164476394653,
      -0.2118024080991745,
      -0.30259332060813904,
      -0.10426221787929535,
      0.2503165602684021,
      0.08926278352737427,
      0.28046196699142456,
      0.4957180321216583,
      0.13971294462680817,
      -0.021953700110316277,
      -0.2770520746707916,
      0.6668024659156799,
      1.2739677429199219,
      0.4882908761501312,
      0.04347624257206917,
      -0.040886811912059784,
      -0.03754854574799538,
      -0.03285286948084831,
      0.05966334417462349,
      -0.020395996049046516,
      -0.11112172901630402,
      -0.3750205338001251,
      0.08118201792240143,
      -0.1272585242986679,
      -0.1315799206495285,
      -0.32992249727249146,
      -0.18997932970523834,
      -0.2714656889438629,
      -0.24040929973125458,
      -0.18664638698101044,
      -0.7586563229560852,
      -0.8284971714019775,
      -0.018090344965457916,
      0.5078791975975037,
      -0.1212751492857933,
      0.3436458110809326,
      0.8067994713783264,
      0.3759446144104004,
      0.008074999786913395,
      0.4070315361022949,
      0.9345062971115112,
      0.18077623844146729,
      -0.025112437084317207,
      -0.14940260350704193,
      -0.04561352729797363,
      -0.011728104203939438,
      -1.899787603178993E-4,
      0.19754891097545624,
      0.4484853446483612,
      -0.09878287464380264,
      -0.9516826868057251,
      -0.7745187878608704,
      -0.5600265264511108,
      -0.5917245149612427,
      -0.6700429916381836,
      -0.4839228093624115,
      -0.41103488206863403,
      -0.3026413023471832,
      -0.5012387037277222,
      -1.5929936170578003,
      -0.8228224515914917,
      -0.6608337759971619,
      0.15154270827770233,
      -0.18141555786132812,
      1.2770886421203613,
      0.40085363388061523,
      0.2814633548259735,
      0.5667043328285217,
      0.44442009925842285,
      0.03871564939618111,
      0.06876526772975922,
      -0.006309038493782282,
      -0.04300559684634209,
      -0.008496928960084915,
      -0.029143357649445534,
      0.383341521024704,
      0.7039481997489929,
      -0.02885514497756958,
      -0.4311969578266144,
      -0.15218719840049744,
      -0.20082256197929382,
      -0.6258729696273804,
      0.13801701366901398,
      -0.1307094246149063,
      0.6276183128356934,
      1.4615086317062378,
      0.5018542408943176,
      -0.6442578434944153,
      -0.31677523255348206,
      0.5440911054611206,
      -0.21455931663513184,
      0.38631948828697205,
      0.40046223998069763,
      0.17721594870090485,
      0.25620409846305847,
      0.8329165577888489,
      0.8895966410636902,
      -0.18951986730098724,
      0.22013238072395325,
      -0.03160072863101959,
      -0.03315673768520355,
      -0.026764970272779465,
      -0.029795408248901367,
      0.26790499687194824,
      0.5831144452095032,
      1.1140859127044678,
      0.9431407451629639,
      1.2899246215820312,
      0.983130693435669,
      1.4441003799438477,
      2.4108543395996094,
      2.5707950592041016,
      1.6460320949554443,
      2.1684892177581787,
      1.1970628499984741,
      0.34319841861724854,
      0.35047751665115356,
      0.5806292295455933,
      -0.007522969041019678,
      -0.2713998556137085,
      0.11810637265443802,
      0.09137414395809174,
      0.6875641942024231,
      1.0607972145080566,
      0.15788990259170532,
      -0.6753795742988586,
      -0.08073657751083374,
      -0.130199134349823,
      -0.0358799584209919,
      -0.011698146350681782,
      -0.02404092624783516,
      0.31083160638809204,
      1.0224199295043945,
      1.920644760131836,
      3.0598058700561523,
      3.5875890254974365,
      3.8088934421539307,
      2.962085723876953,
      2.409679651260376,
      2.097201347351074,
      1.062862753868103,
      0.7721852660179138,
      0.9600431323051453,
      0.5160931348800659,
      0.025285935029387474,
      0.1415078490972519,
      -0.17218802869319916,
      0.02791132591664791,
      0.5474973917007446,
      0.30482813715934753,
      0.3318392038345337,
      0.33713310956954956,
      -1.026684045791626,
      -1.2729171514511108,
      -0.5423317551612854,
      -0.2699947953224182,
      -0.049586549401283264,
      -0.006001938134431839,
      -0.00792608316987753,
      0.29962778091430664,
      1.20351243019104,
      2.7259318828582764,
      3.2930572032928467,
      3.2696051597595215,
      2.4137353897094727,
      0.7981560230255127,
      0.5871286392211914,
      0.2877386808395386,
      0.8892491459846497,
      -0.17859619855880737,
      0.08546806871891022,
      0.35253259539604187,
      0.5541679263114929,
      0.6745290160179138,
      -0.31753072142601013,
      -0.05673898383975029,
      0.6795757412910461,
      0.10038924962282181,
      -0.4496675431728363,
      -0.13304118812084198,
      -0.47551098465919495,
      -0.7104891538619995,
      -0.5836583971977234,
      -0.05755091831088066,
      -0.04834423214197159,
      0.010459551587700844,
      -9.98319941572845E-4,
      0.24860841035842896,
      1.3081239461898804,
      1.530130386352539,
      0.677146315574646,
      0.505132794380188,
      -0.401992529630661,
      -0.03011021390557289,
      -0.06356185674667358,
      -0.7352439165115356,
      -0.507361650466919,
      -0.7359048128128052,
      -0.009495439939200878,
      0.6696731448173523,
      -0.35918423533439636,
      0.16366636753082275,
      0.808211624622345,
      0.06276223063468933,
      0.5923348069190979,
      -0.5862354636192322,
      -0.3990553915500641,
      0.09135139733552933,
      -0.38859835267066956,
      -0.376098096370697,
      -0.6520130634307861,
      -0.08899923413991928,
      -0.042319975793361664,
      0.02455173246562481,
      0.062277428805828094,
      0.37942150235176086,
      0.8405302166938782,
      0.42273175716400146,
      -0.44970402121543884,
      -0.35983553528785706,
      -0.4890739321708679,
      -0.606809139251709,
      -0.04893488809466362,
      0.41874605417251587,
      -0.3701796233654022,
      -0.9928076863288879,
      -0.07280929386615753,
      0.5841203927993774,
      -0.2991933822631836,
      0.05046821013092995,
      0.3996672034263611,
      -0.37826216220855713,
      0.04376021772623062,
      -0.4110000431537628,
      -0.7775757908821106,
      -0.37633031606674194,
      -0.1649821251630783,
      -0.7687444686889648,
      -0.7489534616470337,
      -0.10704370588064194,
      -0.052341900765895844,
      -0.010787145234644413,
      0.05396811664104462,
      0.23286503553390503,
      0.40067052841186523,
      0.27496153116226196,
      -0.09685061126947403,
      0.02530709281563759,
      -0.21267075836658478,
      -0.17413754761219025,
      -0.29324671626091003,
      0.3101261556148529,
      -0.5692111253738403,
      -0.6060647964477539,
      -0.45171797275543213,
      -0.37309789657592773,
      0.36309921741485596,
      0.4710979461669922,
      0.2778641879558563,
      0.23316511511802673,
      -0.05420004203915596,
      -0.2616923451423645,
      0.08444403111934662,
      0.569884717464447,
      -0.5667327642440796,
      -0.8354430794715881,
      -0.32197362184524536,
      -0.10417908430099487,
      0.006946803070604801,
      -0.014219194650650024,
      0.04068119823932648,
      0.2987326383590698,
      -0.003698737593367696,
      -0.27429118752479553,
      0.0029228110797703266,
      -0.3791947662830353,
      -0.24458438158035278,
      -0.003471469273790717,
      0.2548827826976776,
      0.2960706055164337,
      -0.4001690149307251,
      -0.4289896786212921,
      -1.2028840780258179,
      0.3709370195865631,
      0.5296984910964966,
      0.37542590498924255,
      0.24427032470703125,
      0.4702414274215698,
      0.6986658573150635,
      0.22329406440258026,
      0.23883011937141418,
      -0.08371896296739578,
      -1.379510760307312,
      -1.198104977607727,
      -0.3129115104675293,
      -0.17870207130908966,
      -0.048629920929670334,
      -0.008685599081218243,
      0.036024853587150574,
      0.02326979488134384,
      0.1512375771999359,
      -0.03341156244277954,
      -0.22869014739990234,
      -0.36053556203842163,
      0.06098988652229309,
      -0.8885215520858765,
      -0.24661195278167725,
      -0.38577336072921753,
      -0.6087332963943481,
      -1.6030299663543701,
      -0.2958603501319885,
      0.13024486601352692,
      -0.30100059509277344,
      -0.09530404210090637,
      0.27356037497520447,
      0.36838066577911377,
      -0.19541655480861664,
      -0.2406095266342163,
      0.013847456313669682,
      -0.48459136486053467,
      -1.4507592916488647,
      -1.0099023580551147,
      -0.35374802350997925,
      -0.07588369399309158,
      -0.04109712690114975,
      -0.02114880457520485,
      -0.11152132600545883,
      -0.3199589252471924,
      -0.2252182811498642,
      -0.26994529366493225,
      -0.4868850111961365,
      0.05422593280673027,
      -0.8992200493812561,
      -0.90521639585495,
      -0.3739881217479706,
      -0.3806052505970001,
      -0.8550147414207458,
      -0.20749329030513763,
      0.161155104637146,
      0.35558557510375977,
      -0.1634177267551422,
      0.44401663541793823,
      0.14740613102912903,
      0.11894183605909348,
      0.005698945373296738,
      -0.042906131595373154,
      0.21697965264320374,
      -0.11895617842674255,
      -0.5997469425201416,
      -0.2561456859111786,
      -0.12099949270486832,
      -0.0501621775329113,
      -0.01860903389751911,
      -0.01986817829310894,
      -0.32145464420318604,
      -0.19577111303806305,
      0.0020334627479314804,
      -0.5200625658035278,
      -0.16358722746372223,
      0.5505017638206482,
      -0.05824042111635208,
      0.17755764722824097,
      -0.11988168209791183,
      0.0738067477941513,
      0.14316432178020477,
      0.2215111255645752,
      0.38101568818092346,
      -0.4385641813278198,
      0.017844993621110916,
      0.29754236340522766,
      -0.6582110524177551,
      -0.40427806973457336,
      0.08725444227457047,
      0.15843093395233154,
      0.2499353140592575,
      -0.3993694484233856,
      -0.5794922709465027,
      -0.27264219522476196,
      -0.06592545658349991,
      0.017430534586310387,
      -0.026609325781464577,
      0.015589680522680283,
      -0.1324538290500641,
      -0.11337367445230484,
      -0.06072111055254936,
      -0.970936119556427,
      -0.1739037036895752,
      0.06520841270685196,
      -0.4635638892650604,
      -0.1237545982003212,
      0.22060708701610565,
      0.6412242650985718,
      0.5569210648536682,
      0.2821911871433258,
      -0.40397921204566956,
      0.1810348927974701,
      0.5818912386894226,
      0.019863424822688103,
      -0.8063215613365173,
      0.013122663833200932,
      0.324825644493103,
      -0.18848773837089539,
      -0.2387954592704773,
      -0.3618999719619751,
      -0.44694438576698303,
      -0.2619805634021759,
      -0.0031489331740885973,
      -0.024964364245533943,
      0.011512815952301025,
      -0.005762055516242981,
      -0.026475926861166954,
      0.0528528206050396,
      -0.15838468074798584,
      -0.8135097026824951,
      -0.8505463004112244,
      -0.21137192845344543,
      0.09981153905391693,
      0.1880844533443451,
      -0.06597030162811279,
      0.1919887810945511,
      7.45833502151072E-4,
      0.27077314257621765,
      0.33682355284690857,
      -0.1353389024734497,
      -0.33270227909088135,
      0.1297573298215866,
      0.4165319800376892,
      0.07287678867578506,
      0.25243625044822693,
      -0.704790472984314,
      -0.592839777469635,
      -0.35928472876548767,
      -0.2812381386756897,
      -0.31131303310394287,
      -0.08259335905313492,
      0.00970914401113987,
      -0.05004610866308212,
      -0.036105550825595856,
      0.05088796094059944,
      0.10414931178092957,
      0.06548532843589783,
      -0.09764141589403152,
      0.05398839712142944,
      0.22548770904541016,
      0.5669460892677307,
      0.8677816390991211,
      1.0219115018844604,
      0.46258091926574707,
      0.30351322889328003,
      1.039672613143921,
      0.07820776849985123,
      0.6204147934913635,
      0.8043283820152283,
      -0.23012566566467285,
      -0.5419508814811707,
      -0.08756192773580551,
      0.21522289514541626,
      -0.18816645443439484,
      -0.14979997277259827,
      -0.0841035395860672,
      -0.2771799564361572,
      -0.14641159772872925,
      -0.05853072553873062,
      0.013055173680186272,
      -0.04803912341594696,
      -0.0026227873750030994,
      -0.01545897126197815,
      0.0075318580493330956,
      0.057532262057065964,
      0.13838566839694977,
      -0.00149119074922055,
      0.27042704820632935,
      0.6829784512519836,
      1.0419329404830933,
      1.2074893712997437,
      0.9536505341529846,
      0.8425177931785583,
      0.7784160375595093,
      0.5612226128578186,
      0.4519830644130707,
      0.465007483959198,
      0.05412309244275093,
      -0.06095104292035103,
      0.19881057739257812,
      0.3069905936717987,
      0.17829924821853638,
      0.15910467505455017,
      0.07336140424013138,
      0.043975360691547394,
      -0.05484743416309357,
      -0.01823754794895649,
      -0.014561166986823082,
      -0.025135396048426628,
      0.001116416067816317,
      -0.020274000242352486,
      -0.019301464781165123,
      -0.0356174036860466,
      0.10718216001987457,
      0.09358710795640945,
      0.08019497990608215,
      0.04536282271146774,
      -0.04162304848432541,
      0.11797361820936203,
      0.22346048057079315,
      0.21987858414649963,
      0.1989206224679947,
      0.2983165383338928,
      0.3269883990287781,
      0.3359673023223877,
      0.1261928826570511,
      0.21813644468784332,
      0.19429467618465424,
      0.15534397959709167,
      0.07524053007364273,
      -0.007191505283117294,
      -0.03279924392700195,
      -0.03352504223585129,
      -0.0036440379917621613,
      0.012500403448939323,
      -0.02907661534845829,
      -0.015085464343428612,
      -0.04967714846134186,
      0.013658063486218452,
      -0.04112562537193298,
      8.155207033269107E-4,
      -0.021947482600808144,
      0.01486749853938818,
      -0.038608942180871964,
      -0.022496255114674568,
      0.005482046864926815,
      -0.0200297050178051,
      0.032433442771434784,
      9.642451186664402E-4,
      0.02137473225593567,
      0.046641524881124496,
      0.0668690875172615,
      7.567984866909683E-4,
      -0.0043829139322042465,
      0.07554981857538223,
      -0.009635454043745995,
      0.07423394918441772,
      0.013498574495315552,
      -0.024896783754229546,
      0.016125058755278587,
      -0.03697255253791809,
      -0.03995214402675629,
      -0.017816169187426567,
      -0.0016176492208614945,
      -0.01514976192265749,
      -0.01715587079524994,
      -0.039234187453985214,
      0.0022935224696993828,
      -0.039348628371953964,
      0.025614984333515167,
      -0.0223391130566597,
      -0.0422121025621891,
      0.026537850499153137,
      0.017694104462862015,
      -0.03665893152356148,
      0.02488665282726288,
      -0.011644204147160053,
      0.021351531147956848,
      0.020548511296510696,
      -0.01690755784511566,
      -0.042871344834566116,
      0.007812893018126488,
      0.002454073168337345,
      -0.021186720579862595,
      -0.005776912439614534,
      0.0039883386343717575,
      0.012900431640446186,
      -0.010732478462159634,
      -0.02353355661034584,
      -0.010377279482781887,
      -0.041135434061288834,
      -0.02506168931722641,
      0.007540406659245491,
      0.0244072824716568,
      -0.024620067328214645,
      0.008854315616190434,
      -0.008946540765464306,
      0.01483870018273592,
      -0.00565031124278903,
      0.013852410949766636,
      0.019212614744901657,
      0.0034979183692485094,
      -0.00533077958971262,
      -0.011342491954565048,
      -0.01982761174440384,
      0.02126678265631199,
      -0.03488016128540039,
      0.010782585479319096,
      -0.04040897265076637,
      -0.01867692731320858,
      -0.02937326207756996,
      0.0018742958782240748,
      0.018413065001368523,
      -0.035089995712041855,
      -0.033627960830926895,
      0.027882903814315796,
      -0.03906337544322014,
      -0.036182474344968796,
      -0.03554945066571236,
      -0.014863359741866589,
      0.002700354903936386,
      0.014174061827361584,
      -0.01632385328412056,
      -0.009832308627665043,
      -0.024736490100622177,
      0.02402566932141781,
      0.006067496724426746,
      0.04029511287808418,
      0.013344609178602695,
      -0.014660537242889404,
      0.02296561561524868,
      -0.00424208352342248,
      -0.011022835038602352,
      0.031114989891648293,
      0.02828257344663143,
      -0.009106313809752464,
      -0.02330579049885273,
      0.022890770807862282,
      0.012993847019970417,
      0.0016990521689876914,
      0.026947133243083954,
      0.02653912641108036,
      -0.03162337839603424,
      -0.0011398744536563754,
      -0.03548545390367508,
      -0.0419662781059742,
      -0.033571142703294754,
      -0.037977781146764755,
      0.02751677855849266,
      0.014972913078963757,
      -0.028238557279109955,
      0.01105794683098793,
      -0.012775728479027748,
      0.013158142566680908,
      0.026778848841786385,
      0.017670301720499992,
      0.06465485692024231,
      0.02150147035717964,
      -0.012538987211883068,
      -0.005026733968406916,
      -0.03577255830168724,
      -5.945207667537034E-4,
      0.03431488201022148,
      4.633808566723019E-5,
      0.027922336012125015,
      -0.013095462694764137,
      0.02076295018196106,
      -0.028019554913043976,
      0.010796193964779377,
      0.05391226336359978,
      0.05669569596648216,
      0.027678418904542923,
      0.012648425064980984,
      0.010425901971757412,
      -0.02167372964322567,
      -0.007456205319613218,
      -0.009078375063836575,
      0.01088773924857378,
      -0.026475291699171066,
      -0.013419939205050468,
      -0.016833657398819923,
      -0.036389369517564774,
      -0.0068094730377197266,
      0.01343059353530407,
      -0.034389428794384,
      -0.041414886713027954,
      -0.01167317759245634,
      -0.05767150968313217,
      -0.09417180716991425,
      -0.09755115956068039,
      -0.07269182801246643,
      -0.02425755374133587,
      0.046157095581293106,
      -0.004569262266159058,
      0.003537394106388092,
      -0.012344352900981903,
      -0.0045386385172605515,
      -0.022460537031292915,
      0.01066594198346138,
      0.01349581964313984,
      -0.017375603318214417,
      -0.04067111015319824,
      -0.039795976132154465,
      -0.02143671363592148,
      0.01897618919610977,
      0.01923743262887001,
      -0.04175218194723129,
      0.021023163571953773,
      -0.018731167539954185,
      -0.019368384033441544,
      -0.050034813582897186,
      -0.09455462545156479,
      -0.11566326022148132,
      -0.11330481618642807,
      -0.16787411272525787,
      -0.24718625843524933,
      -0.32546988129615784,
      -0.2945828437805176,
      -0.31863927841186523,
      -0.29490751028060913,
      -0.26960620284080505,
      -0.23006610572338104,
      -0.24322335422039032,
      -0.2242618203163147,
      -0.1516176015138626,
      -0.1388830840587616,
      -0.11211688071489334,
      -0.05873177573084831,
      0.00500793382525444,
      0.007769155316054821,
      -0.014283079653978348,
      0.024565014988183975,
      -0.04026569053530693,
      -0.00887006614357233,
      0.009537317790091038,
      0.04473937302827835,
      0.039921678602695465,
      0.015903601422905922,
      -0.0865689069032669,
      -0.23248451948165894,
      -0.18153679370880127,
      -0.29780837893486023,
      -0.40413767099380493,
      -0.4902036488056183,
      -0.5561110973358154,
      -0.5618066191673279,
      -0.57957923412323,
      -0.44980522990226746,
      -0.47970640659332275,
      -0.3867494463920593,
      -0.22232310473918915,
      -0.13813848793506622,
      -0.19723132252693176,
      -0.06836922466754913,
      -0.12447626888751984,
      -0.14702412486076355,
      -0.09204994887113571,
      -0.023361127823591232,
      -0.005030377767980099,
      0.0013041681377217174,
      -0.005890923086553812,
      0.026889244094491005,
      -0.020169436931610107,
      0.05648421868681908,
      0.09196186065673828,
      0.0502629429101944,
      0.054627347737550735,
      0.07539170980453491,
      -0.13160155713558197,
      -0.36082616448402405,
      -0.41304919123649597,
      -0.4928434491157532,
      -0.40898755192756653,
      -0.31500574946403503,
      0.03282163664698601,
      0.22319762408733368,
      0.3344418704509735,
      0.10080526769161224,
      0.16082389652729034,
      -0.12749245762825012,
      -0.23008993268013,
      -0.21265310049057007,
      -0.18586525321006775,
      -0.1873069405555725,
      -0.10375213623046875,
      -0.005277920980006456,
      0.01517707109451294,
      -0.017836736515164375,
      0.02270691841840744,
      -0.0017083721468225121,
      0.010816354304552078,
      -0.04579039663076401,
      0.01151773240417242,
      0.03183118999004364,
      0.07829027622938156,
      0.06567951291799545,
      -0.14963561296463013,
      -0.13133110105991364,
      -0.132393017411232,
      -0.1210344135761261,
      -0.06019623205065727,
      -0.19727566838264465,
      -0.20763641595840454,
      0.1546729952096939,
      0.023818673565983772,
      -0.03314545750617981,
      0.040032558143138885,
      -0.16784816980361938,
      -0.20964589715003967,
      -0.26701200008392334,
      -0.21819406747817993,
      -0.15478403866291046,
      -0.04845272749662399,
      0.07737220823764801,
      7.616165094077587E-4,
      -0.042376432567834854,
      0.0074472445994615555,
      0.0031325258314609528,
      -0.03904804587364197,
      -0.053001563996076584,
      0.06316535174846649,
      -0.02695404179394245,
      -0.006694822106510401,
      -0.09510596096515656,
      -0.15557970106601715,
      0.08113568276166916,
      0.04905250295996666,
      0.15249770879745483,
      -0.06460396200418472,
      -0.4204555153846741,
      -0.4229597747325897,
      -0.20392951369285583,
      -0.30258843302726746,
      -0.3762907087802887,
      -0.2956377863883972,
      -0.2525739371776581,
      -0.029438627883791924,
      -0.006452928297221661,
      -0.12638910114765167,
      -0.1349163055419922,
      -0.051447100937366486,
      0.03545527905225754,
      -0.016258710995316505,
      -0.008437161333858967,
      -0.012308764271438122,
      -0.025491025298833847,
      0.008759560063481331,
      0.021100904792547226,
      0.021031126379966736,
      0.04257765784859657,
      0.06766367703676224,
      -0.07744856178760529,
      0.009372751228511333,
      0.39895936846733093,
      0.3682984411716461,
      0.15995895862579346,
      -0.12587709724903107,
      -0.295189768075943,
      -0.44798731803894043,
      -0.33994486927986145,
      -0.31398719549179077,
      -0.3213294446468353,
      -0.3114098012447357,
      -0.20268301665782928,
      0.22120440006256104,
      0.24918898940086365,
      0.11426549404859543,
      -0.10822969675064087,
      0.004049132112413645,
      -0.013343336060643196,
      0.0068145920522511005,
      0.012207181192934513,
      4.652760399039835E-4,
      -0.019553620368242264,
      0.05905536562204361,
      0.08372993767261505,
      0.31300482153892517,
      0.34739431738853455,
      0.10049961507320404,
      0.2393169105052948,
      0.16317562758922577,
      0.3859720230102539,
      0.24966329336166382,
      0.18508456647396088,
      -0.06292382627725601,
      -0.24357211589813232,
      -0.2671671509742737,
      -0.21894241869449615,
      0.060389187186956406,
      0.08245664834976196,
      0.1501045823097229,
      0.22835248708724976,
      0.08101209998130798,
      0.27465909719467163,
      0.16124144196510315,
      0.061159681528806686,
      0.02578796073794365,
      0.02250160463154316,
      -0.029976600781083107,
      -0.01988416723906994,
      -0.0053260670974850655,
      0.01675429567694664,
      0.05218572914600372,
      0.2819870114326477,
      0.5061491131782532,
      0.3251328468322754,
      0.1476237177848816,
      0.2980796992778778,
      0.39541900157928467,
      0.7040093541145325,
      0.4852710962295532,
      0.1534714549779892,
      -0.14564257860183716,
      -0.2600221335887909,
      -0.08756103366613388,
      -0.02269141748547554,
      0.133431538939476,
      0.21755217015743256,
      0.26774948835372925,
      0.18413352966308594,
      0.20363977551460266,
      0.1333971619606018,
      0.019947053864598274,
      0.002969274763017893,
      -0.037335410714149475,
      0.017250221222639084,
      0.011935568414628506,
      0.012454492039978504,
      0.019712917506694794,
      0.03418891504406929,
      0.05696527287364006,
      0.22330360114574432,
      0.36668160557746887,
      0.4033401608467102,
      0.31564199924468994,
      0.16890808939933777,
      0.38884788751602173,
      0.43405091762542725,
      0.09109238535165787,
      -0.15140095353126526,
      -0.25465720891952515,
      -0.2727060317993164,
      -0.36471107602119446,
      -0.24162520468235016,
      -0.12772278487682343,
      -0.1195964440703392,
      0.04779200255870819,
      0.11503990739583969,
      0.2654683291912079,
      0.09020622074604034,
      -0.10576050728559494,
      -0.09461018443107605,
      -0.03542013466358185,
      -0.058943431824445724,
      -0.049730975180864334,
      0.020085781812667847,
      0.016174640506505966,
      0.023139990866184235,
      0.06010584905743599,
      0.025543833151459694,
      0.002397674834355712,
      0.12442712485790253,
      0.020390955731272697,
      0.09503745287656784,
      0.20603489875793457,
      -0.024560732766985893,
      -0.2881464660167694,
      -0.6075816750526428,
      -0.7222017049789429,
      -0.605677604675293,
      -0.6425259113311768,
      -0.42588233947753906,
      -0.37152042984962463,
      -0.13184908032417297,
      0.04214554280042648,
      0.13399052619934082,
      0.0020953763741999865,
      0.00959827657788992,
      -0.021765660494565964,
      0.034227825701236725,
      -0.0809350535273552,
      -0.09375389665365219,
      -0.028702761977910995,
      0.021896546706557274,
      -0.020122278481721878,
      -0.033838901668787,
      0.0018659717170521617,
      0.052218057215213776,
      -0.032165151089429855,
      -0.029034949839115143,
      0.16220030188560486,
      0.2805190086364746,
      0.09947878122329712,
      -0.11358819156885147,
      -0.39393648505210876,
      -0.5639476776123047,
      -0.544209897518158,
      -0.4808538556098938,
      -0.44457757472991943,
      -0.26252296566963196,
      -0.337487131357193,
      -0.024825897067785263,
      0.15087926387786865,
      0.1498849242925644,
      0.2202593982219696,
      0.11856864392757416,
      0.14004188776016235,
      0.06287125498056412,
      -0.016940614208579063,
      -0.04787489026784897,
      0.0019650578033179045,
      0.01788584515452385,
      -0.01710277795791626,
      -0.030642222613096237,
      -0.02491435781121254,
      0.07160532474517822,
      0.11250744760036469,
      -0.0671740248799324,
      0.04202292487025261,
      0.19064755737781525,
      0.0900929644703865,
      -0.3108762800693512,
      -0.5155593752861023,
      -0.5480026602745056,
      -0.33941617608070374,
      -0.28681597113609314,
      -0.2658449411392212,
      -0.016498249024152756,
      -0.11043814569711685,
      -0.05951733514666557,
      0.04389215260744095,
      0.30650201439857483,
      0.2376258373260498,
      0.4271750748157501,
      0.2124553918838501,
      0.045032598078250885,
      -0.0637664943933487,
      -0.0686221569776535,
      -0.04510371387004852,
      -0.028012407943606377,
      -0.012374051846563816,
      -0.03887608274817467,
      -0.011903618462383747,
      0.03701053187251091,
      0.032230526208877563,
      -0.05772118270397186,
      -0.1989930421113968,
      -0.05131429433822632,
      -0.267027884721756,
      -0.5796921849250793,
      -0.5189352035522461,
      -0.47003090381622314,
      -0.44445157051086426,
      -0.1884540617465973,
      -0.08557666838169098,
      -0.16971442103385925,
      -0.13261613249778748,
      -0.028128160163760185,
      -0.09007292985916138,
      0.016773419454693794,
      0.16023559868335724,
      0.17975352704524994,
      -0.08466024696826935,
      -0.09114596247673035,
      -0.062077347189188004,
      -0.006911010947078466,
      -0.04505624994635582,
      -0.016942767426371574,
      -0.0013650833861902356,
      -0.00941102672368288,
      0.010628997348248959,
      0.013512012548744678,
      -9.768460877239704E-4,
      -0.1584523469209671,
      -0.2684244215488434,
      -0.2616042196750641,
      -0.23865996301174164,
      -0.418516606092453,
      -0.506134569644928,
      -0.45038899779319763,
      -0.32079434394836426,
      -0.11303602904081345,
      0.06392349302768707,
      -0.04207949340343475,
      -0.08921027928590775,
      -0.024269478395581245,
      -0.07769173383712769,
      -0.01967337168753147,
      0.07966209203004837,
      3.2794169965200126E-4,
      -0.11212895065546036,
      -0.12397035211324692,
      -0.03772846236824989,
      -0.00482947239652276,
      0.021295102313160896,
      -0.01074123103171587,
      -0.026746347546577454,
      0.02042505517601967,
      0.055185604840517044,
      -0.052807148545980453,
      0.038641832768917084,
      -0.09325598180294037,
      -0.2589849829673767,
      -0.2673986256122589,
      -0.15873584151268005,
      -0.20348307490348816,
      -0.34824225306510925,
      -0.3342491686344147,
      -0.1755089908838272,
      0.03187750279903412,
      0.016526436433196068,
      -0.20887106657028198,
      -0.21063736081123352,
      -0.10565969347953796,
      -0.013496125116944313,
      0.07667800039052963,
      0.07628177106380463,
      -0.13757111132144928,
      -0.1339830756187439,
      -0.14891774952411652,
      -0.020844051614403725,
      -0.01615578681230545,
      0.012639550492167473,
      0.02520943060517311,
      -0.03921966627240181,
      -0.0026132571510970592,
      -0.025919731706380844,
      -0.06069143861532211,
      -0.07400289177894592,
      -0.12019244581460953,
      -0.15544350445270538,
      -0.23116160929203033,
      -0.17066539824008942,
      -0.21373462677001953,
      -0.13954345881938934,
      -0.09134601801633835,
      -0.02793223224580288,
      0.046959228813648224,
      -0.2399052083492279,
      -0.36967733502388,
      -0.23267655074596405,
      0.0226250309497118,
      0.02343912050127983,
      0.12387264519929886,
      0.026481490582227707,
      -0.19479113817214966,
      -0.11588522791862488,
      -0.19091838598251343,
      -0.04510125890374184,
      -0.03911925107240677,
      0.001239218283444643,
      -0.011814306490123272,
      -0.027576573193073273,
      -0.0053145065903663635,
      -0.0379047766327858,
      -0.04384038597345352,
      -0.04528369382023811,
      -0.039183109998703,
      -0.15205581486225128,
      -0.20566648244857788,
      -0.24787209928035736,
      -0.21417377889156342,
      -0.10421013832092285,
      -0.13327990472316742,
      -0.10588282346725464,
      -0.06905600428581238,
      -0.26747411489486694,
      -0.1821071356534958,
      -0.14808031916618347,
      -0.011820836924016476,
      0.16406786441802979,
      0.05298115313053131,
      -0.030308613553643227,
      -0.1144934594631195,
      -0.19041931629180908,
      -0.09135527908802032,
      -0.026349419727921486,
      0.038880832493305206,
      -0.013561333529651165,
      -0.019892476499080658,
      0.006792948115617037,
      -0.016103362664580345,
      -0.02722766622900963,
      -0.02396858111023903,
      -0.007805806118994951,
      -0.05350823327898979,
      -0.09009454399347305,
      -0.1357956826686859,
      -0.19611361622810364,
      -0.10598254948854446,
      -0.22748064994812012,
      -0.19338899850845337,
      -0.311160147190094,
      -0.23277567327022552,
      6.924811168573797E-4,
      0.06345555186271667,
      0.09264716506004333,
      -0.004874331410974264,
      0.17714552581310272,
      0.0920235738158226,
      -0.0707227811217308,
      -0.13467660546302795,
      -0.19835646450519562,
      -0.08532226085662842,
      -0.018398845568299294,
      -0.022304605692625046,
      -0.04037876054644585,
      -5.475041107274592E-4,
      -0.016565922647714615,
      -0.03688478842377663,
      -0.03651877120137215,
      -8.64011119119823E-4,
      -0.0020968990866094828,
      0.032274115830659866,
      -0.0010548278223723173,
      -0.008439801633358002,
      -0.1842823624610901,
      -0.1555180698633194,
      -0.08446667343378067,
      -0.10473077744245529,
      -0.1556699275970459,
      -0.2006198763847351,
      0.06539436429738998,
      0.1837971806526184,
      0.08899690210819244,
      0.08852783590555191,
      0.06606737524271011,
      -0.0666891485452652,
      -0.12840254604816437,
      -0.12745289504528046,
      -0.13692349195480347,
      -0.1107056587934494,
      -6.329240859486163E-4,
      0.00817058701068163,
      -0.024805404245853424,
      0.012319388799369335,
      -0.02969205006957054,
      0.016960162669420242,
      -5.3106890845810995E-5,
      0.004226670600473881,
      0.02911675162613392,
      0.05239361524581909,
      -0.003400098066776991,
      0.03328967094421387,
      0.023415442556142807,
      -0.09096478670835495,
      -0.057811714708805084,
      -0.01811431162059307,
      -0.05956464260816574,
      0.0734342411160469,
      0.07620390504598618,
      0.09197444468736649,
      -0.01497914269566536,
      0.100141741335392,
      0.11536461859941483,
      -0.011095705442130566,
      -0.11580132693052292,
      -0.08369013667106628,
      -0.08580335974693298,
      -0.11196858435869217,
      -0.02148076705634594,
      0.006995328236371279,
      0.0023280573077499866,
      0.0016446501249447465,
      -0.003767911111935973,
      0.019343946129083633,
      0.019497787579894066,
      0.019224852323532104,
      0.004259826615452766,
      -0.02982570044696331,
      -0.024945968762040138,
      0.10331104695796967,
      -0.007963241077959538,
      0.040560800582170486,
      0.04992397502064705,
      0.009611082263290882,
      0.10539840161800385,
      0.1273159235715866,
      0.20155280828475952,
      0.08529864251613617,
      0.14698083698749542,
      0.12529516220092773,
      0.17007604241371155,
      0.16676148772239685,
      0.03708873689174652,
      0.06212873384356499,
      0.030635129660367966,
      -0.03235645219683647,
      -0.018496323376893997,
      -0.010114840231835842,
      -0.023433543741703033,
      -0.03973384574055672,
      0.023223143070936203,
      0.014953269623219967,
      -0.04072063788771629,
      -0.015353419817984104,
      -0.023308761417865753,
      -0.030966127291321754,
      -0.06095863878726959,
      -0.04181317985057831,
      -0.046382512897253036,
      -0.04478127136826515,
      -0.08578500896692276,
      -0.020974023267626762,
      -0.08732151985168457,
      -0.009621134027838707,
      -0.009535238146781921,
      -0.012645400129258633,
      -0.08980154991149902,
      -0.0626363530755043,
      0.030557245016098022,
      0.11670847982168198,
      0.02582911029458046,
      0.0524832084774971,
      0.05976717174053192,
      -0.00952333863824606,
      -0.03915877267718315,
      0.010412880219519138,
      -0.040238942950963974,
      -0.012339814566075802,
      -0.036370184272527695,
      0.01691601797938347,
      0.017021704465150833,
      -0.026324231177568436,
      -0.0075677731074392796,
      0.0018695044564083219,
      0.010528098791837692,
      0.009029664099216461,
      -0.001240417012013495,
      -0.006692129652947187,
      -0.028438249602913857,
      -0.04617467150092125,
      -0.046850915998220444,
      -0.07324565201997757,
      -0.1057053729891777,
      -0.2506558299064636,
      -0.13800223171710968,
      -0.08640578389167786,
      -0.05234256014227867,
      -7.121111266314983E-4,
      -0.017654411494731903,
      0.020077046006917953,
      0.03271779790520668,
      -0.03068074956536293,
      -0.036278728395700455,
      -0.033100102096796036,
      -0.037827495485544205,
      0.010324041359126568,
      -0.014836465008556843,
      -0.01600736565887928,
      -0.006112721282988787,
      0.026508625596761703,
      -0.03170233964920044,
      -0.04181663319468498,
      0.019462592899799347,
      -0.004714850801974535,
      -0.02326503023505211,
      0.005625404883176088,
      -0.03500436618924141,
      0.01454909611493349,
      -0.024657007306814194,
      0.023868199437856674,
      0.026593364775180817,
      0.0024973514955490828,
      0.009939675219357014,
      -0.0075365290977060795,
      0.020131949335336685,
      0.0023413251619786024,
      0.02401881292462349,
      0.017506029456853867,
      -0.02043815329670906,
      0.026698384433984756,
      -6.341015705402242E-6,
      0.02284863591194153,
      -0.03598587587475777,
      0.0257774218916893,
      0.015060991048812866,
      -0.012124531902372837,
      0.016177617013454437,
      0.01229643914848566,
      -0.0364137701690197,
      -0.03693479672074318,
      -0.03424578532576561,
      -0.017482364550232887,
      -0.015180292539298534,
      0.03624364733695984,
      0.008900602348148823,
      0.016779808327555656,
      0.036195509135723114,
      0.0017116704257205129,
      0.009397740475833416,
      0.03680167719721794,
      -0.04177339747548103,
      -0.02959974855184555,
      -0.034213609993457794,
      -0.03702102228999138,
      -0.02631455287337303,
      -0.018001461401581764,
      -0.04524027556180954,
      -0.025616221129894257,
      -0.004316724371165037,
      -0.0013371239183470607,
      -0.006148201879113913,
      0.021321561187505722,
      0.01538027822971344,
      -0.029118623584508896,
      0.012901603244245052,
      -0.02022092416882515,
      -0.00616471515968442,
      0.010219725780189037,
      0.012907370924949646,
      0.02247639186680317,
      0.05154705420136452,
      0.08099336922168732,
      0.0767723023891449,
      0.0745110958814621,
      0.09046468138694763,
      0.07225938141345978,
      0.07651736587285995,
      -0.01626049168407917,
      -0.07838500291109085,
      0.08935177326202393,
      0.1441809982061386,
      -0.066584512591362,
      0.04610612615942955,
      0.08632015436887741,
      0.039794087409973145,
      -0.021869415417313576,
      -0.037982624024152756,
      -0.006086123641580343,
      0.015191788785159588,
      -0.00653275428339839,
      -0.035433631390333176,
      0.017722710967063904,
      -6.586068193428218E-4,
      0.012017759494483471,
      -0.0017381069483235478,
      -0.05687849223613739,
      -0.035957202315330505,
      -0.07046626508235931,
      -0.11157479882240295,
      -0.01198454201221466,
      0.12446615099906921,
      -0.07112633436918259,
      -0.0018847215687856078,
      -0.14887423813343048,
      -0.7729050517082214,
      -0.9291930794715881,
      -0.7959396839141846,
      0.09074699878692627,
      0.4276201128959656,
      0.1798710972070694,
      0.23208993673324585,
      0.33210593461990356,
      0.331039696931839,
      -0.07511325180530548,
      -0.12343215197324753,
      0.07025223225355148,
      -0.016580047085881233,
      0.008338059298694134,
      -0.023262061178684235,
      -0.024997204542160034,
      -0.020986391231417656,
      -0.015313800424337387,
      -0.08946079015731812,
      -0.20069889724254608,
      -0.29555729031562805,
      -0.501366138458252,
      -0.7618792057037354,
      -0.5093096494674683,
      -0.07346228510141373,
      0.4291720390319824,
      0.4126302897930145,
      -0.8598015904426575,
      -0.691216230392456,
      -0.2096284031867981,
      0.01796158216893673,
      0.29765090346336365,
      0.4519360065460205,
      0.26873844861984253,
      -0.32712432742118835,
      0.10672970861196518,
      -0.08519512414932251,
      -0.18115709722042084,
      0.2526358962059021,
      0.2072916328907013,
      0.10194803774356842,
      -0.0485684834420681,
      0.0022026768419891596,
      0.005526216235011816,
      -0.015110284090042114,
      -0.1524735540151596,
      -0.4184226989746094,
      -0.6502336263656616,
      -1.0398467779159546,
      -0.9325851798057556,
      -0.5710413455963135,
      0.3422044813632965,
      0.5658530592918396,
      0.9197332859039307,
      0.40218839049339294,
      -0.15443499386310577,
      -0.6604667901992798,
      -0.6195899844169617,
      -0.27823328971862793,
      -0.007013001479208469,
      -0.699083685874939,
      -0.391330748796463,
      0.007479751482605934,
      -0.6639853119850159,
      -0.6188979744911194,
      -0.6417403817176819,
      0.1383507251739502,
      0.33763226866722107,
      0.008183253929018974,
      -0.05391934514045715,
      0.0048134890384972095,
      0.015916045755147934,
      -0.041157569736242294,
      -0.26419517397880554,
      -0.5422901511192322,
      -0.5325651168823242,
      -0.5859646201133728,
      -0.4748747646808624,
      -0.1496971994638443,
      0.058621618896722794,
      0.23185934126377106,
      0.6130458116531372,
      0.769681990146637,
      -0.5932087898254395,
      -0.9529680013656616,
      -0.2506943941116333,
      0.08248607069253922,
      -0.3286028802394867,
      -0.5545639395713806,
      0.3867194950580597,
      -0.46710577607154846,
      -0.7784604430198669,
      -0.0858275517821312,
      0.43766534328460693,
      0.8976874947547913,
      0.6442852020263672,
      0.09204597771167755,
      0.010997149161994457,
      -2.6633840752765536E-4,
      -0.053929220885038376,
      -0.032542239874601364,
      -0.3492746949195862,
      -0.7255108952522278,
      -0.6157513856887817,
      -0.4199035167694092,
      -0.3815639615058899,
      0.29805997014045715,
      0.444145143032074,
      0.34801653027534485,
      -0.11806620657444,
      0.11495249718427658,
      -0.7085988521575928,
      -0.827124834060669,
      0.03256308659911156,
      0.07126354426145554,
      -0.6721696257591248,
      -0.46537965536117554,
      -0.09583156555891037,
      -0.44741690158843994,
      0.5862545371055603,
      0.9167897701263428,
      1.0606461763381958,
      1.1056039333343506,
      0.676781415939331,
      0.11598509550094604,
      0.04316208139061928,
      -0.05084672197699547,
      0.02824433706700802,
      0.03728437051177025,
      -0.13549263775348663,
      -0.6620224714279175,
      -0.35678818821907043,
      -0.018959928303956985,
      -0.06380127370357513,
      0.7603867650032043,
      0.632519006729126,
      0.23111771047115326,
      0.029243940487504005,
      -0.4416336119174957,
      -1.0327666997909546,
      -1.8169153928756714,
      -0.5738451480865479,
      -0.6015633940696716,
      -0.026016533374786377,
      -0.21366362273693085,
      0.5209791660308838,
      0.767117977142334,
      0.4573023319244385,
      0.8116527795791626,
      1.5003587007522583,
      1.5760135650634766,
      0.7234864830970764,
      0.19546277821063995,
      0.06466583162546158,
      0.0019534763414412737,
      0.028847025707364082,
      0.025113364681601524,
      -0.1270633190870285,
      -0.6136438846588135,
      -0.2384020835161209,
      0.12113721668720245,
      0.013839141465723515,
      0.31104135513305664,
      0.47536158561706543,
      0.5676388740539551,
      1.3567688465118408,
      0.5150564908981323,
      -1.2952618598937988,
      -1.6802592277526855,
      -0.455342561006546,
      0.5493393540382385,
      0.5505388379096985,
      0.17953626811504364,
      -0.018965931609272957,
      0.12523069977760315,
      0.2270735800266266,
      0.548478364944458,
      0.7280767560005188,
      1.0453965663909912,
      0.8197153806686401,
      0.2711022198200226,
      -0.0386308915913105,
      0.005275201518088579,
      0.03713900223374367,
      0.04354444518685341,
      -0.25282973051071167,
      -0.26458293199539185,
      0.07945816963911057,
      0.5607972145080566,
      1.441227674484253,
      1.643843173980713,
      1.800471305847168,
      1.2519818544387817,
      1.476163625717163,
      1.9389617443084717,
      0.27110618352890015,
      -0.7682856321334839,
      -0.7962827682495117,
      -0.30194079875946045,
      -0.3289327025413513,
      -0.11639184504747391,
      -0.8173530697822571,
      -0.6435872316360474,
      -0.20114143192768097,
      -0.06346353888511658,
      0.6790198683738708,
      1.056717872619629,
      0.9778029918670654,
      0.3226413428783417,
      -0.04878206178545952,
      -0.035786550492048264,
      -0.026190150529146194,
      0.032448142766952515,
      -0.2200067788362503,
      0.3449486792087555,
      1.0814309120178223,
      1.3155795335769653,
      1.3978585004806519,
      1.4228723049163818,
      0.8688904047012329,
      0.15936167538166046,
      0.829033613204956,
      1.813180923461914,
      0.8852220773696899,
      -0.04068565368652344,
      -0.6030237674713135,
      -0.05002439394593239,
      -0.09059848636388779,
      -0.271810919046402,
      0.00843767262995243,
      -0.3588620126247406,
      -0.3761984705924988,
      0.1094033420085907,
      -0.07565738260746002,
      0.31525686383247375,
      0.8045663237571716,
      0.36414390802383423,
      -5.949955084361136E-4,
      0.014863294549286366,
      0.013517078012228012,
      -0.016977965831756592,
      -0.04614046588540077,
      0.7938448786735535,
      1.2810873985290527,
      0.7584350109100342,
      0.6341671347618103,
      0.13437649607658386,
      -0.29981493949890137,
      0.06628130376338959,
      0.7299461364746094,
      0.2670641839504242,
      1.1216048002243042,
      -0.14680266380310059,
      0.3131627142429352,
      -0.5292957425117493,
      -0.23993948101997375,
      -0.37456369400024414,
      0.43013906478881836,
      0.26471781730651855,
      0.3476707935333252,
      -0.4346577227115631,
      -0.7603870630264282,
      -0.5751193165779114,
      0.18275679647922516,
      0.19743894040584564,
      -0.03417252376675606,
      0.01850898191332817,
      0.01852327212691307,
      0.043393801897764206,
      -0.001374893938191235,
      0.4745398461818695,
      0.5923205018043518,
      -0.29688817262649536,
      0.462734192609787,
      0.8157646059989929,
      -0.005605021491646767,
      1.0129319429397583,
      1.2247511148452759,
      0.7393433451652527,
      0.6044252514839172,
      -0.4838097393512726,
      0.22440414130687714,
      0.14662721753120422,
      0.07256732881069183,
      0.4124155640602112,
      0.5544898509979248,
      1.3113656044006348,
      0.2834568917751312,
      -0.5082072019577026,
      -0.7559621334075928,
      -0.45548850297927856,
      -0.09284840524196625,
      0.10382821410894394,
      -0.050379473716020584,
      0.009045605547726154,
      -0.02638271450996399,
      0.006650047842413187,
      -0.06189532205462456,
      0.09065072238445282,
      -0.20589691400527954,
      -0.5407024025917053,
      -0.5483540892601013,
      0.3137916922569275,
      -0.3978886008262634,
      0.9595361351966858,
      0.5592653751373291,
      0.40512576699256897,
      1.163498044013977,
      0.3774122893810272,
      -1.047568917274475,
      0.2166915088891983,
      0.2532886564731598,
      0.3116881549358368,
      0.3465304970741272,
      -0.33180421590805054,
      -0.35711851716041565,
      -0.4151701033115387,
      -0.561739444732666,
      -0.3969067633152008,
      -0.15293043851852417,
      -0.031190300360322,
      0.024269606918096542,
      0.029191728681325912,
      -0.051760006695985794,
      -0.057904552668333054,
      -0.07018308341503143,
      -0.1507919579744339,
      -0.9273232221603394,
      -0.5474581718444824,
      -1.004338264465332,
      -0.351270467042923,
      0.0018090329831466079,
      0.5249978303909302,
      0.5907810926437378,
      0.6390093564987183,
      0.6994140148162842,
      0.5746325850486755,
      -0.48810747265815735,
      -0.4783230423927307,
      0.5347641110420227,
      0.24649575352668762,
      0.33126315474510193,
      -0.9700050950050354,
      -0.4564400911331177,
      -0.20580783486366272,
      -0.9417451024055481,
      -0.5381117463111877,
      -0.11246483772993088,
      -0.17711195349693298,
      -0.03478366881608963,
      0.026844151318073273,
      -0.018833346664905548,
      -0.1726299524307251,
      -0.12128758430480957,
      -0.20593294501304626,
      -0.3738710284233093,
      -0.5394240617752075,
      -1.1067180633544922,
      -0.48694077134132385,
      -0.733125627040863,
      0.10653126984834671,
      -0.14221487939357758,
      0.5361008644104004,
      0.22083142399787903,
      0.24326536059379578,
      0.15949606895446777,
      -0.03426489606499672,
      0.05815495550632477,
      -0.913021981716156,
      -0.35902270674705505,
      -0.5467045903205872,
      -0.2252601981163025,
      0.3457294702529907,
      -0.6893196702003479,
      -0.744849681854248,
      -0.1957075148820877,
      -0.11576629430055618,
      -0.09618687629699707,
      -0.009698347188532352,
      -0.04755060747265816,
      -0.1951841562986374,
      -0.2517201900482178,
      -0.35528627038002014,
      -0.1571701169013977,
      0.21852201223373413,
      -0.7916717529296875,
      -0.6808083057403564,
      -0.10430992394685745,
      -0.8742896914482117,
      -0.2623407244682312,
      -0.33020803332328796,
      -0.4677010774612427,
      -0.18614943325519562,
      0.20112359523773193,
      -0.12037892639636993,
      0.20863917469978333,
      0.33595797419548035,
      -0.5823171138763428,
      -0.1340305358171463,
      0.4970848262310028,
      0.0875043198466301,
      0.24574334919452667,
      0.1775195598602295,
      -0.10301902145147324,
      4.975415649823844E-4,
      -0.08981399238109589,
      -0.010186438448727131,
      -0.01922525092959404,
      -0.14403942227363586,
      -0.1731622964143753,
      -0.41366317868232727,
      -0.14739084243774414,
      0.5407664179801941,
      0.031193092465400696,
      -0.5080897212028503,
      -0.12322872877120972,
      -0.4971398115158081,
      0.2164391428232193,
      0.5808576345443726,
      0.5156274437904358,
      -0.23428833484649658,
      -0.717309296131134,
      -0.4374328851699829,
      -0.746595025062561,
      -0.7119049429893494,
      -0.32712283730506897,
      -0.07957778126001358,
      -0.2523534595966339,
      0.14045338332653046,
      0.2554033398628235,
      0.40017589926719666,
      -0.039049215614795685,
      -0.04587317258119583,
      -0.021083321422338486,
      -0.01663123443722725,
      -0.027484651654958725,
      -0.027496835216879845,
      -0.22867774963378906,
      -0.6043989658355713,
      -0.6556723117828369,
      0.2097139209508896,
      -0.004032618831843138,
      0.21651434898376465,
      -0.15967077016830444,
      -0.7501073479652405,
      -0.5809634327888489,
      -0.2699899971485138,
      -0.06522629410028458,
      -0.6248577833175659,
      -0.1453167349100113,
      -0.35144707560539246,
      -0.7074313163757324,
      -0.4399060010910034,
      -0.31803804636001587,
      -0.6968069672584534,
      -0.4298129081726074,
      -0.27717843651771545,
      0.16438007354736328,
      0.5216373801231384,
      0.05938072130084038,
      -0.022795744240283966,
      -0.006784685421735048,
      -0.012854981236159801,
      0.001457702717743814,
      -0.09398997575044632,
      -0.39853930473327637,
      -0.6956843137741089,
      -0.1599113941192627,
      -0.20253624022006989,
      -0.5935389399528503,
      0.5101608633995056,
      -0.10042893886566162,
      -0.400164395570755,
      -0.4357977509498596,
      -0.1500568836927414,
      0.30677518248558044,
      -0.6903029084205627,
      -0.0411037839949131,
      -0.09387598186731339,
      -0.26704809069633484,
      -0.508324146270752,
      -0.09148813039064407,
      -0.30059340596199036,
      -0.5421919226646423,
      0.14760152995586395,
      0.3159714937210083,
      0.1277688890695572,
      0.0243888758122921,
      -0.055697470903396606,
      0.018670260906219482,
      -0.029266182333230972,
      -0.028444983065128326,
      -0.12962819635868073,
      -0.5519839525222778,
      -0.33381402492523193,
      0.5487977266311646,
      0.03635469079017639,
      -0.07405119389295578,
      -0.4271537661552429,
      0.4077760875225067,
      0.3872291147708893,
      -0.3427821397781372,
      -1.00031316280365,
      -0.0965784341096878,
      -0.24280604720115662,
      -0.05759437382221222,
      -0.21160846948623657,
      -0.3767690658569336,
      -0.5444337129592896,
      -0.06720682233572006,
      -0.11620631068944931,
      -0.026456184685230255,
      0.0019204417476430535,
      -0.06557444483041763,
      0.091410331428051,
      0.11035561561584473,
      -0.04681987315416336,
      0.023032985627651215,
      -0.0318995900452137,
      0.003753131255507469,
      -0.13341212272644043,
      -0.4376460015773773,
      -0.02243073843419552,
      0.11447631567716599,
      -0.30308711528778076,
      -0.1195952296257019,
      -0.2683219313621521,
      0.12755630910396576,
      0.40991711616516113,
      -0.21144574880599976,
      -0.11308834701776505,
      -0.4844844341278076,
      -0.14725220203399658,
      -0.4147619903087616,
      -0.12658116221427917,
      0.09078668057918549,
      0.09415165334939957,
      -0.15268145501613617,
      -0.297289103269577,
      -0.10556499660015106,
      -0.2507360279560089,
      -0.1907145380973816,
      0.0346650667488575,
      0.1607043743133545,
      0.07674793899059296,
      0.024879783391952515,
      -0.03009944036602974,
      0.014715570025146008,
      -0.06433575600385666,
      -0.21657299995422363,
      -0.18884001672267914,
      0.19799473881721497,
      -0.10346361249685287,
      -0.8646782040596008,
      0.015127936378121376,
      -0.5654191374778748,
      -0.34156283736228943,
      -0.17644435167312622,
      0.5133460760116577,
      0.4716900587081909,
      -0.1799842268228531,
      -0.5433956980705261,
      -0.3191373944282532,
      -0.8168295621871948,
      -1.001365303993225,
      -0.21761071681976318,
      0.22448724508285522,
      0.1632782220840454,
      0.01704474724829197,
      0.10523363202810287,
      0.13611316680908203,
      0.19980378448963165,
      0.010420399717986584,
      -0.0020529204048216343,
      -0.03754543140530586,
      -0.04078836366534233,
      -0.057900458574295044,
      -0.16205619275569916,
      -0.32245996594429016,
      -0.14555411040782928,
      0.009313924238085747,
      -0.20694611966609955,
      -0.5329523682594299,
      -0.16519221663475037,
      -0.1418839544057846,
      0.15596966445446014,
      -0.17820905148983002,
      -0.36914879083633423,
      -0.4251871407032013,
      0.3039260506629944,
      -0.08063824474811554,
      -0.4573974311351776,
      0.20632106065750122,
      0.7434044480323792,
      0.6298502087593079,
      0.2815719246864319,
      0.10152960568666458,
      -0.03652973473072052,
      0.002882335102185607,
      -0.06070151925086975,
      0.011912931688129902,
      -0.03028271719813347,
      0.011815912090241909,
      0.02803359180688858,
      -0.024819668382406235,
      -0.031754691153764725,
      -0.12315783649682999,
      -0.18941690027713776,
      -0.10971947759389877,
      -0.20329967141151428,
      -0.7691441178321838,
      -0.3972627520561218,
      -0.24937888979911804,
      -0.7705703973770142,
      -0.7937099933624268,
      -0.7233221530914307,
      -0.17144253849983215,
      0.1656913012266159,
      0.2735072374343872,
      0.3537164330482483,
      0.4156002104282379,
      0.4015451669692993,
      0.26416078209877014,
      0.08850772678852081,
      0.04365358129143715,
      0.042620301246643066,
      0.07107783108949661,
      0.01219553966075182,
      -0.0032546462025493383,
      -0.027850601822137833,
      0.02676902338862419,
      0.014908493496477604,
      0.001518640317954123,
      -0.027764108031988144,
      -0.055200837552547455,
      -0.013619138859212399,
      -0.07617520540952682,
      -0.20858845114707947,
      -0.2690889835357666,
      -0.145454540848732,
      -0.15332292020320892,
      -0.19291067123413086,
      -0.10993006080389023,
      0.17045298218727112,
      0.326489120721817,
      0.23988460004329681,
      0.11726399511098862,
      -0.01758313737809658,
      -0.028129015117883682,
      0.07125658541917801,
      0.021529071033000946,
      0.046626120805740356,
      0.01504451408982277,
      0.013596133328974247,
      -0.004994348157197237,
      0.00759954983368516,
      0.01395032275468111,
      -0.010834407992661,
      0.008396298624575138,
      -0.02390851452946663,
      -0.03685658797621727,
      0.005650982726365328,
      -0.026140324771404266,
      -0.04231107607483864,
      -0.032070476561784744,
      -0.0031368948984891176,
      -0.027564886957406998,
      0.026637565344572067,
      0.002160955686122179,
      0.010129865258932114,
      -0.009305759333074093,
      0.02580289915204048,
      0.002712023677304387,
      -0.015603057108819485,
      0.024760834872722626,
      0.028405679389834404,
      0.014166333712637424,
      0.01444923970848322,
      0.033205971121788025,
      -0.02583462744951248,
      -0.006502002943307161,
      0.018502946943044662,
      -0.014169526286423206,
      -0.041517022997140884,
      -0.014489254914224148,
      0.005350817460566759,
      0.03363623097538948,
      0.030994189903140068,
      0.033083703368902206,
      -0.02657831460237503,
      -0.003248552791774273,
      0.028168905526399612,
      0.03568520024418831,
      -0.03209596499800682,
      -0.02666075900197029,
      -0.030935166403651237,
      0.019380416721105576,
      -0.018316995352506638,
      -0.019130956381559372,
      -0.0015299993101507425,
      0.02385089546442032,
      0.014452368952333927,
      -0.030461784452199936,
      0.026753146201372147,
      0.03303966298699379,
      0.03271816298365593,
      -0.011233200319111347,
      -0.028766464442014694,
      -0.025523360818624496,
      0.03762156888842583,
      -0.01038255263119936,
      -0.02292240783572197,
      -0.018442418426275253,
      0.018961627036333084,
      -0.013259048573672771,
      -0.0275353342294693,
      0.037034083157777786,
      0.009457812644541264,
      0.021810069680213928,
      0.009742057882249355,
      -0.03360714390873909,
      -0.04301846772432327,
      -0.0859563946723938,
      -0.041645701974630356,
      -0.03428361937403679,
      -0.02516695111989975,
      -0.06279443204402924,
      -0.032360371202230453,
      0.1371869295835495,
      -0.09306853264570236,
      -0.04839962720870972,
      -0.02324366569519043,
      -0.08554359525442123,
      -0.12006581574678421,
      -0.09069959819316864,
      0.005002271384000778,
      0.015620083548128605,
      -0.028018206357955933,
      -0.021624483168125153,
      -0.02965707704424858,
      -0.011137955822050571,
      0.021840263158082962,
      0.0010824877535924315,
      -0.00814652070403099,
      0.02662547305226326,
      2.2205135610420257E-4,
      0.025588184595108032,
      -0.02654772624373436,
      -0.10967231541872025,
      -0.16959987580776215,
      -0.1515769064426422,
      -0.30008089542388916,
      -0.45571017265319824,
      -0.49405503273010254,
      -0.3193751871585846,
      -0.1490626484155655,
      -0.10543543845415115,
      -0.4082799255847931,
      -0.19476675987243652,
      -0.2480880320072174,
      -0.15524102747440338,
      0.08837602287530899,
      -0.03816119208931923,
      -0.10115975141525269,
      -0.003550268243998289,
      -0.07338984310626984,
      -0.0111508434638381,
      0.02239289879798889,
      -0.02667224034667015,
      0.034519586712121964,
      0.0019148924620822072,
      -0.019476313143968582,
      -0.010709392838180065,
      -0.051435042172670364,
      0.012819154188036919,
      0.03793793171644211,
      -0.07233323156833649,
      0.11572561413049698,
      0.15554673969745636,
      -0.5029734373092651,
      -0.22898252308368683,
      0.3176948130130768,
      0.3592161536216736,
      0.13382434844970703,
      0.31249067187309265,
      0.004869101103395224,
      0.07695411145687103,
      -0.14499850571155548,
      0.3140169680118561,
      0.7056578397750854,
      0.361489862203598,
      -0.301959753036499,
      -0.2602340579032898,
      -0.3508512079715729,
      -0.27716365456581116,
      -0.02936837077140808,
      -0.00822469312697649,
      -0.00601153913885355,
      -0.030128255486488342,
      0.0264689140021801,
      0.003291640430688858,
      -0.0014938401291146874,
      0.10376925021409988,
      0.09229999035596848,
      0.06429538875818253,
      0.31347107887268066,
      0.14753969013690948,
      -0.33501794934272766,
      -0.5876651406288147,
      0.22585710883140564,
      0.242376908659935,
      0.29726019501686096,
      -0.09501071274280548,
      0.3288895785808563,
      0.18368947505950928,
      0.4142518639564514,
      0.3377668261528015,
      0.014904005452990532,
      0.49616652727127075,
      0.0989767536520958,
      0.2163664996623993,
      0.04234292730689049,
      0.25586289167404175,
      0.030665267258882523,
      -0.009151377715170383,
      -0.018744971603155136,
      -0.031275734305381775,
      -0.021512586623430252,
      0.032323893159627914,
      0.07353396713733673,
      0.2019912451505661,
      0.40633848309516907,
      0.41613754630088806,
      0.12784408032894135,
      -0.43091949820518494,
      -0.19111251831054688,
      -0.18604964017868042,
      0.5679283738136292,
      0.35451412200927734,
      -0.022025177255272865,
      -0.4826670289039612,
      -0.18384356796741486,
      0.039280980825424194,
      0.07144749164581299,
      0.027260921895503998,
      -0.12870046496391296,
      -0.4801068603992462,
      0.15572622418403625,
      0.8101396560668945,
      0.7127720713615417,
      0.43333694338798523,
      0.2642786502838135,
      0.03669237717986107,
      -0.0011176697444170713,
      -0.017934437841176987,
      -0.008848709054291248,
      0.0561566986143589,
      0.1794177144765854,
      0.4299153685569763,
      0.6323170065879822,
      0.3458293080329895,
      0.11909613013267517,
      0.4721876084804535,
      0.2622549533843994,
      0.11748457700014114,
      -0.3124505579471588,
      0.1223410815000534,
      0.230921670794487,
      0.7860637307167053,
      0.0824182853102684,
      -0.2780472934246063,
      0.025386864319443703,
      0.27365559339523315,
      0.49910101294517517,
      0.3594428598880768,
      0.5273181200027466,
      1.0174888372421265,
      1.1991336345672607,
      0.7986208200454712,
      0.2550780773162842,
      0.08905992656946182,
      -0.0039629158563911915,
      8.935215882956982E-4,
      -0.023668132722377777,
      -0.05323336645960808,
      0.22556009888648987,
      0.5968513488769531,
      0.6623530983924866,
      0.019746020436286926,
      0.3445371091365814,
      -0.11678116023540497,
      0.698569118976593,
      0.3517909348011017,
      -0.2526332437992096,
      0.08366887271404266,
      0.12216299772262573,
      -0.03204505518078804,
      0.303903728723526,
      0.6555532217025757,
      0.6737305521965027,
      0.5082658529281616,
      0.9212493300437927,
      0.452141672372818,
      0.880778431892395,
      0.7698740363121033,
      0.9666734337806702,
      0.5967696309089661,
      0.21619448065757751,
      0.039048001170158386,
      -0.013335314579308033,
      -0.022633135318756104,
      0.012651922181248665,
      -0.05191527307033539,
      0.1562102735042572,
      0.8073408603668213,
      0.24240273237228394,
      0.06773780286312103,
      0.2331773042678833,
      0.005540854763239622,
      0.4921224117279053,
      -0.2560117244720459,
      -0.15992769598960876,
      0.09754759073257446,
      0.3975432217121124,
      0.23578040301799774,
      0.6020471453666687,
      0.22910557687282562,
      0.31351301074028015,
      0.8630030155181885,
      0.7026546001434326,
      0.2043321132659912,
      0.7062493562698364,
      0.6826579570770264,
      0.8035828471183777,
      1.1387757062911987,
      0.4773889183998108,
      0.09775596857070923,
      0.021656956523656845,
      0.011873197741806507,
      0.005330350250005722,
      -0.056358400732278824,
      0.21315635740756989,
      0.7987692952156067,
      0.4303670823574066,
      0.4747648537158966,
      0.17175494134426117,
      0.23157615959644318,
      -0.5302974581718445,
      -0.025309963151812553,
      0.25777584314346313,
      0.2012062668800354,
      0.38489508628845215,
      0.2684182822704315,
      0.05478424206376076,
      0.28066879510879517,
      0.8309774994850159,
      0.4588434100151062,
      0.5489792823791504,
      0.5429704189300537,
      1.068300485610962,
      0.240717351436615,
      0.7180595993995667,
      0.9621725678443909,
      0.6680755019187927,
      0.16191957890987396,
      0.09572351723909378,
      -0.012725261971354485,
      0.023466942831873894,
      0.04800564423203468,
      0.48402905464172363,
      0.4115878641605377,
      -0.30247554183006287,
      -0.5067866444587708,
      -0.4050213098526001,
      -0.19643115997314453,
      0.18811069428920746,
      0.3123892843723297,
      0.07229627668857574,
      0.677137017250061,
      0.4570768475532532,
      0.7650033235549927,
      0.5969568490982056,
      0.28236404061317444,
      0.7751256227493286,
      0.4845409393310547,
      0.21495908498764038,
      0.36806192994117737,
      0.5132473111152649,
      0.520889163017273,
      0.25823265314102173,
      0.9112241268157959,
      0.6446619629859924,
      0.07616827636957169,
      0.03387301042675972,
      -0.016028495505452156,
      -0.014816945418715477,
      0.11135401576757431,
      0.4621475338935852,
      0.055465660989284515,
      -0.3297403156757355,
      -0.23984113335609436,
      0.281520277261734,
      0.505051851272583,
      0.7334969639778137,
      1.0606143474578857,
      1.599306583404541,
      0.8663461208343506,
      0.6209801435470581,
      0.4859442114830017,
      0.7435725927352905,
      0.13262131810188293,
      0.7384559512138367,
      0.3053331673145294,
      -0.3507801592350006,
      0.03841536492109299,
      0.08879736065864563,
      0.44188764691352844,
      -0.2071305364370346,
      -0.06756856292486191,
      -0.06241510808467865,
      0.08907340466976166,
      0.036205682903528214,
      -0.002473055850714445,
      0.014272019267082214,
      0.14044766128063202,
      0.30461063981056213,
      0.033064018934965134,
      0.5833137631416321,
      0.7583416104316711,
      0.6854265332221985,
      0.35082998871803284,
      0.7371590733528137,
      0.6628721356391907,
      0.335983008146286,
      0.3583489656448364,
      0.6251079440116882,
      -0.05812622979283333,
      0.5091881155967712,
      -0.03217063844203949,
      0.40206581354141235,
      0.4921555519104004,
      0.05352232977747917,
      0.8161501884460449,
      -0.30787935853004456,
      -0.8693278431892395,
      0.17638477683067322,
      -0.7733370065689087,
      -0.30575838685035706,
      0.06311535835266113,
      0.017145909368991852,
      -0.02114858478307724,
      0.02183203026652336,
      0.061644695699214935,
      0.07205893844366074,
      0.44159790873527527,
      1.2836155891418457,
      0.8304556012153625,
      0.5093635320663452,
      0.1969541311264038,
      0.27427610754966736,
      -0.13236209750175476,
      -0.5990471243858337,
      -0.6151048541069031,
      -0.9084179997444153,
      0.07691795378923416,
      -0.0357978455722332,
      0.11399771273136139,
      0.47916752099990845,
      0.17440687119960785,
      0.29581591486930847,
      0.9147694110870361,
      -0.17026135325431824,
      -0.09641961753368378,
      -0.3546079993247986,
      -0.61528080701828,
      -0.5368866324424744,
      -0.5695317387580872,
      -0.23769833147525787,
      -0.025258105248212814,
      0.024672962725162506,
      0.05676658824086189,
      -0.16202737390995026,
      0.3501525819301605,
      0.42462795972824097,
      0.059001777321100235,
      -0.47338396310806274,
      -1.694922685623169,
      -0.5717639923095703,
      -0.5591033697128296,
      -0.5080795884132385,
      -0.3971320688724518,
      -0.4907029867172241,
      -0.2326466143131256,
      -0.5510613918304443,
      -0.06835603713989258,
      1.1036547422409058,
      -0.20182093977928162,
      0.0785922259092331,
      -0.19165487587451935,
      -0.5251511931419373,
      -0.6725913286209106,
      -0.6676400899887085,
      -0.4636530578136444,
      -0.8503282070159912,
      -0.3701414167881012,
      -0.030747098848223686,
      -0.014398268423974514,
      0.014661700464785099,
      -0.00819759164005518,
      -0.42057326436042786,
      -0.35450729727745056,
      -0.6091488599777222,
      -0.6069753766059875,
      -0.042462386190891266,
      0.029148105531930923,
      -0.07016851007938385,
      -0.2298608273267746,
      -0.6594653129577637,
      0.3823854923248291,
      0.019560696557164192,
      -0.3241678774356842,
      -0.27217382192611694,
      0.284919798374176,
      0.6069523692131042,
      0.34481653571128845,
      -0.17728818953037262,
      -0.5235632658004761,
      -0.40071722865104675,
      0.5776816010475159,
      0.4833700656890869,
      0.35045936703681946,
      -0.6869056224822998,
      -0.3712329566478729,
      -0.09016609191894531,
      3.20985825965181E-4,
      0.026935536414384842,
      0.007774797733873129,
      -0.7079678177833557,
      -0.45400142669677734,
      -0.17321498692035675,
      -0.6032597422599792,
      0.2197062075138092,
      0.7337220907211304,
      0.24312663078308105,
      -0.04064985364675522,
      -0.530876874923706,
      0.04624403640627861,
      0.29053887724876404,
      -1.0567773580551147,
      -0.3899097442626953,
      -0.5435925126075745,
      -0.6082536578178406,
      -0.22948648035526276,
      -0.1852019727230072,
      0.5487610697746277,
      -0.5295554995536804,
      0.17986173927783966,
      0.4278011620044708,
      0.019344134256243706,
      -0.8900615572929382,
      -0.6245779395103455,
      -0.15166832506656647,
      0.018072322010993958,
      -0.011464199982583523,
      0.059114422649145126,
      -0.5284269452095032,
      -0.26370492577552795,
      0.14228783547878265,
      -0.23866134881973267,
      1.0997726917266846,
      -0.08015140891075134,
      0.21744222939014435,
      -0.7017146348953247,
      -0.10000961273908615,
      0.21032685041427612,
      -0.15168170630931854,
      -0.8068584203720093,
      -0.16012577712535858,
      0.1158326044678688,
      0.24758821725845337,
      0.2039705067873001,
      0.09965869039297104,
      -0.3741297721862793,
      -0.5846713781356812,
      0.045393139123916626,
      0.46543464064598083,
      -0.7658314108848572,
      -1.0303727388381958,
      -0.07142211496829987,
      -0.04054074361920357,
      0.03492800518870354,
      -0.008417089469730854,
      0.1262415647506714,
      -0.026425020769238472,
      -0.07907359302043915,
      -0.06202587112784386,
      0.3782786428928375,
      -0.10584060102701187,
      0.12087935954332352,
      0.1979093849658966,
      -0.25839975476264954,
      0.37190520763397217,
      -0.4808937907218933,
      0.04579048603773117,
      -1.0231521129608154,
      -0.6669227480888367,
      -0.8999297618865967,
      -0.8948312401771545,
      -0.25368693470954895,
      -0.4564780294895172,
      0.14621181786060333,
      0.23482051491737366,
      -0.10394372791051865,
      -0.8577848672866821,
      -1.5529857873916626,
      -0.5769110321998596,
      -0.04806813970208168,
      -0.04046676680445671,
      8.076216909103096E-5,
      0.015309767797589302,
      0.09993671625852585,
      0.1722850501537323,
      0.5538578033447266,
      0.40912291407585144,
      0.18188519775867462,
      -0.5177682042121887,
      0.712763786315918,
      -0.1558041274547577,
      -0.1700737476348877,
      -0.6519409418106079,
      -0.10609202086925507,
      -0.08217582106590271,
      0.04677848145365715,
      -0.9130377173423767,
      -0.49177610874176025,
      -0.01920946128666401,
      0.14973388612270355,
      -0.1167709156870842,
      -0.19161920249462128,
      0.18944166600704193,
      0.03467165678739548,
      -0.7549816966056824,
      -0.9280034899711609,
      -0.4135395884513855,
      -0.05841441452503204,
      0.009224451147019863,
      -0.010502728633582592,
      0.045903075486421585,
      -0.05986756831407547,
      0.10438728332519531,
      0.3586043417453766,
      -0.16392526030540466,
      -0.35882478952407837,
      -0.5290126800537109,
      0.20699027180671692,
      0.0300542451441288,
      -0.5643295645713806,
      -0.6668397188186646,
      -0.57869952917099,
      -0.26004981994628906,
      -0.5230176448822021,
      -0.4504430592060089,
      -0.18399660289287567,
      0.31240567564964294,
      -0.3203648030757904,
      -0.17299820482730865,
      -0.45408281683921814,
      -0.5569983720779419,
      -0.13981610536575317,
      -0.4463420510292053,
      -0.655620813369751,
      -0.30193600058555603,
      -0.042495228350162506,
      0.006163609214127064,
      0.010145408101379871,
      -0.023717109113931656,
      -0.10534542053937912,
      0.07396271079778671,
      0.197405144572258,
      -0.17022864520549774,
      -0.3088671863079071,
      -0.9747205376625061,
      -0.3883170187473297,
      -0.46506428718566895,
      -0.2539888918399811,
      0.5113387107849121,
      -0.030079154297709465,
      -0.7940304279327393,
      -0.4519621431827545,
      -0.015045354142785072,
      -0.564020574092865,
      -0.41882213950157166,
      -0.27045562863349915,
      -0.6360248923301697,
      -0.006091755349189043,
      -0.11895735561847687,
      -0.2583668828010559,
      -0.44122812151908875,
      -0.5651107430458069,
      -0.32248932123184204,
      -0.0179075188934803,
      -1.4160129649098963E-4,
      -0.032385509461164474,
      -0.02589794620871544,
      -0.07210775464773178,
      -0.06505336612462997,
      0.019396530464291573,
      -0.3472672700881958,
      -0.10129373520612717,
      -0.5576558709144592,
      -0.44823047518730164,
      -0.753591775894165,
      -0.960863471031189,
      -0.07940999418497086,
      0.1432083696126938,
      0.27769696712493896,
      1.0088465213775635,
      0.5851501226425171,
      0.36730730533599854,
      0.39446985721588135,
      -0.18497154116630554,
      -0.2540079355239868,
      -0.3587460517883301,
      -0.08451579511165619,
      0.06120837479829788,
      -0.3151395916938782,
      -0.28462132811546326,
      -0.2653058171272278,
      0.009558255784213543,
      0.018475405871868134,
      0.03419889882206917,
      -0.029209185391664505,
      0.00845032837241888,
      0.22711504995822906,
      0.3849727213382721,
      0.11607398837804794,
      0.35675862431526184,
      0.5546804666519165,
      0.27632811665534973,
      0.24678394198417664,
      0.7052109241485596,
      0.7554497718811035,
      0.677222728729248,
      1.8330092430114746,
      1.7530815601348877,
      1.3027440309524536,
      1.034374713897705,
      1.2899057865142822,
      0.34156185388565063,
      0.07644714415073395,
      -0.32651469111442566,
      -0.43751829862594604,
      -0.4815579652786255,
      -0.31683117151260376,
      -0.41579076647758484,
      -0.18790970742702484,
      0.018003880977630615,
      0.038140613585710526,
      -0.012614584527909756,
      -0.013827943243086338,
      0.03427678346633911,
      0.1624618023633957,
      0.1437532901763916,
      0.17315125465393066,
      0.3459679186344147,
      0.5103420615196228,
      0.48038986325263977,
      0.6397459506988525,
      0.6517817974090576,
      0.9650048017501831,
      1.01164710521698,
      1.4997187852859497,
      1.3877779245376587,
      1.3520030975341797,
      1.0728248357772827,
      0.8355148434638977,
      0.37267184257507324,
      0.15013398230075836,
      0.27111801505088806,
      -0.005533174611628056,
      -0.24973919987678528,
      -0.04941678047180176,
      -0.20334313809871674,
      -0.1483413577079773,
      -0.025741953402757645,
      0.016510862857103348,
      -0.015932762995362282,
      0.01691119372844696,
      0.01935175061225891,
      0.029391150921583176,
      0.04231740161776543,
      0.09889490902423859,
      0.10810630023479462,
      0.23121637105941772,
      0.45928147435188293,
      0.6422821283340454,
      0.4923481345176697,
      0.49182963371276855,
      0.47124555706977844,
      0.5567523241043091,
      0.5038982033729553,
      0.6614651083946228,
      0.40949225425720215,
      0.41711631417274475,
      0.43943512439727783,
      0.7315120697021484,
      0.46490880846977234,
      0.11523738503456116,
      0.12240354716777802,
      0.12591838836669922,
      0.05008765682578087,
      -0.014214095659554005,
      -0.002093038521707058,
      0.029846154153347015,
      -0.03122626803815365,
      0.030024666339159012,
      -1.370633253827691E-4,
      0.0320931039750576,
      -0.02688777633011341,
      -0.012708399444818497,
      0.05015334114432335,
      0.06022049859166145,
      0.05187899246811867,
      0.07256697863340378,
      0.08467542380094528,
      0.08900380879640579,
      0.07286646962165833,
      0.18739674985408783,
      0.10759154707193375,
      0.18444961309432983,
      0.04468785226345062,
      0.037023477256298065,
      -0.01390986330807209,
      0.01045695599168539,
      0.09743992239236832,
      0.09487149119377136,
      0.031088078394532204,
      -0.01376879122108221,
      -0.011867797933518887,
      0.007385413162410259,
      0.027425572276115417,
      0.0023691770620644093,
      -0.014269768260419369,
      -0.01790934056043625,
      0.028020020574331284,
      -0.027806706726551056,
      -0.030601095408201218,
      0.035753123462200165,
      0.017324717715382576,
      0.03807149827480316,
      0.02733471617102623,
      -0.01068169716745615,
      -0.009693014435470104,
      -0.022429175674915314,
      0.02944212406873703,
      0.03294242173433304,
      -0.008826053701341152,
      -0.0013963131932541728,
      -0.013676906935870647,
      -0.003249760717153549,
      -0.025935864076018333,
      0.022136230021715164,
      0.035040564835071564,
      0.00300952373072505,
      -0.018766723573207855,
      0.010395227931439877,
      -0.005562318488955498,
      -0.012159205041825771,
      -0.02999105677008629,
      0.03847264125943184,
      0.012822517193853855,
      0.01362744439393282,
      0.0013200186658650637,
      -0.030093342065811157,
      -0.05384821072220802,
      0.008109797723591328,
      0.010504198260605335,
      -0.0025359229184687138,
      -0.04949400946497917,
      -0.05481128767132759,
      -0.012117342092096806,
      -0.054663341492414474,
      -0.02620433084666729,
      -4.001810448244214E-4,
      0.00844528991729021,
      -0.023283701390028,
      -0.013285101391375065,
      -0.005868519190698862,
      -0.02667286992073059,
      -0.04932030662894249,
      -0.024673577398061752,
      6.739737000316381E-5,
      -0.04792671278119087,
      -0.029914245009422302,
      -0.024253681302070618,
      0.01346882339566946,
      -0.0291728638112545,
      -0.019415557384490967,
      -0.03945383056998253,
      -0.04908553883433342,
      -0.009688596241176128,
      -0.03564436361193657,
      -0.03798333555459976,
      -0.024768425151705742,
      -0.021444369107484818,
      -0.021531978622078896,
      8.696089498698711E-4,
      -0.018909383565187454,
      0.044100936502218246,
      0.060306258499622345,
      0.08908145874738693,
      0.026567367836833,
      -0.030037490651011467,
      0.010080127976834774,
      -0.0060651605017483234,
      -0.04175838083028793,
      0.013519367203116417,
      -0.022297842428088188,
      4.236983659211546E-4,
      0.008857878856360912,
      -0.044684357941150665,
      -0.037862807512283325,
      -0.017545554786920547,
      0.006585280876606703,
      -0.027296554297208786,
      0.00856706965714693,
      -0.009616301394999027,
      -0.026648521423339844,
      -0.013573921285569668,
      -0.023459376767277718,
      0.01226321142166853,
      -0.023028625175356865,
      0.0055772000923752785,
      0.01720009185373783,
      0.061937544494867325,
      0.04170696437358856,
      0.14241114258766174,
      0.12112187594175339,
      0.055205851793289185,
      0.04632022976875305,
      -0.025397889316082,
      0.07216520607471466,
      0.08526147902011871,
      0.10526494681835175,
      0.014659609645605087,
      -0.01937604695558548,
      -0.0572114922106266,
      -0.007457304280251265,
      -0.027422429993748665,
      -0.03686818480491638,
      -0.02115405723452568,
      -0.0021126861684024334,
      -0.016567684710025787,
      -0.013268920592963696,
      0.0054409741424024105,
      0.008360992185771465,
      -0.005839529912918806,
      0.001847846549935639,
      0.011211187578737736,
      -0.03943668678402901,
      0.04852240905165672,
      0.06735170632600784,
      0.16518495976924896,
      0.2443770170211792,
      0.15387405455112457,
      -0.007442442234605551,
      0.047026377171278,
      -0.013361798599362373,
      0.09393703192472458,
      0.08451264351606369,
      0.0829055979847908,
      -0.12166838347911835,
      -0.21570329368114471,
      -0.21398121118545532,
      -0.06676466017961502,
      -0.04607526585459709,
      -0.007466940674930811,
      0.010991105809807777,
      -0.016853520646691322,
      -0.006913017015904188,
      -0.004785284865647554,
      -0.05102669820189476,
      -0.03024871274828911,
      0.015205533243715763,
      -0.005553444381803274,
      -0.032718293368816376,
      0.021192925050854683,
      0.09557966887950897,
      0.05330017954111099,
      0.06064106523990631,
      0.10669052600860596,
      0.2772759795188904,
      0.1928688883781433,
      -0.19534364342689514,
      -0.07510656118392944,
      0.13036389648914337,
      0.30846676230430603,
      0.13730581104755402,
      -0.002157578244805336,
      -0.27250221371650696,
      -0.4644449055194855,
      -0.3799622654914856,
      -0.31304505467414856,
      -0.2101525217294693,
      -0.17622911930084229,
      -0.08816156536340714,
      -0.022006947547197342,
      -0.06682062894105911,
      -0.017481718212366104,
      0.010489550419151783,
      -0.036990318447351456,
      -0.018525710329413414,
      -0.047643452882766724,
      -0.036822933703660965,
      0.12163843959569931,
      0.19296222925186157,
      0.182108536362648,
      0.05250830948352814,
      0.2565803527832031,
      0.13349610567092896,
      0.08215337246656418,
      -0.14874178171157837,
      -0.07829871773719788,
      0.1385248750448227,
      0.244206041097641,
      0.13985493779182434,
      -0.15297764539718628,
      -0.3842812478542328,
      -0.5696457624435425,
      -0.5909408926963806,
      -0.4828704297542572,
      -0.43917155265808105,
      -0.4272611141204834,
      -0.2357468158006668,
      -0.040753673762083054,
      -0.008209414780139923,
      0.01673262007534504,
      -0.028468547388911247,
      -0.042698945850133896,
      0.001970972865819931,
      -0.003886366495862603,
      -0.015452037565410137,
      0.14250262081623077,
      0.17270790040493011,
      0.05689983442425728,
      0.11537183821201324,
      0.28528574109077454,
      0.28993383049964905,
      0.18481667339801788,
      0.29386091232299805,
      0.004460272379219532,
      0.080809585750103,
      0.20167189836502075,
      -0.36396798491477966,
      -0.5561708211898804,
      -0.8770851492881775,
      -0.921502947807312,
      -0.6865020990371704,
      -0.6315836310386658,
      -0.47456055879592896,
      -0.33166301250457764,
      -0.15894776582717896,
      -0.1432943344116211,
      0.012217276729643345,
      0.001313297194428742,
      0.02708488516509533,
      -0.02901919186115265,
      -0.026340028271079063,
      -0.044838469475507736,
      -0.03454235568642616,
      0.10598922520875931,
      0.1717606484889984,
      0.037277087569236755,
      -0.08010485023260117,
      0.161905437707901,
      0.11426442861557007,
      0.2548083961009979,
      0.1265309751033783,
      -0.23441192507743835,
      -0.3067421317100525,
      -0.3653610944747925,
      -0.8067068457603455,
      -0.8861505389213562,
      -1.070904016494751,
      -1.1383603811264038,
      -0.752292811870575,
      -0.5502259731292725,
      -0.26133397221565247,
      -0.2906765043735504,
      -0.10769332945346832,
      -0.041010238230228424,
      -0.10197147727012634,
      -0.007254168391227722,
      0.014093981124460697,
      -0.02923005260527134,
      -0.00540573475882411,
      -0.032133474946022034,
      -0.1012684628367424,
      -0.018895894289016724,
      0.14139509201049805,
      0.020822161808609962,
      -0.2047848105430603,
      0.09589996933937073,
      0.03250374272465706,
      -0.1476888209581375,
      -0.1697012484073639,
      -0.3018379211425781,
      -0.4142521917819977,
      -0.8730435967445374,
      -0.8773689866065979,
      -0.7826810479164124,
      -0.6754956841468811,
      -0.5022743940353394,
      -0.1832725703716278,
      -0.11072435975074768,
      -0.20906277000904083,
      -0.24876660108566284,
      -0.2060183435678482,
      -0.12048941850662231,
      -0.03670525178313255,
      -0.09066608548164368,
      -0.029776068404316902,
      0.014397469349205494,
      -0.013273556716740131,
      -0.06285620480775833,
      -0.1288873553276062,
      -0.08817852288484573,
      0.04029189050197601,
      -0.013601654209196568,
      0.01690361462533474,
      -0.03390192240476608,
      0.050865087658166885,
      -0.18565751612186432,
      0.038867127150297165,
      0.20313279330730438,
      -0.2832730710506439,
      -0.6397193074226379,
      -0.3787325918674469,
      -0.015323277562856674,
      0.32819467782974243,
      0.17329169809818268,
      0.005397284869104624,
      0.07137859612703323,
      -0.17441576719284058,
      -0.14473293721675873,
      0.04002615436911583,
      0.03878483176231384,
      0.1362013816833496,
      0.09000712633132935,
      -0.02105879783630371,
      -0.029894912615418434,
      -0.046550072729587555,
      -0.009970992803573608,
      -0.07941777259111404,
      -0.08034751564264297,
      0.07433955371379852,
      -0.09492265433073044,
      -0.14652809500694275,
      -0.2001766860485077,
      -0.23994050920009613,
      -0.36139845848083496,
      -0.15243923664093018,
      -0.4028579592704773,
      -0.4935952425003052,
      -0.3006650507450104,
      0.603348970413208,
      0.7601876258850098,
      0.6442771553993225,
      0.830275297164917,
      0.7424687743186951,
      0.8207272887229919,
      0.6355984807014465,
      0.2771338224411011,
      0.4678837060928345,
      0.5263983607292175,
      0.3204239010810852,
      0.10003587603569031,
      -0.009550068527460098,
      -0.05243520066142082,
      -0.037167131900787354,
      -0.014956686645746231,
      -0.05587572604417801,
      -0.13508407771587372,
      -0.08143215626478195,
      -0.2394663244485855,
      -0.41780123114585876,
      -0.4334358870983124,
      -0.35524940490722656,
      -0.27604568004608154,
      -0.08082231879234314,
      -0.3889216482639313,
      -0.5111729502677917,
      0.08534065634012222,
      0.5945239663124084,
      0.6491624116897583,
      0.5279316902160645,
      0.5418729782104492,
      0.5246583223342896,
      0.6864821314811707,
      0.9803833961486816,
      0.6733027696609497,
      0.8228520750999451,
      0.6291013956069946,
      0.2398940622806549,
      -0.0707690566778183,
      0.006326958071440458,
      0.007837345823645592,
      0.011296995915472507,
      -0.03781997784972191,
      -0.10952185094356537,
      -0.1710740476846695,
      -0.3415340185165405,
      -0.37870097160339355,
      -0.08370448648929596,
      0.05675427243113518,
      -0.011324236169457436,
      0.05929354950785637,
      0.07465259730815887,
      -0.29151657223701477,
      -0.26715177297592163,
      0.33942919969558716,
      0.2731316387653351,
      0.09592415392398834,
      -0.17382009327411652,
      -0.053920622915029526,
      0.2670661509037018,
      0.3785986006259918,
      0.2557436227798462,
      0.3906521201133728,
      0.4773816764354706,
      0.5006841421127319,
      0.24325500428676605,
      0.08282529562711716,
      0.008493519388139248,
      -0.01017176266759634,
      -0.014178004115819931,
      -0.003456330159679055,
      -0.07287441194057465,
      -0.18913580477237701,
      -0.09450138360261917,
      0.08017625659704208,
      0.3776699900627136,
      0.26995131373405457,
      0.26337385177612305,
      0.22463925182819366,
      -0.17375104129314423,
      -0.3713231682777405,
      -0.08535518497228622,
      0.06287545710802078,
      0.17519108951091766,
      -0.19033882021903992,
      -0.39964303374290466,
      -0.48425450921058655,
      -0.20148004591464996,
      -0.33392736315727234,
      -0.19134104251861572,
      -0.04634593427181244,
      0.39332470297813416,
      0.3201388418674469,
      0.16422715783119202,
      -0.04372671991586685,
      -0.027459098026156425,
      -0.043012093752622604,
      0.013996600173413754,
      0.005151310935616493,
      0.017159197479486465,
      -0.12499129772186279,
      -0.04105700924992561,
      -0.01346832886338234,
      0.12931238114833832,
      0.15002860128879547,
      0.1789999157190323,
      0.2327747642993927,
      -0.01739368960261345,
      -0.2738775908946991,
      -0.10228897631168365,
      -0.19423209130764008,
      -0.018517043441534042,
      -0.022733571007847786,
      -0.3038214445114136,
      -0.6358623504638672,
      -0.6852827072143555,
      -0.2575860619544983,
      0.013811563141644001,
      0.2457471787929535,
      0.30287349224090576,
      0.04330797865986824,
      -0.018495628610253334,
      -0.04451662302017212,
      -0.03236043080687523,
      -0.027221035212278366,
      0.007683605886995792,
      -0.009301561862230301,
      -0.05212743207812309,
      -0.02803407981991768,
      -0.1038506031036377,
      0.18562304973602295,
      0.10108648240566254,
      -0.021361159160733223,
      0.2613823413848877,
      -0.09061890840530396,
      -0.19081085920333862,
      -0.09885920584201813,
      -0.16017119586467743,
      0.017555344849824905,
      0.35173091292381287,
      -0.19361665844917297,
      -0.27149856090545654,
      -0.34745368361473083,
      -0.23203852772712708,
      -0.2021753042936325,
      0.27952221035957336,
      0.08080695569515228,
      0.05033747851848602,
      -0.11080342531204224,
      -0.034274499863386154,
      -0.10860088467597961,
      -0.03440994769334793,
      -0.03994569554924965,
      -0.04544798657298088,
      -0.007157404441386461,
      0.03412313386797905,
      0.02252257987856865,
      -0.06729407608509064,
      0.07681968063116074,
      0.03361848369240761,
      -0.21178622543811798,
      -0.012056045234203339,
      -0.06928939372301102,
      -0.12984144687652588,
      -0.38354697823524475,
      -0.19203199446201324,
      -0.12094243615865707,
      0.0034511538688093424,
      -0.2828368544578552,
      -0.4437868893146515,
      0.2607783377170563,
      0.14293400943279266,
      -0.05746252462267876,
      0.2567702829837799,
      -0.08788298070430756,
      -0.06653609126806259,
      -0.12817992269992828,
      -0.08634071052074432,
      -0.04037374258041382,
      -0.054429296404123306,
      -0.018810652196407318,
      -0.0316055603325367,
      0.019361386075615883,
      -0.022217942401766777,
      -0.12403010576963425,
      -0.1691199541091919,
      -0.141623854637146,
      -0.10771641135215759,
      -0.32676437497138977,
      -0.08837119489908218,
      -0.09478796273469925,
      -0.1954270303249359,
      -0.4325687885284424,
      -0.21773473918437958,
      -0.01849033683538437,
      -0.2264939248561859,
