{
  "InputNodes": 784,
  "OutputNodes": 10,
  "OutputBias": {
    "data": [
      -1.549359679222107,
      -0.7126010656356812,
      -0.4188723564147949,
      -1.7688839435577393,
      -2.3646798133850098,
      -1.3738243579864502,
      -1.7940319776535034,
      -0.12285086512565613,
      -4.099610328674316,
      -3.9687342643737793
    ],
    "rows": 10,
    "cols": 1
  },
  "HiddenWeights-0": {
    "data": [
      -0.0019126543775200844,
      0.03121333010494709,
      -0.02109469473361969,
      0.026406850665807724,
      0.02962055429816246,
      0.0205712728202343,
      0.004750516731292009,
      0.020061641931533813,
      -0.010412406176328659,
      -0.00416385754942894,
      -0.02572837471961975,
      0.003812040202319622,
      -0.026648949831724167,
      0.01602991297841072,
      0.023304779082536697,
      -0.0028731245547533035,
      -0.013955941423773766,
      -0.012510797008872032,
      0.010340867564082146,
      0.016291681677103043,
      0.02207043394446373,
      -0.005914122797548771,
      -0.037427641451358795,
      -0.03416577726602554,
      -0.03374073654413223,
      -0.0061898548156023026,
      0.007056978531181812,
      0.01987578719854355,
      7.300276047317311E-5,
      0.0059329429641366005,
      -0.024754900485277176,
      0.017099976539611816,
      0.01771150901913643,
      -0.020453285425901413,
      0.004288864322006702,
      -0.022989951074123383,
      -0.032057568430900574,
      -0.03333928436040878,
      0.015030164271593094,
      -0.01459014043211937,
      0.009003439918160439,
      0.007353528402745724,
      0.018396534025669098,
      0.0070438748225569725,
      0.007901488803327084,
      -0.0066411467269063,
      0.004647939465939999,
      -0.011903176084160805,
      0.029249146580696106,
      -0.03787276893854141,
      0.0042488607577979565,
      0.016766447573900223,
      0.01503300853073597,
      0.015355993993580341,
      -0.02027387171983719,
      0.0011513991048559546,
      0.006605403497815132,
      0.010204723104834557,
      0.002157339360564947,
      -0.03601561486721039,
      0.017591267824172974,
      -0.010475082322955132,
      -0.033528830856084824,
      0.017432693392038345,
      0.04737306013703346,
      0.09134984761476517,
      0.06345964968204498,
      0.028080567717552185,
      0.03422272577881813,
      0.050149835646152496,
      0.08665403723716736,
      0.08822356909513474,
      0.08260054141283035,
      0.02301825024187565,
      -0.06553468853235245,
      -0.12822359800338745,
      -0.014151952229440212,
      0.024651961401104927,
      -0.006170041859149933,
      -0.026041720062494278,
      -0.009969713166356087,
      -0.022873900830745697,
      8.674535638419911E-5,
      0.019707344472408295,
      0.0053353747352957726,
      -0.026355311274528503,
      -0.037833321839571,
      -0.025055663660168648,
      0.024785155430436134,
      -0.0356798879802227,
      0.007305288687348366,
      0.018262069672346115,
      0.06634245812892914,
      0.06086185947060585,
      -0.08564586192369461,
      -0.05296750366687775,
      0.13509194552898407,
      0.05399174615740776,
      0.12492194026708603,
      0.525157630443573,
      0.27618005871772766,
      -0.1292891651391983,
      -0.1476069539785385,
      -0.11343373358249664,
      -0.02200123481452465,
      0.07543806731700897,
      0.03897390887141228,
      0.09092351049184799,
      0.011485975235700607,
      0.022117581218481064,
      0.005937113426625729,
      0.023948047310113907,
      -0.038123831152915955,
      0.014522502198815346,
      0.013918454758822918,
      0.01253292616456747,
      -0.08126901090145111,
      0.014158923178911209,
      -0.09170009195804596,
      0.06898005306720734,
      -0.06221460923552513,
      -0.09087492525577545,
      -0.3575141429901123,
      -0.4920940101146698,
      0.0708245113492012,
      0.26842495799064636,
      0.11915874481201172,
      -0.19666633009910583,
      0.25229912996292114,
      0.3894990086555481,
      -0.045214079320430756,
      0.29023849964141846,
      0.40284886956214905,
      0.024861600250005722,
      0.05477938428521156,
      0.05970080569386482,
      7.59262009523809E-4,
      -0.08523765206336975,
      -0.02264302223920822,
      -0.03569968044757843,
      0.0016904374351724982,
      -0.029853351414203644,
      -0.0328311026096344,
      -0.042544886469841,
      -0.282793790102005,
      -0.24254110455513,
      -0.14406746625900269,
      0.11370910704135895,
      0.09250916540622711,
      0.05266360566020012,
      -0.07275351881980896,
      0.014192448928952217,
      0.32477831840515137,
      -0.149224653840065,
      0.14794789254665375,
      0.3421660363674164,
      -0.34335392713546753,
      0.10428286343812943,
      0.23841433227062225,
      0.21913927793502808,
      0.13827423751354218,
      0.1757982224225998,
      -0.17060621082782745,
      -0.40183910727500916,
      -0.33460620045661926,
      -0.09603704512119293,
      -0.05372069031000137,
      0.0025499961338937283,
      -0.03039473108947277,
      -0.015212573111057281,
      -0.027005739510059357,
      -0.05151733011007309,
      -0.09392983466386795,
      -0.24793218076229095,
      -0.0794658213853836,
      0.2010272592306137,
      -0.18585488200187683,
      0.09224923700094223,
      -0.22060199081897736,
      -0.26352912187576294,
      -0.12327711284160614,
      -0.5273793935775757,
      -0.49092987179756165,
      0.21241749823093414,
      -0.4168930649757385,
      0.0014638985740020871,
      0.015336317010223866,
      0.6941270232200623,
      -0.11237036436796188,
      -0.49704983830451965,
      -0.6352508664131165,
      -0.47420525550842285,
      -0.3361206650733948,
      -0.19303716719150543,
      -0.0678238496184349,
      -0.017022177577018738,
      -0.021665059030056,
      -0.04459145665168762,
      0.005791973322629929,
      0.0472811758518219,
      0.031208941712975502,
      -0.17306680977344513,
      -0.1439824104309082,
      -0.2945882976055145,
      -0.07426653802394867,
      0.2115861475467682,
      0.09292685985565186,
      -0.297772616147995,
      -0.3554062247276306,
      -0.14459297060966492,
      -0.043495774269104004,
      0.21577899158000946,
      0.28483909368515015,
      -0.026606053113937378,
      -0.2505180537700653,
      0.02568470686674118,
      -0.2515253722667694,
      -0.3326743543148041,
      -0.3277692496776581,
      -0.11968831717967987,
      -0.17619119584560394,
      -0.3312186300754547,
      -0.12713079154491425,
      0.006788935512304306,
      -0.025132473558187485,
      -0.030080996453762054,
      0.00801808387041092,
      -0.12781651318073273,
      -0.061202194541692734,
      0.052226386964321136,
      0.16879498958587646,
      0.13922515511512756,
      0.2419002205133438,
      0.11847715079784393,
      0.11899508535861969,
      0.20073038339614868,
      0.09864399582147598,
      0.02633589319884777,
      0.25837573409080505,
      -0.8145343065261841,
      0.19671939313411713,
      -0.12698906660079956,
      -0.2897055447101593,
      0.32799333333969116,
      0.23109988868236542,
      0.36955222487449646,
      0.10008296370506287,
      0.11632857471704483,
      -0.06431093066930771,
      -0.25787055492401123,
      -0.12340665608644485,
      0.008981442078948021,
      0.004298711195588112,
      0.023968352004885674,
      -0.09685352444648743,
      -0.19811342656612396,
      -0.12412780523300171,
      0.1382940411567688,
      -0.22832518815994263,
      -0.5947833061218262,
      -0.2671608030796051,
      -0.2602301836013794,
      -0.2176157683134079,
      0.64021235704422,
      -0.5277549624443054,
      -0.3149213492870331,
      0.12038604170084,
      -0.03574211522936821,
      -0.1490413099527359,
      -0.10591094940900803,
      -0.1186763271689415,
      -0.14680355787277222,
      -0.0428379662334919,
      0.31310853362083435,
      0.5742253661155701,
      0.27366000413894653,
      -0.10571368783712387,
      -0.19433394074440002,
      0.016343753784894943,
      -0.021830931305885315,
      -0.017839733511209488,
      0.01052196603268385,
      -0.01210631150752306,
      -0.46808570623397827,
      -0.08756984770298004,
      -0.22509819269180298,
      -0.4212779700756073,
      0.03621545061469078,
      -0.2145131230354309,
      0.635524332523346,
      -0.45538267493247986,
      -0.42177674174308777,
      -0.3507457673549652,
      -0.13654661178588867,
      0.3531988561153412,
      0.3792264759540558,
      0.11899323761463165,
      -0.376698762178421,
      -0.46696799993515015,
      -0.015129114501178265,
      -0.0168581772595644,
      -0.30184003710746765,
      0.6596083045005798,
      0.4210691750049591,
      -0.26517966389656067,
      -0.1800965517759323,
      -0.08297494798898697,
      -0.043547436594963074,
      -0.01873323693871498,
      0.05177241936326027,
      0.00264120870269835,
      -0.2616414725780487,
      0.1906619369983673,
      0.1795487403869629,
      -0.2511354386806488,
      0.15917982161045074,
      0.016266515478491783,
      0.4550272226333618,
      0.3048580586910248,
      0.6584860682487488,
      0.514978289604187,
      0.3604987859725952,
      0.3890515863895416,
      0.10408587008714676,
      -0.29093313217163086,
      -0.1830265372991562,
      -0.1792537122964859,
      -0.08786167949438095,
      -0.51157546043396,
      -0.18800626695156097,
      0.42871934175491333,
      0.0030690061394125223,
      -0.10210365056991577,
      -0.12040486186742783,
      -0.08467353135347366,
      -0.0034384788013994694,
      -0.012659581378102303,
      0.009416736662387848,
      0.04072708636522293,
      0.16293667256832123,
      0.21088933944702148,
      0.4565156102180481,
      0.09203004837036133,
      0.4616973400115967,
      -0.16484291851520538,
      0.04626880958676338,
      -0.14829543232917786,
      0.584689736366272,
      0.06305401027202606,
      -0.20407544076442719,
      0.02812907099723816,
      0.3819611668586731,
      1.0069559812545776,
      0.45217952132225037,
      0.11054681986570358,
      0.2245422899723053,
      -0.43848171830177307,
      0.14006966352462769,
      -0.06016824394464493,
      -0.43762335181236267,
      -0.14660565555095673,
      -0.10931460559368134,
      -0.060510601848363876,
      -0.035078730434179306,
      0.006216567941009998,
      0.013505721464753151,
      0.009124253876507282,
      0.20870539546012878,
      0.001784636522643268,
      -0.007416883949190378,
      0.09074652940034866,
      0.11840210855007172,
      0.2256792038679123,
      -0.0743509829044342,
      -0.5463939905166626,
      -0.15239185094833374,
      -0.727698564529419,
      -0.5774186849594116,
      -0.18429575860500336,
      0.5516548752784729,
      -0.002894393168389797,
      0.5896652936935425,
      0.645749032497406,
      0.6763322353363037,
      0.5154366493225098,
      0.07585746049880981,
      -0.07542917877435684,
      -0.3020790219306946,
      -0.34766024351119995,
      0.07534036785364151,
      0.05020629242062569,
      -0.007433895021677017,
      -6.938168662600219E-4,
      -0.003878362011164427,
      0.026645489037036896,
      0.10443611443042755,
      -0.03326601907610893,
      0.062371626496315,
      -0.35844123363494873,
      -0.6384705901145935,
      -0.054916899651288986,
      0.2500879466533661,
      -0.05345287546515465,
      0.07827263325452805,
      -0.4681333899497986,
      -0.37844422459602356,
      -0.32485342025756836,
      -0.008335123769938946,
      0.14472441375255585,
      -0.12726551294326782,
      0.5206111669540405,
      0.7790687680244446,
      0.43922457098960876,
      -0.00167269806843251,
      0.17359128594398499,
      -0.21741783618927002,
      -0.3991874158382416,
      0.3876533508300781,
      0.12606573104858398,
      -0.010233094915747643,
      -0.005092989653348923,
      -0.06803512573242188,
      -0.09365374594926834,
      0.09246058017015457,
      0.05678630992770195,
      0.03280313313007355,
      -0.05132114142179489,
      -0.025473520159721375,
      0.007062950637191534,
      -0.028942441567778587,
      -0.4389096200466156,
      -0.475019246339798,
      -0.08553452789783478,
      0.23056769371032715,
      0.4165630042552948,
      -0.009597215801477432,
      -0.14003317058086395,
      0.4379020035266876,
      0.686731219291687,
      0.8387221693992615,
      -0.17867358028888702,
      -0.44912412762641907,
      0.0047350917011499405,
      -0.25970327854156494,
      -0.2226172834634781,
      0.6344903111457825,
      0.050733014941215515,
      0.022810205817222595,
      0.02134542167186737,
      -0.03208785504102707,
      -0.2306133359670639,
      7.135444320738316E-4,
      0.21814197301864624,
      0.2597346901893616,
      0.6168621182441711,
      0.5943472385406494,
      0.38459312915802,
      -0.4933921694755554,
      -0.5031435489654541,
      -0.5704348683357239,
      -0.7066556215286255,
      -0.5861413478851318,
      0.03754859417676926,
      -0.02074195258319378,
      0.7449220418930054,
      0.7482366561889648,
      0.1561470627784729,
      -0.0527733638882637,
      0.30645570158958435,
      0.036494556814432144,
      -0.23254738748073578,
      -0.12741084396839142,
      -0.17108477652072906,
      0.6273504495620728,
      0.28273501992225647,
      0.026346273720264435,
      0.00646213348954916,
      0.01771160587668419,
      -0.14218616485595703,
      -0.18471035361289978,
      0.22711464762687683,
      0.6044163703918457,
      1.287824273109436,
      1.0828735828399658,
      1.2959926128387451,
      1.3607134819030762,
      -0.035746704787015915,
      -0.051951609551906586,
      -0.9605377912521362,
      -0.9317786693572998,
      0.3698582947254181,
      1.1311969757080078,
      0.8439170122146606,
      0.28053751587867737,
      -0.06370522826910019,
      -0.48603737354278564,
      0.11483155936002731,
      0.23210249841213226,
      0.03750748932361603,
      -0.1529017686843872,
      0.2865287959575653,
      0.3079538643360138,
      0.10710033774375916,
      -0.028019659221172333,
      0.03301696106791496,
      -0.004539800807833672,
      -0.14045128226280212,
      -0.4514215290546417,
      0.13880008459091187,
      0.9367685914039612,
      1.375038743019104,
      1.2389836311340332,
      1.9056389331817627,
      2.7244157791137695,
      2.9333901405334473,
      3.333829879760742,
      2.951078176498413,
      2.2340452671051025,
      1.4032877683639526,
      0.8968546390533447,
      -0.15424007177352905,
      -0.18201370537281036,
      -0.5495245456695557,
      0.31469836831092834,
      -0.7713817358016968,
      -0.3959670662879944,
      -0.7337398529052734,
      -0.15715594589710236,
      0.3379058837890625,
      0.17945228517055511,
      0.03843294456601143,
      -0.009217165410518646,
      -0.011580798774957657,
      0.030081477016210556,
      -0.028983909636735916,
      -0.4958544075489044,
      0.1542416661977768,
      0.9373602271080017,
      0.8866217136383057,
      0.711304247379303,
      0.9280551671981812,
      1.6609855890274048,
      2.150930404663086,
      2.174424171447754,
      1.8708981275558472,
      1.3399277925491333,
      0.2739312946796417,
      0.17222630977630615,
      -0.5501133799552917,
      -0.4152936637401581,
      0.09290394932031631,
      0.16308210790157318,
      -0.7774247527122498,
      -0.4100740849971771,
      -0.162871316075325,
      -0.08017756044864655,
      -0.1543588936328888,
      0.07095252722501755,
      -0.003308901796117425,
      0.005028235726058483,
      0.02687946707010269,
      -0.007965373806655407,
      0.03713027760386467,
      -0.3545060455799103,
      -0.1497102975845337,
      0.4718632996082306,
      0.7732340097427368,
      0.7753946185112,
      0.801393449306488,
      0.3458205759525299,
      0.6208012104034424,
      0.15324269235134125,
      0.20207351446151733,
      0.11515799909830093,
      -0.22656026482582092,
      0.21354082226753235,
      0.3582611083984375,
      -0.3061184585094452,
      -0.17406311631202698,
      -0.035168979316949844,
      -0.6529883146286011,
      0.45944875478744507,
      -0.15442489087581635,
      -0.14887399971485138,
      -0.10886776447296143,
      0.019368503242731094,
      0.01947701908648014,
      0.017914917320013046,
      -0.012068258598446846,
      -0.006676738150417805,
      0.010279900394380093,
      -0.3879295289516449,
      -0.5725412368774414,
      -0.015500891022384167,
      0.5258210301399231,
      0.009388343431055546,
      0.2469831258058548,
      0.2515502870082855,
      -0.2607419490814209,
      -0.18457067012786865,
      -0.4459206759929657,
      -0.5451496839523315,
      -0.14987309277057648,
      -0.35782477259635925,
      0.029346950352191925,
      0.9443978667259216,
      -0.2922801971435547,
      -0.33614832162857056,
      0.21454988420009613,
      0.21021009981632233,
      -0.1361105889081955,
      -0.13486379384994507,
      0.09674704074859619,
      0.006852591410279274,
      0.021979331970214844,
      -0.03533948212862015,
      -0.004811511375010014,
      -0.005498799495398998,
      0.006381993647664785,
      -0.20029591023921967,
      -0.4020126163959503,
      -0.4048340320587158,
      -0.12657365202903748,
      -0.15467239916324615,
      -0.3285970985889435,
      -0.291963130235672,
      -0.06223380193114281,
      -1.0400639772415161,
      -0.5083026885986328,
      -0.2750818729400635,
      0.15280337631702423,
      -0.5860838294029236,
      -0.3447190523147583,
      -0.16805881261825562,
      0.1938447505235672,
      -4.187490849290043E-4,
      -0.06023076921701431,
      0.20617708563804626,
      -0.14305421710014343,
      -0.06140562891960144,
      0.13434535264968872,
      0.06538891792297363,
      -0.0359966866672039,
      -0.0012178110191598535,
      -0.03002278134226799,
      -0.032900139689445496,
      -0.037793345749378204,
      -0.28361743688583374,
      -0.6134833097457886,
      -0.7211350798606873,
      -0.7062861919403076,
      -0.623538076877594,
      -0.6499229073524475,
      -0.4123110771179199,
      -0.5127197504043579,
      -0.5298951864242554,
      -0.2390228807926178,
      -0.20304670929908752,
      -0.7593953609466553,
      -0.42648959159851074,
      -0.03294922038912773,
      -0.3589284121990204,
      -0.04421393200755119,
      -0.2625238001346588,
      0.1824209988117218,
      0.28961217403411865,
      0.2621009349822998,
      0.060887519270181656,
      0.05888456851243973,
      0.08313842862844467,
      -0.007994110696017742,
      -0.021240398287773132,
      -0.024372462183237076,
      0.014074750244617462,
      -0.03434811905026436,
      -0.34474122524261475,
      -0.6784154176712036,
      -0.719141960144043,
      -0.8114688396453857,
      -0.992833137512207,
      -0.9312467575073242,
      -0.8314635157585144,
      -1.1077269315719604,
      -0.4856623113155365,
      -0.08943232893943787,
      -0.3846501111984253,
      -0.5190936326980591,
      -0.04527803882956505,
      -0.16045834124088287,
      -0.42855748534202576,
      0.06702490150928497,
      0.5369715094566345,
      0.4558126628398895,
      0.16104118525981903,
      -0.025615280494093895,
      0.005425766576081514,
      0.05006307736039162,
      0.009018925949931145,
      -0.007891488261520863,
      -0.031165722757577896,
      -0.03501790761947632,
      -0.010665923357009888,
      -0.008981358259916306,
      0.027082808315753937,
      -0.03787543252110481,
      -0.1573420614004135,
      -0.22359469532966614,
      -0.34721052646636963,
      -0.5882521271705627,
      -0.36669713258743286,
      -0.4616815745830536,
      -0.6658406853675842,
      -0.6098269820213318,
      -0.4398788511753082,
      0.24379773437976837,
      0.22779367864131927,
      0.17114265263080597,
      0.3299451470375061,
      -0.07493990659713745,
      -0.06711646914482117,
      0.0036284595262259245,
      0.06995627284049988,
      -0.0359555259346962,
      -0.10219056904315948,
      -0.024316325783729553,
      -0.02937958389520645,
      0.00481885951012373,
      -0.022066187113523483,
      0.02533143013715744,
      0.027191713452339172,
      -0.019711237400770187,
      4.546424897853285E-4,
      -0.02317696064710617,
      -0.10052762180566788,
      -0.031019533053040504,
      0.07668722420930862,
      0.1735079288482666,
      0.3089907467365265,
      0.325512170791626,
      0.31409752368927,
      0.16702492535114288,
      0.2622978389263153,
      0.5397030711174011,
      0.32854968309402466,
      0.10909455269575119,
      0.13256266713142395,
      -0.11751893907785416,
      0.006391026545315981,
      -0.023939862847328186,
      0.058729805052280426,
      0.008380201645195484,
      0.006195574067533016,
      -0.027091018855571747,
      0.010750856250524521,
      0.009532056748867035,
      4.7105285921134055E-4,
      -0.03169882670044899,
      -0.021119065582752228,
      0.0073095085099339485,
      -0.036324337124824524,
      -0.002441497053951025,
      0.018162980675697327,
      0.013865329325199127,
      0.0019092386355623603,
      0.0237332321703434,
      0.028501704335212708,
      0.054337117820978165,
      0.10086851567029953,
      0.11467979848384857,
      0.10939887911081314,
      0.025181729346513748,
      0.04443008825182915,
      0.027612486854195595,
      0.030276091769337654,
      -0.050488486886024475,
      -0.14240041375160217,
      -0.07846901565790176,
      -0.011188710108399391,
      0.007849032059311867,
      -0.015905536711215973,
      -0.025771930813789368,
      -0.034216538071632385,
      -0.025072231888771057,
      0.012251274660229683,
      -0.024015264585614204,
      0.008993593044579029,
      -0.0076369293965399265,
      -0.0160131324082613,
      -0.04249325767159462,
      -0.04848681762814522,
      -0.003031793748959899,
      -0.03211194649338722,
      5.490773401106708E-5,
      -0.03175484761595726,
      -0.0013398512965068221,
      -0.01906239055097103,
      -0.02565799094736576,
      -0.009557382203638554,
      -0.02557401917874813,
      -0.012037034146487713,
      -0.0559934563934803,
      -0.00652309088036418,
      -0.023604994639754295,
      -0.009303809143602848,
      -0.05405394360423088,
      -0.036080170422792435,
      -0.024892346933484077,
      -0.007311987224966288,
      -0.0405602790415287,
      -0.03627287968993187,
      0.009536313824355602,
      -0.04793597385287285,
      -0.051178570836782455,
      -0.043835993856191635,
      -0.011489286087453365,
      -0.03597249463200569,
      -0.0218221265822649,
      -0.018375122919678688,
      -0.014977146871387959,
      -0.055322472006082535,
      -0.032204095274209976,
      -0.04336800053715706,
      -0.040817614644765854,
      -0.047839827835559845,
      -0.033097971230745316,
      0.004048316273838282,
      -0.008646816946566105,
      -0.04492777958512306,
      0.018874432891607285,
      -0.025248881429433823,
      -0.013429242186248302,
      -0.0286900345236063,
      -0.05553760752081871,
      -0.04361977428197861,
      -0.02751152776181698,
      0.003825234482064843,
      -0.056072499603033066,
      -0.03180602192878723,
      0.004350592847913504,
      -0.026302436366677284,
      -0.0062673031352460384,
      -0.04893488064408302,
      -0.036911021918058395,
      -0.05061778798699379,
      -0.010944218374788761,
      -0.00442894222214818,
      -0.04635189101099968,
      -0.00972246564924717,
      -0.009067309089004993,
      -0.018473884090781212,
      -0.03866816684603691,
      -0.028567655012011528,
      -0.00960547849535942,
      -0.02220389060676098,
      0.008579812943935394,
      -0.04385983571410179,
      0.019617795944213867,
      0.004639914724975824,
      -0.04238278791308403,
      -0.032656747847795486,
      -0.0579255111515522,
      -0.05520425736904144,
      -0.005942842457443476,
      0.007062870543450117,
      -0.015270602889358997,
      -0.03228279575705528,
      0.0040350379422307014,
      -0.036407481878995895,
      0.0067345560528337955,
      -0.01479372289031744,
      -0.02406776137650013,
      -0.05527309700846672,
      -0.005976327229291201,
      0.0044089495204389095,
      -0.011738485656678677,
      -0.07219257205724716,
      -0.09542184323072433,
      -0.12626200914382935,
      -0.1524505913257599,
      -0.2682032287120819,
      -0.3113253116607666,
      -0.418274462223053,
      -0.34892919659614563,
      -0.1667008250951767,
      0.04856758192181587,
      0.009886194951832294,
      -0.11733347177505493,
      -0.0063510979525744915,
      0.018208226189017296,
      -0.12690585851669312,
      -0.019835997372865677,
      -0.0318099744617939,
      -0.01063998881727457,
      0.005400427151471376,
      -0.05437701568007469,
      0.005039585288614035,
      -0.02267390303313732,
      -0.026994382962584496,
      0.013067232444882393,
      -0.04113692417740822,
      -0.009896942414343357,
      -0.04962124302983284,
      -0.0618622824549675,
      -0.08666263520717621,
      -0.11362016201019287,
      -0.18046589195728302,
      -0.30934983491897583,
      -0.3155258893966675,
      -0.24232889711856842,
      -0.14379310607910156,
      -0.3252866268157959,
      -0.02996230311691761,
      0.2754862904548645,
      0.1306716948747635,
      -0.19626909494400024,
      0.07761206477880478,
      0.09163624048233032,
      -0.09011921286582947,
      -7.494871388189495E-4,
      -0.032552655786275864,
      -0.04561800882220268,
      -0.062017571181058884,
      -0.029142314568161964,
      -0.04949811473488808,
      0.009915781207382679,
      -0.015370170585811138,
      0.014191020280122757,
      -0.052671752870082855,
      -0.07068416476249695,
      -0.010907378979027271,
      -0.015356184914708138,
      -0.10527479648590088,
      -0.04879453405737877,
      0.06914213299751282,
      -0.09409452974796295,
      -0.1345335692167282,
      -0.10619000345468521,
      -0.35312172770500183,
      -0.09277927130460739,
      0.10937871783971786,
      0.3489760160446167,
      0.1459890753030777,
      -0.1620323359966278,
      0.030192136764526367,
      -0.2250458300113678,
      0.02288566529750824,
      0.15385182201862335,
      0.14757634699344635,
      0.06036252900958061,
      -0.08275271952152252,
      -7.960601942613721E-4,
      -3.019317809958011E-4,
      -0.02095181681215763,
      -0.018330397084355354,
      -0.0086020203307271,
      -0.013049248605966568,
      -0.04607386514544487,
      -0.09202397614717484,
      -0.1702592819929123,
      -0.2404838651418686,
      -0.20599186420440674,
      0.17333002388477325,
      0.06740043312311172,
      0.0017223806353285909,
      0.1503462791442871,
      0.07106949388980865,
      0.22433461248874664,
      -0.21081441640853882,
      0.01287619024515152,
      -0.21522188186645508,
      -0.0992194190621376,
      0.19552934169769287,
      0.0713515356183052,
      -0.12285725772380829,
      0.007825355045497417,
      -0.05450701713562012,
      0.002649340545758605,
      -0.11424360424280167,
      -0.03912381827831268,
      -0.03366522863507271,
      3.086187061853707E-4,
      -0.001513887196779251,
      0.004315554164350033,
      0.012973529286682606,
      -0.056577954441308975,
      -0.13238626718521118,
      -0.22725729644298553,
      -0.14487725496292114,
      -0.08273646980524063,
      0.006411953829228878,
      0.004538459237664938,
      0.08098021894693375,
      -0.08801721781492233,
      -0.011163074523210526,
      -0.01574670523405075,
      -0.35861021280288696,
      0.2622775137424469,
      0.1478072702884674,
      -0.07745411247015,
      0.2830405831336975,
      0.3706868290901184,
      0.1752248853445053,
      0.14085686206817627,
      -0.1937536746263504,
      -0.4144298732280731,
      -0.10473600029945374,
      -0.01304226741194725,
      -0.06168916076421738,
      -0.0497809536755085,
      -0.01865706592798233,
      -0.004295879974961281,
      -0.03184540569782257,
      -0.08300277590751648,
      -0.026135094463825226,
      0.029618632048368454,
      0.023943481966853142,
      -0.1832784116268158,
      -0.0813891589641571,
      -0.007880263030529022,
      0.18520638346672058,
      -0.23032929003238678,
      -0.38640764355659485,
      -0.13772496581077576,
      0.028403421863913536,
      0.43177151679992676,
      0.23928244411945343,
      -0.035535212606191635,
      0.07939646393060684,
      -0.09504467993974686,
      -0.005055756773799658,
      0.30974313616752625,
      0.02383897826075554,
      -0.3873246908187866,
      -0.16829749941825867,
      -0.060534458607435226,
      -0.038821518421173096,
      -0.016464287415146828,
      -0.01414499245584011,
      -0.025864120572805405,
      -0.00896440539509058,
      -0.05486160144209862,
      0.10663139820098877,
      0.1963605433702469,
      0.1134372130036354,
      -0.07876690477132797,
      0.11212941259145737,
      0.37670764327049255,
      0.18704161047935486,
      -0.17619048058986664,
      -0.5628193616867065,
      -0.4144306778907776,
      0.2043577879667282,
      0.6684908866882324,
      0.022178633138537407,
      0.05927092581987381,
      -0.179794043302536,
      -0.2823561728000641,
      0.12292702496051788,
      0.17266398668289185,
      -0.23165731132030487,
      -0.271808922290802,
      -0.1211029663681984,
      0.042835306376218796,
      0.08947169035673141,
      0.011248329654335976,
      -0.0517018586397171,
      0.021309183910489082,
      -0.0476435050368309,
      -0.04618313908576965,
      -0.028962578624486923,
      -0.0719408243894577,
      0.10990917682647705,
      0.21772155165672302,
      0.3644115626811981,
      0.39574214816093445,
      -0.1574886590242386,
      -0.43083587288856506,
      -0.4212954640388489,
      -0.6281968951225281,
      0.23363304138183594,
      0.40209901332855225,
      0.14333896338939667,
      -0.08925462514162064,
      -0.13701944053173065,
      -0.07890428602695465,
      0.13298889994621277,
      -0.3118991255760193,
      -0.1944158375263214,
      0.013032307848334312,
      0.07416538894176483,
      0.0062673515640199184,
      -1.872102584457025E-4,
      -0.005090691614896059,
      -0.011668638326227665,
      0.007510113529860973,
      -0.0019164768746122718,
      -0.04357776418328285,
      -0.0814119353890419,
      -0.047919273376464844,
      -0.07804030179977417,
      0.16157160699367523,
      0.07369551807641983,
      -0.08291555196046829,
      -0.5998389720916748,
      -0.5813261270523071,
      -0.2869449853897095,
      -0.39818763732910156,
      0.4750005900859833,
      0.20791514217853546,
      0.07475752383470535,
      -0.141299307346344,
      -0.25174224376678467,
      0.05787622183561325,
      0.08272634446620941,
      -0.029753031209111214,
      -0.081698477268219,
      -0.11363773047924042,
      -0.014305176213383675,
      -0.0069204228930175304,
      -0.002668966306373477,
      -0.017342066392302513,
      -0.013849007897078991,
      -0.029488734900951385,
      -0.029715295881032944,
      -0.062061212956905365,
      -0.0994664654135704,
      0.005529667250812054,
      -0.06211419776082039,
      -0.06688901036977768,
      -0.2791002094745636,
      -0.36339130997657776,
      -0.8470607399940491,
      -0.5057467818260193,
      -0.3380148112773895,
      -0.36407071352005005,
      0.14595097303390503,
      0.19938424229621887,
      0.029616355895996094,
      -0.058622054755687714,
      -0.21415597200393677,
      0.18356864154338837,
      0.14122571051120758,
      -0.07695131003856659,
      -0.10910740494728088,
      -0.0726921558380127,
      0.03641217574477196,
      0.04206671938300133,
      0.027240218594670296,
      0.005546953994780779,
      -0.002135188551619649,
      -0.03649128973484039,
      -0.036215703934431076,
      -0.046966440975666046,
      -0.18949571251869202,
      -0.20042787492275238,
      -0.3256610631942749,
      -0.4077092409133911,
      -0.7899863719940186,
      -0.9122492671012878,
      -0.7539238333702087,
      0.007074278313666582,
      0.13359518349170685,
      -0.038275863975286484,
      -0.2252402901649475,
      0.3538478910923004,
      0.06657035648822784,
      0.23640176653862,
      -0.06868180632591248,
      0.09504025429487228,
      0.13140660524368286,
      -0.09949194639921188,
      -0.06819601356983185,
      0.007654997985810041,
      -3.9564049802720547E-4,
      0.05096486210823059,
      0.020228339359164238,
      -0.04582677409052849,
      0.011819698847830296,
      0.015781430527567863,
      0.019889704883098602,
      -0.034295935183763504,
      -0.22700504958629608,
      -0.3231144845485687,
      -0.353993684053421,
      -0.5631624460220337,
      -0.776913046836853,
      -0.6396992802619934,
      -0.02720176987349987,
      0.3749484121799469,
      -0.4312308728694916,
      -0.08271345496177673,
      -0.016770027577877045,
      0.32526662945747375,
      0.02158208191394806,
      -0.007856974378228188,
      -0.010063528083264828,
      -0.10564707964658737,
      0.07462579011917114,
      -0.1226496770977974,
      -0.14958684146404266,
      -0.0893474742770195,
      -0.027445293962955475,
      0.010902957990765572,
      -0.051279183477163315,
      0.014301220886409283,
      -0.03677889332175255,
      -0.03644350543618202,
      -0.04686695337295532,
      -0.08894487470388412,
      -0.1975293606519699,
      -0.3858664929866791,
      -0.38612958788871765,
      -0.3807491660118103,
      -0.3206655979156494,
      -7.174931815825403E-4,
      0.4029526114463806,
      0.05542977154254913,
      -0.21916575729846954,
      -0.1840842068195343,
      0.11676065623760223,
      0.2817438840866089,
      -0.2083432376384735,
      -0.4534085988998413,
      -0.5234081149101257,
      -0.5444943308830261,
      -0.324544757604599,
      -0.3465620279312134,
      -0.3204224407672882,
      -0.1427241414785385,
      -0.05005965009331703,
      -0.018511494621634483,
      -0.03180825710296631,
      -0.02835160307586193,
      -0.01205888856202364,
      0.008534172549843788,
      -0.0162076186388731,
      -0.04612231254577637,
      -0.1939600110054016,
      -0.2523910403251648,
      -0.441603422164917,
      -0.309011846780777,
      0.05227479711174965,
      0.30020594596862793,
      0.4245327413082123,
      0.020964061841368675,
      0.4866241216659546,
      -0.1713438183069229,
      0.12267368286848068,
      -0.0132947638630867,
      -0.7860091924667358,
      -0.8725499510765076,
      -0.8363829255104065,
      -0.7250441908836365,
      -0.4420660138130188,
      -0.43600067496299744,
      -0.37176069617271423,
      -0.22100234031677246,
      -0.036050401628017426,
      0.03149537369608879,
      8.815326727926731E-4,
      -0.04372723773121834,
      -0.026597218587994576,
      -0.004395528230816126,
      -0.06757824122905731,
      -0.06665588915348053,
      -0.2131562978029251,
      -0.2743321359157562,
      -0.40214550495147705,
      -0.13712535798549652,
      0.062427908182144165,
      0.2104618400335312,
      0.5275609493255615,
      0.4632709324359894,
      0.3276282846927643,
      -0.11865249276161194,
      -0.16187255084514618,
      -0.5670817494392395,
      -0.9295771718025208,
      -0.8846161961555481,
      -0.8550702333450317,
      -0.6473544836044312,
      -0.5650217533111572,
      -0.4558926224708557,
      -0.32953009009361267,
      -0.10943301022052765,
      0.03399907052516937,
      0.08601919561624527,
      -0.003326351987197995,
      0.0012537315487861633,
      7.687835022807121E-4,
      -0.05295205116271973,
      -0.06474930047988892,
      -0.11956148594617844,
      -0.27470824122428894,
      -0.5738196969032288,
      -0.3333366811275482,
      -0.0013405231293290854,
      0.08557494729757309,
      0.18588076531887054,
      0.2638601064682007,
      0.4215981662273407,
      0.11099367588758469,
      -0.7137855291366577,
      -0.6938961744308472,
      -1.1634827852249146,
      -1.0758213996887207,
      -0.8160915374755859,
      -0.7130546569824219,
      -0.5069866180419922,
      -0.22796237468719482,
      -0.1491403877735138,
      -0.1332651972770691,
      -0.06558576226234436,
      -0.0055247712880373,
      0.04741779714822769,
      -0.015927394852042198,
      -0.037456538528203964,
      -0.017298011109232903,
      -0.004487159661948681,
      0.030881810933351517,
      -0.10927534848451614,
      -0.26854828000068665,
      -0.18103449046611786,
      -0.12406886368989944,
      0.01368616335093975,
      0.4110043942928314,
      0.03802630677819252,
      0.3191019594669342,
      0.3878404200077057,
      -0.16968916356563568,
      -1.1282823085784912,
      -0.9107776284217834,
      -0.9362662434577942,
      -0.6780765056610107,
      -0.3114572763442993,
      -0.17943397164344788,
      -0.07208545506000519,
      -0.015853621065616608,
      -0.11777595430612564,
      -0.17805132269859314,
      -0.11860939860343933,
      -0.01828361675143242,
      0.06466106325387955,
      -0.01092760544270277,
      -0.0067291236482560635,
      -0.010327369906008244,
      0.01887773908674717,
      0.07823235541582108,
      0.1166088879108429,
      0.10225234925746918,
      0.029801730066537857,
      -0.266943097114563,
      0.07020172476768494,
      -0.06899545341730118,
      0.2551421523094177,
      0.606360673904419,
      0.5472951531410217,
      -0.34567975997924805,
      -0.30589717626571655,
      -0.5277796983718872,
      -0.12671495974063873,
      0.14072975516319275,
      0.09541628509759903,
      0.25606921315193176,
      0.12417047470808029,
      -0.06567142903804779,
      0.003384085837751627,
      -0.0020789820700883865,
      -0.11805269867181778,
      -0.004610192961990833,
      0.0379147045314312,
      0.0045290919952094555,
      0.004780748393386602,
      -0.040742311626672745,
      -0.027398737147450447,
      0.09929659962654114,
      0.16719327867031097,
      0.5601338744163513,
      0.24622038006782532,
      0.02024107426404953,
      8.701385813765228E-4,
      0.2560857832431793,
      0.4303533434867859,
      0.32257699966430664,
      0.537156343460083,
      0.1405300796031952,
      0.1701965630054474,
      -0.16173669695854187,
      0.14964383840560913,
      0.4039306640625,
      0.3174010217189789,
      0.37900254130363464,
      0.15431860089302063,
      0.07239194959402084,
      -0.03145226463675499,
      -0.07633264362812042,
      -0.09054464101791382,
      -0.05853387340903282,
      -0.00605861796066165,
      -0.022966722026467323,
      -0.05268971249461174,
      -0.01757708750665188,
      -0.04817415401339531,
      0.021970629692077637,
      0.10437357425689697,
      0.5154685378074646,
      0.4281889498233795,
      0.16626235842704773,
      0.07265947014093399,
      0.4412023425102234,
      -0.03532899171113968,
      0.13504274189472198,
      0.11023296415805817,
      0.1641928106546402,
      0.2451038360595703,
      -0.1300515979528427,
      0.13353371620178223,
      0.07485777884721756,
      0.3082364797592163,
      0.3487217128276825,
      0.25028273463249207,
      0.1521492749452591,
      -0.004630024544894695,
      -0.11924466490745544,
      -0.0754929780960083,
      -0.029938729479908943,
      0.007418625056743622,
      -4.349941445980221E-4,
      -0.007643818389624357,
      -0.04244371876120567,
      -0.024898001924157143,
      -0.10874880850315094,
      0.08467662334442139,
      0.2852564752101898,
      0.2062954306602478,
      -0.012572846375405788,
      -0.28229406476020813,
      -0.022563042119145393,
      -0.05274196341633797,
      0.3184051811695099,
      0.2773922085762024,
      0.1516864150762558,
      -0.2378387600183487,
      -0.5323672890663147,
      -0.18871024250984192,
      -0.1111445277929306,
      0.23459681868553162,
      0.34261780977249146,
      0.3771350383758545,
      0.28421297669410706,
      0.09663309901952744,
      -0.07400083541870117,
      0.030311034992337227,
      0.0436616986989975,
      0.052809130400419235,
      -0.00877904612571001,
      -0.046535100787878036,
      -0.04007226601243019,
      -0.051128972321748734,
      -0.07519741356372833,
      0.0054290336556732655,
      -8.353664306923747E-4,
      -0.2337806671857834,
      -0.3654612898826599,
      -0.4570293128490448,
      -0.3040771186351776,
      -0.16127720475196838,
      -0.08025296032428741,
      0.13821594417095184,
      0.1518605798482895,
      -0.21834318339824677,
      -0.4215313792228699,
      -0.3413245379924774,
      -0.08093079179525375,
      -0.04318133369088173,
      0.0291599091142416,
      0.056161314249038696,
      0.1272360384464264,
      0.14246413111686707,
      0.0211722943931818,
      -0.018948037177324295,
      -0.04101217910647392,
      -0.027793055400252342,
      -0.03800702467560768,
      -0.030619876459240913,
      -0.050116147845983505,
      0.012316920794546604,
      -0.038441650569438934,
      -0.004323420114815235,
      0.06020116060972214,
      -0.021455056965351105,
      -0.062553770840168,
      -0.13040505349636078,
      -0.00949865859001875,
      -0.039213791489601135,
      -0.04223741218447685,
      0.01982329972088337,
      -0.09142842888832092,
      -0.17289215326309204,
      -0.13492077589035034,
      -0.10673363506793976,
      -0.14743757247924805,
      -0.10661805421113968,
      -0.16442136466503143,
      -0.10733547061681747,
      -0.06595613062381744,
      -0.006285517942160368,
      -0.013699749484658241,
      0.008968968875706196,
      -0.021694613620638847,
      -0.029354950413107872,
      -0.025059105828404427,
      -0.009239892475306988,
      -0.015602805651724339,
      -0.012001211754977703,
      -0.013899811543524265,
      -0.027724428102374077,
      -0.05304073914885521,
      -0.009728594683110714,
      -0.0041237762197852135,
      -0.09195230156183243,
      -0.11176683753728867,
      -0.2118794322013855,
      -0.05605372413992882,
      -0.15115903317928314,
      -0.17464880645275116,
      -0.16298586130142212,
      -0.15141355991363525,
      -0.13794788718223572,
      -0.1599859893321991,
      -0.11762607842683792,
      -0.054497264325618744,
      -0.014088917523622513,
      0.00515001779422164,
      -0.005761729087680578,
      -0.01473437063395977,
      -0.05649852007627487,
      -0.02721306122839451,
      -0.05586933717131615,
      -0.043353740125894547,
      -0.0018725537229329348,
      0.001525574829429388,
      -0.01592869497835636,
      -0.0044763521291315556,
      -0.030366042628884315,
      2.934155927505344E-4,
      -0.005401312839239836,
      0.003201024141162634,
      -0.048522744327783585,
      -0.044543080031871796,
      -0.04288892820477486,
      -0.029062332585453987,
      -0.01934623159468174,
      -0.022543713450431824,
      -0.05761236324906349,
      -0.04496028646826744,
      -0.04319131746888161,
      -0.013568098656833172,
      -0.08240149170160294,
      -0.005088741425424814,
      -0.05239682272076607,
      0.012467681430280209,
      -0.0044706291519105434,
      -0.03814857080578804,
      -0.017909737303853035,
      -0.012067523784935474,
      0.007494221907109022,
      -0.0074820141308009624,
      -0.029889138415455818,
      0.005895773880183697,
      0.00922448467463255,
      0.020493878051638603,
      0.018490483984351158,
      0.01744750328361988,
      -0.03685925155878067,
      -0.019769912585616112,
      -0.016490379348397255,
      -0.026628738269209862,
      -0.021039770916104317,
      -0.015309859998524189,
      0.0026120473630726337,
      -0.011013896204531193,
      -0.031295858323574066,
      -0.0033171665854752064,
      -0.009880327619612217,
      -0.022768588736653328,
      0.016377927735447884,
      -0.034556806087493896,
      -0.03744678944349289,
      0.002653264906257391,
      -0.04048049449920654,
      -0.032344259321689606,
      -0.03399616479873657,
      -1.1052302579628304E-4,
      -0.03716383874416351,
      -0.03619004786014557,
      -0.012161525897681713,
      -0.04360648989677429,
      0.005958396941423416,
      -0.03227504342794418,
      0.01669367216527462,
      -0.01607566885650158,
      0.056752607226371765,
      0.12677529454231262,
      0.07270265370607376,
      0.058847054839134216,
      -0.026795143261551857,
      -0.033647820353507996,
      -0.07119415700435638,
      -0.0358719527721405,
      -0.10607965290546417,
      0.02871454879641533,
      -0.09168871492147446,
      -0.015272838063538074,
      0.009727253578603268,
      0.044213730841875076,
      0.03814494237303734,
      -0.003021273761987686,
      0.04193946719169617,
      0.056776486337184906,
      0.012418101541697979,
      -0.007741793990135193,
      -0.036980122327804565,
      0.012482748366892338,
      -0.04273716360330582,
      -0.014735485427081585,
      0.02477383054792881,
      -0.02513854391872883,
      -0.01321320328861475,
      0.03138038143515587,
      0.14811986684799194,
      0.26948872208595276,
      0.2866613566875458,
      0.35673215985298157,
      0.35819903016090393,
      0.28928977251052856,
      0.43955355882644653,
      0.42132166028022766,
      0.26070865988731384,
      -0.02348531223833561,
      -0.12027863413095474,
      -0.19374944269657135,
      -0.3350701928138733,
      -0.2075396031141281,
      -0.03950187563896179,
      0.08101654052734375,
      0.007830710150301456,
      0.09143845736980438,
      -0.021567443385720253,
      -0.019847234711050987,
      -0.0025481414049863815,
      -0.03675944358110428,
      0.014599950052797794,
      -0.010491267777979374,
      0.005274906754493713,
      0.023701289668679237,
      0.001364565105177462,
      0.05669618770480156,
      0.2954036295413971,
      0.5492334961891174,
      0.725824773311615,
      0.8769680857658386,
      1.119083046913147,
      0.6615550518035889,
      1.1393048763275146,
      1.5054633617401123,
      1.123655080795288,
      1.3101969957351685,
      0.5744150876998901,
      -0.5518674850463867,
      -1.041998028755188,
      -0.7423632740974426,
      -0.40480417013168335,
      -0.4705676734447479,
      -0.26667678356170654,
      0.07332773506641388,
      0.09935096651315689,
      -0.040527090430259705,
      -0.00643477588891983,
      -0.0037030435632914305,
      0.010340129025280476,
      -0.013527131639420986,
      -0.010183612816035748,
      0.007199564948678017,
      -0.05219089984893799,
      0.19996288418769836,
      0.3696339428424835,
      0.37263375520706177,
      0.2992574870586395,
      0.4750027358531952,
      0.5777102708816528,
      -0.0019119547214359045,
      -0.07813020795583725,
      -0.15759851038455963,
      0.03083920106291771,
      -0.06287794560194016,
      -0.7288314700126648,
      -1.1735056638717651,
      -1.0159387588500977,
      -0.7331386804580688,
      -0.7031177878379822,
      -0.9859841465950012,
      -0.9188116788864136,
      -0.3206169009208679,
      -0.35645705461502075,
      -0.11294043064117432,
      -0.045071080327034,
      0.005644482560455799,
      -0.019025614485144615,
      0.007207096554338932,
      0.016551079228520393,
      -0.023653050884604454,
      0.06852058321237564,
      0.07573438435792923,
      0.17600932717323303,
      -0.0810936763882637,
      -0.49389564990997314,
      -0.3633752763271332,
      -0.2902701795101166,
      -0.8834502100944519,
      -0.644424557685852,
      -0.6603085398674011,
      -0.7118708491325378,
      -0.41932064294815063,
      -0.5603245496749878,
      -0.6214030981063843,
      -0.17044347524642944,
      0.08792874962091446,
      -0.27181363105773926,
      0.04324507340788841,
      -0.307212769985199,
      -0.43196406960487366,
      -0.35470274090766907,
      -0.3396138846874237,
      -0.00878195557743311,
      -0.010593763552606106,
      -0.030234793201088905,
      -0.03285975754261017,
      -0.08849567919969559,
      -0.1131305992603302,
      0.00906702782958746,
      -0.3371194899082184,
      -0.19021829962730408,
      -0.6333128809928894,
      -0.37781909108161926,
      -0.25362810492515564,
      -0.6917259097099304,
      0.4465407729148865,
      0.1710691899061203,
      -0.8575089573860168,
      -0.9021976590156555,
      -0.9138699769973755,
      -0.4176923334598541,
      -0.7531154751777649,
      0.16491630673408508,
      -0.20019061863422394,
      -0.5033482313156128,
      -0.07886974513530731,
      -0.5443839430809021,
      -0.6551198959350586,
      -0.35013964772224426,
      -0.19462281465530396,
      -0.04425112530589104,
      -0.05708363652229309,
      0.023994041606783867,
      -0.03551250696182251,
      -0.05681249871850014,
      -0.17681343853473663,
      -0.27466458082199097,
      -0.5588318705558777,
      -0.6845061182975769,
      -0.3526996672153473,
      0.10696160793304443,
      -0.27338626980781555,
      -0.18071265518665314,
      0.5308456420898438,
      -0.34025195240974426,
      -0.20917589962482452,
      -0.031583696603775024,
      -1.2136961221694946,
      -0.8905208110809326,
      -0.8182840347290039,
      -0.746309220790863,
      -0.5774471759796143,
      -0.46016716957092285,
      -0.468183696269989,
      -0.8796953558921814,
      -1.2499982118606567,
      -0.5867038369178772,
      -0.3195602297782898,
      -0.2305610179901123,
      0.010037620551884174,
      -0.010807034559547901,
      -0.032090604305267334,
      -0.0055080680176615715,
      -0.1858847737312317,
      -0.32385024428367615,
      -0.23543097078800201,
      -0.7456670999526978,
      -0.2164752185344696,
      -0.011780011467635632,
      -0.27041712403297424,
      0.13358542323112488,
      0.16530819237232208,
      -0.5704724788665771,
      -0.30166223645210266,
      -0.9160264134407043,
      -1.010587215423584,
      -0.6131108999252319,
      -0.5288757681846619,
      -1.1126885414123535,
      -0.4835917055606842,
      -0.1812964230775833,
      -0.6182215809822083,
      -0.3987782895565033,
      -0.8603213429450989,
      -1.0909733772277832,
      -0.6549747586250305,
      -0.3291952908039093,
      -0.06739748269319534,
      0.02454792521893978,
      -0.038976266980171204,
      -0.0033337390050292015,
      -0.16800624132156372,
      -0.2325904369354248,
      -0.3677404522895813,
      -0.8132275938987732,
      -0.19172899425029755,
      0.02214517444372177,
      -0.336424857378006,
      -0.38245466351509094,
      0.029696149751544,
      0.0209136251360178,
      -0.4561256468296051,
      -0.3471570909023285,
      0.04354314133524895,
      0.2831960916519165,
      0.21078811585903168,
      -0.003035186789929867,
      0.015014310367405415,
      0.13117781281471252,
      -0.20890696346759796,
      0.07756653428077698,
      -0.312410831451416,
      -0.22931452095508575,
      -0.539192259311676,
      -0.28176066279411316,
      -0.021937377750873566,
      0.004585571587085724,
      0.02615823969244957,
      -0.05592373386025429,
      -0.22260944545269012,
      -0.09938305616378784,
      -0.03281571343541145,
      -0.10348515212535858,
      0.25363945960998535,
      0.08543959259986877,
      -0.2327805757522583,
      0.04999065026640892,
      0.27384835481643677,
      -0.08527131378650665,
      -0.24766483902931213,
      -0.3447496294975281,
      0.2716197371482849,
      0.1516684591770172,
      0.556658148765564,
      0.29610389471054077,
      -0.2831788957118988,
      0.17913633584976196,
      0.37666645646095276,
      -0.1531565934419632,
      0.32535606622695923,
      0.37199100852012634,
      -0.09063838422298431,
      -0.21057574450969696,
      -0.14597123861312866,
      -7.478251936845481E-4,
      -0.03618016093969345,
      -0.10860653221607208,
      -0.044128309935331345,
      -0.12135855108499527,
      -0.3871772289276123,
      -0.27768614888191223,
      0.06939077377319336,
      -0.19947566092014313,
      -0.9703356623649597,
      -0.8721376061439514,
      -0.435253381729126,
      -0.9385332465171814,
      -0.9666023254394531,
      -0.12043467164039612,
      -0.09459405392408371,
      -0.483638733625412,
      0.21635524928569794,
      -0.06197601929306984,
      0.10698015242815018,
      0.49563995003700256,
      0.5391319394111633,
      0.05319878086447716,
      0.4645400047302246,
      0.3634903132915497,
      -0.26002559065818787,
      -0.235989049077034,
      -0.030608823522925377,
      -0.043360039591789246,
      -0.02876429446041584,
      -0.055134367197752,
      -0.10933461040258408,
      -0.22510172426700592,
      -0.5684301257133484,
      -0.5699142813682556,
      -0.8414113521575928,
      -0.31742897629737854,
      -1.0359141826629639,
      -1.2360786199569702,
      -0.917595386505127,
      -1.0335490703582764,
      -0.06452444940805435,
      1.1110039949417114,
      0.39147987961769104,
      0.27700158953666687,
      0.09549728780984879,
      0.09380380064249039,
      0.18996024131774902,
      0.20894752442836761,
      0.5903693437576294,
      0.1832175850868225,
      -0.20172223448753357,
      -0.02109641581773758,
      0.01910335198044777,
      -0.07350645959377289,
      0.04127468168735504,
      -0.0012984084896743298,
      -0.027607517316937447,
      0.009195125661790371,
      -0.13339850306510925,
      -0.35307472944259644,
      -0.87564617395401,
      -0.7885949611663818,
      -0.8742779493331909,
      -0.28772175312042236,
      -0.4219052791595459,
      -0.8625974655151367,
      -0.735351026058197,
      0.7089639902114868,
      1.3234254121780396,
      0.5163874626159668,
      -0.1173272579908371,
      0.09442532062530518,
      -0.21326440572738647,
      -0.3979615867137909,
      -0.0809345543384552,
      -0.2219112664461136,
      0.35174545645713806,
      0.012478292919695377,
      0.3192937672138214,
      -0.1096377745270729,
      0.31091657280921936,
      0.04544506222009659,
      0.02950160764157772,
      -0.0421842560172081,
      -0.003912372514605522,
      0.023022085428237915,
      -0.025819923728704453,
      -0.43731600046157837,
      -0.9369163513183594,
      -0.29408687353134155,
      -0.21573707461357117,
      0.5248481035232544,
      0.6826714873313904,
      0.01674836501479149,
      0.23263853788375854,
      0.6973399519920349,
      0.6581584811210632,
      0.4743816554546356,
      0.29474225640296936,
      0.23199594020843506,
      -1.0056135654449463,
      -0.39915674924850464,
      -0.3406254053115845,
      -0.23614509403705597,
      0.2575630843639374,
      0.46921151876449585,
      0.8983362913131714,
      -0.05517660081386566,
      0.5594122409820557,
      0.17912110686302185,
      -0.007873008958995342,
      -0.003302589524537325,
      -0.012306909076869488,
      -0.005896000191569328,
      0.11270354688167572,
      0.13591842353343964,
      -0.6006367802619934,
      0.01002019364386797,
      0.23981691896915436,
      -0.12247598171234131,
      -0.30741867423057556,
      -0.3207545876502991,
      -0.1817045360803604,
      0.2908218502998352,
      0.7434617280960083,
      -0.04457620903849602,
      -0.2474328875541687,
      0.636264443397522,
      -0.8274862170219421,
      -0.4918055236339569,
      0.2650321424007416,
      0.05242762342095375,
      0.3775205612182617,
      -0.312848299741745,
      0.16745378077030182,
      0.33966484665870667,
      0.9563373923301697,
      0.13455086946487427,
      0.030484380200505257,
      -0.04374568164348602,
      -0.0270539503544569,
      -0.007913154549896717,
      0.2500758469104767,
      0.6193866729736328,
      0.19382314383983612,
      0.8212921619415283,
      0.27555280923843384,
      -0.6331021785736084,
      -0.2369091808795929,
      -0.40532687306404114,
      -0.05751849338412285,
      0.06422213464975357,
      0.04993300139904022,
      0.5725716948509216,
      0.4155987799167633,
      1.0693762302398682,
      0.28203266859054565,
      0.39211297035217285,
      0.07452378422021866,
      -0.4410131871700287,
      0.4233112335205078,
      0.2788871228694916,
      0.38338133692741394,
      0.1727689951658249,
      0.8195926547050476,
      0.3656107485294342,
      0.07024510204792023,
      0.014041046611964703,
      0.020349649712443352,
      0.05445358529686928,
      0.31303372979164124,
      0.6252211928367615,
      0.2478238195180893,
      0.6223304271697998,
      -0.4216676950454712,
      0.03754134848713875,
      -0.5257601141929626,
      0.14857861399650574,
      0.02695479430258274,
      -0.37737488746643066,
      -0.1539255529642105,
      0.7816912531852722,
      0.7047961354255676,
      0.3982737064361572,
      0.24511446058750153,
      0.16131921112537384,
      -0.6105657815933228,
      0.18455199897289276,
      0.5706859827041626,
      0.019563943147659302,
      0.1052338182926178,
      0.13791899383068085,
      0.7653691172599792,
      0.0994037315249443,
      0.016069410368800163,
      -0.024520909413695335,
      -0.028352471068501472,
      -0.06005037575960159,
      0.4550350308418274,
      0.37152084708213806,
      0.00860218983143568,
      -0.22178256511688232,
      -0.04372606426477432,
      0.12206383794546127,
      -0.10154697299003601,
      0.1378374844789505,
      -0.4072304666042328,
      0.6745155453681946,
      0.45073065161705017,
      1.1549900770187378,
      0.1003500446677208,
      0.04499761760234833,
      0.3543885350227356,
      0.6768388152122498,
      0.2655538022518158,
      -0.54853355884552,
      0.23626261949539185,
      -0.16714438796043396,
      0.4193992614746094,
      0.8682699799537659,
      0.8998373746871948,
      -0.052496880292892456,
      0.04183631390333176,
      0.018250102177262306,
      -0.060154978185892105,
      -0.08508147299289703,
      0.2144329845905304,
      0.2692246735095978,
      -0.31792160868644714,
      -0.4779984652996063,
      -0.08921100199222565,
      -0.0705784410238266,
      0.30887606739997864,
      0.30121082067489624,
      0.5478066802024841,
      0.19495725631713867,
      0.0889548659324646,
      0.2868865430355072,
      0.6446252465248108,
      0.6635429263114929,
      0.7034338116645813,
      -0.002960163401439786,
      -0.1553701013326645,
      -0.10582420229911804,
      -0.49044927954673767,
      -0.20032091438770294,
      0.6022235751152039,
      0.6130935549736023,
      0.6975110769271851,
      0.1382395327091217,
      0.025855595245957375,
      -0.0341971293091774,
      -0.11704687029123306,
      -0.05294550210237503,
      0.3245944678783417,
      0.4630078375339508,
      -0.28702324628829956,
      -0.21749910712242126,
      0.23235096037387848,
      0.5085664391517639,
      -0.043062616139650345,
      0.11101034283638,
      -0.13751547038555145,
      -0.3264586627483368,
      -0.05402945354580879,
      0.6415548324584961,
      -0.5285075306892395,
      0.4922831654548645,
      -0.12573698163032532,
      0.2827416956424713,
      -0.06765758991241455,
      0.38284972310066223,
      0.19523850083351135,
      0.1083475649356842,
      0.37390393018722534,
      0.5003083944320679,
      0.17399448156356812,
      0.02298075146973133,
      -0.04484831541776657,
      -0.03212152421474457,
      -0.03655076026916504,
      0.1046593189239502,
      0.2616042196750641,
      0.3969932794570923,
      0.17625844478607178,
      -0.22549483180046082,
      -0.0021271787118166685,
      0.21790406107902527,
      0.5366060733795166,
      0.9889631271362305,
      0.34865909814834595,
      0.14612574875354767,
      0.21251901984214783,
      0.47996631264686584,
      -0.11444532126188278,
      -0.17997005581855774,
      0.40659189224243164,
      0.6726043820381165,
      0.8396329879760742,
      0.5380130410194397,
      0.10057619214057922,
      -0.050201330333948135,
      0.23883271217346191,
      0.2090560793876648,
      0.049829255789518356,
      0.0700460821390152,
      -0.03909480571746826,
      0.011583457700908184,
      0.021248700097203255,
      0.06208346039056778,
      0.16432157158851624,
      0.3100411891937256,
      0.594556987285614,
      -0.3455902636051178,
      -0.9498762488365173,
      -0.7069095969200134,
      0.2454485446214676,
      -0.2096472531557083,
      -0.4734466075897217,
      -0.6308335661888123,
      -0.44066688418388367,
      -0.353652685880661,
      -0.03926471993327141,
      -0.20335185527801514,
      0.05825454741716385,
      0.23468095064163208,
      0.005085832439363003,
      0.1563284546136856,
      -0.2870561480522156,
      -0.3550788462162018,
      -0.0446593314409256,
      -0.11749058216810226,
      0.012473258189857006,
      0.023592205718159676,
      -0.006686818785965443,
      0.004132417030632496,
      -0.01235793624073267,
      -0.013431583531200886,
      -0.06267189979553223,
      -0.08622513711452484,
      0.35762009024620056,
      0.11110296100378036,
      -0.8664230704307556,
      -0.6617226004600525,
      -0.8473018407821655,
      -0.8679969906806946,
      -0.766823410987854,
      -0.512627899646759,
      -1.239761233329773,
      -1.813299536705017,
      -0.70493483543396,
      -0.7953999042510986,
      -0.8137186169624329,
      -0.7711800932884216,
      -0.6626137495040894,
      -0.19961336255073547,
      0.2155400663614273,
      0.03514210879802704,
      -0.03252658247947693,
      -0.03298930078744888,
      0.010412999428808689,
      0.006614101119339466,
      -0.03123978152871132,
      0.016015181317925453,
      -0.003795196069404483,
      -0.04475806653499603,
      -0.07234136015176773,
      -0.11185060441493988,
      -0.12618973851203918,
      -0.08887261152267456,
      -0.10407225787639618,
      0.0692373663187027,
      -0.11106511205434799,
      0.374886691570282,
      -0.12032570689916611,
      -0.25104430317878723,
      -0.2456962764263153,
      -0.42090246081352234,
      -0.059460632503032684,
      -0.3088647425174713,
      -0.2807296812534332,
      -0.25710704922676086,
      -0.1650470346212387,
      -0.08943554759025574,
      0.1417863965034485,
      -0.024284254759550095,
      -0.08827407658100128,
      0.035870254039764404,
      0.034620530903339386,
      0.039681993424892426,
      -0.02824692614376545,
      0.024482665583491325,
      -0.015145028941333294,
      -0.003130460623651743,
      -0.03716038912534714,
      -0.07594932615756989,
      -0.12073404341936111,
      -0.06852860748767853,
      -0.10516784340143204,
      -0.14691932499408722,
      -0.5820407271385193,
      -0.6109302639961243,
      -0.664132833480835,
      -0.5155687928199768,
      -0.6334338188171387,
      -0.7637077569961548,
      -0.8850336670875549,
      -0.5099118947982788,
      -0.37551361322402954,
      -0.32412096858024597,
      -0.48410093784332275,
      -0.20324787497520447,
      0.028246400877833366,
      0.007201331667602062,
      -0.06164942681789398,
      -0.013277445919811726,
      0.009997057728469372,
      -0.018135732039809227,
      -0.02725178934633732,
      0.023647135123610497,
      -0.031039051711559296,
      -0.042212337255477905,
      -0.010812866501510143,
      0.02064891718327999,
      0.008991274051368237,
      -0.03695215284824371,
      0.016834018751978874,
      -0.020804613828659058,
      -0.04901088774204254,
      -0.09498388320207596,
      -0.08182267844676971,
      -0.11669088900089264,
      -0.19938477873802185,
      -0.10971129685640335,
      -0.09430603682994843,
      -0.049836959689855576,
      0.00757134985178709,
      -0.003321710042655468,
      0.022021474316716194,
      -0.036874447017908096,
      -0.06208308786153793,
      -0.019696028903126717,
      -0.015549104660749435,
      -0.010477383621037006,
      -0.02581457979977131,
      0.01251444686204195,
      -0.020681923255324364,
      -0.014838146977126598,
      -0.022592367604374886,
      -0.008639263920485973,
      -0.004275217652320862,
      -0.030779412016272545,
      -0.009381880983710289,
      0.020958568900823593,
      -0.015352609567344189,
      0.0014954520156607032,
      0.0029086582362651825,
      0.015069774352014065,
      0.01486507523804903,
      -0.021072454750537872,
      -0.04526926204562187,
      0.02623327262699604,
      -0.03731485828757286,
      -0.023618821054697037,
      0.010071824304759502,
      -0.018085459247231483,
      0.009727788157761097,
      -0.03575797751545906,
      -0.041130587458610535,
      0.011202880181372166,
      -0.04433467984199524,
      -0.02907549776136875,
      0.015276280231773853,
      -0.0066362833604216576,
      0.012473166920244694,
      0.01358861941844225,
      -0.0185070913285017,
      0.028576532378792763,
      -0.014712809585034847,
      0.04746752977371216,
      0.04434162378311157,
      0.013307376764714718,
      0.020404355600476265,
      -0.011217220686376095,
      0.04336368292570114,
      0.04155511409044266,
      0.03851376473903656,
      0.0024261174257844687,
      0.06619445234537125,
      0.03803352266550064,
      -0.016179082915186882,
      -0.005449757445603609,
      -0.009989938698709011,
      -0.0020663500763475895,
      -0.018683752045035362,
      0.010961729101836681,
      0.007147918920964003,
      0.035457879304885864,
      0.04709026217460632,
      0.02168785221874714,
      0.006451230961829424,
      0.006009604316204786,
      0.049958884716033936,
      0.035277992486953735,
      -0.0137014864012599,
      0.04585181176662445,
      0.030421847477555275,
      0.04800179600715637,
      -0.014554380439221859,
      0.06150193512439728,
      0.07581120729446411,
      0.0347069650888443,
      0.059594228863716125,
      0.021196356043219566,
      0.03745049983263016,
      0.05072132870554924,
      0.09232970327138901,
      0.04419410228729248,
      -0.01564653590321541,
      -0.02321133203804493,
      0.06016003340482712,
      0.07916395366191864,
      0.060170941054821014,
      0.053542036563158035,
      -0.01688961870968342,
      -0.005098776426166296,
      0.0037337651010602713,
      0.026305561885237694,
      0.019379371777176857,
      -0.017911912873387337,
      0.021611517295241356,
      -0.0033897601533681154,
      0.009169531054794788,
      -0.010466457344591618,
      0.025676408782601357,
      0.042483873665332794,
      0.04551159590482712,
      0.03886428847908974,
      0.1286560595035553,
      0.1370025873184204,
      0.14532971382141113,
      0.1866348534822464,
      0.19761905074119568,
      0.1729787439107895,
      0.019113024696707726,
      -0.22120988368988037,
      -0.3499179482460022,
      -0.33428409695625305,
      -0.13985919952392578,
      0.1762104481458664,
      0.16969989240169525,
      0.1270357072353363,
      0.17512288689613342,
      0.12954169511795044,
      0.03362247347831726,
      0.01600256748497486,
      0.0014462150866165757,
      0.006873770151287317,
      -0.008545623160898685,
      0.026059294119477272,
      0.02607329748570919,
      0.028957048431038857,
      0.007048303261399269,
      -0.007214389741420746,
      0.028627639636397362,
      0.13698801398277283,
      0.26703330874443054,
      0.4464138448238373,
      0.2798110544681549,
      0.18065263330936432,
      0.12920667231082916,
      0.14003430306911469,
      0.11363660544157028,
      -0.3941318988800049,
      -0.6426796913146973,
      -0.15629471838474274,
      0.23996828496456146,
      0.3264422118663788,
      0.6196002960205078,
      0.7515625357627869,
      0.5367954969406128,
      0.1344812959432602,
      0.006317463703453541,
      -0.0576959066092968,
      0.0018299550283700228,
      0.03938043862581253,
      0.010809228755533695,
      -0.019668472930788994,
      -0.009740234352648258,
      -0.010472064837813377,
      0.038278933614492416,
      -0.009833147749304771,
      -0.04500963166356087,
      0.11907998472452164,
      0.3335660994052887,
      0.25477227568626404,
      0.3166852593421936,
      -0.2991311550140381,
      -0.5727906823158264,
      -0.9237862825393677,
      -0.45980820059776306,
      -0.4239210784435272,
      0.46214938163757324,
      0.27367913722991943,
      0.23511075973510742,
      0.6700276732444763,
      0.2674223780632019,
      0.4313562214374542,
      1.135899543762207,
      0.4211815297603607,
      0.2531316876411438,
      -0.015288805589079857,
      -0.009535395540297031,
      0.0400613397359848,
      -0.013461249880492687,
      0.022716054692864418,
      -0.012982924468815327,
      0.016865884885191917,
      0.0031860966701060534,
      0.05540846660733223,
      0.034338727593421936,
      0.29895737767219543,
      0.48760467767715454,
      0.34613344073295593,
      0.4083949625492096,
      0.5579288601875305,
      -1.002539038658142,
      -0.8488719463348389,
      -0.05266348645091057,
      0.20292703807353973,
      -0.22947977483272552,
      0.25175678730010986,
      0.21321123838424683,
      0.6174392700195312,
      -0.008276156149804592,
      0.4592013955116272,
      -0.03356890007853508,
      -6.275890627875924E-4,
      0.3208075165748596,
      0.17657914757728577,
      -0.060945045202970505,
      0.03010258637368679,
      0.04063226282596588,
      0.03967493772506714,
      -0.007860967889428139,
      0.021354762837290764,
      0.06812673062086105,
      0.1582501232624054,
      0.4572332799434662,
      0.6839187741279602,
      0.4170711636543274,
      0.6870450377464294,
      0.6914150714874268,
      0.24501574039459229,
      -0.21062487363815308,
      -0.30773892998695374,
      -0.46373945474624634,
      0.3108006417751312,
      -0.48812490701675415,
      -0.4557962715625763,
      -0.04458864405751228,
      -0.803198516368866,
      -0.1051577553153038,
      -0.23465822637081146,
      -0.06884896755218506,
      0.014032474718987942,
      0.01040258351713419,
      0.6644941568374634,
      0.061497461050748825,
      0.08388859778642654,
      -0.05919451266527176,
      0.010651270858943462,
      0.016250761225819588,
      0.0401739701628685,
      0.14253826439380646,
      0.22020411491394043,
      0.4647611379623413,
      0.4410325884819031,
      0.09143015742301941,
      0.14323700964450836,
      0.23140086233615875,
      0.1430400013923645,
      0.5569090843200684,
      0.01976710930466652,
      -0.15254394710063934,
      0.8359053134918213,
      -0.5732457041740417,
      -0.28160256147384644,
      0.2833259701728821,
      -0.2112908810377121,
      0.4297381043434143,
      0.14088965952396393,
      -0.335658460855484,
      -0.21143946051597595,
      0.30147838592529297,
      0.7744038105010986,
      0.051766980439424515,
      0.13947643339633942,
      0.004180119838565588,
      0.020265361294150352,
      0.0383240282535553,
      0.07892633974552155,
      0.14822585880756378,
      0.11192716658115387,
      0.341909795999527,
      -0.3945254981517792,
      -0.3701062798500061,
      -0.6728809475898743,
      -0.21399690210819244,
      -0.531719446182251,
      0.2968060374259949,
      0.4205266237258911,
      0.2858116328716278,
      -0.02549738809466362,
      0.7824364900588989,
      0.19598263502120972,
      0.4549662470817566,
      -0.5528345108032227,
      -0.22778156399726868,
      0.34664613008499146,
      -0.5093522071838379,
      -0.5356674194335938,
      0.7904478907585144,
      0.8633013963699341,
      0.6179618239402771,
      -0.06976718455553055,
      -0.02685176022350788,
      -0.0014530258486047387,
      0.03228405863046646,
      0.00947963073849678,
      0.06919465214014053,
      0.08089067041873932,
      -0.36848363280296326,
      -0.7769449353218079,
      -0.5001875758171082,
      -0.8709878325462341,
      -0.2210586965084076,
      -0.13126355409622192,
      -0.7354827523231506,
      -0.14522400498390198,
      0.012415408156812191,
      1.3269798755645752,
      0.558241069316864,
      -0.3591521382331848,
      -0.049652084708213806,
      0.11764807999134064,
      -0.22618751227855682,
      -0.3452823758125305,
      0.21045298874378204,
      0.11614116281270981,
      0.3739921748638153,
      1.0678932666778564,
      0.5674535036087036,
      0.09424775838851929,
      0.06332069635391235,
      0.0034187783021479845,
      0.05094212293624878,
      0.05732126161456108,
      0.15300095081329346,
      -0.2954701781272888,
      -0.8805021643638611,
      -0.6647569537162781,
      -0.5929579734802246,
      -0.4651801586151123,
      -0.36553511023521423,
      -0.24228014051914215,
      -0.14667747914791107,
      -0.012582826428115368,
      1.5992281436920166,
      1.3053195476531982,
      -0.7332282066345215,
      -1.079150676727295,
      -0.3030112087726593,
      -0.9471497535705566,
      -1.1570451259613037,
      -0.09592308104038239,
      -0.06648275256156921,
      -0.6114004254341125,
      -0.23335953056812286,
      1.3395793437957764,
      0.8909821510314941,
      0.2847580015659332,
      0.02753089927136898,
      -0.012273614294826984,
      0.036358125507831573,
      0.13495385646820068,
      0.1667933464050293,
      -0.4670853018760681,
      -0.8338156938552856,
      -0.27718794345855713,
      -0.5006619691848755,
      -0.602693498134613,
      -0.7457277774810791,
      0.003331576706841588,
      0.36863571405410767,
      1.1550055742263794,
      1.0601998567581177,
      -1.2709723711013794,
      -1.4212658405303955,
      -0.8817203640937805,
      -1.168673038482666,
      -0.7351511120796204,
      -0.4666500389575958,
      -1.2238476276397705,
      -1.0375092029571533,
      -1.169480562210083,
      -0.08541762828826904,
      0.8183490633964539,
      0.4378695785999298,
      0.05915083736181259,
      -0.015556364320218563,
      0.004343238193541765,
      0.08910875022411346,
      0.16163527965545654,
      0.3521619141101837,
      0.04310087487101555,
      -0.3236924707889557,
      0.5970830917358398,
      0.6872426867485046,
      0.5774313807487488,
      0.4203737676143646,
      1.5772836208343506,
      1.5426263809204102,
      0.8934163451194763,
      -0.09349168092012405,
      -1.7123870849609375,
      -0.847305417060852,
      -0.856473982334137,
      -1.1094094514846802,
      -0.7501142621040344,
      -1.393127679824829,
      -0.9975429773330688,
      -1.780605673789978,
      -1.086375117301941,
      -0.07911673933267593,
      0.3172273635864258,
      -0.10966449230909348,
      -0.08154222369194031,
      0.009573635645210743,
      0.036001138389110565,
      0.07183758914470673,
      0.18737705051898956,
      0.43363216519355774,
      -0.18152906000614166,
      0.020373119041323662,
      0.6973962783813477,
      0.6785603761672974,
      0.550521731376648,
      0.9295394420623779,
      0.7887868881225586,
      0.9518479108810425,
      0.009556680917739868,
      -1.2970412969589233,
      -1.2381865978240967,
      -1.0041868686676025,
      -0.6126014590263367,
      -0.9436280131340027,
      -0.2962627410888672,
      -0.9826501607894897,
      -1.3864524364471436,
      -0.6318850517272949,
      -0.2552802860736847,
      0.3487210273742676,
      0.4236413240432739,
      -0.16085833311080933,
      -0.09632311016321182,
      -0.016344906762242317,
      0.007999920286238194,
      0.08955927938222885,
      0.16384920477867126,
      0.37694060802459717,
      -0.21433384716510773,
      0.4482971131801605,
      1.2264922857284546,
      1.101895809173584,
      0.9874791502952576,
      0.8500604033470154,
      0.10472546517848969,
      -0.35155314207077026,
      -0.9674015641212463,
      -1.5946333408355713,
      -1.2569483518600464,
      -0.07236090302467346,
      -1.6726908683776855,
      -1.0374058485031128,
      -0.8404741883277893,
      -1.146991491317749,
      -1.3280521631240845,
      -0.15742741525173187,
      0.30442696809768677,
      1.028671145439148,
      0.8937891125679016,
      0.008037295192480087,
      -0.0011035790666937828,
      -0.01981637440621853,
      0.03926695138216019,
      0.03346801549196243,
      0.027570156380534172,
      0.05537194758653641,
      -0.3418819308280945,
      0.30982843041419983,
      0.8572320342063904,
      1.0112881660461426,
      -0.65798020362854,
      0.37290287017822266,
      0.12220385670661926,
      -0.3543785512447357,
      -0.34013456106185913,
      -1.8022494316101074,
      -1.1777418851852417,
      -0.7268059849739075,
      -1.624236822128296,
      -0.19119980931282043,
      -0.10057798027992249,
      -0.8134191632270813,
      0.05919646844267845,
      0.13457758724689484,
      -0.44244813919067383,
      0.7178115844726562,
      0.7255438566207886,
      0.056059204041957855,
      0.005898184608668089,
      0.03959912806749344,
      0.020191458985209465,
      0.050116874277591705,
      -0.035852231085300446,
      -0.18344859778881073,
      -0.24453136324882507,
      -6.373628857545555E-4,
      0.10390627384185791,
      0.15903528034687042,
      -0.5976451635360718,
      0.3629215955734253,
      0.4354020357131958,
      -0.5144739151000977,
      -1.7490966320037842,
      -1.7369239330291748,
      -0.8920383453369141,
      -0.5345789790153503,
      -0.9875099062919617,
      -0.5999941825866699,
      0.016301410272717476,
      0.04709332063794136,
      0.13700450956821442,
      0.42683231830596924,
      -0.6456125378608704,
      -0.2919652462005615,
      0.2729397714138031,
      0.1032085046172142,
      0.05349825322628021,
      0.0025560541544109583,
      -0.0056528267450630665,
      0.002962231868878007,
      -0.04848415404558182,
      -0.08469552546739578,
      -0.3605937361717224,
      -0.2774063050746918,
      -0.09982316195964813,
      -0.17408818006515503,
      -0.488042950630188,
      -0.5023232102394104,
      0.5767683386802673,
      0.10400481522083282,
      -0.8989924788475037,
      -1.8063628673553467,
      -0.3673988878726959,
      -0.526740550994873,
      -1.1486732959747314,
      -0.33936914801597595,
      0.08306291699409485,
      0.2563665509223938,
      0.14720813930034637,
      0.33547112345695496,
      0.22361600399017334,
      -0.23684155941009521,
      -0.5585668683052063,
      0.1178632527589798,
      -0.014278502203524113,
      -0.00979922991245985,
      0.039421841502189636,
      0.011241893284022808,
      -0.04108710587024689,
      -0.2627480626106262,
      -0.34525710344314575,
      -0.2679309546947479,
      0.2636413872241974,
      -0.3130061626434326,
      0.17430835962295532,
      -0.2737652361392975,
      -0.31655001640319824,
      -0.30563226342201233,
      -1.762235164642334,
      -2.6471736431121826,
      -0.5465784668922424,
      -0.18238523602485657,
      -0.24147172272205353,
      0.24334554374217987,
      0.24034154415130615,
      0.062427084892988205,
      0.0668218731880188,
      1.0475337505340576,
      0.5813824534416199,
      -0.2443723827600479,
      -0.5410345196723938,
      0.05088033899664879,
      0.030658455565571785,
      0.0077729844488203526,
      0.005377157125622034,
      0.08341053873300552,
      -0.02911035716533661,
      -0.41841885447502136,
      -0.3476141691207886,
      -0.24195584654808044,
      -0.16767258942127228,
      -0.21293242275714874,
      -0.2674615979194641,
      -0.9486276507377625,
      -0.4862465560436249,
      0.6847376823425293,
      0.39804700016975403,
      -0.5385511517524719,
      0.22635573148727417,
      -0.1557118445634842,
      -0.1211976483464241,
      0.9707176685333252,
      0.10044187307357788,
      0.7627654671669006,
      0.8932803273200989,
      0.9207602143287659,
      0.3746119737625122,
      0.13655966520309448,
      -0.10226888209581375,
      0.029920043423771858,
      -0.012402827851474285,
      0.026705773547291756,
      -0.007356459740549326,
      0.037285007536411285,
      0.048113223165273666,
      -0.3365033268928528,
      -0.5542293787002563,
      0.2434266358613968,
      0.3514776825904846,
      0.4031089246273041,
      -0.10077925026416779,
      0.7306891679763794,
      0.619135320186615,
      1.340798258781433,
      2.2291147708892822,
      0.7546299695968628,
      0.6433799266815186,
      0.6598215103149414,
      0.595544695854187,
      0.5463322997093201,
      0.060993436723947525,
      0.3486623466014862,
      0.3728819489479065,
      0.2379634529352188,
      0.412995308637619,
      0.7759302258491516,
      0.14317038655281067,
      0.022762054577469826,
      0.025957753881812096,
      -0.005623165983706713,
      0.009876462630927563,
      -0.014503215439617634,
      -0.013270232826471329,
      -0.1658366471529007,
      -0.3944386839866638,
      -0.2613939642906189,
      -0.33633050322532654,
      0.33512917160987854,
      0.0820731595158577,
      -0.010531138628721237,
      0.6144802570343018,
      1.2648242712020874,
      0.9087011814117432,
      0.2684037983417511,
      0.688505232334137,
      0.31731921434402466,
      -0.4073726534843445,
      0.38041242957115173,
      0.9064035415649414,
      0.16385188698768616,
      0.4562303423881531,
      0.31271204352378845,
      0.6071366667747498,
      0.9987051486968994,
      0.3324858546257019,
      0.121302030980587,
      -0.010874026454985142,
      -0.019288191571831703,
      0.022219160571694374,
      0.013771156780421734,
      -0.023626159876585007,
      0.018345925956964493,
      -0.20192019641399384,
      -0.3454740047454834,
      -0.539092481136322,
      0.7353129386901855,
      0.3767299950122833,
      0.7101320624351501,
      0.6177976727485657,
      0.9457240104675293,
      0.49544796347618103,
      0.7270210981369019,
      0.8801286220550537,
      0.6143399477005005,
      0.08778839558362961,
      0.44015276432037354,
      0.9163761138916016,
      -0.02996876835823059,
      0.068841353058815,
      -0.15572038292884827,
      0.3779431879520416,
      0.5930299162864685,
      0.2697010338306427,
      0.1042855903506279,
      0.0020370061974972486,
      0.02678888849914074,
      0.02976294793188572,
      0.00355278211645782,
      0.025093933567404747,
      0.036705922335386276,
      0.28356897830963135,
      0.39050915837287903,
      0.06038984656333923,
      0.32487815618515015,
      0.24191643297672272,
      0.6987406015396118,
      1.0641427040100098,
      1.0258225202560425,
      0.19093364477157593,
      0.106953926384449,
      0.7602818608283997,
      0.15822039544582367,
      -0.2875794768333435,
      -0.2380920648574829,
      -0.20348381996154785,
      0.0841578021645546,
      -0.013762030750513077,
      -0.16143198311328888,
      0.12699593603610992,
      0.024497555568814278,
      0.14640836417675018,
      0.05954759195446968,
      0.013241549022495747,
      0.045481257140636444,
      0.004932335112243891,
      0.014602812938392162,
      -0.024434810504317284,
      0.021191870793700218,
      0.07589010894298553,
      0.25191256403923035,
      0.14863647520542145,
      0.6064813733100891,
      0.6407483220100403,
      0.4043704569339752,
      -0.16476455330848694,
      0.001732451026327908,
      0.24756379425525665,
      0.11384157091379166,
      0.2805640697479248,
      0.13345246016979218,
      0.3040735721588135,
      0.7433720231056213,
      0.2973518669605255,
      0.19936825335025787,
      -0.31792518496513367,
      -0.4887842833995819,
      -0.06629442423582077,
      -0.21431612968444824,
      0.20055682957172394,
      0.041204653680324554,
      0.047694042325019836,
      -0.012336398474872112,
      -0.01873190514743328,
      0.0236040148884058,
      -0.0228706207126379,
      0.0156038086861372,
      0.03531026095151901,
      -0.23709909617900848,
      -0.18201829493045807,
      0.19533412158489227,
      0.22314853966236115,
      0.3102266192436218,
      0.21043887734413147,
      1.119643211364746,
      0.4869554936885834,
      0.7135311961174011,
      0.17031559348106384,
      0.3048725724220276,
      0.40046921372413635,
      0.5510579347610474,
      0.6191620230674744,
      0.8984495997428894,
      -0.07605251669883728,
      -0.1459827870130539,
      0.31961590051651,
      0.09285002946853638,
      0.12700045108795166,
      0.025823546573519707,
      0.03906460106372833,
      0.018663382157683372,
      0.018251819536089897,
      0.0025386170018464327,
      0.027960753068327904,
      0.017776289954781532,
      -0.0026394620072096586,
      -0.25814905762672424,
      -0.29761821031570435,
      -0.03274589776992798,
      -0.05351535603404045,
      -0.10703873634338379,
      -0.23532143235206604,
      -0.42991194128990173,
      0.2280590832233429,
      0.36923524737358093,
      0.21363325417041779,
      0.3848482072353363,
      0.4110114574432373,
      0.19329054653644562,
      0.6521528363227844,
      1.110369324684143,
      0.14870226383209229,
      -0.020032132044434547,
      0.2666703164577484,
      0.04321704059839249,
      -0.005373036954551935,
      0.018909407779574394,
      -0.01904323138296604,
      0.029241176322102547,
      0.039284586906433105,
      0.01669115386903286,
      0.017395837232470512,
      -0.015135022811591625,
      0.04283309727907181,
      -0.013796492479741573,
      0.029645973816514015,
      0.01159388106316328,
      0.0371786504983902,
      0.035573460161685944,
      0.10541548579931259,
      0.10222684592008591,
      0.07292721420526505,
      0.10658500343561172,
      0.08697011321783066,
      0.003764793509617448,
      0.06685588508844376,
      0.2294759899377823,
      0.03288674354553223,
      -0.0011070551117882133,
      0.04170394688844681,
      0.08764856308698654,
      0.21124356985092163,
      0.06113017350435257,
      0.03118324838578701,
      0.017187656834721565,
      0.01767694391310215,
      0.019260359928011894,
      -0.008481127209961414,
      -0.03636392578482628,
      -0.05093188211321831,
      -0.06345215439796448,
      -0.049248408526182175,
      -0.03233673796057701,
      -0.008517262525856495,
      -0.05628453567624092,
      -0.027556555345654488,
      -0.05146032199263573,
      -0.01865035854279995,
      -0.02497047372162342,
      -0.00593215087428689,
      -0.037396546453237534,
      -0.015285043977200985,
      -0.04642508551478386,
      -0.011037220247089863,
      -0.03752484545111656,
      -0.013172834180295467,
      -0.04106629267334938,
      -0.06384420394897461,
      -0.0473608635365963,
      0.003322830656543374,
      -0.03572527691721916,
      -0.03943255916237831,
      -0.04221487417817116,
      -0.0024439727421849966,
      -0.06319334357976913,
      -0.057514045387506485,
      0.0038406788371503353,
      -0.05931435897946358,
      -0.04478834941983223,
      -0.027820071205496788,
      -0.0211458932608366,
      -0.012573634274303913,
      0.004227158147841692,
      -0.015797657892107964,
      -0.05663411319255829,
      -0.027124617248773575,
      -0.042545899748802185,
      -0.01682731695473194,
      -0.05989399552345276,
      -0.0403558611869812,
      -0.04376501217484474,
      -0.031172970309853554,
      -0.007978862151503563,
      -0.03977152705192566,
      -0.03753334656357765,
      -0.03125355392694473,
      -0.0671633630990982,
      -0.053127456456422806,
      -0.051163095980882645,
      -0.027580780908465385,
      -0.05930253490805626,
      -0.027059761807322502,
      -2.457676746416837E-4,
      -0.03372422978281975,
      -0.01670716516673565,
      -0.05639224126935005,
      0.004062233027070761,
      -0.003235404146835208,
      -0.0283912792801857,
      -0.03801265358924866,
      -0.0313350185751915,
      -0.008240817114710808,
      -0.017146024852991104,
      -0.031182853505015373,
      -0.014756540767848492,
      -0.07167825102806091,
      -0.010719183832406998,
      -0.07502913475036621,
      -0.04458628594875336,
      -0.09276251494884491,
      -0.10378104448318481,
      -0.11102932691574097,
      -0.06287679821252823,
      -0.05968474969267845,
      -0.025566408410668373,
      -0.03402702882885933,
      -0.019465722143650055,
      0.0028385373298078775,
      -0.005689155776053667,
      -0.03607907518744469,
      -0.0029060791712254286,
      -0.02595592848956585,
      -0.0025154126342386007,
      -0.029916830360889435,
      -0.007212818134576082,
      0.00407136045396328,
      -0.07609870284795761,
      -0.0238510649651289,
      -0.08218087255954742,
      -0.03963436931371689,
      -0.08434522151947021,
      -0.10283924639225006,
      -0.1345815509557724,
      -0.08820417523384094,
      -0.08372683078050613,
      -0.1809181123971939,
      -0.3046788275241852,
      -0.3306754529476166,
      -0.4267459213733673,
      -0.37187910079956055,
      -0.1398378163576126,
      -0.09930680692195892,
      -0.04318103566765785,
      -0.0775187611579895,
      -0.03620092198252678,
      0.008538748137652874,
      -0.005975448526442051,
      -0.047473613172769547,
      -0.019458694383502007,
      -0.020409686490893364,
      -0.059115905314683914,
      -0.022548940032720566,
      -0.01240114588290453,
      -0.021563628688454628,
      -0.10742686688899994,
      -0.0922137051820755,
      -0.08406060189008713,
      -0.08427585661411285,
      -0.1555655300617218,
      -0.20144309103488922,
      -0.14172697067260742,
      -0.2276647835969925,
      -0.20401380956172943,
      -0.24371792376041412,
      -0.16035442054271698,
      -0.16702748835086823,
      -0.5217214822769165,
      -0.2557859420776367,
      -0.05290171504020691,
      -5.612217355519533E-4,
      0.05318789556622505,
      0.10694605112075806,
      0.04299065098166466,
      0.06420519202947617,
      0.053386542946100235,
      -0.012651166878640652,
      -0.04818775877356529,
      -0.023926688358187675,
      0.00160452991258353,
      -0.03318623825907707,
      -0.017330657690763474,
      -0.007638710550963879,
      -0.11245430260896683,
      -0.06423965841531754,
      -0.11876924335956573,
      -0.12130977213382721,
      -0.18207262456417084,
      -0.3800507187843323,
      -0.2215697467327118,
      -0.19774340093135834,
      -0.14273390173912048,
      -0.1517443209886551,
      -0.159451425075531,
      0.07114993780851364,
      -0.1349959373474121,
      -0.1789930909872055,
      -0.12324725091457367,
      -0.05876373499631882,
      -0.06128484755754471,
      0.13463753461837769,
      0.13087113201618195,
      0.11966978758573532,
      -0.024897566065192223,
      -0.04193155840039253,
      -0.01855066791176796,
      -0.03877031430602074,
      -0.03903258219361305,
      -0.013351929374039173,
      0.008015134371817112,
      0.056660961359739304,
      0.13898521661758423,
      0.23856334388256073,
      0.2625998556613922,
      0.21810698509216309,
      -0.043295178562402725,
      -0.13825957477092743,
      0.03060085140168667,
      0.19074101746082306,
      0.11206966638565063,
      -0.15986187756061554,
      -0.11545433104038239,
      0.07272307574748993,
      -0.19108232855796814,
      -0.3483891785144806,
      -0.24530382454395294,
      -0.1531745046377182,
      0.06744268536567688,
      0.15989719331264496,
      0.07998517155647278,
      -0.009859627112746239,
      -0.0748169869184494,
      -0.03485698997974396,
      8.224773337133229E-4,
      -0.06274477392435074,
      -0.03296596184372902,
      0.00500977598130703,
      0.043135203421115875,
      0.16463986039161682,
      0.3597867488861084,
      0.4147368371486664,
      0.17982691526412964,
      0.22815760970115662,
      0.3173365890979767,
      -0.0374884232878685,
      -0.02422231063246727,
      0.3399905860424042,
      0.35884982347488403,
      -0.023072823882102966,
      0.13739614188671112,
      0.3714481592178345,
      0.08251123875379562,
      -0.1534234583377838,
      0.00633163470774889,
      0.2658383548259735,
      0.06110028550028801,
      0.30195197463035583,
      0.03793147951364517,
      -0.16133221983909607,
      -0.08901847898960114,
      -0.06713102012872696,
      -0.01671607792377472,
      -0.04101047292351723,
      -0.049906447529792786,
      -0.024502728134393692,
      0.04057158902287483,
      0.15421222150325775,
      0.3719255328178406,
      0.23149266839027405,
      0.180084690451622,
      0.3380075991153717,
      0.31367912888526917,
      -0.09674536436796188,
      -0.22251656651496887,
      0.28175950050354004,
      0.2823807895183563,
      0.3917364478111267,
      0.2387101650238037,
      0.037838637828826904,
      0.14212077856063843,
      -0.27967578172683716,
      -0.11582165211439133,
      0.19712364673614502,
      0.08731096237897873,
      0.27659082412719727,
      0.23613321781158447,
      -0.10835693776607513,
      -0.06519714742898941,
      -0.089079849421978,
      -0.05146998539566994,
      -0.03546620532870293,
      -0.005575994029641151,
      -0.007329128682613373,
      -0.05058922618627548,
      0.10308127850294113,
      0.24692806601524353,
      0.3421228528022766,
      0.04658852145075798,
      0.03898534178733826,
      0.04277561232447624,
      -0.27554309368133545,
      -0.22443635761737823,
      0.13443565368652344,
      0.208147332072258,
      0.4896329939365387,
      0.12790332734584808,
      -0.21584047377109528,
      -0.16143567860126495,
      -0.1663937270641327,
      -0.35875001549720764,
      -0.07705532014369965,
      0.045141398906707764,
      0.20477977395057678,
      0.14264313876628876,
      -0.07783722132444382,
      -0.06245625019073486,
      -0.010503815487027168,
      -0.048770785331726074,
      -0.0447070486843586,
      -0.016435254365205765,
      0.011224583722651005,
      0.0022005243226885796,
      -6.313640042208135E-4,
      0.09541714936494827,
      0.05531156808137894,
      0.10015357285737991,
      0.010400255210697651,
      -0.14618515968322754,
      -0.30496737360954285,
      -0.4960063695907593,
      -0.15859206020832062,
      0.04131390154361725,
      0.13848960399627686,
      0.09654387831687927,
      -0.28057289123535156,
      -0.5560187101364136,
      -0.34990668296813965,
      -0.3936752676963806,
      -0.12989021837711334,
      0.14146795868873596,
      0.13436515629291534,
      -0.10614540427923203,
      -0.08026357740163803,
      -0.01845352165400982,
      -0.05709849298000336,
      -0.021794801577925682,
      -0.0019484675722196698,
      -0.04683871567249298,
      0.0017326585948467255,
      -0.07842209190130234,
      -0.0701826810836792,
      -0.1832417994737625,
      -0.19730335474014282,
      -0.11431549489498138,
      -0.2513827383518219,
      -0.4967699944972992,
      -0.6130112409591675,
      -0.5222262740135193,
      -0.0807572603225708,
      0.12153889238834381,
      0.15512482821941376,
      0.07933614403009415,
      -0.19199536740779877,
      -0.38347548246383667,
      -0.2844619154930115,
      -0.33854129910469055,
      0.11972508579492569,
      0.20758476853370667,
      0.05379259213805199,
      -0.2236563265323639,
      -0.1250021904706955,
      -0.05335424467921257,
      -0.09341583400964737,
      -0.04095393046736717,
      -0.061090435832738876,
      -7.22249096725136E-4,
      0.012869095429778099,
      -0.007565397769212723,
      -0.14774185419082642,
      -0.24768219888210297,
      -0.3484240472316742,
      -0.3778395652770996,
      -0.4888657033443451,
      -0.626430869102478,
      -0.5686072707176208,
      -0.5635915398597717,
      0.2513889670372009,
      -0.12072110921144485,
      -0.09418455511331558,
      -0.18387964367866516,
      0.15134909749031067,
      -0.2357940971851349,
      -0.059771738946437836,
      0.06107449159026146,
      0.10799458622932434,
      4.56672947620973E-4,
      -0.22296994924545288,
      -0.21993552148342133,
      -0.05492928996682167,
      -0.024597425013780594,
      -0.012127283960580826,
      -6.222805823199451E-4,
      0.0016237451927736402,
      -0.05466117337346077,
      -0.02246665209531784,
      -0.03622487187385559,
      -0.16355018317699432,
      -0.2938160300254822,
      -0.3521377742290497,
      -0.39166468381881714,
      -0.449125200510025,
      -0.3697594404220581,
      -0.30420681834220886,
      -0.4772760272026062,
      0.1549149453639984,
      -0.3382928669452667,
      -0.06943925470113754,
      -0.3835766613483429,
      -0.07103215903043747,
      -0.5167377591133118,
      -0.020727233961224556,
      0.11230477690696716,
      -0.056696001440286636,
      0.06665931642055511,
      -0.007464738097041845,
      -0.12345230579376221,
      -0.0640716403722763,
      -0.05362498387694359,
      0.0031968606635928154,
      -0.009011381305754185,
      -0.009060482494533062,
      -0.053283583372831345,
      -0.04774099215865135,
      -0.0687112882733345,
      -0.08178636431694031,
      -0.25979769229888916,
      -0.2769683301448822,
      -0.30388233065605164,
      -0.24629686772823334,
      -0.17051103711128235,
      -0.2189718633890152,
      -0.2764379680156708,
      0.27767452597618103,
      -0.2351502925157547,
      0.1393558382987976,
      -0.10423590987920761,
      -0.02602662891149521,
      -0.44685858488082886,
      0.004108578898012638,
      0.07359272241592407,
      -0.03995933383703232,
      0.2835570275783539,
      0.16550076007843018,
      -0.022313766181468964,
      -0.06514567881822586,
      -5.607916391454637E-4,
      0.0019064504886046052,
      -0.053684595972299576,
      -0.029473965987563133,
      -0.046112362295389175,
      -0.02422184683382511,
      -0.03721046447753906,
      -0.09205392003059387,
      -0.205272376537323,
      -0.21934442222118378,
      -0.05942347273230553,
      -0.041169002652168274,
      -0.1893843710422516,
      -0.2699791491031647,
      0.09862259775400162,
      0.44691309332847595,
      0.005709957797080278,
      -0.24499066174030304,
      -0.3186151087284088,
      9.531808318570256E-4,
      -0.3206802308559418,
      -0.17552678287029266,
      0.14975976943969727,
      0.06140749156475067,
      0.12225989997386932,
      0.16273123025894165,
      -0.02339325100183487,
      0.0735553577542305,
      0.0907755196094513,
      0.012436275370419025,
      -0.04958103597164154,
      -0.025489667430520058,
      0.0022880451288074255,
      -0.057281266897916794,
      -0.08394815027713776,
      -0.11421498656272888,
      -0.13591653108596802,
      -0.0818663239479065,
      0.04252970963716507,
      0.07136762887239456,
      0.0981743186712265,
      -0.13633009791374207,
      -0.05169287696480751,
      0.2420959174633026,
      -0.01768910139799118,
      -0.0022197396028786898,
      -0.372393935918808,
      -0.14915581047534943,
      -0.19019240140914917,
      0.06781947612762451,
      0.14495150744915009,
      -0.009747329168021679,
      0.04801873490214348,
      0.0953274518251419,
      0.04934633523225784,
      0.1353818029165268,
      0.02044793590903282,
      0.006252467166632414,
      -0.029686477035284042,
      -0.06513985991477966,
      -0.017196593806147575,
      -0.018076300621032715,
      -0.042944375425577164,
      -0.047316454350948334,
      -0.018032100051641464,
      -0.043823178857564926,
      -0.02434912510216236,
      0.052978530526161194,
      0.1847582906484604,
      0.115671306848526,
      -0.04830513149499893,
      0.13545069098472595,
