{
  "InputNodes": 784,
  "OutputNodes": 10,
  "OutputBias": {
    "data": [
      -1.2732797861099243,
      -0.5475943088531494,
      -1.7737555503845215,
      -2.0758776664733887,
      -1.4401090145111084,
      -1.0991941690444946,
      -2.973665475845337,
      0.2871457636356354,
      -4.744605541229248,
      -3.2648842334747314
    ],
    "rows": 10,
    "cols": 1
  },
  "HiddenWeights-0": {
    "data": [
      -0.032030586153268814,
      -0.028270697221159935,
      -0.05875013396143913,
      -0.02448056824505329,
      0.00771333510056138,
      -0.02802232839167118,
      -0.05253644660115242,
      -0.04228406772017479,
      -0.006381638813763857,
      -0.035843413323163986,
      -0.0281676072627306,
      -0.0018370397156104445,
      -0.025673897936940193,
      -0.05935205891728401,
      -0.050240326672792435,
      -0.017260221764445305,
      -0.013360610231757164,
      -0.003301201621070504,
      -0.012760354205965996,
      -0.049708086997270584,
      -0.04949120804667473,
      -0.011276548728346825,
      -0.05156061425805092,
      -0.02897355519235134,
      -0.007503822911530733,
      -0.019292345270514488,
      -0.049511004239320755,
      -0.02904830314218998,
      -0.010634884238243103,
      -0.04078509286046028,
      -0.05869586393237114,
      -0.04463691636919975,
      -0.05241577699780464,
      -0.0015462076989933848,
      0.12464307248592377,
      0.19829536974430084,
      0.08415450155735016,
      0.045715510845184326,
      0.06075027585029602,
      0.10059382021427155,
      0.26098355650901794,
      0.07187366485595703,
      0.04116157069802284,
      0.09224290400743484,
      0.008087487891316414,
      0.012902539223432541,
      0.02187865413725376,
      0.08785097301006317,
      0.057621411979198456,
      0.05082027241587639,
      0.0892438068985939,
      0.036096472293138504,
      -0.04080349579453468,
      -0.03091276064515114,
      -0.02101353369653225,
      -0.004101157654076815,
      -0.03578365966677666,
      -0.002625534078106284,
      -0.01936415769159794,
      -0.006447185296565294,
      -0.051971714943647385,
      -0.01453968696296215,
      0.11601660400629044,
      0.3621991276741028,
      0.35346996784210205,
      0.2886299192905426,
      0.618351936340332,
      0.7513431906700134,
      0.8388414978981018,
      0.6254650950431824,
      0.6781907677650452,
      0.6820629239082336,
      0.5579584836959839,
      0.4087390601634979,
      0.5283227562904358,
      0.36435744166374207,
      0.29503515362739563,
      0.3288542926311493,
      0.2521139979362488,
      0.1195366159081459,
      0.015149882063269615,
      -0.051450710743665695,
      -0.0010553528554737568,
      -0.03472169116139412,
      0.004376213997602463,
      -0.05276363715529442,
      -0.06368739902973175,
      -0.051684167236089706,
      0.0016634399071335793,
      0.14609462022781372,
      0.3740778863430023,
      0.6616804599761963,
      0.7391419410705566,
      1.1078776121139526,
      1.4977844953536987,
      1.4759758710861206,
      1.7756611108779907,
      2.1149494647979736,
      1.601132869720459,
      1.5043375492095947,
      0.7557234764099121,
      0.36339184641838074,
      0.8468359112739563,
      0.6278262138366699,
      0.623275637626648,
      0.42308947443962097,
      0.38392379879951477,
      0.62288498878479,
      0.45350489020347595,
      0.022048331797122955,
      -0.02540457807481289,
      0.00314563256688416,
      -0.04938822612166405,
      -0.05989427492022514,
      -0.05166245996952057,
      -0.0059430962428450584,
      0.063442662358284,
      0.26912933588027954,
      0.5766798853874207,
      0.6589946746826172,
      0.6908929347991943,
      1.1056002378463745,
      1.5906814336776733,
      1.0844460725784302,
      1.6381233930587769,
      0.9939225316047668,
      0.3295176029205322,
      0.46934521198272705,
      1.1400188207626343,
      0.1086682379245758,
      0.9296091794967651,
      0.7243815064430237,
      0.8088710308074951,
      0.4723373353481293,
      0.23364727199077606,
      0.012610727921128273,
      -0.2499655932188034,
      0.029835188761353493,
      -0.01702714152634144,
      0.01355959102511406,
      -0.006747123319655657,
      -0.03975257650017738,
      -0.006149464286863804,
      -0.017302148044109344,
      0.30325594544410706,
      0.4205097258090973,
      0.4961812198162079,
      0.9680489897727966,
      0.925786554813385,
      0.3467293381690979,
      0.1316203773021698,
      -0.48998549580574036,
      -0.5850711464881897,
      -0.13468027114868164,
      0.2275732308626175,
      0.09599565714597702,
      0.15596307814121246,
      0.1891213357448578,
      -0.07218566536903381,
      0.17443335056304932,
      0.3026658296585083,
      0.24270252883434296,
      -0.24182774126529694,
      0.05917026847600937,
      0.21880501508712769,
      0.039313819259405136,
      0.0704517737030983,
      0.018183711916208267,
      0.004152091220021248,
      -0.057562205940485,
      0.06036791205406189,
      0.16686472296714783,
      0.4901176989078522,
      -0.15834711492061615,
      -0.21659483015537262,
      0.8406108021736145,
      0.4963076114654541,
      -0.023730766028165817,
      0.030317209661006927,
      0.007111041806638241,
      0.3555026352405548,
      0.2896520793437958,
      -0.08564337342977524,
      0.13816004991531372,
      -0.44497665762901306,
      -0.27189329266548157,
      -0.14448630809783936,
      -0.13797619938850403,
      0.9260637164115906,
      0.25241619348526,
      0.11959617584943771,
      -0.3578750491142273,
      0.030333202332258224,
      -0.08560884743928909,
      -0.08558472990989685,
      -0.02803746610879898,
      -0.026399394497275352,
      -0.0028577193152159452,
      0.09624220430850983,
      0.14483322203159332,
      0.7150165438652039,
      -0.22768808901309967,
      -0.3516220450401306,
      0.24762986600399017,
      -0.2780285179615021,
      -0.01180034689605236,
      0.10709500312805176,
      0.28941652178764343,
      0.40366604924201965,
      -0.6303601861000061,
      0.5060304999351501,
      0.08029811829328537,
      -0.07920318096876144,
      -0.29295963048934937,
      -0.12104944884777069,
      -0.09102949500083923,
      -0.334703654050827,
      -0.686590313911438,
      -0.37117668986320496,
      -0.3432183861732483,
      -0.19377058744430542,
      -0.5220457911491394,
      -0.05733535438776016,
      -0.01776074431836605,
      -0.026955069974064827,
      -0.04395003989338875,
      -0.03807570040225983,
      0.17815133929252625,
      0.8116844892501831,
      -0.07137823849916458,
      -0.36003899574279785,
      -0.12347039580345154,
      -0.5223954916000366,
      -0.2877143919467926,
      0.22859010100364685,
      0.7865229249000549,
      0.46993908286094666,
      0.061655785888433456,
      -0.42731040716171265,
      -0.6114277243614197,
      -0.21065743267536163,
      0.09832930564880371,
      -0.8646115660667419,
      -0.6097254157066345,
      -1.2474286556243896,
      -1.031623125076294,
      -0.1658724993467331,
      0.016368834301829338,
      -0.43477997183799744,
      -0.31892579793930054,
      -0.012451518326997757,
      -0.03819600120186806,
      -0.0437057726085186,
      -0.03294183313846588,
      -0.008563109673559666,
      0.11721518635749817,
      0.779186487197876,
      -0.17080943286418915,
      -0.425517737865448,
      -0.10001253336668015,
      0.3595298230648041,
      -0.37183046340942383,
      -0.6312566995620728,
      -0.08018162846565247,
      0.49076905846595764,
      -0.09630036354064941,
      -0.13844691216945648,
      -1.184038758277893,
      -0.7665038704872131,
      -0.6995242834091187,
      -0.7141045331954956,
      -0.7671442031860352,
      -0.25108101963996887,
      0.2925349175930023,
      0.20780783891677856,
      0.17567621171474457,
      -0.34541112184524536,
      -0.10626634955406189,
      -0.06597165018320084,
      -0.057082805782556534,
      -0.05756469443440437,
      8.053534547798336E-4,
      -0.0015477979322895408,
      0.18098124861717224,
      0.22895783185958862,
      -0.14059804379940033,
      -0.5961529612541199,
      -0.42067158222198486,
      -0.42899203300476074,
      -0.5871587991714478,
      -0.5995017290115356,
      -0.6658810973167419,
      -0.07353132218122482,
      0.39843571186065674,
      0.0015767390141263604,
      -1.282444715499878,
      -0.815959632396698,
      -0.49407684803009033,
      -0.800899088382721,
      -0.16398245096206665,
      0.3942400813102722,
      0.08642400801181793,
      -0.4003339111804962,
      0.26993146538734436,
      -0.2106533646583557,
      -0.13637006282806396,
      -0.11484771966934204,
      -0.057145897299051285,
      0.006152921821922064,
      -0.0258443932980299,
      6.158507312647998E-4,
      0.16051848232746124,
      0.014141405932605267,
      -0.43047288060188293,
      -1.1649078130722046,
      -1.3728777170181274,
      -0.5024219155311584,
      -1.1008332967758179,
      -1.0680092573165894,
      -0.5977585315704346,
      0.36469805240631104,
      0.8751209378242493,
      1.3820396661758423,
      -0.43895047903060913,
      -0.26921945810317993,
      -0.44162285327911377,
      -0.9908807873725891,
      -0.34615376591682434,
      -0.4303903877735138,
      -0.4694634675979614,
      -0.2982206344604492,
      0.3400592803955078,
      0.34652113914489746,
      0.2754845917224884,
      -0.0331188403069973,
      -0.03504713997244835,
      -0.06222839280962944,
      -0.02061605080962181,
      -0.023220118135213852,
      -0.1569969654083252,
      -0.4145353138446808,
      -0.7968901991844177,
      -1.3796743154525757,
      -1.2234435081481934,
      -0.5113012790679932,
      -0.3924641013145447,
      -0.09560999274253845,
      -0.02623477391898632,
      -0.566290020942688,
      0.04734327271580696,
      1.076203465461731,
      0.442895770072937,
      0.5577718615531921,
      -0.399284690618515,
      -0.5910520553588867,
      -0.9048991799354553,
      -0.5243562459945679,
      -0.10247992724180222,
      -0.2849843502044678,
      0.3607666790485382,
      0.46749043464660645,
      0.22669671475887299,
      -0.041718415915966034,
      -0.024382242932915688,
      -0.03651143237948418,
      -0.03537509962916374,
      -0.0495498925447464,
      -0.07309107482433319,
      -0.8445144295692444,
      -0.9532209634780884,
      -0.9177013039588928,
      -0.8169135451316833,
      -0.2132912576198578,
      -0.2514476478099823,
      -0.4830506145954132,
      0.23261259496212006,
      0.022170115262269974,
      0.4513745605945587,
      0.3126451373100281,
      -0.3627069890499115,
      0.33841946721076965,
      -0.1910439431667328,
      0.024301212280988693,
      -0.12103764712810516,
      0.2132382094860077,
      -0.24503743648529053,
      -0.3302461802959442,
      0.9827353358268738,
      0.7977526783943176,
      0.16667145490646362,
      0.06917853653430939,
      0.025521818548440933,
      -0.04439540579915047,
      0.00505297863855958,
      -0.04189257323741913,
      -0.03353674337267876,
      -0.9145966172218323,
      -0.5199793577194214,
      0.3338596820831299,
      -0.5204789042472839,
      -0.7602438926696777,
      -0.13410797715187073,
      0.07478144764900208,
      0.9324541091918945,
      -0.17112018167972565,
      -0.2124907672405243,
      0.40209290385246277,
      -7.353907567448914E-4,
      -0.02622913382947445,
      -0.7904415130615234,
      0.3143261671066284,
      0.5458418130874634,
      0.4357241988182068,
      0.08466843515634537,
      -0.21233882009983063,
      0.5677332878112793,
      0.2078544944524765,
      0.13001252710819244,
      0.06394118815660477,
      -0.02253650687634945,
      -0.03510317578911781,
      -0.049861449748277664,
      -0.04347344487905502,
      0.07673177123069763,
      -0.2903309762477875,
      0.5884741544723511,
      0.5336308479309082,
      -0.1887703537940979,
      -0.37885844707489014,
      -0.19429351389408112,
      -0.10573628544807434,
      0.14879798889160156,
      0.4353945255279541,
      0.5885902047157288,
      0.4107242822647095,
      0.11743169277906418,
      0.29329603910446167,
      -0.3329504430294037,
      -0.14232812821865082,
      0.0032446538098156452,
      -0.05949258431792259,
      0.13082019984722137,
      0.6071872711181641,
      0.15590040385723114,
      -0.08397328853607178,
      0.26614680886268616,
      0.040348563343286514,
      0.017289435490965843,
      -0.03385975584387779,
      -0.04523751512169838,
      0.04500468075275421,
      0.40825706720352173,
      0.16469930112361908,
      0.5331944227218628,
      0.23136232793331146,
      0.16319593787193298,
      0.11868225783109665,
      1.0048784017562866,
      0.7718192338943481,
      -0.14661701023578644,
      -0.2884030044078827,
      0.04452771320939064,
      -0.26794689893722534,
      -0.7760080099105835,
      -0.2856234014034271,
      0.14347726106643677,
      0.6964384317398071,
      0.08539178222417831,
      -0.583438515663147,
      -0.20514926314353943,
      0.44671860337257385,
      0.4328966736793518,
      0.5355451703071594,
      0.6036332249641418,
      0.23090586066246033,
      -0.0529441237449646,
      -0.03757086023688316,
      -0.01929083652794361,
      0.07533024996519089,
      0.5952085256576538,
      0.19401007890701294,
      -0.1495334655046463,
      -0.3037011921405792,
      0.286506325006485,
      -0.009481286630034447,
      0.5353926420211792,
      0.35170266032218933,
      -0.1860872209072113,
      -0.747128963470459,
      -0.5736648440361023,
      0.5246527791023254,
      -0.2375679314136505,
      0.12938745319843292,
      -0.3481236696243286,
      -0.14140306413173676,
      1.1321395635604858,
      0.6763837337493896,
      -0.22907662391662598,
      0.37977272272109985,
      0.5927267074584961,
      0.48165860772132874,
      0.43527767062187195,
      0.11915457248687744,
      -0.026920326054096222,
      -0.037728626281023026,
      -0.011714184656739235,
      -0.022650349885225296,
      0.6878355145454407,
      0.2529350519180298,
      -0.38518431782722473,
      -0.2291223257780075,
      0.0035443028900772333,
      0.26962316036224365,
      0.46083033084869385,
      7.921889191493392E-4,
      -0.6336093544960022,
      -0.2347336709499359,
      0.10524625331163406,
      -0.05321125313639641,
      0.3859451115131378,
      1.007292628288269,
      0.3954804837703705,
      0.9507800936698914,
      0.7372563481330872,
      0.8947238922119141,
      0.5455739498138428,
      0.7079225182533264,
      0.5066278576850891,
      0.30162888765335083,
      0.4881255626678467,
      0.06078405678272247,
      -0.014805331826210022,
      -0.04972749575972557,
      -0.049898434430360794,
      -0.12879353761672974,
      0.33950385451316833,
      0.7359156012535095,
      0.3085881471633911,
      -0.01648576371371746,
      0.28916746377944946,
      0.44120413064956665,
      0.43283432722091675,
      0.2901283800601959,
      0.2508975565433502,
      -0.30770790576934814,
      -0.10303889960050583,
      -0.6640400886535645,
      0.3252529501914978,
      0.40655946731567383,
      1.6096559762954712,
      0.02761528268456459,
      0.7311344742774963,
      1.2343003749847412,
      0.9784833788871765,
      0.9021545052528381,
      0.14626070857048035,
      -0.1285327523946762,
      0.0722246840596199,
      -0.03730172663927078,
      -0.018168337643146515,
      -0.05078807845711708,
      -0.028497962281107903,
      0.0710754245519638,
      0.5015695095062256,
      1.3988877534866333,
      0.3856543302536011,
      0.08729586750268936,
      1.4755290746688843,
      0.271559476852417,
      0.1583201289176941,
      -0.3057401478290558,
      -0.06076809763908386,
      0.15060929954051971,
      -0.3102353513240814,
      -0.14053022861480713,
      -0.6814907193183899,
      -0.1814628392457962,
      -0.07081823796033859,
      -0.14528822898864746,
      0.4504328966140747,
      0.9512029886245728,
      0.8063459396362305,
      0.5317227244377136,
      0.13478152453899384,
      -0.3975812494754791,
      -0.0752778947353363,
      -0.020679404959082603,
      -0.041386451572179794,
      -0.045636136084795,
      -0.0588718019425869,
      0.16319750249385834,
      0.6099287271499634,
      1.2879397869110107,
      0.4930330812931061,
      1.1625616550445557,
      0.9944778680801392,
      -0.07917393743991852,
      -0.06028905138373375,
      0.41949042677879333,
      0.2535492181777954,
      0.1645885407924652,
      -0.23572269082069397,
      0.4340675175189972,
      0.169528990983963,
      -0.4595758020877838,
      0.19935016334056854,
      0.3637371063232422,
      0.17078426480293274,
      -0.0630553588271141,
      0.01788041740655899,
      0.07179756462574005,
      -0.24012769758701324,
      -0.5008098483085632,
      -0.028708603233098984,
      -0.001437027589417994,
      -0.04528385028243065,
      -0.007272487971931696,
      0.004896253813058138,
      0.08748535811901093,
      0.3953048586845398,
      0.8981276750564575,
      0.9309986233711243,
      1.0981026887893677,
      0.8216384649276733,
      -0.44401007890701294,
      -0.4339762032032013,
      0.26752540469169617,
      -0.13138847053050995,
      0.2823675572872162,
      0.2633184492588043,
      -0.0595121867954731,
      -0.13749878108501434,
      -0.09972422569990158,
      -0.21800363063812256,
      -0.018087152391672134,
      0.33526018261909485,
      0.05320434272289276,
      0.36077651381492615,
      -0.18893687427043915,
      -0.5398852825164795,
      -0.4553932547569275,
      -0.12203529477119446,
      -0.01949439011514187,
      -0.04991639032959938,
      -0.038077082484960556,
      -0.03901340439915657,
      0.07110758125782013,
      0.2543398141860962,
      0.6473267078399658,
      0.8522075414657593,
      0.8809575438499451,
      0.9682265520095825,
      0.144223153591156,
      0.4348125755786896,
      -0.26579686999320984,
      -0.44444599747657776,
      -0.30087539553642273,
      -0.38682398200035095,
      -0.8928343057632446,
      -0.0582483634352684,
      -0.44515562057495117,
      -0.33232739567756653,
      0.30459555983543396,
      0.02923475205898285,
      -0.18035979568958282,
      -0.25404641032218933,
      -0.27193742990493774,
      -0.33242955803871155,
      -0.2572954595088959,
      -0.09134059399366379,
      0.01939096301794052,
      -0.05310787633061409,
      -0.03606795892119408,
      -0.02796626277267933,
      0.04512212797999382,
      0.0877821296453476,
      0.29791566729545593,
      0.23074962198734283,
      0.5976626873016357,
      1.0167267322540283,
      0.6902135014533997,
      0.8276658058166504,
      0.8053040504455566,
      1.165541648864746,
      0.8014354705810547,
      0.43931788206100464,
      0.7379080653190613,
      0.40209370851516724,
      0.6884993314743042,
      0.24387583136558533,
      -0.1349162757396698,
      -0.07000261545181274,
      -0.3651008903980255,
      -0.3193979263305664,
      -0.4348171055316925,
      -0.28508907556533813,
      0.031167196109890938,
      0.07325088977813721,
      -0.011747865006327629,
      -0.03936591371893883,
      0.0039865183643996716,
      -0.0015332306502386928,
      -0.007206016685813665,
      -0.05426526442170143,
      -0.08574163168668747,
      -0.15812641382217407,
      0.16073042154312134,
      0.5496253967285156,
      1.086173176765442,
      1.177904725074768,
      0.8851463198661804,
      0.6898876428604126,
      0.9259012341499329,
      0.4505026638507843,
      0.2875201106071472,
      0.23413458466529846,
      0.3834700882434845,
      0.6312419176101685,
      0.17875736951828003,
      0.3200833201408386,
      -0.031940389424562454,
      -0.300882488489151,
      -0.2385965883731842,
      -0.11210691183805466,
      -0.07996991276741028,
      -0.031115368008613586,
      -0.02817367948591709,
      -0.007870197296142578,
      -0.011280598118901253,
      -0.039382126182317734,
      -0.04174479469656944,
      -0.04492220655083656,
      -0.0672735720872879,
      -0.09083444625139236,
      -0.045772798359394073,
      -0.04328826069831848,
      -0.06850389391183853,
      0.023512113839387894,
      -0.016883958131074905,
      -0.0883350595831871,
      -0.1819259375333786,
      -0.004876661114394665,
      -0.11970362067222595,
      -0.16884280741214752,
      -0.0023296664003282785,
      0.17437465488910675,
      0.0965050756931305,
      -0.032770704478025436,
      -0.10601341724395752,
      -0.01680213026702404,
      -0.07522471994161606,
      -0.04691797122359276,
      -0.04199226573109627,
      -0.01792156882584095,
      -0.04330584779381752,
      -0.06276987493038177,
      7.600359967909753E-4,
      -0.012206753715872765,
      -0.03246432915329933,
      -0.053785283118486404,
      -0.0033361513633280993,
      0.0015072586247697473,
      0.004688101354986429,
      -0.021839629858732224,
      -0.003049117513000965,
      -0.04609038680791855,
      -0.03547963127493858,
      -0.0027567842043936253,
      -0.04796520248055458,
      -0.0515153594315052,
      -0.050214171409606934,
      -0.020354613661766052,
      -0.051834966987371445,
      0.002310676034539938,
      -0.05121274292469025,
      -0.0087282694876194,
      -0.023730110377073288,
      -0.03299802914261818,
      -0.06769397109746933,
      -0.05622917041182518,
      -0.05353836342692375,
      -0.0619363971054554,
      -0.04313323274254799,
      -0.055449921637773514,
      0.04440540075302124,
      0.03401417285203934,
      0.008756089955568314,
      0.016979452222585678,
      0.0404268279671669,
      0.06379648298025131,
      0.04755810648202896,
      0.05460871011018753,
      0.07460319995880127,
      0.0650099515914917,
      0.052102021872997284,
      0.02730410546064377,
      0.07559313625097275,
      0.011193428188562393,
      0.03223084285855293,
      0.07640170305967331,
      0.06830325722694397,
      0.06752458214759827,
      0.03066970780491829,
      0.03094162978231907,
      0.021962516009807587,
      0.07886265218257904,
      0.046900875866413116,
      0.014578675851225853,
      0.02637280896306038,
      0.0677790641784668,
      0.04125078022480011,
      0.05701199918985367,
      0.04310602694749832,
      0.051800549030303955,
      0.02083507925271988,
      0.025835897773504257,
      0.05414770543575287,
      0.026632234454154968,
      0.07429429143667221,
      0.06904347985982895,
      0.029396595433354378,
      0.026590481400489807,
      0.11635944992303848,
      -0.08711742609739304,
      -0.19546076655387878,
      -0.053478971123695374,
      0.029740674421191216,
      0.08569720387458801,
      0.06421707570552826,
      0.05044291913509369,
      0.06722139567136765,
      0.05375830456614494,
      0.06176723539829254,
      0.06983868032693863,
      0.07371104508638382,
      0.008717916905879974,
      0.029154092073440552,
      0.07015402615070343,
      0.04937998950481415,
      0.021054476499557495,
      0.07497571408748627,
      0.025939051061868668,
      0.0687258243560791,
      0.011927292682230473,
      0.05689477548003197,
      0.024567967280745506,
      0.1131560206413269,
      0.08881408721208572,
      0.1475616693496704,
      0.2780730128288269,
      0.35711154341697693,
      0.2600425183773041,
      0.18656542897224426,
      0.24734926223754883,
      0.31614527106285095,
      0.47534802556037903,
      0.5282825231552124,
      0.563671350479126,
      0.36280202865600586,
      0.22091050446033478,
      0.22124671936035156,
      0.08452244102954865,
      0.06950700283050537,
      0.019068237394094467,
      0.01393992081284523,
      0.07308471202850342,
      0.027896180748939514,
      0.027094494551420212,
      0.0620080903172493,
      0.042105332016944885,
      0.05700519680976868,
      0.08461002260446548,
      0.06368446350097656,
      0.1870412826538086,
      0.26754170656204224,
      0.24494707584381104,
      0.39651936292648315,
      0.6386261582374573,
      0.6480830311775208,
      0.59727543592453,
      0.7464129328727722,
      0.7674790024757385,
      0.49746277928352356,
      0.49506479501724243,
      0.17953267693519592,
      0.19212359189987183,
      0.25230246782302856,
      0.1522500365972519,
      0.1816590577363968,
      0.6186104416847229,
      0.3378198742866516,
      0.10227899253368378,
      0.08748511224985123,
      0.08584900945425034,
      0.05799664184451103,
      0.026952695101499557,
      0.019336838275194168,
      0.0729525238275528,
      0.009469103068113327,
      0.06874769181013107,
      -0.001984412083402276,
      0.29660630226135254,
      0.3080574572086334,
      0.1163603886961937,
      -0.08969052135944366,
      -0.07676778733730316,
      0.06237294152379036,
      0.3691781759262085,
      0.6337575316429138,
      -0.10782545804977417,
      0.046768639236688614,
      0.19411005079746246,
      0.513267993927002,
      0.4355247914791107,
      0.4580284357070923,
      0.13581156730651855,
      0.00102423841599375,
      0.3214413523674011,
      -0.024538617581129074,
      -0.18269753456115723,
      0.27651703357696533,
      0.15840423107147217,
      0.07084905356168747,
      0.060751430690288544,
      0.022936441004276276,
      0.046260856091976166,
      0.05144650116562843,
      0.06989123672246933,
      0.0389215424656868,
      0.313277006149292,
      0.032539304345846176,
      -0.1214345321059227,
      -0.2769497036933899,
      -0.03699111193418503,
      -0.048086389899253845,
      -0.27462971210479736,
      -0.13372986018657684,
      -0.04349041357636452,
      0.10134642571210861,
      -0.5148139595985413,
      -0.26979631185531616,
      0.10488623380661011,
      -0.14342732727527618,
      -0.04586206004023552,
      0.03447137773036957,
      0.5552903413772583,
      8.819492650218308E-4,
      0.06782315671443939,
      0.4783758819103241,
      0.5393189191818237,
      0.08872102200984955,
      0.12142159789800644,
      0.0381125807762146,
      0.027661167085170746,
      0.06905876100063324,
      0.06319722533226013,
      0.027930080890655518,
      0.1557581126689911,
      0.16607947647571564,
      -0.03387341648340225,
      0.39118772745132446,
      0.7813596129417419,
      0.3755805492401123,
      0.5237263441085815,
      0.4393836259841919,
      -0.05073179304599762,
      0.2766953706741333,
      0.07431592047214508,
      0.4375682771205902,
      -0.29531294107437134,
      -0.07099305838346481,
      0.0336955189704895,
      -0.1967972069978714,
      -0.7608929872512817,
      -0.5641549825668335,
      -0.16652755439281464,
      0.4879435896873474,
      0.9764557480812073,
      0.4784241020679474,
      0.2123866081237793,
      0.01665603742003441,
      0.031815722584724426,
      0.03671928867697716,
      0.07582560181617737,
      0.19600912928581238,
      -0.14821206033229828,
      0.01767810620367527,
      0.08081322908401489,
      1.002988338470459,
      0.2605285048484802,
      -0.15216511487960815,
      -0.13263848423957825,
      -0.10298708826303482,
      -0.28015995025634766,
      0.2646961510181427,
      0.13665726780891418,
      0.6167110204696655,
      -0.3337245583534241,
      -0.24702879786491394,
      -0.44707512855529785,
      -0.1586940586566925,
      -0.1582786738872528,
      -0.0333743654191494,
      -0.22275979816913605,
      0.17877180874347687,
      0.5899484157562256,
      0.3974933326244354,
      0.08902989327907562,
      0.0023222584277391434,
      0.05264214053750038,
      0.06695382297039032,
      0.03553848713636398,
      0.226841002702713,
      -0.04553389549255371,
      -0.3145185112953186,
      -0.1808345466852188,
      -0.038103874772787094,
      0.0041588786989450455,
      -0.18440142273902893,
      0.5196862816810608,
      -0.35117509961128235,
      -0.0010465336963534355,
      -0.001625854754820466,
      -0.11508839577436447,
      -0.8702600598335266,
      -0.4961710572242737,
      -0.4906248152256012,
      -0.18778955936431885,
      0.09831453859806061,
      0.09110996127128601,
      -0.08717288076877594,
      -0.35389444231987,
      0.2751813232898712,
      0.5909979343414307,
      0.3124900162220001,
      0.038696177303791046,
      0.0782715231180191,
      0.07728719711303711,
      0.06884666532278061,
      0.017291013151407242,
      0.077425517141819,
      -0.08016135543584824,
      -0.11699312180280685,
      0.2836515009403229,
      -0.2811085283756256,
      -0.41474634408950806,
      0.13151924312114716,
      0.6348379254341125,
      0.08470670878887177,
      -0.11039881408214569,
      0.8321500420570374,
      0.3160364627838135,
      0.12988856434822083,
      0.25652045011520386,
      -0.7898217439651489,
      -1.0018298625946045,
      -0.47897469997406006,
      0.011010784655809402,
      -0.12674909830093384,
      -0.8836058974266052,
      0.21307529509067535,
      0.6648109555244446,
      0.43559807538986206,
      0.027160925790667534,
      0.050840314477682114,
      0.037002865225076675,
      0.06897067278623581,
      0.14452217519283295,
      -0.009667009115219116,
      -0.31606465578079224,
      0.7028418183326721,
      0.14880257844924927,
      0.050278518348932266,
      -0.4192487299442291,
      0.6357224583625793,
      -0.08659642189741135,
      -0.27552756667137146,
      0.13956956565380096,
      -0.3294069170951843,
      -0.3123122453689575,
      0.6287508606910706,
      -0.2216803878545761,
      -0.7685788869857788,
      -0.6414839625358582,
      -0.3559632897377014,
      -0.12872645258903503,
      -0.5924549102783203,
      -0.8371395468711853,
      0.1687210500240326,
      0.6019521355628967,
      0.34806564450263977,
      0.06805727630853653,
      0.0759427547454834,
      -0.0011943019926548004,
      0.03361931070685387,
      0.14138144254684448,
      0.43733635544776917,
      0.15630030632019043,
      -0.3293161988258362,
      -0.31621503829956055,
      -0.4581249952316284,
      -0.24620109796524048,
      -0.5138527154922485,
      0.07197799533605576,
      0.5948478579521179,
      0.12422655522823334,
      0.5092851519584656,
      0.7324315309524536,
      1.1886762380599976,
      0.49482741951942444,
      9.256651537725702E-5,
      0.14386795461177826,
      -0.4799645245075226,
      -0.34334391355514526,
      0.12151457369327545,
      -0.08782278746366501,
      -0.14447663724422455,
      0.16735045611858368,
      0.20657333731651306,
      0.012092282995581627,
      0.04314456880092621,
      0.048644039779901505,
      0.08582642674446106,
      0.024259399622678757,
      0.11440876126289368,
      -0.3024999797344208,
      -0.8442281484603882,
      0.07851781696081161,
      0.13621065020561218,
      0.15858939290046692,
      -0.41077864170074463,
      -0.21963170170783997,
      -0.3426622450351715,
      0.217970073223114,
      0.8000840544700623,
      0.9354279041290283,
      2.035778760910034,
      0.6500182151794434,
      -0.326542466878891,
      -0.5054061412811279,
      -0.2023223638534546,
      -0.1356186419725418,
      0.3940974771976471,
      0.04104575142264366,
      -0.426625519990921,
      0.10504947602748871,
      0.20771583914756775,
      0.06408794969320297,
      0.06924210488796234,
      0.023884613066911697,
      0.04091475531458855,
      0.034058231860399246,
      -0.38665661215782166,
      -0.34632939100265503,
      -0.6721618175506592,
      -0.4600524306297302,
      -0.2583622336387634,
      -0.5182591080665588,
      -0.9619092345237732,
      0.10159601271152496,
      0.23007653653621674,
      0.12429684400558472,
      0.5603368282318115,
      1.6038628816604614,
      1.7101092338562012,
      0.3798544704914093,
      -0.756488561630249,
      -0.49505531787872314,
      0.4200845956802368,
      -0.4860798716545105,
      -0.13498175144195557,
      -0.41742533445358276,
      -0.10627347230911255,
      -0.13377992808818817,
      0.12795424461364746,
      0.03516875579953194,
      0.07075110077857971,
      0.06610007584095001,
      0.07331544160842896,
      0.15076342225074768,
      -0.5053768157958984,
      -0.5162721276283264,
      0.17245477437973022,
      -1.0556447505950928,
      -0.16636712849140167,
      -0.6058797836303711,
      -0.10615240037441254,
      0.21774140000343323,
      -0.4294189214706421,
      -0.2135802060365677,
      1.1775834560394287,
      2.0377614498138428,
      1.7062667608261108,
      -0.14800263941287994,
      -0.0036090651992708445,
      -0.2279449701309204,
      -0.1908685564994812,
      -0.5798942446708679,
      -0.06553107500076294,
      -0.30978915095329285,
      -0.19710268080234528,
      -0.3766140341758728,
      0.038784004747867584,
      0.03614598140120506,
      0.03736453503370285,
      0.07365818321704865,
      0.04745902866125107,
      0.427242249250412,
      0.03822009637951851,
      -0.8212087154388428,
      0.4469027817249298,
      -0.6966890096664429,
      -0.4407016932964325,
      -0.3537014424800873,
      -0.7703531980514526,
      -0.2029392272233963,
      -0.46767252683639526,
      0.6931900382041931,
      1.7162775993347168,
      1.5728353261947632,
      0.7022018432617188,
      0.6187945604324341,
      0.1635895073413849,
      0.29292023181915283,
      -0.5436646342277527,
      -0.10559497028589249,
      -0.4396359920501709,
      -0.5809628367424011,
      0.274524062871933,
      -0.1648741066455841,
      0.10394634306430817,
      0.07582541555166245,
      0.05091129615902901,
      0.04566556215286255,
      0.05724381282925606,
      0.5732927918434143,
      0.022910691797733307,
      -0.5603061318397522,
      -0.01444524060934782,
      -0.5440372824668884,
      -0.6652082800865173,
      -0.1117488220334053,
      -0.8957828879356384,
      -0.6179494857788086,
      0.8073397278785706,
      1.783842921257019,
      1.686946988105774,
      0.7712318897247314,
      0.7365579009056091,
      0.6592219471931458,
      -0.2562088668346405,
      0.4812381863594055,
      -0.3695847690105438,
      0.07526613771915436,
      -0.20028896629810333,
      -0.16671758890151978,
      0.4039256274700165,
      0.1717904657125473,
      0.20722699165344238,
      0.05065515637397766,
      0.05679301172494888,
      0.019098419696092606,
      0.06245482340455055,
      0.5900579690933228,
      -0.020384127274155617,
      -0.4252208173274994,
      -0.5239284038543701,
      -0.5151532292366028,
      -0.334667444229126,
      -0.6917001008987427,
      -1.2094593048095703,
      0.3790184259414673,
      1.0988810062408447,
      1.0339386463165283,
      1.2376123666763306,
      0.5996330380439758,
      0.6422474384307861,
      0.35087114572525024,
      -0.128270223736763,
      -0.22079797089099884,
      -0.15224923193454742,
      0.2567102909088135,
      -0.11630214750766754,
      -0.0350666269659996,
      0.11975621432065964,
      0.2123107761144638,
      0.08293599635362625,
      0.012152241542935371,
      0.02813745103776455,
      0.07057397067546844,
      0.08361747115850449,
      0.8439328074455261,
      0.08461514115333557,
      0.25700005888938904,
      -0.0413249209523201,
      -0.19696371257305145,
      -1.1254899501800537,
      -0.9274113178253174,
      -0.792094349861145,
      -0.12673068046569824,
      1.2871915102005005,
      0.6611577868461609,
      0.06404075771570206,
      -0.1898375302553177,
      0.01962253637611866,
      -0.12402912229299545,
      -0.16112405061721802,
      0.5196036696434021,
      0.12420090287923813,
      -0.016674596816301346,
      0.09845861792564392,
      -0.32066038250923157,
      0.24552811682224274,
      0.19066102802753448,
      0.03139378875494003,
      0.030383136123418808,
      0.053389884531497955,
      0.04592936486005783,
      0.002590648364275694,
      0.4426765739917755,
      -0.07797821611166,
      -0.2457355260848999,
      -0.42918598651885986,
      -0.31231263279914856,
      -0.6228500008583069,
      -0.9283250570297241,
      -0.8918785452842712,
      -0.052608322352170944,
      0.6937325596809387,
      1.1781917810440063,
      0.5942351818084717,
      0.2443968653678894,
      0.28266769647598267,
      0.6149817109107971,
      -0.0029518306255340576,
      0.5220319032669067,
      -0.4596549868583679,
      -0.5121303200721741,
      -0.385642945766449,
      -0.12989769876003265,
      0.009079782292246819,
      0.12166264653205872,
      0.026208404451608658,
      0.07327456027269363,
      0.06051435321569443,
      -0.054792217910289764,
      0.06627102196216583,
      0.16742821037769318,
      0.10433753579854965,
      -0.328289657831192,
      0.16992028057575226,
      0.030501047149300575,
      -0.7126917243003845,
      -0.4283939599990845,
      -1.4236253499984741,
      -0.628048300743103,
      0.21566730737686157,
      0.8951067328453064,
      0.9911433458328247,
      0.2984754741191864,
      0.09130358695983887,
      -0.3982696235179901,
      0.18804369866847992,
      0.6654085516929626,
      0.13428716361522675,
      -0.09595872461795807,
      0.4365229606628418,
      0.5362592339515686,
      -0.05820870026946068,
      0.12294387817382812,
      0.05798521637916565,
      0.025212127715349197,
      0.05317018926143646,
      0.03124331682920456,
      0.14482979476451874,
      0.06110548973083496,
      -0.15587684512138367,
      -0.2903049886226654,
      -0.17632295191287994,
      -0.4068658947944641,
      -0.3088260889053345,
      -0.24970752000808716,
      -0.27076900005340576,
      -0.3409440517425537,
      -0.011022326536476612,
      0.7261155247688293,
      0.5078070163726807,
      0.08369209617376328,
      0.14319469034671783,
      0.7310597896575928,
      0.5923125743865967,
      0.7887495756149292,
      0.16104692220687866,
      0.04278955236077309,
      0.2376396209001541,
      0.23882055282592773,
      0.0073044258169829845,
      0.1513187736272812,
      0.05002104118466377,
      0.06196342408657074,
      0.05754636228084564,
      0.03728213161230087,
      0.06885728985071182,
      0.1231488287448883,
      0.3687950670719147,
      -0.10786783695220947,
      -0.1902552992105484,
      -0.03891080245375633,
      0.06338394433259964,
      -0.49450618028640747,
      -0.5199495553970337,
      0.2779105603694916,
      0.19693438708782196,
      -0.2899259924888611,
      0.3158320486545563,
      0.49867579340934753,
      0.1782284826040268,
      -0.6582474112510681,
      0.01457166951149702,
      -0.0696113333106041,
      0.06344323605298996,
      0.056016359478235245,
      -0.11675146222114563,
      -0.04611928388476372,
      0.1692839413881302,
      0.15014341473579407,
      0.04842526465654373,
      0.0730685144662857,
      0.027425400912761688,
      0.021136339753866196,
      0.07749935239553452,
      0.06062811613082886,
      0.39564409852027893,
      0.3100869953632355,
      -0.11583656072616577,
      0.07264267653226852,
      0.14932489395141602,
      -0.2489376962184906,
      -0.7005649209022522,
      -0.4385351836681366,
      -0.09003733098506927,
      0.015461225993931293,
      0.2861135005950928,
      0.4792654812335968,
      0.5047704577445984,
      0.20147256553173065,
      0.5560314059257507,
      0.8356508016586304,
      0.7936522960662842,
      -0.006364223547279835,
      -0.05865612253546715,
      0.2859821915626526,
      0.3241015076637268,
      0.12816095352172852,
      0.06221457198262215,
      0.07233884930610657,
      0.07657209038734436,
      0.015150956809520721,
      0.06065542995929718,
      0.08081100881099701,
      0.14522628486156464,
      0.2289908528327942,
      0.2913163900375366,
      0.30532732605934143,
      -0.026181910187005997,
      -0.3590537905693054,
      -0.16321009397506714,
      -0.06521118432283401,
      -0.2567611634731293,
      0.25974100828170776,
      0.25307849049568176,
      0.5953624844551086,
      0.6478280425071716,
      0.9068267345428467,
      1.0421156883239746,
      0.8172336220741272,
      0.7385989427566528,
      0.46606555581092834,
      0.34633082151412964,
      0.33007609844207764,
      0.20877911150455475,
      0.05177059397101402,
      0.05797865241765976,
      0.048658862709999084,
      0.05619551241397858,
      0.04465383291244507,
      0.06826220452785492,
      0.0201261043548584,
      0.03381723910570145,
      0.14754778146743774,
      0.19911810755729675,
      0.46399635076522827,
      0.7316852807998657,
      1.0549150705337524,
      1.1029446125030518,
      0.874671995639801,
      1.3223381042480469,
      1.3983697891235352,
      1.3496345281600952,
      1.3915660381317139,
      1.220917820930481,
      1.1603341102600098,
      0.9507009983062744,
      0.6010308861732483,
      0.44480106234550476,
      0.3645066022872925,
      0.27421507239341736,
      0.2890671491622925,
      0.19227257370948792,
      0.05701358616352081,
      0.032587554305791855,
      0.008881650865077972,
      0.060191646218299866,
      0.020162433385849,
      0.03447519242763519,
      0.018151473253965378,
      0.045051347464323044,
      0.10782048106193542,
      0.11260352283716202,
      0.2077384740114212,
      0.3271474838256836,
      0.5848203897476196,
      0.5323739051818848,
      0.4789848327636719,
      0.33351704478263855,
      0.5649635791778564,
      0.7057937979698181,
      0.6746071577072144,
      0.4778868854045868,
      0.3976918160915375,
      0.2858727276325226,
      0.17458966374397278,
      0.17401590943336487,
      0.1281490921974182,
      0.0822078287601471,
      0.08213777840137482,
      0.06016900762915611,
      0.07402440905570984,
      0.02481561154127121,
      0.07486672699451447,
      0.043236538767814636,
      0.02757103368639946,
      0.04749757796525955,
      0.06496120989322662,
      0.044830285012722015,
      0.009766328148543835,
      0.0507730171084404,
      0.03961532190442085,
      0.08202069252729416,
      0.05296383798122406,
      0.08435294777154922,
      0.07304186373949051,
      0.07180170714855194,
      0.1153135895729065,
      0.12880836427211761,
      0.13309460878372192,
      0.11849028617143631,
      0.06868838518857956,
      0.10869280248880386,
      0.10253787040710449,
      0.07728271931409836,
      0.04876415804028511,
      0.06316233426332474,
      0.05096208676695824,
      0.03962293267250061,
      0.013491613790392876,
      0.024633657187223434,
      0.040867142379283905,
      0.015829747542738914,
      -0.006800890434533358,
      -0.028345130383968353,
      -0.024693693965673447,
      0.02080151066184044,
      0.02266407385468483,
      -0.03011038899421692,
      -0.005769139621406794,
      -0.03527883067727089,
      0.001181701198220253,
      0.012911639176309109,
      -0.025767650455236435,
      0.023890599608421326,
      0.06113794073462486,
      -0.010876013897359371,
      -0.0144957872107625,
      -0.0315605103969574,
      0.015802187845110893,
      -0.02245745062828064,
      -0.0037483135238289833,
      -0.014516890980303288,
      -0.02553241327404976,
      0.023651007562875748,
      -0.03089233487844467,
      -0.013540086336433887,
      -0.03381470963358879,
      0.006475225556641817,
      0.025598518550395966,
      -0.011861494742333889,
      0.0038964091800153255,
      0.029347117990255356,
      0.020702291280031204,
      -0.010602199472486973,
      0.008795625530183315,
      0.058312851935625076,
      0.07906372100114822,
      0.026816077530384064,
      0.025037281215190887,
      0.05060697719454765,
      0.05510668084025383,
      0.0985669493675232,
      0.09520877152681351,
      0.10711333900690079,
      0.1506679207086563,
      0.18274682760238647,
      0.01799793168902397,
      0.04525497928261757,
      0.032570961862802505,
      0.05423983931541443,
      0.034170493483543396,
      0.1357221007347107,
      0.08241235464811325,
      -0.021430499851703644,
      -0.013344275765120983,
      0.014262096025049686,
      0.021758921444416046,
      -0.02034713700413704,
      -2.5242811534553766E-4,
      0.02201554924249649,
      0.017816316336393356,
      0.0284324511885643,
      0.008589797653257847,
      0.015064631588757038,
      0.09893376380205154,
      0.16019496321678162,
      0.2695229649543762,
      0.5375612378120422,
      0.5637882947921753,
      0.8504173159599304,
      0.9997060894966125,
      0.8028196096420288,
      0.6416422128677368,
      0.6488862633705139,
      0.465923011302948,
      0.2920571565628052,
      0.1595778912305832,
      0.01451667957007885,
      0.06184299662709236,
      0.14871424436569214,
      0.10975808650255203,
      0.020157918334007263,
      0.015651008114218712,
      -0.030070900917053223,
      -0.012703455053269863,
      -0.004143100697547197,
      -0.013068859465420246,
      -3.8597662933170795E-4,
      -0.016326457262039185,
      0.03950558230280876,
      0.035589903593063354,
      0.177383691072464,
      0.33781006932258606,
      0.5474682450294495,
      0.6763681173324585,
      1.137487530708313,
      1.3506412506103516,
      1.4877746105194092,
      1.4927173852920532,
      1.349613904953003,
      0.9036834239959717,
      0.5895901918411255,
      0.25281375646591187,
      -0.3792543113231659,
      0.1976727396249771,
      0.4713987708091736,
      0.15200409293174744,
      0.022390466183423996,
      -0.05741851404309273,
      0.02372134104371071,
      0.021662253886461258,
      0.04839243367314339,
      -0.003347779391333461,
      0.031158916652202606,
      -0.022900022566318512,
      -0.030321940779685974,
      -0.00736722769215703,
      -0.08717497438192368,
      0.09005958586931229,
      0.1188131719827652,
      0.17757098376750946,
      0.010180790908634663,
      0.0325859934091568,
      0.08739690482616425,
      -0.4526991844177246,
      -0.3278077244758606,
      0.003803455037996173,
      -0.4808204472064972,
      0.21750962734222412,
      -0.358530730009079,
      0.27177631855010986,
      -0.6514012813568115,
      -0.6198586821556091,
      0.21588946878910065,
      0.13906122744083405,
      -0.023243766278028488,
      -0.1650526523590088,
      -0.5315411686897278,
      -0.1098024994134903,
      -0.02074895054101944,
      0.015787610784173012,
      0.008903051726520061,
      0.030534036457538605,
      0.007020298857241869,
      -0.03804566711187363,
      0.038865529000759125,
      -0.1685313731431961,
      -0.2241525501012802,
      -0.3960176706314087,
      -0.47607874870300293,
      -0.5715088248252869,
      0.5899848341941833,
      -1.0229461193084717,
      -1.0124629735946655,
      0.17693457007408142,
      0.1323990672826767,
      0.1334667056798935,
      -0.23403584957122803,
      -0.052969206124544144,
      0.4230041205883026,
      0.21574538946151733,
      -0.010441350750625134,
      0.41050034761428833,
      -0.012967156246304512,
      0.22146545350551605,
      -0.3660961091518402,
      -0.03919816017150879,
      -0.01939723640680313,
      0.011499340645968914,
      -0.027459796518087387,
      0.0030815680511295795,
      -0.0272853821516037,
      0.07279444485902786,
      -0.10944654792547226,
      -0.38320785760879517,
      -0.20243538916110992,
      -0.12878650426864624,
      -0.6667568683624268,
      -0.4877966344356537,
      -0.6194595694541931,
      -0.5097168684005737,
      -0.25649604201316833,
      0.025967709720134735,
      0.24565941095352173,
      -0.5166289806365967,
      0.07621640712022781,
      -0.39190492033958435,
      0.2990178167819977,
      -0.5694713592529297,
      -0.1851932555437088,
      -0.10534882545471191,
      -0.22621263563632965,
      -0.8370957374572754,
      -0.3321811258792877,
      0.10671518743038177,
      0.19655558466911316,
      0.1539304405450821,
      0.00900596845895052,
      0.026968609541654587,
      -0.05274074524641037,
      -0.1261027455329895,
      -0.31924644112586975,
      -0.2050410658121109,
      -0.24671176075935364,
      -0.29961326718330383,
      -0.9386002421379089,
      -0.3979698717594147,
      -0.5901428461074829,
      -0.15087951719760895,
      -0.3533574938774109,
      -0.10379282385110855,
      0.22768963873386383,
      -0.43841925263404846,
      -0.3414401412010193,
      -0.24257034063339233,
      0.2752901315689087,
      0.5316125750541687,
      -0.6071841716766357,
      -0.1161065474152565,
      -0.08408429473638535,
      -0.7748315930366516,
      -0.8110755681991577,
      -0.15839070081710815,
      0.1810775101184845,
      0.08452003449201584,
      0.04847908765077591,
      0.010292933322489262,
      -0.03628494217991829,
      -0.26683908700942993,
      -0.47853100299835205,
      -0.27392128109931946,
      -0.8173975348472595,
      -0.07745207846164703,
      -0.594751238822937,
      -0.13405311107635498,
      -0.30106058716773987,
      -0.5778231024742126,
      -0.41884371638298035,
      -0.793828010559082,
      0.19181136786937714,
      0.2202892154455185,
      -0.2898408770561218,
      0.24916142225265503,
      -0.455223023891449,
      -0.9136540293693542,
      -0.994022786617279,
      -0.4463634192943573,
      -0.7036665678024292,
      -0.8441361784934998,
      -1.4069732427597046,
      -0.7456085681915283,
      -0.22307230532169342,
      -0.01993124932050705,
      -0.01544622890651226,
      0.0040932269766926765,
      -0.007374248001724482,
      -0.30562058091163635,
      -0.4937145709991455,
      -0.25099977850914,
      -0.36380282044410706,
      0.2734549045562744,
      -0.23319952189922333,
      -0.6212216019630432,
      0.03237977251410484,
      -0.6459574699401855,
      -0.6808252930641174,
      -0.017651725560426712,
      -0.3085049092769623,
      0.6265354156494141,
      0.5409082770347595,
      -0.7640711069107056,
      0.015473277308046818,
      -0.2789222300052643,
      -0.27157068252563477,
      -0.805061399936676,
      -1.0513956546783447,
      -0.9045683145523071,
      -1.3577585220336914,
      -0.8711268305778503,
      -0.31319311261177063,
      -0.004522486124187708,
      0.020736921578645706,
      -0.05971899628639221,
      -0.034486863762140274,
      -0.15567313134670258,
      -0.9099202156066895,
      -0.22457025945186615,
      -0.17595961689949036,
      -0.37742453813552856,
      -0.6250860691070557,
      0.5699151754379272,
      -0.6991451978683472,
      -0.19817686080932617,
      -0.7852905988693237,
      0.023644177243113518,
      0.44153016805648804,
      0.7319342494010925,
      0.3805239498615265,
      0.07111193984746933,
      -0.49909666180610657,
      -0.7466269731521606,
      -0.6940770745277405,
      -0.8201723694801331,
      -0.19189022481441498,
      -0.5643615126609802,
      -0.8966411352157593,
      -0.6310656070709229,
      -0.3356146812438965,
      0.02113278955221176,
      -0.035354115068912506,
      8.511656778864563E-4,
      -0.05081823468208313,
      -0.3235104978084564,
      -1.2779254913330078,
      -0.40186578035354614,
      -0.25759270787239075,
      -0.5532259345054626,
      -0.7018988132476807,
      -0.23423610627651215,
      -0.6854325532913208,
      -0.5089254379272461,
      -1.0968323945999146,
      -0.58750319480896,
      -0.435665488243103,
      -0.3533059358596802,
      -0.5811675190925598,
      -0.046171486377716064,
      0.4833555519580841,
      -0.2589944303035736,
      0.13872042298316956,
      0.2954139709472656,
      -0.2953229546546936,
      -0.19751328229904175,
      -0.8739531636238098,
      -0.89472496509552,
      -0.7218446731567383,
      -0.006620893720537424,
      -0.00870803277939558,
      0.002690446563065052,
      -0.07587581872940063,
      -0.3143482804298401,
      -1.2290605306625366,
      -0.4178750216960907,
      -0.30545178055763245,
      -0.1340911090373993,
      -0.04621541127562523,
      -0.5340074896812439,
      -0.18604856729507446,
      -0.4850299060344696,
      -0.4473268389701843,
      -0.7477966547012329,
      -1.388906478881836,
      -0.512583315372467,
      -0.5063627362251282,
      -1.185151219367981,
      -0.1985897570848465,
      0.0423416867852211,
      0.4460182189941406,
      -0.15855960547924042,
      -0.005238129757344723,
      -0.19846808910369873,
      -0.301753968000412,
      -0.6095575094223022,
      -0.5103511810302734,
      0.03255024179816246,
      -0.00912464875727892,
      -0.013175579719245434,
      0.026915978640317917,
      -0.1866215318441391,
      -0.647225022315979,
      -0.5534124374389648,
      -0.45722079277038574,
      0.10020428895950317,
      -0.46537497639656067,
      -1.3137158155441284,
      0.07254265248775482,
      -1.7904771566390991,
      -0.8108733296394348,
      -0.9330909848213196,
      -0.4918029010295868,
      -0.2524605393409729,
      -0.8301253318786621,
      -0.1404801607131958,
      0.09436490386724472,
      0.3013419210910797,
      -0.6369926333427429,
      0.24295079708099365,
      0.2262801229953766,
      0.9178394079208374,
      0.2814924716949463,
      -0.4563879668712616,
      -0.08175352215766907,
      -0.013845034874975681,
      -0.003548020264133811,
      -0.01220328826457262,
      6.112147821113467E-4,
      -0.07732709497213364,
      -0.513850212097168,
      -0.6686378717422485,
      -0.5077327489852905,
      -0.470554381608963,
      -0.2773299813270569,
      -0.016237735748291016,
      0.151246577501297,
      -0.422000914812088,
      -0.5053837895393372,
      -1.0017412900924683,
      -1.1056116819381714,
      0.07444282621145248,
      -0.7652335166931152,
      -1.534684181213379,
      -0.02387210540473461,
      0.056038595736026764,
      0.2277001142501831,
      0.7611635327339172,
      0.8033462762832642,
      0.6201165914535522,
      0.33072277903556824,
      0.0789778009057045,
      0.15705649554729462,
      9.470819495618343E-4,
      -0.00254646223038435,
      -0.06384681910276413,
      0.006043418776243925,
      -0.13332395255565643,
      0.0988888144493103,
      0.42449021339416504,
      0.09477578848600388,
      -0.3635868430137634,
      0.3881171941757202,
      0.4188280701637268,
      0.30908095836639404,
      -0.3134043216705322,
      -0.29151663184165955,
      -0.6629822254180908,
      -0.6922513842582703,
      -0.40675216913223267,
      0.11588988453149796,
      -0.7922815084457397,
      -0.39112725853919983,
      0.17083676159381866,
      0.21209585666656494,
      0.4280141294002533,
      -0.4943174421787262,
      0.3052460551261902,
      0.5378758907318115,
      0.2545974552631378,
      0.0925271138548851,
      0.004847952630370855,
      -0.0019833508413285017,
      -0.008663111366331577,
      0.06353644281625748,
      0.0047334772534668446,
      0.6578550338745117,
      0.76973557472229,
      0.5276679396629333,
      0.23026974499225616,
      0.30068907141685486,
      -0.304389089345932,
      -0.7129917144775391,
      0.2951989769935608,
      -1.2245663404464722,
      0.4690496325492859,
      0.17708545923233032,
      -0.43129441142082214,
      -1.5725444555282593,
      -0.4716041088104248,
      0.4412813186645508,
      0.9051212072372437,
      0.7785683870315552,
      0.6406065821647644,
      0.47911155223846436,
      0.5744346380233765,
      0.6276818513870239,
      0.643757700920105,
      0.23922592401504517,
      0.067931167781353,
      0.0287419855594635,
      -0.03801963850855827,
      0.01834656298160553,
      -0.07323562353849411,
      0.7176967859268188,
      1.0830867290496826,
      -0.006123776081949472,
      0.6060549020767212,
      0.5535150170326233,
      -0.768915593624115,
      0.3773210644721985,
      0.3449465334415436,
      -0.5811647176742554,
      -0.2722514271736145,
      -1.044969081878662,
      -0.4297470450401306,
      -0.1980266571044922,
      0.7060105204582214,
      0.3659551739692688,
      0.8509673476219177,
      0.5412589311599731,
      0.1805698722600937,
      0.7910391688346863,
      0.5730978846549988,
      0.4213467836380005,
      0.8693975806236267,
      0.030538830906152725,
      0.005071607884019613,
      -0.013433706946671009,
      -0.0365719310939312,
      -0.08171868324279785,
      -0.32108011841773987,
      0.5689420700073242,
      0.30961304903030396,
      0.15770713984966278,
      0.5035980343818665,
      0.6438307762145996,
      1.319410800933838,
      1.0461970567703247,
      -0.1926027536392212,
      0.5146819949150085,
      0.6041439771652222,
      0.16216810047626495,
      0.3085053563117981,
      0.6120184063911438,
      1.2748295068740845,
      0.9875333905220032,
      0.43053290247917175,
      -0.14590856432914734,
      0.44426533579826355,
      0.18840503692626953,
      0.5822963118553162,
      0.9270479679107666,
      0.7327687740325928,
      -0.07308121770620346,
      0.018241293728351593,
      -0.03677971288561821,
      -0.018961314111948013,
      -0.22392810881137848,
      -0.38109293580055237,
      -0.2263498455286026,
      -0.15984685719013214,
      0.6540769338607788,
      0.925334632396698,
      0.9554102420806885,
      1.210523009300232,
      1.2431080341339111,
      1.9199905395507812,
      2.149508476257324,
      1.3097221851348877,
      1.3077435493469238,
      0.2431788295507431,
      0.05046785995364189,
      -0.14736700057983398,
      0.11183404177427292,
      0.06093594431877136,
      0.2518821656703949,
      0.028040757402777672,
      0.03343408554792404,
      0.5122971534729004,
      0.82089763879776,
      0.32251763343811035,
      0.03821933642029762,
      -0.010070242919027805,
      0.013209507800638676,
      -0.01843026652932167,
      -0.08875972777605057,
      -0.07909724116325378,
      -0.07217658311128616,
      0.5106716156005859,
      1.1891262531280518,
      0.17698323726654053,
      0.4313293993473053,
      1.5284926891326904,
      0.8830767869949341,
      1.1050636768341064,
      1.3144758939743042,
      0.3228360414505005,
      0.697964072227478,
      0.3112282156944275,
      0.6317634582519531,
      -0.01268702745437622,
      0.7859892845153809,
      -0.16642257571220398,
      0.5270707607269287,
      0.09885010123252869,
      0.6704491972923279,
      1.0716066360473633,
      0.8530993461608887,
      0.15386012196540833,
      0.055602867156267166,
      -0.013239421881735325,
      -0.007866795174777508,
      0.004495072178542614,
      -0.005079162772744894,
      0.2189527302980423,
      0.06223766505718231,
      0.17354446649551392,
      0.24431437253952026,
      0.06235629692673683,
      0.5148611664772034,
      0.37188348174095154,
      1.0654296875,
      0.44889727234840393,
      0.673761248588562,
      0.8810396790504456,
      0.6193405985832214,
      0.3991926908493042,
      0.6737287044525146,
      0.1351013332605362,
      0.7847542762756348,
      0.8762691617012024,
      0.15762773156166077,
      0.04994353652000427,
      1.0112982988357544,
      1.3578583002090454,
      0.71193927526474,
      0.2730512022972107,
      0.09685741364955902,
      -0.006978821475058794,
      -0.02646753564476967,
      -0.02402954176068306,
      0.029293913394212723,
      0.15017573535442352,
      -0.018353920429944992,
      0.20148876309394836,
      -0.2732398808002472,
      0.12418809533119202,
      0.40993374586105347,
      0.8171045184135437,
      0.06335578858852386,
      -0.2515210509300232,
      0.366161048412323,
      0.47944706678390503,
      -0.09425036609172821,
      0.35561707615852356,
      0.3392921984195709,
      -0.2903733551502228,
      0.4511343240737915,
      0.4215189516544342,
      0.15870630741119385,
      0.2507994472980499,
      0.6527271270751953,
      0.7250198721885681,
      0.515953779220581,
      0.22678612172603607,
      0.007459030952304602,
      0.022874105721712112,
      0.03207813575863838,
      0.024861961603164673,
      0.04142768681049347,
      -0.09283994138240814,
      -0.23674388229846954,
      0.3513372242450714,
      0.5577355623245239,
      0.31557491421699524,
      0.7305611968040466,
      -0.243022158741951,
      0.5399118065834045,
      0.6380460858345032,
      0.547691285610199,
      0.22021692991256714,
      0.6643608212471008,
      0.6031783819198608,
      0.5318525433540344,
      0.37972548604011536,
      0.027748005464673042,
      0.35806965827941895,
      0.5757085680961609,
      0.5223469138145447,
      0.6294441223144531,
      0.23663638532161713,
      0.38247665762901306,
      0.23179785907268524,
      0.021255817264318466,
      -0.020398348569869995,
      0.024756040424108505,
      -0.023742489516735077,
      -0.003655556356534362,
      -0.12061823159456253,
      -0.2939169406890869,
      -0.36384397745132446,
      -0.440981924533844,
      -0.3203836977481842,
      -0.20240230858325958,
      -0.12257907539606094,
      -0.3765007555484772,
      -0.34453850984573364,
      -0.08567946404218674,
      0.2461099922657013,
      0.21112428605556488,
      0.5108204483985901,
      0.3947998881340027,
      0.3581642210483551,
      0.5589733719825745,
      -0.30235064029693604,
      -0.20483805239200592,
      -0.1249011904001236,
      0.44031912088394165,
      0.21109236776828766,
      0.32429489493370056,
      0.08333934098482132,
      -0.02439355105161667,
      -0.010875142179429531,
      -0.03630029037594795,
      0.030302267521619797,
      0.011253544129431248,
      -0.026317879557609558,
      -0.15132522583007812,
      -0.4038292169570923,
      -0.6801176071166992,
      -0.8211231231689453,
      -0.967717707157135,
      -1.4015024900436401,
      -1.6257822513580322,
      -1.6829345226287842,
      -1.57968008518219,
      -1.370493769645691,
      -1.6785801649093628,
      -1.5873591899871826,
      -0.9140867590904236,
      -0.7093117833137512,
      -0.4619637429714203,
      -0.42948099970817566,
      -0.38864439725875854,
      -0.5222539901733398,
      -0.20642197132110596,
      -0.05669143423438072,
      0.0025991073343902826,
      -0.00282462639734149,
      -0.02125883474946022,
      0.012959244661033154,
      0.010139689780771732,
      0.02089175209403038,
      0.023336660116910934,
      0.004106358624994755,
      0.0047724200412631035,
      -0.007427956908941269,
      -0.0523851215839386,
      -0.07707342505455017,
      -0.08864554762840271,
      -0.26195546984672546,
      -0.11221620440483093,
      -0.29878419637680054,
      -0.17112155258655548,
      -0.15552207827568054,
      -0.2357548326253891,
      -0.2653045654296875,
      -0.19908742606639862,
      -0.21483418345451355,
      -0.11886569857597351,
      -0.0741325095295906,
      -0.13801737129688263,
      -0.2575741708278656,
      -0.08391863852739334,
      0.017052922397851944,
      0.02960282564163208,
      0.025619547814130783,
      -0.03224613890051842,
      0.032021328806877136,
      -0.033066559582948685,
      -0.011964823119342327,
      -0.037709791213274,
      -0.03827199712395668,
      -0.02683565393090248,
      0.014594551175832748,
      -0.024636082351207733,
      -0.01669323816895485,
      -0.02123190648853779,
      -0.01856788620352745,
      -0.07031630724668503,
      -0.05327564850449562,
      -0.034362319856882095,
      -0.034979622811079025,
      -0.07466170191764832,
      -0.03623883053660393,
      -0.04715102165937424,
      -0.009101307950913906,
      -0.010170149616897106,
      -0.01631423458456993,
      -0.01929667964577675,
      -0.03927179053425789,
      -0.12063758820295334,
      -0.05804997310042381,
      0.026598941534757614,
      0.005634110886603594,
      0.020441293716430664,
      0.0229073204100132,
      -0.016628548502922058,
      -0.042964302003383636,
      -0.04498967528343201,
      -0.013136903755366802,
      -0.02010408788919449,
      -0.014072955586016178,
      0.01651657745242119,
      0.003567939857020974,
      -0.03821812570095062,
      0.015023614279925823,
      0.021133877336978912,
      -0.009943989105522633,
      -0.009404567070305347,
      -0.02747972309589386,
      -0.04090414196252823,
      0.02165910229086876,
      -0.024391088634729385,
      -0.042529307305812836,
      0.011258426122367382,
      0.02278951182961464,
      -0.018040377646684647,
      -0.04563511908054352,
      0.0028788333293050528,
      0.01755985990166664,
      -0.008535773493349552,
      0.021317459642887115,
      -0.018368389457464218,
      -0.03727617859840393,
      0.003361764131113887,
      -0.03297700732946396,
      -0.009456860832870007,
      -0.013719643466174603,
      0.013733497820794582,
      0.006802375428378582,
      0.01929837465286255,
      -8.487242739647627E-4,
      -0.02986370399594307,
      -0.03079148195683956,
      -0.04773077368736267,
      -0.04117611423134804,
      -0.039370276033878326,
      -0.05307386815547943,
      -0.023418717086315155,
      -0.07301458716392517,
      0.04224440082907677,
      -0.00393283274024725,
      -0.05599747970700264,
      -0.02581164613366127,
      0.0065424940548837185,
      -0.04460759088397026,
      0.007825159467756748,
      -0.029315009713172913,
      -0.026976056396961212,
      0.017772875726222992,
      -5.379420326789841E-5,
      -0.010043847374618053,
      -0.03918186575174332,
      0.004025334492325783,
      0.019984669983386993,
      -0.024128645658493042,
      -0.026327695697546005,
      -0.016329683363437653,
      0.005987818818539381,
      0.007153783459216356,
      -0.017010336741805077,
      0.12492888420820236,
      0.030785366892814636,
      -0.007304983213543892,
      -0.12821494042873383,
      -0.2401859611272812,
      -0.33414286375045776,
      -0.15612690150737762,
      -0.14880439639091492,
      -0.0581529326736927,
      -0.08095352351665497,
      -0.1430010199546814,
      -0.15847378969192505,
      -0.1417185664176941,
      -0.18239176273345947,
      -0.019211236387491226,
      -0.014069727621972561,
      -0.03086726740002632,
      0.01704639568924904,
      0.008126157335937023,
      -0.008173789829015732,
      -0.018778324127197266,
      -0.003964873496443033,
      -0.04616419970989227,
      0.027995998039841652,
      -0.15345461666584015,
      -0.15625615417957306,
      -0.07895003259181976,
      -0.0832543820142746,
      -0.037045519798994064,
      0.10865475237369537,
      0.013124306686222553,
      -0.14707113802433014,
      -0.3380526602268219,
      -0.3277135193347931,
      -0.3535560369491577,
      -0.3317944407463074,
      -0.2843036949634552,
      -0.1269669532775879,
      -0.14346393942832947,
      -0.2946489751338959,
      -0.08803858608007431,
      0.21689623594284058,
      0.06251057237386703,
      -0.007720065303146839,
      -0.030932052060961723,
      0.011646070517599583,
      -0.03345055878162384,
      -0.01020080503076315,
      -0.03331674635410309,
      -0.03723176196217537,
      -0.023798644542694092,
      -0.09861355274915695,
      -0.34892502427101135,
      -0.17763707041740417,
      -0.031314436346292496,
      0.08603480458259583,
      0.38250136375427246,
      0.4210163652896881,
      0.41622206568717957,
      0.318344384431839,
      0.00912767555564642,
      -0.32532453536987305,
      -0.21111291646957397,
      0.014882086776196957,
      0.02179786190390587,
      0.0766342356801033,
      -0.2946384847164154,
      -0.006658378057181835,
      0.038448117673397064,
      -0.13163037598133087,
      0.22489753365516663,
      -0.13808166980743408,
      -0.2636381685733795,
      -0.16365642845630646,
      -0.02967037260532379,
      -0.021412264555692673,
      -0.008563010953366756,
      0.016063818708062172,
      -0.006514954846352339,
      -0.05243726819753647,
      -0.17868095636367798,
      -0.044241223484277725,
      0.010404045693576336,
      0.5032555460929871,
      0.7609086632728577,
      0.9044890403747559,
      1.050073266029358,
      0.49494555592536926,
      0.039015501737594604,
      0.31939443945884705,
      0.012251179665327072,
      0.31797999143600464,
      0.48712775111198425,
      0.2527802884578705,
      -0.7982377409934998,
      -0.33874550461769104,
      0.11029773205518723,
      -0.37496286630630493,
      -0.3449065685272217,
      -0.41469240188598633,
      -0.4545058608055115,
      -0.17438039183616638,
      -0.07737363874912262,
      -0.0034406178165227175,
      0.016787823289632797,
      -0.09001396596431732,
      -0.04663848876953125,
      -0.06969623267650604,
      -0.03205880895256996,
      0.4392566382884979,
      0.46111252903938293,
      0.8178316950798035,
      0.16443420946598053,
      -0.061885636299848557,
      0.03653333708643913,
      0.13268162310123444,
      -0.24042849242687225,
      0.45899805426597595,
      -0.24017006158828735,
      -0.26527518033981323,
      0.34955987334251404,
      0.23878733813762665,
      0.30537742376327515,
      -0.7912474274635315,
      -0.5861397981643677,
      -0.7698606252670288,
      -0.6668563485145569,
      -0.2834576368331909,
      -0.2343369424343109,
      -0.027651846408843994,
      0.008502901531755924,
      0.011790732853114605,
      -0.023367751389741898,
      -0.09011863172054291,
      -0.10432769358158112,
      -0.3637576997280121,
      -0.4017247259616852,
      -0.08043515682220459,
      0.2944869101047516,
      0.4235840439796448,
      -0.33663156628608704,
      -0.23234660923480988,
      0.18506783246994019,
      0.38268083333969116,
      -0.06821530312299728,
      0.4186634123325348,
      -0.5904107093811035,
      0.3931720554828644,
      -0.19781149923801422,
      -0.10952286422252655,
      0.0676109567284584,
      -0.0020558256655931473,
      0.561913251876831,
      0.6372638940811157,
      -0.07495991140604019,
      -0.3998218774795532,
      0.05198610946536064,
      0.21068553626537323,
      0.021290574222803116,
      3.5545341233955696E-5,
      0.0362631119787693,
      -0.04515683278441429,
      -0.39349809288978577,
      -0.10054056346416473,
      0.03317471966147423,
      -0.2903009355068207,
      0.1731690764427185,
      0.5823085904121399,
      -0.2277054339647293,
      -0.06849344074726105,
      0.8254611492156982,
      -0.3445950150489807,
      -0.725201427936554,
      0.1917858123779297,
      -0.006762628443539143,
      -0.02760954760015011,
      -0.29426848888397217,
      -0.2757926881313324,
      0.537480354309082,
      0.40339455008506775,
      0.7165469527244568,
      0.45066869258880615,
      0.5084559917449951,
      -0.08167298138141632,
      0.305403470993042,
      0.07386554032564163,
      -0.08546355366706848,
      0.014395087026059628,
      0.007891259156167507,
      -0.1211080402135849,
      -0.2532620429992676,
      0.22914330661296844,
      0.3279503881931305,
      -0.2019246220588684,
      -0.17153829336166382,
      -0.14315183460712433,
      0.2817343473434448,
      -0.4739590287208557,
      0.5474181175231934,
      0.5625056624412537,
      -0.35663288831710815,
      0.14505735039710999,
      0.6286418437957764,
      0.29946619272232056,
      -0.171736940741539,
      0.8667234182357788,
      0.339690238237381,
      0.12742222845554352,
      -0.22751189768314362,
      0.22943426668643951,
      0.07071328908205032,
      0.5975645184516907,
      0.4279242157936096,
      0.021685775369405746,
      -0.016362551599740982,
      -0.02739560604095459,
      -0.008649014867842197,
      -0.048821281641721725,
      -0.17061781883239746,
      0.026061641052365303,
      -0.0953550711274147,
      0.08735312521457672,
      -0.13212065398693085,
      -0.17456208169460297,
      -0.31234365701675415,
      -0.6709020137786865,
      -0.37378430366516113,
      -0.2815677225589752,
      0.271007776260376,
      -0.24956011772155762,
      1.05385160446167,
      0.6934604048728943,
      1.0400553941726685,
      1.2541142702102661,
      1.0583940744400024,
      0.7649926543235779,
      0.8821622133255005,
      0.310964435338974,
      0.21472875773906708,
      1.1461131572723389,
      0.6851726174354553,
      0.2415657788515091,
      0.04078153148293495,
      -0.010715191252529621,
      -0.034396324306726456,
      0.0293810423463583,
      -0.13511735200881958,
      -0.06812725961208344,
      0.00926605612039566,
      0.15375514328479767,
      0.1188291609287262,
      0.29711100459098816,
      0.44484975934028625,
      -0.11819720268249512,
      0.008522477932274342,
      -0.03208370506763458,
      -0.751479983329773,
      -1.9153850078582764,
      -0.5594398379325867,
      0.22480586171150208,
      0.36036086082458496,
      -0.2862818241119385,
      -0.9245131611824036,
      -0.11090913414955139,
      0.214302197098732,
      -0.033268336206674576,
      -0.2327437698841095,
      -0.08430811017751694,
      0.2772117257118225,
      0.29044756293296814,
      -0.014099006541073322,
      -1.0428538371343166E-4,
      0.011450551450252533,
      0.06227482482790947,
      -0.15467548370361328,
      -0.14718163013458252,
      -0.143496572971344,
      -0.09820649027824402,
      0.28723084926605225,
      0.7257091403007507,
      -0.012506231665611267,
      -0.23195786774158478,
      -1.0378683805465698,
      -0.9291841983795166,
      -2.114753007888794,
      -2.597867488861084,
      -1.5365056991577148,
      -1.2084996700286865,
      -0.9712172150611877,
      -0.8559467196464539,
      -2.0023040771484375,
      -1.4744395017623901,
      -1.3804664611816406,
      -1.6038001775741577,
      -1.784379005432129,
      -1.245349645614624,
      -0.22416867315769196,
      0.08018455654382706,
      -0.021673843264579773,
      -0.008332131430506706,
      -0.01719089224934578,
      0.07455434650182724,
      -0.32748714089393616,
      -0.6200472116470337,
      -0.546410083770752,
      -0.7683959007263184,
      -1.3307498693466187,
      -1.112756609916687,
      -1.3754359483718872,
      -1.5568890571594238,
      -2.013568639755249,
      -1.5546859502792358,
      -1.0340036153793335,
      -1.2771927118301392,
      -1.740195393562317,
      -1.4290165901184082,
      -0.2141178846359253,
      -0.5474270582199097,
      -1.2876652479171753,
      -1.1267492771148682,
      -1.466415286064148,
      -1.4949511289596558,
      -1.8676406145095825,
      -1.1430416107177734,
      -0.2656923830509186,
      0.007754443679004908,
      0.012220052070915699,
      -0.03007412701845169,
      -0.015519867651164532,
      0.023374419659376144,
      -0.3161689043045044,
      -0.7647240161895752,
      -1.093752145767212,
      -1.1622998714447021,
      -1.5432473421096802,
      -2.204310417175293,
      -2.0237135887145996,
      -1.2490023374557495,
      -1.3918503522872925,
      -0.9754718542098999,
      -1.2950695753097534,
      -0.9984056353569031,
      -0.8148975968360901,
      -0.5572986602783203,
      -0.6470544934272766,
      -0.293149471282959,
      0.2545712888240814,
      -0.2604909837245941,
      -0.7284365892410278,
      -0.9536707401275635,
      -1.4863495826721191,
      -1.0980944633483887,
      -0.33652475476264954,
      0.028849583119153976,
      -0.0018678015330806375,
      0.016013789921998978,
      -0.04111017286777496,
      -0.07042089849710464,
      -0.2868046462535858,
      -0.7343334555625916,
      -1.104468822479248,
      -1.0326719284057617,
      -1.4304170608520508,
      -1.0883052349090576,
      -0.5629080533981323,
      -0.6382033824920654,
      0.22232598066329956,
      -0.07299869507551193,
      -0.15563170611858368,
      0.35444507002830505,
      -0.033200230449438095,
      0.21758416295051575,
      -0.4809987246990204,
      -0.15214233100414276,
      -0.15694107115268707,
      0.014168196357786655,
      -0.14535313844680786,
      -0.7872129678726196,
      -1.176392674446106,
      -0.9721102118492126,
      -0.06212371587753296,
      0.05183444544672966,
      0.009738371707499027,
      0.019190441817045212,
      -0.03284264728426933,
      -0.10737406462430954,
      -0.4692744016647339,
      -0.921637773513794,
      -1.1249312162399292,
      0.12028707563877106,
      0.07399914413690567,
      0.15674802660942078,
      0.8307163715362549,
      0.4742516577243805,
      -0.3048991858959198,
      0.20406398177146912,
      0.4445885717868805,
      0.12725679576396942,
      0.12851844727993011,
      0.2494688630104065,
      -0.6432387232780457,
      -0.8363302946090698,
      -0.6936013102531433,
      -0.390544593334198,
      0.055786341428756714,
      -0.4767451584339142,
      -0.5393391847610474,
      -0.7297976613044739,
      0.08277083188295364,
      0.04022642970085144,
      0.002360251033678651,
      0.013489608652889729,
      -0.009213353507220745,
      -0.09653644263744354,
      -0.6588016748428345,
      -0.685994565486908,
      -0.2812515199184418,
      0.37500447034835815,
      0.4524344801902771,
      -0.3526221215724945,
      0.3627880811691284,
      0.8451307415962219,
      0.34922146797180176,
      0.6769833564758301,
      0.06888961791992188,
      -0.3368489742279053,
      -0.006806261837482452,
      -0.5256813168525696,
      -0.7392908334732056,
      0.11099681258201599,
      -0.6596473455429077,
      -1.0122795104980469,
      -0.3533117175102234,
      -0.8470374345779419,
      -1.0821596384048462,
      -0.9104619026184082,
      0.11652112752199173,
      0.010340547189116478,
      -0.03909653425216675,
      -0.041453588753938675,
      -0.0028982162475585938,
      -0.12068413943052292,
      -0.6659700274467468,
      -0.08523096144199371,
      0.08287402242422104,
      0.1295614242553711,
      0.4638735055923462,
      0.4635523557662964,
      0.22431448101997375,
      0.5310930013656616,
      0.4756820499897003,
      0.6099315285682678,
      -0.05129912123084068,
      0.10181143879890442,
      -0.13768501579761505,
      -0.11722525209188461,
      -0.09935832023620605,
      0.3600592017173767,
      -0.3244713544845581,
      -0.7288011312484741,
      0.03537224978208542,
      -0.21582065522670746,
      -0.37781083583831787,
      -0.3959108889102936,
      0.09046033769845963,
      -0.04711376875638962,
      -0.006848138757050037,
      -0.034285034984350204,
      -0.005560504272580147,
      0.2580965757369995,
      -0.13351863622665405,
      -0.13687105476856232,
      -0.508599579334259,
      0.1570807844400406,
      0.65035480260849,
      -0.0016226675361394882,
      0.2284676730632782,
      0.20670869946479797,
      0.7293164134025574,
      0.09175308048725128,
      0.9630563855171204,
      0.6115128993988037,
      0.6138681173324585,
      0.4119034707546234,
      0.17950944602489471,
      0.3442442715167999,
      -0.04074438288807869,
      0.09015371650457382,
      0.6652601361274719,
      -0.12860040366649628,
      0.3850851356983185,
      0.28717878460884094,
      0.2677544355392456,
      0.11061868816614151,
      0.009755733422935009,
      -0.011294332332909107,
      -0.04344108700752258,
      0.31845545768737793,
      0.30121910572052,
      0.62410569190979,
      0.40014272928237915,
      0.712226927280426,
      0.2372080534696579,
      0.348516583442688,
      0.9955998063087463,
      0.027297085151076317,
      0.7109564542770386,
      0.4667535424232483,
      0.6004709005355835,
      -0.029169287532567978,
      -0.16435745358467102,
      0.030984127894043922,
      -0.11322548985481262,
      0.1903289407491684,
      0.6904473304748535,
      0.19429729878902435,
      0.6162274479866028,
      0.42163705825805664,
      0.8762856125831604,
      0.7541837096214294,
      0.17280469834804535,
      0.02197125181555748,
      -0.04161775857210159,
      -0.0130733298137784,
      -0.0013945663813501596,
      0.024595260620117188,
      0.008954338729381561,
      0.5816234946250916,
      0.45588621497154236,
      0.24810776114463806,
      0.02913654036819935,
      0.32308316230773926,
      0.8829008936882019,
      0.2984454929828644,
      0.6887215971946716,
      0.3150588870048523,
      -0.11678609251976013,
      -0.2936166822910309,
      0.4093407988548279,
      0.10875336080789566,
      0.4372227191925049,
      0.19895333051681519,
      0.22909796237945557,
      0.14314225316047668,
      0.7683690786361694,
      0.7760989665985107,
      0.8811635971069336,
      0.6661887168884277,
      0.2359916716814041,
      0.020177612081170082,
      -0.04016480594873428,
      -0.038126468658447266,
      0.0038133475463837385,
      0.03324208781123161,
      -0.052680496126413345,
      0.18830503523349762,
      0.6332410573959351,
      0.03502143546938896,
      0.24610380828380585,
      0.052767474204301834,
      0.5640813112258911,
      0.07687292993068695,
      -0.20067156851291656,
      0.22785300016403198,
      0.24106957018375397,
      -0.11258986592292786,
      -0.1846267431974411,
      -0.7494015693664551,
      -0.35806789994239807,
      0.17182564735412598,
      0.20357175171375275,
      0.36146965622901917,
      0.6837282776832581,
      0.6215603947639465,
      0.3720695972442627,
      0.3559548258781433,
      0.23840057849884033,
      -0.011137852445244789,
      0.010617035441100597,
      0.013487891294062138,
      0.008645347319543362,
      -0.059069231152534485,
      -0.20987793803215027,
      0.3491886556148529,
      0.39613211154937744,
      0.4986167550086975,
      -0.2056056410074234,
      -0.5601904988288879,
      0.20602647960186005,
      -0.33380088210105896,
      -0.15575681626796722,
      0.15934404730796814,
      -0.3774222731590271,
      0.00781718734651804,
      -0.1461721658706665,
      0.006936562713235617,
      -0.40533480048179626,
      0.4808320701122284,
      0.5462119579315186,
      -0.0727287158370018,
      0.18873636424541473,
      0.2958158254623413,
      0.19207656383514404,
      0.18244223296642303,
      0.14582356810569763,
      0.009980794973671436,
      -0.024363521486520767,
      -0.002230239100754261,
      0.005173432640731335,
      -0.07179754227399826,
      -0.36357933282852173,
      -0.1444246768951416,
      -0.10684272646903992,
      -0.3653319478034973,
      -0.2911897897720337,
      -0.10634849965572357,
      0.021973559632897377,
      0.1640893965959549,
      -0.2201499342918396,
      -0.3087172210216522,
      -0.6165546178817749,
      0.08371240645647049,
      -0.5041148066520691,
      -0.2087523341178894,
      0.22904476523399353,
      0.3505936861038208,
      -0.19739264249801636,
      -0.10775444656610489,
      0.2186356633901596,
      0.10503256320953369,
      -0.07528899610042572,
      0.18227791786193848,
      0.038628045469522476,
      0.007195979822427034,
      0.014334089122712612,
      0.0017538220854476094,
      -0.03982570767402649,
      0.008731815032660961,
      -0.018148299306631088,
      0.1197764128446579,
      -0.045991960912942886,
      -0.33022117614746094,
      -0.27723798155784607,
      0.031641777604818344,
      0.38249996304512024,
      -0.4650246500968933,
      -0.025354811921715736,
      -0.00844385102391243,
      0.3038305342197418,
      0.055376287549734116,
      0.3746395409107208,
      0.2474929392337799,
      -0.17713870108127594,
      -0.17969408631324768,
      -0.6396331787109375,
      -0.586172878742218,
      -0.2948663830757141,
      -0.07054722309112549,
      -0.07336221635341644,
      0.012187468819320202,
      0.012700018472969532,
      0.011846995912492275,
      -0.031401000916957855,
      0.007170244585722685,
      0.016566704958677292,
      -0.04429274797439575,
      -0.028001215308904648,
      -0.04843004047870636,
      -0.131675586104393,
      -0.1818639636039734,
      -0.16070573031902313,
      -0.08845324069261551,
      0.0731196254491806,
      -0.030053384602069855,
      0.29752233624458313,
      0.12630948424339294,
      0.1638801544904709,
      0.3627413213253021,
      0.4225921332836151,
      0.10646110773086548,
      0.02509509213268757,
      -0.00516434945166111,
      0.048095621168613434,
      -0.13932403922080994,
      -0.09684395045042038,
      0.005862673744559288,
      -0.03901180252432823,
      -0.008576207794249058,
      0.011352102272212505,
      -0.022699985653162003,
      -0.04171261191368103,
      0.013304055668413639,
      0.020057152956724167,
      -0.043306946754455566,
      0.017501063644886017,
      -0.01764995977282524,
      0.02032073587179184,
      -0.03503662720322609,
      -0.03903310000896454,
      -0.03251027688384056,
      -0.022778399288654327,
      -0.0028009277302771807,
      -0.05080674588680267,
      -0.09823482483625412,
      -0.05777069553732872,
      -0.12703236937522888,
      -0.10583868622779846,
      -0.0035302722826600075,
      -0.03576797619462013,
      -0.012607975862920284,
      -0.04472145438194275,
      -0.049493998289108276,
      -0.0453544557094574,
      -0.004948466084897518,
      -8.49225907586515E-4,
      0.0044722650200128555,
      0.010175489820539951,
      -0.013813036493957043,
      -0.042801544070243835,
      -0.008717653341591358,
      0.006159681361168623,
      0.024343132972717285,
      -0.027235452085733414,
      0.022262316197156906,
      0.010499403811991215,
      -0.032434407621622086,
      0.015521705150604248,
      0.017818793654441833,
      0.025308135896921158,
      0.00809177104383707,
      -0.02472453936934471,
      0.017093488946557045,
      -0.001424305490218103,
      0.010459288023412228,
      0.013873589225113392,
      -0.0038791894912719727,
      0.004107099492102861,
      -0.011306888423860073,
      0.026285376399755478,
      -0.0031694627832621336,
      0.025813713669776917,
      -0.04182083532214165,
      -0.019644588232040405,
      -0.029760941863059998,
      -0.003384507494047284,
      -0.04157271608710289,
      -0.016985373571515083,
      0.026563268154859543,
      -0.001862228731624782,
      -0.02753596007823944,
      -0.02033529058098793,
      0.011840523220598698,
      -0.03484925255179405,
      0.022827288135886192,
      -0.007714869920164347,
      -0.038263507187366486,
      -0.0010589828016236424,
      -0.03817948326468468,
      -0.0417354479432106,
      4.196718509774655E-4,
      -0.0011148330522701144,
      -0.028998825699090958,
      -0.0013374550035223365,
      -0.005833751056343317,
      -0.03185705095529556,
      -0.021184811368584633,
      0.008251061663031578,
      -0.0071908882819116116,
      -0.005930980201810598,
      0.027982527390122414,
      0.009214075282216072,
      -0.030577830970287323,
      0.02289624884724617,
      -0.006003855261951685,
      0.023560304194688797,
      0.018359292298555374,
      -0.0015245884424075484,
      -0.024714160710573196,
      0.021330710500478745,
      -0.023119833320379257,
      0.005664029624313116,
      0.025563044473528862,
      0.006317604798823595,
      -0.0019130025757476687,
      0.016279248520731926,
      0.019669095054268837,
      0.016310367733240128,
      -0.04097050800919533,
      -0.019569532945752144,
      -0.037678174674510956,
      -0.033282604068517685,
      -0.0036254958249628544,
      -0.02086932584643364,
      -0.0159443486481905,
      0.02023436687886715,
      0.009212515316903591,
      -0.01768006756901741,
      -0.036834221333265305,
      -0.0158229973167181,
      0.010265047661960125,
      -0.030899733304977417,
      -0.039627980440855026,
      -0.019343748688697815,
      0.013877094723284245,
      -0.03388948366045952,
      -0.00816581305116415,
      -0.005805796477943659,
      0.010330083779990673,
      -0.04163779318332672,
      -0.0016610432649031281,
      0.014963306486606598,
      -0.03722376003861427,
      0.016193078830838203,
      0.004270006436854601,
      0.023360000923275948,
      0.0012512868270277977,
      -0.029670393094420433,
      -0.039329301565885544,
      -0.030177440494298935,
      -0.024980859830975533,
      0.016573207452893257,
      -0.1077854260802269,
      -0.057024095207452774,
      -0.04006794095039368,
      -0.05128173530101776,
      -0.030426975339651108,
      -0.008809412829577923,
      -0.009658723138272762,
      -0.008194226771593094,
      2.568668278399855E-4,
      0.02151714265346527,
      -0.022600576281547546,
      -0.0020759310573339462,
      0.018831482157111168,
      -0.030626628547906876,
      -0.025085503235459328,
      0.0048064920119941235,
      -0.03463860601186752,
      -0.0269622839987278,
      -0.011542154476046562,
      -0.05252600833773613,
      0.011164811439812183,
      -0.08679534494876862,
      -0.09039878100156784,
      -0.09936457127332687,
      -0.13012228906154633,
      0.08593887835741043,
      0.09438470005989075,
      0.15683263540267944,
      0.08628788590431213,
      0.12309223413467407,
      0.10139843821525574,
      -0.06820707023143768,
      -0.08658938109874725,
      -0.13586361706256866,
      -0.07430264353752136,
      -0.07084955275058746,
      -0.014306638389825821,
      -0.006354550365358591,
      -0.014424503780901432,
      0.017320536077022552,
      0.02166478894650936,
      -0.0024483269080519676,
      0.0233771875500679,
      -0.037150707095861435,
      -0.007501338608562946,
      -0.050125446170568466,
      -0.06082110106945038,
      -0.06129032000899315,
      0.01845218986272812,
      -0.00793660432100296,
      0.09227287024259567,
      -0.019762106239795685,
      -0.021748248487710953,
      0.020519204437732697,
      -0.016952255740761757,
      -0.13047587871551514,
      -0.06020918861031532,
      0.02999923937022686,
      -0.0524800680577755,
      0.03282388672232628,
      -0.03822071850299835,
      -0.05458677560091019,
      -0.03869408369064331,
      -0.044807858765125275,
      0.03288042172789574,
      -0.03546523675322533,
      -0.0049590314738452435,
      -0.016591744497418404,
      0.014843941666185856,
      -0.001205356209538877,
      -1.390846591675654E-4,
      0.004906334448605776,
      -0.005115613806992769,
      -0.12853623926639557,
      -0.09320854395627975,
      -0.0022248190362006426,
      0.13093313574790955,
      0.10689406096935272,
      0.05081288516521454,
      -0.013275879435241222,
      0.014360698871314526,
      -0.14747731387615204,
      -0.18157799541950226,
      -0.09445738047361374,
      -0.012959823943674564,
      0.09229301661252975,
      0.0592651329934597,
      -0.03406288102269173,
      0.02320825681090355,
      0.0910349041223526,
      0.024921346455812454,
      0.034750308841466904,
      0.033704619854688644,
      0.04750782623887062,
      -0.030258532613515854,
      -0.02333960123360157,
      -0.03602395951747894,
      -0.012937107123434544,
      -0.03505687788128853,
      -0.07718730717897415,
      -0.10903029888868332,
      -0.12281095236539841,
      -0.12444639950990677,
      -0.06876622885465622,
      -0.11523834615945816,
      -0.18300877511501312,
      -0.14809374511241913,
      -0.14149008691310883,
      -0.033481743186712265,
      -0.21312850713729858,
      0.0881086140871048,
      0.035458121448755264,
      0.05166809633374214,
      0.13651739060878754,
      0.2159712165594101,
      0.0451679602265358,
      0.053601816296577454,
      0.1296500414609909,
      -0.008108317852020264,
      0.00305046490393579,
      0.07293536514043808,
      0.041747141629457474,
      0.011216545477509499,
      -0.016292698681354523,
      -0.016568254679441452,
      -0.013821324333548546,
      -0.048043228685855865,
      -0.05377984791994095,
      -0.12241535633802414,
      -0.17526909708976746,
      -0.17829455435276031,
      -0.13321895897388458,
      -0.268981009721756,
      -0.31544268131256104,
      -0.44302377104759216,
      -0.4338340759277344,
      -0.49721089005470276,
      -0.35313987731933594,
      -0.24288193881511688,
      0.0296005941927433,
      0.10507449507713318,
      0.21222858130931854,
      0.010301075875759125,
      -0.061870425939559937,
      -0.03326854854822159,
      -0.00778973987326026,
      -0.07905850559473038,
      -0.09286250174045563,
      0.02070792019367218,
      -0.0017995488597080112,
      -0.04229113832116127,
      -0.024113036692142487,
      -0.0012969360686838627,
      0.003075028769671917,
      -0.06318783015012741,
      -0.07448362559080124,
      -0.09520412981510162,
      -0.12240318953990936,
      -0.15778926014900208,
      -0.26799634099006653,
      -0.30726319551467896,
      -0.38083064556121826,
      -0.4835920035839081,
      -0.5600679516792297,
      -0.6306707859039307,
      -0.30668315291404724,
      -0.017834436148405075,
      0.09229666739702225,
      0.24401506781578064,
      0.10772450268268585,
      -0.239769846200943,
      -0.18160107731819153,
      -0.1403021216392517,
      -0.11359936743974686,
      -0.01697993464767933,
      0.037092629820108414,
      0.050765398889780045,
      -0.028045253828167915,
      -0.016971733421087265,
      -0.019968466833233833,
      -0.04177378863096237,
      -0.0317024327814579,
      -0.04053788632154465,
      -0.061373282223939896,
      -0.14791901409626007,
      -0.13224320113658905,
      -0.18393366038799286,
      -0.22637200355529785,
      -0.2752301096916199,
      -0.34211593866348267,
      -0.5020449161529541,
      -0.44439128041267395,
      -0.325305700302124,
      0.014194727875292301,
      0.22725093364715576,
      0.1710963249206543,
      0.2561914324760437,
      0.10364706069231033,
      -0.02098833955824375,
      0.0036118566058576107,
      -0.0728723481297493,
      -0.102403923869133,
      0.061806634068489075,
      0.09714193642139435,
      0.041818540543317795,
      0.025969384238123894,
      0.01390144880861044,
      -0.03592529520392418,
      -0.023344887420535088,
      -0.026312924921512604,
      -0.022519396618008614,
      -0.09962897002696991,
      -0.09498730301856995,
      -0.11536093056201935,
      -0.15173497796058655,
      -0.20364946126937866,
      -0.29732590913772583,
      -0.2686190903186798,
      -0.27370715141296387,
      -0.13633012771606445,
      -0.08840486407279968,
      0.2872030735015869,
      0.23320764303207397,
      0.2598695456981659,
      0.12457672506570816,
      -0.024313660338521004,
      0.03361877426505089,
      0.09158224612474442,
      -0.08746485412120819,
      -0.061496805399656296,
      -0.043152086436748505,
      0.01585330255329609,
      0.0183397363871336,
      0.019200004637241364,
      -0.012560159899294376,
      -0.026122331619262695,
      -0.021908828988671303,
      -0.022156421095132828,
      0.0091549102216959,
      -0.039826229214668274,
      -0.03748808056116104,
      -0.05059249699115753,
      -0.07285060733556747,
      -0.1305997222661972,
      -0.18908385932445526,
      -0.2017206996679306,
      -0.08450643718242645,
      0.006407394073903561,
      -0.06681595742702484,
      0.058684639632701874,
      -0.0711786076426506,
      -0.04024297744035721,
      -0.08502697199583054,
      0.00360901840031147,
      0.12514862418174744,
      0.043245572596788406,
      -0.012958330102264881,
      -0.021848512813448906,
      -0.08336848020553589,
      0.012093992903828621,
      -0.01051066443324089,
      -0.001650158897973597,
      0.013898001052439213,
      -0.010697077959775925,
      0.029183469712734222,
      -0.036210570484399796,
      -0.033703647553920746,
      -0.05546993762254715,
      0.033577319234609604,
      -0.021358732134103775,
      -0.07925550639629364,
      -0.12131523340940475,
      -0.1620957851409912,
      -0.12600360810756683,
      0.09942176938056946,
      0.07080970704555511,
      -0.12567514181137085,
      -0.3877876400947571,
      -0.13009220361709595,
      -0.03532363846898079,
      -0.16333787143230438,
      0.023379851132631302,
      0.012740650214254856,
      -0.03091716393828392,
      -0.058992594480514526,
      -0.04880990833044052,
      -0.019025783985853195,
      -5.345501704141498E-4,
      -0.022906091064214706,
      0.0067441933788359165,
      -0.014991608448326588,
      -0.009753351099789143,
      0.013769339770078659,
      0.0038239890709519386,
      0.01863291673362255,
      -0.008729707449674606,
      -0.005734638310968876,
      -0.02566632814705372,
      -0.0543915294110775,
      -0.07814610004425049,
      -0.016323965042829514,
      0.2275121510028839,
      0.2941288948059082,
      -0.18679700791835785,
      -0.2560521960258484,
      -0.29644539952278137,
      -0.08687037229537964,
      -0.16515792906284332,
      -0.31200501322746277,
      -0.32796770334243774,
      -0.15233300626277924,
      -0.03210312873125076,
      0.009938300587236881,
      0.035667724907398224,
      -0.011177984066307545,
      0.017252137884497643,
      -0.02899329923093319,
      -0.008490961976349354,
      -0.004459682386368513,
      -0.006747118663042784,
      -0.033377569168806076,
      0.010143344290554523,
      0.027230365201830864,
      -0.02281102165579796,
      -0.05686301738023758,
      -0.046054527163505554,
      -0.07051955163478851,
      -0.03385698050260544,
      0.11962240189313889,
      0.3666917085647583,
      0.355739563703537,
      -0.11241689324378967,
      -0.35945743322372437,
      -0.12130815535783768,
      -0.03741743415594101,
      -0.3304540812969208,
      -0.41228851675987244,
      -0.3992508053779602,
      -0.3243675231933594,
      -0.10182996839284897,
      -0.08124589920043945,
      -0.02869771048426628,
      0.024281034246087074,
      -0.03223174065351486,
      -0.0014953482896089554,
      -0.00439069140702486,
      0.02509133145213127,
      6.883821915835142E-4,
      0.009853500872850418,
      -0.015823783352971077,
      -0.005677670706063509,
      -0.07870446890592575,
      -0.10357463359832764,
      -0.15858425199985504,
      -0.14175604283809662,
      -0.0459701269865036,
      0.1399979591369629,
      0.5731053352355957,
      0.35597336292266846,
      0.017625717446208,
      -0.3153494596481323,
      0.025429951027035713,
      -0.23275944590568542,
      -0.3998287618160248,
      -0.23655526340007782,
      -0.25564292073249817,
      -0.2605592608451843,
      -0.150143563747406,
      -0.07315309345722198,
      -0.047804709523916245,
      -0.027473488822579384,
      -0.044316742569208145,
      0.014544046483933926,
      -0.018426725640892982,
      -0.030726321041584015,
      -7.436431042151526E-5,
      -0.02129475213587284,
      0.011162057518959045,
      -0.03984420746564865,
      -0.09673845767974854,
      -0.23853397369384766,
      -0.29211220145225525,
      -0.36644789576530457,
      -0.1673056185245514,
      0.31335169076919556,
      0.6722346544265747,
      0.3940676152706146,
      -0.1827666014432907,
      -0.3543468713760376,
      -0.28308430314064026,
      -0.36452716588974,
      -0.37388986349105835,
      -0.25492995977401733,
      -0.2593657076358795,
      -0.31671884655952454,
      -0.17878243327140808,
      -0.06792967021465302,
      -0.04888654500246048,
      -0.0833364948630333,
      -0.01702803559601307,
      0.012660046108067036,
      -0.015061634592711926,
      0.0031837825663387775,
      0.019201001152396202,
      -9.845327585935593E-4,
      -0.014436259865760803,
      -0.05507921800017357,
      -0.1989859938621521,
