{
  "InputNodes": 2,
  "OutputNodes": 1,
  "HiddenWeights-1": {
    "data": [
      -3.161824941635132,
      -5.7350873947143555,
      1.1612558364868164,
      -3.60561203956604,
      -1.396472454071045,
      -1.845873236656189,
      0.5479711294174194,
      -1.1762256622314453,
      3.1676247119903564,
      6.356290340423584,
      -1.5638407468795776,
      4.371931076049805,
      -3.0046169757843018,
      -6.181938171386719,
      1.4275107383728027,
      -4.244490146636963
    ],
    "rows": 4,
    "cols": 4
  },
  "OutputBias": {
    "data": [0.9086057543754578],
    "rows": 1,
    "cols": 1
  },
  "HiddenWeights-0": {
    "data": [
      -9.286876678466797,
      8.983607292175293,
      10.954607009887695,
      -11.403639793395996,
      -4.530395984649658,
      4.755873203277588,
      -10.094625473022461,
      9.78551197052002
    ],
    "rows": 4,
    "cols": 2
  },
  "OutputWeights": {
    "data": [
      -2.472944974899292,
      -0.44270870089530945,
      3.409264326095581,
      -2.8869619369506836
    ],
    "rows": 1,
    "cols": 4
  },
  "HiddenNodes": [
    4,
    4
  ],
  "HiddenBias-0": {
    "data": [
      -4.713243007659912,
      -5.775794982910156,
      2.9590718746185303,
      -5.095249176025391
    ],
    "rows": 4,
    "cols": 1
  },
  "HiddenLayers": 2,
  "HiddenBias-1": {
    "data": [
      2.4214680194854736,
      0.8417088389396667,
      -2.4459445476531982,
      2.432474136352539
    ],
    "rows": 4,
    "cols": 1
  }
}