{
  "InputNodes": 784,
  "OutputNodes": 10,
  "HiddenWeights-1": {
    "data": [
      0.7329452037811279,
      -0.44868916273117065,
      1.7734074592590332,
      -1.7837793827056885,
      1.9723005294799805,
      -1.1504467725753784,
      2.4913394451141357,
      -4.021589756011963,
      -0.9279865026473999,
      -0.5835657715797424,
      -2.8425850868225098,
      -6.030008316040039,
      1.9880925416946411,
      0.3698825538158417,
      -0.7313580513000488,
      1.7334957122802734,
      0.4765014946460724,
      0.8863280415534973,
      -1.0190014839172363,
      -1.8292304277420044,
      1.8327431678771973,
      -0.48066264390945435,
      1.6863799095153809,
      -0.4070883095264435,
      2.3843603134155273,
      2.6119513511657715,
      -5.533512115478516,
      -0.8412038087844849,
      1.5570307970046997,
      -2.6669082641601562,
      1.5643326044082642,
      1.6811963319778442,
      -0.9938793778419495,
      -1.0607346296310425,
      -0.44771623611450195,
      0.20522764325141907,
      -0.5798653364181519,
      -0.330369770526886,
      -0.2927089035511017,
      -0.4907795786857605,
      -0.48019540309906006,
      -0.3063473701477051,
      0.04345327243208885,
      -0.12127646803855896,
      -0.6769737005233765,
      -0.8023980855941772,
      0.20455549657344818,
      -0.3285084664821625,
      -0.5148476362228394,
      0.1585259586572647,
      -0.5670116543769836,
      -0.16996170580387115,
      -0.24930763244628906,
      -0.20759464800357819,
      -0.5116118788719177,
      -0.11009737104177475,
      -0.407023161649704,
      -0.3754980266094208,
      -0.17785929143428802,
      -0.44327452778816223,
      -0.8884569406509399,
      -0.9326804876327515,
      -0.2633812129497528,
      -0.4252127707004547,
      4.254148960113525,
      1.5597989559173584,
      0.8026038408279419,
      -0.9136678576469421,
      -3.1700704097747803,
      2.857863187789917,
      -1.2620254755020142,
      -1.8176809549331665,
      -0.8267243504524231,
      1.6533418893814087,
      -0.6581062078475952,
      -2.9043421745300293,
      -1.5491197109222412,
      0.9628170132637024,
      1.7182914018630981,
      0.7225415706634521,
      -0.6995494961738586,
      -5.849609375,
      -0.35362857580184937,
      0.47365802526474,
      0.7548144459724426,
      -1.1267250776290894,
      0.9956352114677429,
      1.1326513290405273,
      2.0991530418395996,
      1.7959942817687988,
      -5.262999534606934,
      1.7691038846969604,
      0.448513925075531,
      0.2456602156162262,
      0.8924670815467834,
      0.9205039143562317,
      -2.4215941429138184,
      2.6216681003570557,
      -0.6790218353271484,
      -4.3858256340026855,
      -0.36643630266189575,
      0.6378350257873535,
      -0.6989932060241699,
      1.4618873596191406,
      -0.4113702178001404,
      -0.23728761076927185,
      -1.295289158821106,
      2.121633291244507,
      -2.291116952896118,
      1.582779884338379,
      -0.6641110777854919,
      -0.7733054161071777,
      1.2415858507156372,
      -0.19704456627368927,
      -1.2794853448867798,
      0.8618125319480896,
      -0.7937160730361938,
      2.0052595138549805,
      -0.9124773144721985,
      2.339676856994629,
      -2.585280656814575,
      -0.5154417753219604,
      0.7171728610992432,
      1.0914636850357056,
      1.2271286249160767,
      1.5938786268234253,
      1.0772159099578857,
      -0.8003985285758972,
      1.6386076211929321,
      1.8026750087738037,
      -1.107424259185791,
      -0.7945481538772583,
      2.025606155395508,
      -0.1348470002412796,
      1.923606038093567,
      1.2611626386642456,
      2.8652126789093018,
      2.294511318206787,
      0.4081515371799469,
      -0.3441050350666046,
      -5.993997097015381,
      1.5633705854415894,
      -0.9170773029327393,
      -1.162157654762268,
      1.2148709297180176,
      -1.2394579648971558,
      -0.08465278148651123,
      -1.4222811460494995,
      -1.108048439025879,
      1.829233169555664,
      -1.306125521659851,
      -1.3888167142868042,
      -3.9108424186706543,
      1.5124014616012573,
      -0.8112916350364685,
      3.7407500743865967,
      1.9284313917160034,
      1.1554279327392578,
      0.49289005994796753,
      -1.0301040410995483,
      -4.029078006744385,
      0.6025137305259705,
      1.9338417053222656,
      4.039523124694824,
      -3.412214517593384,
      1.8734261989593506,
      1.7364215850830078,
      -0.03854072093963623,
      1.474305272102356,
      3.246791362762451,
      -1.5814197063446045,
      0.6718252301216125,
      -3.82807993888855,
      -3.244385242462158,
      4.34566068649292,
      2.019190788269043,
      -1.8945239782333374,
      -2.937056064605713,
      -0.23794323205947876,
      1.8387221097946167,
      1.733843445777893,
      -4.771688938140869,
      1.8938661813735962,
      -1.7696501016616821,
      -2.309370279312134,
      1.0486739873886108,
      -0.06488997489213943,
      -0.8234677314758301,
      1.8439215421676636,
      4.396472454071045,
      0.60545814037323,
      1.8646671772003174,
      -4.747629165649414,
      -3.1911325454711914,
      -0.5223833918571472,
      2.7582075595855713,
      -0.3811447024345398,
      -0.778508186340332,
      -0.3335753083229065,
      2.409165859222412,
      -0.23276256024837494,
      1.442656397819519,
      0.46062198281288147,
      0.7783743143081665,
      -1.4411559104919434,
      -1.7209446430206299,
      -0.751976490020752,
      -0.49980273842811584,
      -1.725563645362854,
      0.11726075410842896,
      3.4852304458618164,
      1.003269910812378,
      -0.6065155267715454,
      4.297249794006348,
      -0.4735066294670105,
      0.11995349079370499,
      -0.44879257678985596,
      -1.0216233730316162,
      2.4273319244384766,
      0.18041661381721497,
      -0.4567696452140808,
      -3.5000040531158447,
      0.13214735686779022,
      -0.4814479351043701,
      -0.6038957238197327,
      -0.5673598647117615,
      -0.32301270961761475,
      0.32861313223838806,
      -0.5931006073951721,
      -0.3684644103050232,
      -0.22818432748317719,
      -0.5868099331855774,
      0.13092590868473053,
      -0.69376540184021,
      -0.16130240261554718,
      -0.0285256989300251,
      -0.9036193490028381,
      -0.7679355144500732,
      0.27801451086997986,
      -0.25754010677337646,
      -0.3254437744617462,
      0.2920476198196411,
      -0.7039861679077148,
      -0.5934564471244812,
      -0.45364317297935486,
      -0.584305465221405,
      -0.5786856412887573,
      0.012837872840464115,
      -0.9919888377189636,
      -0.29177215695381165,
      -0.2919047474861145,
      -0.1508483737707138,
      -0.43962612748146057,
      -0.39477285742759705,
      -0.19982090592384338,
      -0.34623289108276367,
      -3.74135422706604,
      -2.170437812805176,
      0.7063109278678894,
      0.10683591663837433,
      2.787428855895996,
      0.13079750537872314,
      2.2167861461639404,
      0.6521317362785339,
      2.2518563270568848,
      -0.5891833901405334,
      5.373201370239258,
      -3.363415241241455,
      3.52801513671875,
      2.255744457244873,
      -1.757683515548706,
      0.4784015119075775,
      -1.8862406015396118,
      0.35045284032821655,
      1.442151427268982,
      0.2766357362270355,
      0.7112969160079956,
      0.9779862761497498,
      0.5729011297225952,
      1.4329205751419067,
      -0.20547322928905487,
      0.21385864913463593,
      -4.717430114746094,
      -1.3525341749191284,
      -2.020498037338257,
      3.2567789554595947,
      1.5310379266738892,
      0.47099727392196655,
      -0.0030326282139867544,
      1.684815764427185,
      0.29750993847846985,
      1.5511387586593628,
      -0.7467469573020935,
      1.083795189857483,
      0.8974190354347229,
      1.3260834217071533,
      -2.269106864929199,
      -3.4718847274780273,
      0.9067121744155884,
      -1.3284728527069092,
      -1.3089165687561035,
      3.157633066177368,
      2.5146429538726807,
      0.17945139110088348,
      -2.326206684112549,
      0.4756583571434021,
      -0.7759931087493896,
      2.4838616847991943,
      0.3607620298862457,
      0.049799758940935135,
      0.39312759041786194,
      1.1943540573120117,
      -6.012047290802002,
      0.16153936088085175,
      -1.648653268814087,
      -3.2270007133483887,
      -1.5093106031417847,
      1.0355671644210815,
      1.831722378730774,
      0.13758035004138947,
      -0.763740599155426,
      -0.53556227684021,
      -0.5008001923561096,
      -0.41248875856399536,
      -0.7264775037765503,
      -0.4136858582496643,
      -0.39256271719932556,
      -0.03607495129108429,
      -0.7574011087417603,
      -0.785054087638855,
      -0.4967818558216095,
      -0.545150101184845,
      -0.18628603219985962,
      -0.2925489544868469,
      0.03601463511586189,
      -0.527783215045929,
      0.1317310780286789,
      -0.11526631563901901,
      -0.45533692836761475,
      -0.1579335778951645,
      -0.49867069721221924,
      -0.24395152926445007,
      -0.39199942350387573,
      0.2729657292366028,
      -0.013607054948806763,
      -0.22245123982429504,
      -0.36517342925071716,
      -0.4559987783432007,
      -0.4143238067626953,
      -0.37895047664642334,
      -0.4898088872432709,
      -0.24342718720436096,
      3.6404032707214355,
      1.2746506929397583,
      1.1752153635025024,
      0.5953764915466309,
      -1.3227448463439941,
      -0.16017229855060577,
      -1.302958607673645,
      2.7582106590270996,
      -1.7068513631820679,
      -0.827642023563385,
      -1.677614688873291,
      -3.3026785850524902,
      -1.2859457731246948,
      1.072313666343689,
      -0.4667520523071289,
      1.1853920221328735,
      -1.8253679275512695,
      0.3906993567943573,
      1.4432929754257202,
      0.9223957061767578,
      1.2668733596801758,
      2.104243040084839,
      1.1518805027008057,
      -1.0229521989822388,
      -2.6351425647735596,
      2.2236363887786865,
      -0.8691854476928711,
      -0.7635402083396912,
      -2.15401029586792,
      0.05317297205328941,
      -2.0939502716064453,
      1.5117326974868774,
      -2.982034921646118,
      4.142025470733643,
      -2.0499513149261475,
      -1.0002199411392212,
      3.913954257965088,
      -0.11180131882429123,
      -0.2943089008331299,
      2.090498447418213,
      1.8818846940994263,
      0.6960995197296143,
      0.12889911234378815,
      -0.5523383617401123,
      -0.1514306217432022,
      0.9932746291160583,
      -5.669952392578125,
      -2.1029212474823,
      -0.49328747391700745,
      -0.8391742706298828,
      4.06852388381958,
      2.193767547607422,
      -2.2388346195220947,
      -2.5770976543426514,
      -2.096672296524048,
      -0.8579297661781311,
      1.937207818031311,
      0.28108537197113037,
      -0.6054602265357971,
      -0.5580772757530212,
      -1.8303420543670654,
      4.820310115814209,
      -3.0432136058807373,
      -2.1105337142944336,
      -0.17060813307762146,
      -0.8751776814460754,
      -0.2666386365890503,
      0.7199717164039612,
      -0.9136648178100586,
      -0.34148234128952026,
      -0.28994205594062805,
      0.3377200663089752,
      -0.8659940361976624,
      -0.6429435014724731,
      0.16568417847156525,
      -0.5145626068115234,
      -0.670494019985199,
      -0.2080482542514801,
      0.7198917269706726,
      -0.19971634447574615,
      -0.5608461499214172,
      0.12144192308187485,
      0.09621288627386093,
      0.07009655982255936,
      -0.29767289757728577,
      0.1999005675315857,
      -0.1950676292181015,
      -0.26999691128730774,
      -1.0913753509521484,
      -0.018817337229847908,
      -0.1255795657634735,
      -0.7157495021820068,
      -1.2477006912231445,
      -1.132315993309021,
      -0.36290091276168823,
      -0.37131473422050476,
      -0.07623238861560822,
      -0.5253170728683472,
      -1.6591688394546509,
      -0.6307775974273682,
      0.6969481706619263,
      -0.15324251353740692,
      -0.6723218560218811,
      -1.3278539180755615,
      0.6688392162322998,
      -0.4911785423755646,
      1.067279577255249,
      3.3202099800109863,
      1.17038094997406,
      -0.24779948592185974,
      -1.3226597309112549,
      -1.5528379678726196,
      2.161956548690796,
      0.1944243162870407,
      -1.2319796085357666,
      -0.9462640285491943,
      -1.675506591796875,
      -1.3860288858413696,
      -1.564541220664978,
      0.36814436316490173,
      3.040339946746826,
      -1.1720006465911865,
      2.6174678802490234,
      0.015682760626077652,
      -0.11389017850160599,
      0.46995559334754944,
      -0.40033891797065735,
      -1.297742247581482,
      -2.149040699005127,
      0.7227418422698975,
      -0.39983537793159485,
      1.8670176267623901,
      -0.7502342462539673,
      -0.29759231209754944,
      0.25117939710617065,
      -2.9442288875579834,
      -0.04936577007174492,
      1.3570715188980103,
      0.9529980421066284,
      0.2570470869541168,
      -0.030068013817071915,
      -1.6838611364364624,
      2.738433599472046,
      -0.30547574162483215,
      0.047294650226831436,
      -0.16716651618480682,
      0.9602750539779663,
      0.6147734522819519,
      -0.4651276171207428,
      -2.2824201583862305,
      -0.31190040707588196,
      0.03944150730967522,
      -0.52687668800354,
      -0.12092091143131256,
      -0.12674960494041443,
      0.46377265453338623,
      0.013565818779170513,
      0.37620019912719727,
      0.7466822862625122,
      -0.5963236689567566
    ],
    "rows": 16,
    "cols": 32
  },
  "OutputBias": {
    "data": [
      -3.8616106510162354,
      -3.045626401901245,
      -2.400117874145508,
      -5.963895320892334,
      -1.2155542373657227,
      -3.5846354961395264,
      -0.5642126798629761,
      -1.08440363407135,
      -3.041306257247925,
      -3.3793389797210693
    ],
    "rows": 10,
    "cols": 1
  },
  "HiddenWeights-0": {
    "data": [
      0.17506951093673706,
      0.22480064630508423,
      0.18084853887557983,
      0.17262834310531616,
      0.17266833782196045,
      0.232931986451149,
      0.1907287836074829,
      0.22184023261070251,
      0.187605619430542,
      0.20024460554122925,
      0.19148829579353333,
      0.17233827710151672,
      0.20132771134376526,
      0.20533281564712524,
      0.17048120498657227,
      0.2332691103219986,
      0.21074360609054565,
      0.19416052103042603,
      0.20046451687812805,
      0.20122376084327698,
      0.23512974381446838,
      0.20151391625404358,
      0.18501779437065125,
      0.21759766340255737,
      0.19453951716423035,
      0.23345516622066498,
      0.186101496219635,
      0.1912221610546112,
      0.233927920460701,
      0.20225182175636292,
      0.17783290147781372,
      0.22484251856803894,
      0.2170533835887909,
      0.22000426054000854,
      0.20497959852218628,
      0.2046750783920288,
      0.18312332034111023,
      0.23474609851837158,
      0.19337643682956696,
      0.22534111142158508,
      0.16679014265537262,
      0.17799881100654602,
      0.18044820427894592,
      0.22089126706123352,
      0.24748492240905762,
      0.20246252417564392,
      0.22330531477928162,
      0.2405804544687271,
      0.21313855051994324,
      0.18057599663734436,
      0.1965506672859192,
      0.2389458417892456,
      0.2293781042098999,
      0.21031150221824646,
      0.1689203679561615,
      0.19163170456886292,
      0.17558497190475464,
      0.1754511594772339,
      0.1757877767086029,
      0.1907835304737091,
      0.19773364067077637,
      0.2405298501253128,
      0.3183499574661255,
      0.374001145362854,
      0.500170111656189,
      0.5802150368690491,
      0.5277702808380127,
      1.2546405792236328,
      1.8476659059524536,
      1.6289923191070557,
      1.6823463439941406,
      1.8441991806030273,
      2.400716543197632,
      1.8258033990859985,
      2.042179584503174,
      2.4545228481292725,
      2.0955402851104736,
      0.9094440937042236,
      0.39637672901153564,
      0.1894564926624298,
      0.20879164338111877,
      0.20066988468170166,
      0.23680084943771362,
      0.21647793054580688,
      0.16931313276290894,
      0.18222233653068542,
      0.23524203896522522,
      0.23930390179157257,
      0.40707600116729736,
      0.31600120663642883,
      0.4928572177886963,
      0.7336031198501587,
      0.8025063872337341,
      2.1210384368896484,
      3.020805597305298,
      3.004110813140869,
      3.2860467433929443,
      4.895601749420166,
      4.847576141357422,
      4.0897955894470215,
      2.7492172718048096,
      2.748044013977051,
      4.074039459228516,
      4.181140899658203,
      3.845845937728882,
      1.7804484367370605,
      1.5904839038848877,
      0.9705196022987366,
      0.35987362265586853,
      0.20889917016029358,
      0.186091810464859,
      0.18303927779197693,
      0.21151837706565857,
      0.19856330752372742,
      0.17889410257339478,
      0.18217065930366516,
      0.18636192381381989,
      0.4421422481536865,
      0.7563967108726501,
      1.199864149093628,
      0.9312965273857117,
      1.0523122549057007,
      2.015551805496216,
      0.8778893351554871,
      2.8861591815948486,
      3.560359001159668,
      2.857800245285034,
      -1.302142858505249,
      0.9294297695159912,
      0.38430705666542053,
      -0.37918931245803833,
      1.4387485980987549,
      3.5630991458892822,
      1.669110655784607,
      -0.17851629853248596,
      0.3975435793399811,
      1.3792920112609863,
      1.013128638267517,
      0.4172804057598114,
      0.177109032869339,
      0.20779603719711304,
      0.20998844504356384,
      0.1774144470691681,
      0.2791431248188019,
      0.6432939767837524,
      1.1638725996017456,
      2.1274020671844482,
      3.0252225399017334,
      1.385643720626831,
      1.3575489521026611,
      1.8247967958450317,
      2.982314109802246,
      1.85283625125885,
      1.0422437191009521,
      -1.6760129928588867,
      -3.6632633209228516,
      -0.7979122996330261,
      -0.28870654106140137,
      -1.2065471410751343,
      -3.0028493404388428,
      0.7519757151603699,
      0.4085674285888672,
      -2.0486292839050293,
      0.8248577117919922,
      2.4148812294006348,
      1.8288942575454712,
      0.5857546925544739,
      0.16903471946716309,
      0.17309516668319702,
      0.21263059973716736,
      0.23468446731567383,
      0.3369971513748169,
      0.6975229382514954,
      1.0310614109039307,
      2.459115743637085,
      2.137486696243286,
      1.8219963312149048,
      2.309739589691162,
      3.9615001678466797,
      2.3834028244018555,
      0.7633998394012451,
      -0.5200552344322205,
      0.17700156569480896,
      1.678702712059021,
      -0.4341143071651459,
      -1.1981180906295776,
      -2.421957492828369,
      -2.8970587253570557,
      -0.4162995219230652,
      -1.680086374282837,
      -2.736426830291748,
      1.397991418838501,
      3.6138155460357666,
      2.292745590209961,
      1.1015664339065552,
      0.2813118100166321,
      0.2386639416217804,
      0.21842235326766968,
      0.7326945066452026,
      0.952239453792572,
      1.1053608655929565,
      0.7283539175987244,
      1.0925008058547974,
      2.5387213230133057,
      4.196447849273682,
      4.120157718658447,
      3.630490303039551,
      0.6598691344261169,
      2.8746376037597656,
      -2.227588653564453,
      -0.035217009484767914,
      1.755563497543335,
      -0.690301775932312,
      -2.613224506378174,
      -5.961767196655273,
      -7.148609638214111,
      -3.26857328414917,
      -1.741371989250183,
      -2.5240955352783203,
      -0.9023409485816956,
      3.7447750568389893,
      2.222778081893921,
      1.0104374885559082,
      0.33972108364105225,
      0.14610430598258972,
      0.22879764437675476,
      0.4489351809024811,
      0.9383493065834045,
      1.4598095417022705,
      0.6071957349777222,
      -0.740807056427002,
      3.1533052921295166,
      2.8590927124023438,
      0.46780771017074585,
      1.248535394668579,
      2.702110767364502,
      0.10244321078062057,
      1.4853755235671997,
      0.8215504288673401,
      -1.311725378036499,
      -6.380887031555176,
      -5.415556907653809,
      -4.834900379180908,
      -2.658032178878784,
      -1.5771435499191284,
      -0.007170818746089935,
      -1.1421940326690674,
      -1.6910603046417236,
      5.432987213134766,
      3.319650650024414,
      1.3114774227142334,
      0.38102686405181885,
      0.23818671703338623,
      0.23662641644477844,
      0.2480630874633789,
      0.3870653808116913,
      0.5802076458930969,
      0.6655197143554688,
      1.1137187480926514,
      3.0114057064056396,
      0.3653928339481354,
      -1.6596660614013672,
      0.7395318150520325,
      2.4792392253875732,
      -0.33644556999206543,
      2.069164276123047,
      0.5426588654518127,
      -0.8982215523719788,
      -6.987985610961914,
      -6.073420524597168,
      -8.65328311920166,
      -5.842338562011719,
      -1.0138150453567505,
      0.8947588801383972,
      -1.3510024547576904,
      -2.3390378952026367,
      2.5635392665863037,
      3.125352144241333,
      1.3626786470413208,
      0.2326899766921997,
      0.20401984453201294,
      0.19757428765296936,
      0.24527932703495026,
      0.532640814781189,
      0.48387664556503296,
      0.4147798418998718,
      2.5540378093719482,
      1.2968459129333496,
      2.167023181915283,
      -0.7540562748908997,
      3.0202884674072266,
      -1.5494250059127808,
      -1.8603272438049316,
      0.4241117238998413,
      -1.391951322555542,
      -1.19040048122406,
      -2.642460823059082,
      -7.287145614624023,
      -10.824702262878418,
      -6.672281265258789,
      -5.069330215454102,
      -4.085100173950195,
      -4.423238754272461,
      -3.898937225341797,
      1.8449593782424927,
      3.1555843353271484,
      1.0953401327133179,
      0.23557910323143005,
      0.2128414809703827,
      0.20472583174705505,
      0.39333784580230713,
      0.9881721138954163,
      1.0846446752548218,
      -0.4245019853115082,
      -0.29489341378211975,
      -1.4658303260803223,
      2.3564023971557617,
      -0.36891910433769226,
      0.0063857161439955235,
      -2.8269295692443848,
      0.20101822912693024,
      0.5578729510307312,
      4.009576320648193,
      5.81477165222168,
      7.3451409339904785,
      2.086672067642212,
      -2.2112176418304443,
      -3.163405418395996,
      -6.283761501312256,
      -8.29537296295166,
      -5.447598934173584,
      -3.380603551864624,
      -2.77055287361145,
      1.305573582649231,
      0.5540560483932495,
      0.17495086789131165,
      0.21094286441802979,
      0.15054573118686676,
      0.21567635238170624,
      1.2171415090560913,
      0.08688801527023315,
      -3.14862322807312,
      -3.2176737785339355,
      0.05900668352842331,
      0.002137986244633794,
      -0.7307505011558533,
      -1.7333455085754395,
      -1.640946865081787,
      -3.0784976482391357,
      0.1416035145521164,
      7.534379959106445,
      10.724142074584961,
      13.634407997131348,
      4.92623233795166,
      1.379644751548767,
      -1.0835784673690796,
      -1.2917057275772095,
      -2.466172933578491,
      -5.639965057373047,
      -3.981271266937256,
      -4.417953968048096,
      0.2182980179786682,
      0.572324275970459,
      0.19075226783752441,
      0.2324405014514923,
      0.22936893999576569,
      0.3077058792114258,
      1.5109851360321045,
      0.4861607849597931,
      -4.406346321105957,
      -4.4659318923950195,
      -1.6241815090179443,
      -2.58284330368042,
      -1.441730260848999,
      -1.9048492908477783,
      -1.537963628768921,
      1.1989656686782837,
      4.511185169219971,
      7.516236305236816,
      14.062481880187988,
      12.0686674118042,
      5.411428928375244,
      5.983161390759051E-4,
      -2.2082650661468506,
      -2.671827793121338,
      -1.678238034248352,
      -6.674810886383057,
      -4.895599842071533,
      -2.497779130935669,
      0.1593596190214157,
      0.35188713669776917,
      0.2070109248161316,
      0.22146737575531006,
      0.20529675483703613,
      0.37757712602615356,
      1.861379861831665,
      0.1385912150144577,
      -6.9878973960876465,
      -4.006482124328613,
      -4.1123270988464355,
      -3.7999589443206787,
      -2.0073390007019043,
      -0.4434114098548889,
      0.012783629819750786,
      0.397092342376709,
      6.063582897186279,
      12.657217025756836,
      15.34781551361084,
      12.740026473999023,
      4.389966011047363,
      1.4187242984771729,
      -0.5639933943748474,
      -2.9862558841705322,
      -1.1256195306777954,
      -3.969897985458374,
      -3.5334653854370117,
      -1.4822847843170166,
      0.08177325129508972,
      0.31620141863822937,
      0.2054494023323059,
      0.17575588822364807,
      0.18850919604301453,
      0.25982892513275146,
      1.8792506456375122,
      -0.3188270330429077,
      -5.688153266906738,
      -2.3623077869415283,
      -2.1846837997436523,
      -2.7574262619018555,
      -3.52408766746521,
      -3.819809675216675,
      -1.461100459098816,
      4.45412540435791,
      12.977882385253906,
      16.301849365234375,
      14.081231117248535,
      6.9612908363342285,
      2.6755011081695557,
      0.3542713522911072,
      2.2391324043273926,
      -2.443121910095215,
      -0.4902378022670746,
      -4.382533073425293,
      -4.443858623504639,
      -0.08209216594696045,
      1.021836519241333,
      0.4202328324317932,
      0.34958723187446594,
      0.2136107087135315,
      0.18526354432106018,
      0.2505195736885071,
      1.605006456375122,
      -0.5122498869895935,
      -5.557734966278076,
      -2.208216905593872,
      -3.079664707183838,
      -5.219986438751221,
      -3.6332788467407227,
      -6.201903820037842,
      -0.0823415070772171,
      11.063485145568848,
      15.75350570678711,
      15.239540100097656,
      9.096414566040039,
      2.9271328449249268,
      -0.2894105613231659,
      -0.7746933102607727,
      1.6721673011779785,
      0.08338655531406403,
      0.41317278146743774,
      -3.2667551040649414,
      -2.1988255977630615,
      2.0446889400482178,
      2.2843551635742188,
      1.1022179126739502,
      0.495725154876709,
      0.21470189094543457,
      0.23394514620304108,
      0.35762766003608704,
      1.694305419921875,
      -1.6431370973587036,
      -3.971759796142578,
      -1.970050573348999,
      1.720221757888794,
      -0.29787424206733704,
      -6.328328609466553,
      -10.504408836364746,
      -1.3771905899047852,
      12.091259002685547,
      13.457518577575684,
      8.433873176574707,
      3.7362935543060303,
      2.0718705654144287,
      1.7137055397033691,
      1.579532265663147,
      0.010916494764387608,
      0.04413721337914467,
      2.659331798553467,
      -2.0636234283447266,
      -0.0478685200214386,
      2.792546510696411,
      2.510195016860962,
      1.084654688835144,
      0.1846027374267578,
      0.22680814564228058,
      0.1919616460800171,
      0.35078299045562744,
      2.0257246494293213,
      0.6481096744537354,
      -1.9088276624679565,
      -1.6659495830535889,
      1.0252673625946045,
      -0.9173550009727478,
      -6.612149715423584,
      -9.272936820983887,
      -1.4752178192138672,
      9.926136016845703,
      12.457791328430176,
      7.6627912521362305,
      1.5217829942703247,
      2.0965397357940674,
      3.5087311267852783,
      2.597625732421875,
      -1.4373581409454346,
      -1.1648410558700562,
      -1.4191315174102783,
      -1.454058289527893,
      1.1086102724075317,
      2.7280824184417725,
      1.521335482597351,
      0.44053012132644653,
      0.31565412878990173,
      0.2098005712032318,
      0.23754960298538208,
      0.2730174958705902,
      1.6960787773132324,
      1.0236245393753052,
      -1.8065950870513916,
      0.24334895610809326,
      -0.5676558017730713,
      -1.3763043880462646,
      -4.305835723876953,
      -4.879591464996338,
      -4.834878444671631,
      0.5801829695701599,
      6.227068901062012,
      6.326985836029053,
      5.320883274078369,
      4.206696033477783,
      4.059956073760986,
      -0.0646657720208168,
      -1.3669272661209106,
      -0.6424098014831543,
      0.8414002060890198,
      -0.1646278202533722,
      1.15705406665802,
      1.8837779760360718,
      1.2935354709625244,
      0.371265172958374,
      0.2764757573604584,
      0.17630517482757568,
      0.20476388931274414,
      0.2983824908733368,
      1.8873395919799805,
      0.4837716519832611,
      -1.238682508468628,
      1.4933241605758667,
      -0.24726925790309906,
      -2.289260149002075,
      -4.550722599029541,
      -7.888131141662598,
      -6.849956035614014,
      -2.649892568588257,
      1.9772883653640747,
      5.26935338973999,
      5.383676528930664,
      6.9515557289123535,
      2.713012218475342,
      4.742641925811768,
      3.7228615283966064,
      2.634066104888916,
      1.0546064376831055,
      0.6678515672683716,
      2.8539016246795654,
      2.4240520000457764,
      0.7279079556465149,
      0.19158674776554108,
      0.19131028652191162,
      0.18056756258010864,
      0.23400355875492096,
      0.21498702466487885,
      1.3412318229675293,
      0.5543728470802307,
      0.816201388835907,
      1.5963008403778076,
      1.612718105316162,
      0.04819755256175995,
      -3.080819606781006,
      -5.089524745941162,
      -7.067065715789795,
      -3.1247615814208984,
      -1.0670316219329834,
      0.33180782198905945,
      1.0792518854141235,
      2.2046401500701904,
      3.1847386360168457,
      5.316775798797607,
      4.813385486602783,
      1.0615335702896118,
      -0.633158266544342,
      1.677735447883606,
      2.5209639072418213,
      2.072192907333374,
      0.6066413521766663,
      0.21604424715042114,
      0.19529154896736145,
      0.19184207916259766,
      0.21501705050468445,
      0.22376683354377747,
      0.6861696839332581,
      1.8738831281661987,
      1.40084707736969,
      -0.051129136234521866,
      0.5714893937110901,
      1.8603265285491943,
      -0.5234482884407043,
      -4.580418586730957,
      -6.470193862915039,
      -2.7253918647766113,
      -1.975171446800232,
      -1.7286256551742554,
      -0.996623694896698,
      -0.22605185210704803,
      -0.4842314124107361,
      3.7813949584960938,
      1.88267183303833,
      0.86236572265625,
      1.8712040185928345,
      1.2145020961761475,
      1.6541168689727783,
      1.5396332740783691,
      0.5681315660476685,
      0.1809788942337036,
      0.17142459750175476,
      0.2280142903327942,
      0.22606098651885986,
      0.18233102560043335,
      0.4188648760318756,
      1.616274118423462,
      2.6398799419403076,
      1.9926197528839111,
      0.4691062569618225,
      -0.7958825826644897,
      -2.7533040046691895,
      -3.155787229537964,
      -3.539869546890259,
      -4.51918888092041,
      -4.279350280761719,
      -5.548608303070068,
      -1.6392964124679565,
      -0.5480660200119019,
      1.0306212902069092,
      2.1502022743225098,
      3.202357530593872,
      4.301255226135254,
      3.094322443008423,
      1.9137734174728394,
      1.6370187997817993,
      1.379371166229248,
      0.5632894039154053,
      0.20001530647277832,
      0.23292656242847443,
      0.18330532312393188,
      0.2091882824897766,
      0.18769505620002747,
      0.16005849838256836,
      0.23911286890506744,
      0.08985552191734314,
      1.567284107208252,
      2.6945879459381104,
      1.3687413930892944,
      -0.5564845204353333,
      -0.3745643198490143,
      0.8969650864601135,
      0.11641977727413177,
      -0.7235987782478333,
      -1.0261691808700562,
      1.2229217290878296,
      1.0966110229492188,
      1.5299158096313477,
      2.550246477127075,
      2.860966682434082,
      2.895190954208374,
      2.072237730026245,
      0.7218178510665894,
      0.3886704742908478,
      0.2797713875770569,
      0.2344209998846054,
      0.1760134994983673,
      0.22157639265060425,
      0.16824468970298767,
      0.20791703462600708,
      0.2251569628715515,
      0.19306540489196777,
      0.13506010174751282,
      0.14541907608509064,
      0.41635528206825256,
      1.127323031425476,
      1.7798233032226562,
      3.3817694187164307,
      5.343075752258301,
      5.849793434143066,
      5.972779273986816,
      3.7412853240966797,
      3.485391139984131,
      4.372631549835205,
      3.62548565864563,
      2.8303327560424805,
      2.7145297527313232,
      2.3997204303741455,
      1.9485968351364136,
      1.1584779024124146,
      0.5261651277542114,
      0.2026204764842987,
      0.2349945306777954,
      0.17517989873886108,
      0.16837957501411438,
      0.20082920789718628,
      0.211581289768219,
      0.21021202206611633,
      0.23738160729408264,
      0.17210763692855835,
      0.2304699867963791,
      0.20830367505550385,
      0.306537926197052,
      0.4190164804458618,
      0.6766519546508789,
      1.4793416261672974,
      2.0201032161712646,
      1.9361971616744995,
      1.4189239740371704,
      1.6298421621322632,
      1.824728012084961,
      1.56531822681427,
      1.3067808151245117,
      1.1568925380706787,
      1.0583345890045166,
      0.662869930267334,
      0.5336875915527344,
      0.6014708280563354,
      0.343055784702301,
      0.19164185225963593,
      0.17586776614189148,
      0.20266681909561157,
      0.20310065150260925,
      0.21896913647651672,
      0.20810562372207642,
      0.20536500215530396,
      0.21622538566589355,
      0.19611558318138123,
      0.18517008423805237,
      0.20427197217941284,
      0.211972177028656,
      0.19280579686164856,
      0.23570109903812408,
      0.2051657885313034,
      0.27939310669898987,
      0.38020792603492737,
      0.41564247012138367,
      0.44678449630737305,
      0.646061360836029,
      0.599269449710846,
      0.3434406816959381,
      0.4308196008205414,
      0.47140413522720337,
      0.3673053979873657,
      0.22965550422668457,
      0.2827051877975464,
      0.28741100430488586,
      0.22498807311058044,
      0.206946462392807,
      0.21409371495246887,
      0.23424850404262543,
      0.19383925199508667,
      -0.04170792177319527,
      -0.0027455883100628853,
      0.008444677107036114,
      0.024196188896894455,
      -7.73922773078084E-4,
      0.02268841862678528,
      0.010058172978460789,
      -0.030260931700468063,
      -0.019162435084581375,
      -0.021431654691696167,
      -0.01000306662172079,
      -2.603032044135034E-4,
      -0.04133588448166847,
      -0.07383955270051956,
      0.018985800445079803,
      -0.033028241246938705,
      0.005574390292167664,
      -0.019942112267017365,
      -0.037499140948057175,
      -0.007028326392173767,
      0.01703140139579773,
      -0.002244331408292055,
      0.008726307190954685,
      0.007865387946367264,
      -0.022240400314331055,
      0.01298761460930109,
      -0.041745055466890335,
      0.018189864233136177,
      -0.03476688638329506,
      0.0010947778355330229,
      0.017968427389860153,
      -0.03328080102801323,
      0.024473100900650024,
      0.010173480026423931,
      0.10514355450868607,
      0.13652266561985016,
      0.11487565189599991,
      0.07852975279092789,
      0.26992321014404297,
      0.44711360335350037,
      0.6634218692779541,
      0.33190423250198364,
      0.22622792422771454,
      0.377720445394516,
      0.49042680859565735,
      0.11998161673545837,
      0.08620075136423111,
      0.025144245475530624,
      0.06458748131990433,
      -0.028169184923171997,
      0.11402922123670578,
      0.13726483285427094,
      0.006018146872520447,
      0.020341791212558746,
      -0.015530451200902462,
      -0.018724992871284485,
      -0.034608107060194016,
      -0.03941979631781578,
      -0.042675625532865524,
      0.05538314953446388,
      0.021012790501117706,
      0.003665404161438346,
      0.11439775675535202,
      0.3816032111644745,
      0.37449923157691956,
      0.6345301270484924,
      1.2289642095565796,
      1.8590680360794067,
      2.401785135269165,
      2.0829648971557617,
      1.7417166233062744,
      1.434660792350769,
      1.33260977268219,
      0.966854989528656,
      0.6228541731834412,
      0.08170857280492783,
      -0.022880099713802338,
      -0.06679760664701462,
      0.004430793225765228,
      0.0639776885509491,
      -0.046306509524583817,
      -0.04469281807541847,
      -0.016875680536031723,
      0.014355900697410107,
      3.5835697781294584E-4,
      0.019472070038318634,
      0.020844679325819016,
      0.11449015885591507,
      0.0740872249007225,
      0.01944420486688614,
      0.15544724464416504,
      0.6434472799301147,
      1.1941639184951782,
      1.0358552932739258,
      1.7862166166305542,
      3.1969552040100098,
      3.7289671897888184,
      4.697333812713623,
      4.112618923187256,
      3.4711852073669434,
      2.036343574523926,
      1.263543725013733,
      1.36562979221344,
      -0.5204578042030334,
      -0.7941564917564392,
      -1.1086161136627197,
      -0.5626733303070068,
      -0.05881085246801376,
      0.06523945182561874,
      0.014827043749392033,
      -0.022258281707763672,
      -0.0281655453145504,
      -0.003509879345074296,
      0.010143720544874668,
      -0.019911203533411026,
      -0.0364416278898716,
      -0.1100858673453331,
      -0.2788354158401489,
      0.08132890611886978,
      0.9311011433601379,
      0.8447005152702332,
      1.3584142923355103,
      1.9669313430786133,
      2.2703135013580322,
      2.577221632003784,
      4.509217739105225,
      5.751445770263672,
      2.9674417972564697,
      0.9330178499221802,
      1.175760269165039,
      0.6362918019294739,
      -1.5651072263717651,
      -2.8755593299865723,
      -2.032301425933838,
      -1.0970053672790527,
      -0.941898763179779,
      -0.38305535912513733,
      0.25279349088668823,
      0.17128248512744904,
      -0.012091168202459812,
      -0.04310782626271248,
      -0.009376593865454197,
      0.014452188275754452,
      -0.034003518521785736,
      -0.3240206241607666,
      -0.8649245500564575,
      -0.630756139755249,
      -1.0432378053665161,
      -0.9374377131462097,
      -0.4109240174293518,
      0.9876111149787903,
      3.8654158115386963,
      3.2211883068084717,
      5.198687553405762,
      8.158376693725586,
      6.495355606079102,
      2.5480363368988037,
      -0.20345982909202576,
      -1.4396233558654785,
      -2.811221122741699,
      -2.4049830436706543,
      -2.7708990573883057,
      -3.477538585662842,
      -2.937736988067627,
      -0.43148568272590637,
      0.604945957660675,
      0.27213841676712036,
      -0.03852042555809021,
      0.02298886328935623,
      -0.004957612603902817,
      -0.04614932835102081,
      -0.3361433446407318,
      -1.0287373065948486,
      -1.3394733667373657,
      -2.418698787689209,
      -2.6372694969177246,
      -3.9109506607055664,
      -2.7558515071868896,
      1.1869360208511353,
      2.362908124923706,
      1.408769965171814,
      6.9430832862854,
      10.594218254089355,
      10.088032722473145,
      5.341033458709717,
      -0.3984181582927704,
      0.16948877274990082,
      -0.6770526766777039,
      -2.97709321975708,
      -4.486060619354248,
      -4.485915660858154,
      -2.4958956241607666,
      0.1876673400402069,
      0.4383475184440613,
      0.3998623192310333,
      -0.031363312155008316,
      -0.023321758955717087,
      -0.030903998762369156,
      -0.1824437528848648,
      -1.0915151834487915,
      -0.8400408029556274,
      -1.3826329708099365,
      -2.4121899604797363,
      -3.306337356567383,
      -2.253753185272217,
      -1.966921329498291,
      -0.9906551241874695,
      -0.47748252749443054,
      -0.647882878780365,
      3.6591806411743164,
      11.242199897766113,
      9.642304420471191,
      2.2815732955932617,
      -0.8445356488227844,
      -1.742722749710083,
      -1.440799355506897,
      -1.428428053855896,
      -2.716517210006714,
      -2.469733476638794,
      -2.4702024459838867,
      -1.1560949087142944,
      0.4262245297431946,
      0.28901538252830505,
      -0.008238346315920353,
      -0.03331609442830086,
      -0.14147646725177765,
      -0.5963087677955627,
      -1.5965077877044678,
      -1.2411463260650635,
      -2.13986873626709,
      -2.2972798347473145,
      -3.431694746017456,
      -2.860180139541626,
      -4.606306076049805,
      -4.682118892669678,
      -2.396630048751831,
      -1.8123745918273926,
      6.289697647094727,
      11.45102310180664,
      6.4434614181518555,
      1.6705596446990967,
      -0.9179085493087769,
      -3.4172489643096924,
      -3.1445276737213135,
      -3.1952977180480957,
      -0.9315981268882751,
      -1.4381451606750488,
      -1.892744779586792,
      0.3015621304512024,
      1.2411932945251465,
      0.7454348206520081,
      0.09954345971345901,
      0.01146549079567194,
      -0.1639532446861267,
      -0.6076558232307434,
      -1.6984291076660156,
      -3.7653427124023438,
      -4.286048412322998,
      -1.5219788551330566,
      -0.5223510265350342,
      -0.7422903776168823,
      -3.639761209487915,
      -0.8747908473014832,
      -1.9051885604858398,
      -4.264980792999268,
      6.075399398803711,
      11.375020027160645,
      2.7639379501342773,
      -4.686572074890137,
      -4.092660903930664,
      -1.795986294746399,
      -3.261644124984741,
      -2.7815768718719482,
      -2.810643196105957,
      -0.7478971481323242,
      1.2421354055404663,
      2.583601713180542,
      2.0253746509552,
      0.6579557061195374,
      0.018910635262727737,
      -0.021757274866104126,
      -0.23348425328731537,
      -0.669018030166626,
      -1.8012200593948364,
      -4.11306619644165,
      -1.4226845502853394,
      1.7988587617874146,
      1.1477842330932617,
      1.262685775756836,
      -1.5511218309402466,
      -2.612715721130371,
      -3.926722288131714,
      -5.1279449462890625,
      4.221632480621338,
      10.683775901794434,
      -0.07877317816019058,
      -8.462807655334473,
      -4.336702823638916,
      -2.9388411045074463,
      -0.31032437086105347,
      -0.7640008330345154,
      -2.2464048862457275,
      0.25511226058006287,
      3.477475643157959,
      3.149129867553711,
      1.426274061203003,
      0.4154464304447174,
      -0.01131011825054884,
      -0.040506865829229355,
      -0.30349671840667725,
      -1.010622501373291,
      -1.7808412313461304,
      -2.852036476135254,
      0.4738321304321289,
      1.6538089513778687,
      1.2167181968688965,
      3.4987261295318604,
      0.3281193971633911,
      -2.1942803859710693,
      -3.7284302711486816,
      -1.6822198629379272,
      9.242294311523438,
      11.431333541870117,
      -2.352421760559082,
      -9.042524337768555,
      -2.963300943374634,
      -1.9942084550857544,
      1.0563790798187256,
      0.5818983316421509,
      -0.07784165441989899,
      2.795780658721924,
      4.644556999206543,
      3.3846449851989746,
      1.0061918497085571,
      0.22151395678520203,
      0.001955041429027915,
      -0.015695443376898766,
      -0.192759707570076,
      -0.9459438920021057,
      -2.8262598514556885,
      -3.0548818111419678,
      0.39937999844551086,
      2.0252082347869873,
      -0.49943211674690247,
      0.5218497514724731,
      1.5023095607757568,
      -2.4306845664978027,
      -4.334135055541992,
      1.3048560619354248,
      11.129683494567871,
      10.261685371398926,
      -1.6010680198669434,
      -5.765861511230469,
      -2.4795596599578857,
      0.36918380856513977,
      3.9911539554595947,
      1.1330649852752686,
      1.5563948154449463,
      4.045964241027832,
      4.651998996734619,
      2.845630168914795,
      0.735360860824585,
      0.19537769258022308,
      0.034609388560056686,
      0.007439570501446724,
      -0.18162228167057037,
      -1.1589014530181885,
      -2.1460723876953125,
      -2.668018102645874,
      -1.7479180097579956,
      -0.34804508090019226,
      0.8667130470275879,
      0.9997373223304749,
      2.3622958660125732,
      -2.6889469623565674,
      -2.555727005004883,
      4.806240081787109,
      12.084206581115723,
      6.449129104614258,
      -1.3315143585205078,
      -2.9479055404663086,
      -0.570473313331604,
      2.0262205600738525,
      3.5185272693634033,
      -1.9198276996612549,
      -0.3198458254337311,
      2.0853445529937744,
      2.163254499435425,
      2.183856248855591,
      1.0124982595443726,
      0.5907473564147949,
      0.07822682708501816,
      -0.027523934841156006,
      -0.10211952775716782,
      -0.9460366368293762,
      -1.9181184768676758,
      -2.5368309020996094,
      -4.4429707527160645,
      -1.3942078351974487,
      0.8482502698898315,
      1.3906855583190918,
      -0.5704367756843567,
      -2.473944664001465,
      -0.7670978903770447,
      1.4135313034057617,
      6.734726905822754,
      5.024907112121582,
      0.9598861932754517,
      -1.5135915279388428,
      -4.509876251220703,
      -3.851050853729248,
      -7.813795566558838,
      -3.924102544784546,
      -2.0150370597839355,
      -0.6976928114891052,
      1.4020037651062012,
      2.0418341159820557,
      1.4044079780578613,
      0.34401261806488037,
      0.020707108080387115,
      0.014268237166106701,
      -0.016057241708040237,
      -0.4200873076915741,
      -2.1688156127929688,
      -1.4421594142913818,
      -1.0061160326004028,
      -0.469814658164978,
      0.7653599977493286,
      0.08709055930376053,
      0.26784685254096985,
      0.5471944212913513,
      0.62460857629776,
      1.5117018222808838,
      6.4480814933776855,
      2.728350877761841,
      1.0044140815734863,
      0.014011996798217297,
      -4.081822395324707,
      -6.296773433685303,
      -5.621577739715576,
      -4.3824896812438965,
      -1.9668477773666382,
      -1.3361921310424805,
      0.3167183995246887,
      3.6504266262054443,
      3.294989824295044,
      0.3600129187107086,
      -0.008515536785125732,
      -0.02950701117515564,
      0.020883232355117798,
      0.2974705994129181,
      -0.3514273762702942,
      -0.5552748441696167,
      0.4082135856151581,
      0.015547954477369785,
      -1.4056050777435303,
      -1.1568052768707275,
      0.7047635316848755,
      2.015425443649292,
      2.686652898788452,
      1.9724596738815308,
      4.479823589324951,
      0.12178000807762146,
      -2.933847188949585,
      -0.5863823890686035,
      -3.649500846862793,
      -4.504493713378906,
      -5.276023864746094,
      -3.9843051433563232,
      -1.090245246887207,
      0.42462027072906494,
      1.4374699592590332,
      2.0001962184906006,
      2.3559255599975586,
      0.5888394117355347,
      0.008339702151715755,
      -0.0026251086965203285,
      0.013446730561554432,
      0.005728693678975105,
      0.4989358186721802,
      0.038707178086042404,
      -1.2815124988555908,
      -0.7034981846809387,
      0.011460254900157452,
      1.9542853832244873,
      2.202562093734741,
      4.962686538696289,
      5.216970920562744,
      4.663107395172119,
      -0.7649306058883667,
      -2.5710434913635254,
      -3.054107427597046,
      0.5012714862823486,
      -2.8330001831054688,
      -6.057413101196289,
      -2.047504186630249,
      -1.3225903511047363,
      -0.7947110533714294,
      0.6740731596946716,
      -0.36425086855888367,
      0.6440436244010925,
      1.3189822435379028,
      0.2981734573841095,
      0.11453286558389664,
      -0.03495300933718681,
      0.02373826503753662,
      0.06854840368032455,
      0.30431777238845825,
      1.657250165939331,
      1.2865283489227295,
      1.5876374244689941,
      -1.0805213451385498,
      0.3381924033164978,
      -0.21800750494003296,
      3.9540042877197266,
      7.3045268058776855,
      3.821653127670288,
      -3.633676528930664,
      -3.4874935150146484,
      -0.6163458824157715,
      -0.36895957589149475,
      -3.040715456008911,
      -1.1220555305480957,
      -0.7320280075073242,
      -0.010130982846021652,
      1.956782579421997,
      2.8879752159118652,
      2.346785545349121,
      1.3746479749679565,
      0.2283972054719925,
      -0.024008531123399734,
      -0.023757942020893097,
      -0.01561043132096529,
      -0.04944533482193947,
      0.13984878361225128,
      0.05050748586654663,
      1.4079209566116333,
      1.5849510431289673,
      3.7268450260162354,
      2.832166910171509,
      3.7713096141815186,
      4.769339084625244,
      6.822323799133301,
      8.12152099609375,
      5.48929500579834,
      0.10016865283250809,
      -3.017925977706909,
      -2.821021318435669,
      1.9371910095214844,
      1.9036669731140137,
      3.350489854812622,
      1.7500840425491333,
      1.1576989889144897,
      2.445692300796509,
      5.433001518249512,
      3.197333812713623,
      1.472974419593811,
      0.26415881514549255,
      0.00893357302993536,
      -0.0200614295899868,
      0.00438848789781332,
      0.009985038079321384,
      0.14117662608623505,
      0.5216951966285706,
      1.6175880432128906,
      2.489302396774292,
      3.4868357181549072,
      6.0788774490356445,
      7.3564605712890625,
      7.837581634521484,
      5.68380880355835,
      4.2576446533203125,
      1.3460544347763062,
      0.9263349771499634,
      -1.3213971853256226,
      1.3440260887145996,
      4.569879055023193,
      2.614713430404663,
      3.172069549560547,
      2.918606996536255,
      2.6962409019470215,
      3.3982269763946533,
      4.879550457000732,
      4.2439446449279785,
      1.3283878564834595,
      0.5228638052940369,
      0.002339096972718835,
      -0.03601400926709175,
      -0.04414037987589836,
      0.015984851866960526,
      0.1250763237476349,
      0.6287145018577576,
      1.5213634967803955,
      2.8082971572875977,
      5.37332820892334,
      6.719478130340576,
      4.853323936462402,
      2.1541476249694824,
      1.7092126607894897,
      1.1107581853866577,
      1.7826788425445557,
      -0.11166295409202576,
      2.9995975494384766,
      3.056847095489502,
      3.5848982334136963,
      1.289724349975586,
      2.422191858291626,
      1.8165403604507446,
      2.0573954582214355,
      1.310471773147583,
      2.3650176525115967,
      2.8939719200134277,
      1.1447346210479736,
      0.16855627298355103,
      -0.022910047322511673,
      0.0066515421494841576,
      -0.014362243004143238,
      -0.044197361916303635,
      0.1816154420375824,
      0.6401146054267883,
      1.5368304252624512,
      2.6619834899902344,
      4.413090229034424,
      5.258285045623779,
      2.802445411682129,
      -0.22713425755500793,
      0.3079821765422821,
      0.5487663149833679,
      1.4596717357635498,
      1.4481585025787354,
      0.9896755218505859,
      -1.012771487236023,
      1.603312611579895,
      2.2419869899749756,
      0.9904283285140991,
      0.2386178970336914,
      2.3322651386260986,
      -0.20122309029102325,
      0.49305829405784607,
      1.7996609210968018,
      0.6323124170303345,
      0.08870720118284225,
      9.214420570060611E-4,
      -0.03755177929997444,
      0.006277231499552727,
      -0.045349035412073135,
      0.12616828083992004,
      0.48483484983444214,
      1.2760865688323975,
      1.8893767595291138,
      1.7008838653564453,
      0.7930189371109009,
      -0.5053778886795044,
      -0.04901193082332611,
      2.4842348098754883,
      3.728095293045044,
      1.8502683639526367,
      1.4906290769577026,
      -1.7691140174865723,
      -1.3986543416976929,
      -1.3689302206039429,
      1.0696886777877808,
      1.8611564636230469,
      3.278350591659546,
      1.5899873971939087,
      -0.06704109162092209,
      0.9238201975822449,
      1.0363860130310059,
      0.36629465222358704,
      0.03453991189599037,
      -0.02848924696445465,
      -0.010733637027442455,
      0.020572606474161148,
      0.02379768341779709,
      -0.041236940771341324,
      0.17551828920841217,
      0.6985703706741333,
      0.3151625096797943,
      -0.3518708050251007,
      -1.2070763111114502,
      -0.6659077405929565,
      1.0943114757537842,
      2.6559362411499023,
      -0.13565489649772644,
      0.9970903992652893,
      -0.14498868584632874,
      -2.1447463035583496,
      0.45600205659866333,
      -0.009447505697607994,
      0.6763002872467041,
      4.361961364746094,
      3.8484489917755127,
      0.9421655535697937,
      -0.022721657529473305,
      2.1198272705078125,
      1.8621292114257812,
      1.0068906545639038,
      0.33648940920829773,
      0.02267756313085556,
      -0.0014256390277296305,
      -0.016394877806305885,
      -0.013353326357901096,
      0.007457895204424858,
      -0.03475720062851906,
      0.20829994976520538,
      0.09548859298229218,
      -0.25792089104652405,
      -0.18177251517772675,
      0.171415314078331,
      -0.012709546834230423,
      2.974583625793457,
      -0.7743952870368958,
      2.3285701274871826,
      -0.017404604703187943,
      1.2213331460952759,
      1.3316538333892822,
      3.1887154579162598,
      3.9673705101013184,
      3.177210807800293,
      2.6189637184143066,
      1.8654536008834839,
      0.7006588578224182,
      0.8249207735061646,
      0.46213996410369873,
      0.13174627721309662,
      0.024317536503076553,
      -0.021650169044733047,
      0.003453548066318035,
      0.012405346147716045,
      -0.029940038919448853,
      0.022115156054496765,
      -0.04031321033835411,
      -0.10125523805618286,
      -0.10058142244815826,
      0.4024246037006378,
      -0.15458819270133972,
      -0.4124963581562042,
      -0.6551741361618042,
      0.8427382111549377,
      1.4142714738845825,
      3.523181438446045,
      2.797224521636963,
      3.502474308013916,
      -0.4445275664329529,
      1.0979703664779663,
      2.0241315364837646,
      -0.3083362877368927,
      -0.17406684160232544,
      0.37424877285957336,
      -0.47977742552757263,
      -0.4351617395877838,
      -0.02181198075413704,
      0.023293714970350266,
      0.014312083832919598,
      -0.015097757801413536,
      0.011586314998567104,
      -0.04013868048787117,
      0.018101155757904053,
      0.02285785973072052,
      -0.03467762842774391,
      -0.03096720576286316,
      0.0030675819143652916,
      -0.04874108359217644,
      -0.06470764428377151,
      -0.005439767614006996,
      0.07979730516672134,
      0.11441267281770706,
      0.42973414063453674,
      0.3480595648288727,
      -0.33932116627693176,
      -0.23445983231067657,
      -0.6719818711280823,
      -0.6501589417457581,
      -0.6184582114219666,
      -1.1604784727096558,
      -0.7854952812194824,
      -0.4126809537410736,
      -0.6302154064178467,
      -0.48627498745918274,
      -0.03702401742339134,
      -0.028480805456638336,
      -0.0029811772983521223,
      -0.007528557442128658,
      -0.04331256076693535,
      -0.018993567675352097,
      -0.006293867714703083,
      -0.012834996916353703,
      -0.01658739522099495,
      0.009786204434931278,
      0.042677588760852814,
      -0.011946885846555233,
      0.04051084816455841,
      0.005732881836593151,
      0.00982974935323,
      0.030156739056110382,
      0.018121542409062386,
      0.02840329520404339,
      4.872412246186286E-4,
      5.76149090193212E-4,
      0.01860332489013672,
      0.0032700947485864162,
      0.0029841805808246136,
      0.035299379378557205,
      0.04127262532711029,
      0.006740475073456764,
      0.004297553561627865,
      -0.008316238410770893,
      6.041912129148841E-4,
      0.001505801104940474,
      0.005029559135437012,
      -0.004072964191436768,
      -0.018513493239879608,
      0.038589831441640854,
      -0.023222334682941437,
      -0.0016855284338817,
      -0.02521432936191559,
      0.04170670732855797,
      -0.004878023639321327,
      -0.007303460501134396,
      -0.005485765635967255,
      0.03425215929746628,
      0.027202541008591652,
      -0.00370490038767457,
      0.01306222751736641,
      0.04095083847641945,
      0.036590754985809326,
      -0.010641766712069511,
      0.026529140770435333,
      0.026733195409178734,
      -0.0019494848093017936,
      -0.0020508095622062683,
      0.03070136345922947,
      -0.02242843434214592,
      -1.6954563034232706E-4,
      -0.003465233137831092,
      -0.01825195737183094,
      0.03592455014586449,
      0.008407983928918839,
      0.0202956385910511,
      1.0587441647658125E-4,
      0.005673790350556374,
      -0.015654560178518295,
      0.01731615513563156,
      -0.02639920450747013,
      0.02113153599202633,
      0.01531289890408516,
      -0.008228813298046589,
      -0.018590161576867104,
      -0.02134241908788681,
      0.013522541150450706,
      0.030233867466449738,
      0.03954515606164932,
      0.023526161909103394,
      -0.0011102454736828804,
      0.03388189896941185,
      0.0045981197617948055,
      0.017861202359199524,
      0.033877499401569366,
      -0.02268650382757187,
      0.03250562399625778,
      0.004343296401202679,
      -9.300532401539385E-4,
      7.817949517630041E-4,
      7.841235492378473E-4,
      -0.015780512243509293,
      0.029966801404953003,
      0.018418313935399055,
      0.04014487564563751,
      -0.009517773054540157,
      0.03429705277085304,
      -0.015044830739498138,
      -0.01579250395298004,
      0.011476412415504456,
      0.007896783761680126,
      -0.002828929340466857,
      -0.0014530639164149761,
      0.023829981684684753,
      -0.016436630859971046,
      -0.024575091898441315,
      0.029170384630560875,
      0.01596200093626976,
      0.005247184541076422,
      0.034484896808862686,
      0.025091687217354774,
      0.04224462807178497,
      -5.343900411389768E-4,
      0.019006961956620216,
      -0.008662392385303974,
      0.0080567616969347,
      0.0067427088506519794,
      0.002007507486268878,
      0.017518751323223114,
      -0.006492950487881899,
      0.004181518219411373,
      -0.006640160456299782,
      -0.016869593411684036,
      0.02203689143061638,
      0.026330063119530678,
      -0.022673984989523888,
      0.010071837343275547,
      0.038449641317129135,
      0.01574578322470188,
      8.213099790737033E-4,
      -0.0021050015930086374,
      -0.004966391250491142,
      0.0025702165439724922,
      0.04414989426732063,
      0.004159466829150915,
      0.04683542251586914,
      0.0922626256942749,
      0.0500168576836586,
      0.07291564345359802,
      0.06626566499471664,
      0.07653763145208359,
      0.004247690085321665,
      0.052605338394641876,
      0.01647491566836834,
      -0.016555199399590492,
      0.02458684705197811,
      0.03607163205742836,
      -0.016692085191607475,
      0.033547040075063705,
      -0.013599086552858353,
      0.029966194182634354,
      0.007897797040641308,
      -0.02134520187973976,
      0.010980949737131596,
      -0.016132470220327377,
      0.0038050292059779167,
      0.009929866530001163,
      -0.02131160907447338,
      0.014198781922459602,
      0.01395925972610712,
      0.041161466389894485,
      0.009649807587265968,
      0.08688458055257797,
      0.11770530790090561,
      0.14292529225349426,
      0.16732019186019897,
      0.15802748501300812,
      0.1318415105342865,
      0.13692410290241241,
      0.09693168848752975,
      0.10442083328962326,
      0.08079864084720612,
      0.06988875567913055,
      -0.004381818696856499,
      -0.0045484621077775955,
      0.02695942297577858,
      -0.01676001213490963,
      -0.02418896183371544,
      0.015660341829061508,
      0.010433501563966274,
      -0.020982416346669197,
      -3.368055622559041E-4,
      0.009524893015623093,
      -0.0036069857887923717,
      0.0376567542552948,
      -0.004093947354704142,
      0.0386766642332077,
      0.02875397726893425,
      0.04591471701860428,
      0.10186740010976791,
      0.11500369757413864,
      0.13545779883861542,
      0.16194520890712738,
      0.18765905499458313,
      0.1816329061985016,
      0.218486487865448,
      0.17506244778633118,
      0.1485712081193924,
      0.13939084112644196,
      0.04823219031095505,
      0.08574496954679489,
      0.07679709792137146,
      0.06718911230564117,
      0.05738659203052521,
      -0.004674834664911032,
      -0.008449959568679333,
      0.003595300018787384,
      0.024888508021831512,
      0.003681848058477044,
      -0.021778346970677376,
      0.015510798431932926,
      -0.0237044095993042,
      -0.002010827185586095,
      -0.025464046746492386,
      0.010160217992961407,
      -0.010750092566013336,
      0.05677810311317444,
      0.06995470076799393,
      0.12784826755523682,
      0.16182595491409302,
      0.22463583946228027,
      0.19393479824066162,
      0.1940910816192627,
      0.17534612119197845,
      0.15792560577392578,
      0.14274895191192627,
      0.13437749445438385,
      0.08424742519855499,
      0.07795761525630951,
      0.062497593462467194,
      0.024367179721593857,
      0.06445477902889252,
      0.011309737339615822,
      -0.014433481730520725,
      0.04203062132000923,
      -0.004001243505626917,
      -0.008719874545931816,
      -0.021034177392721176,
      0.0036500804126262665,
      -0.024366527795791626,
      0.010391144081950188,
      -0.0216695424169302,
      0.04229796677827835,
      0.05589665472507477,
      0.037427160888910294,
      0.09865885227918625,
      0.11384127289056778,
      0.14104299247264862,
      0.19690193235874176,
      0.17672611773014069,
      0.23071405291557312,
      0.1717572957277298,
      0.1986178457736969,
      0.1888454407453537,
      0.18004849553108215,
      0.10937954485416412,
      0.09378493577241898,
      0.06452925503253937,
      0.028057506307959557,
      0.005190666299313307,
      0.019316287711262703,
      0.01028662733733654,
      -0.02547856606543064,
      0.033591751009225845,
      0.0026834686286747456,
      0.008145997300744057,
      0.03360578790307045,
      0.04418215900659561,
      0.011375583708286285,
      -0.011692376807332039,
      0.06449265033006668,
      0.028660796582698822,
      0.10396073013544083,
      0.11799630522727966,
      0.128940612077713,
      0.1367754191160202,
      0.17596393823623657,
      0.19407273828983307,
      0.22244541347026825,
      0.19509202241897583,
      0.2018728405237198,
      0.18548819422721863,
      0.1319652944803238,
      0.10826341062784195,
      0.09377434849739075,
      0.10821107774972916,
      0.06771310418844223,
      0.04893561452627182,
      0.030105924233794212,
      0.007778371684253216,
      -0.0032095303758978844,
      -0.01624302938580513,
      0.019702082499861717,
      0.01825009286403656,
      -0.001716156955808401,
      0.0037630724254995584,
      -0.006975340656936169,
      -0.011852541007101536,
      0.01809760183095932,
      0.10673551261425018,
      0.1211320236325264,
      0.14697839319705963,
      0.1840868443250656,
      0.19246163964271545,
      0.21451900899410248,
      0.2038549929857254,
      0.23208960890769958,
      0.21146687865257263,
      0.2242925763130188,
      0.20924316346645355,
      0.1929963082075119,
      0.18474194407463074,
      0.10600303113460541,
      0.13473616540431976,
      0.061139028519392014,
      0.07057148963212967,
      0.015073245391249657,
      -0.021011240780353546,
      -0.022748475894331932,
      0.026051850989460945,
      -0.019354956224560738,
      0.005595033057034016,
      0.0017160245915874839,
      -0.007446411997079849,
      0.025982236489653587,
      0.05142444372177124,
      0.046439703553915024,
      0.10081601142883301,
      0.14623160660266876,
      0.18200871348381042,
      0.20353761315345764,
      0.23275595903396606,
      0.2783847749233246,
      0.3128160238265991,
      0.24882100522518158,
      0.2724074721336365,
      0.2822856605052948,
      0.2664547860622406,
      0.21061015129089355,
      0.17929717898368835,
      0.14074653387069702,
      0.1209263727068901,
      0.11504638940095901,
      0.1108412817120552,
      0.06225544586777687,
      -0.021722283214330673,
      -0.0016615360509604216,
      0.006599877495318651,
      -0.005939551629126072,
      0.018358096480369568,
      0.024382824078202248,
      0.02279379963874817,
      0.02103499323129654,
      0.03980362415313721,
      0.1171192154288292,
      0.13553622364997864,
      0.16361616551876068,
      0.15398088097572327,
      0.19517584145069122,
      0.19093820452690125,
      0.30451008677482605,
      0.3225591480731964,
      0.3110997676849365,
      0.2557078003883362,
      0.21767178177833557,
      0.14747366309165955,
      0.16371487081050873,
      0.08829421550035477,
      0.07423785328865051,
      0.08418043702840805,
      0.0187459047883749,
      0.015659764409065247,
      0.03439110144972801,
      0.044069599360227585,
      -0.0031349030323326588,
      -0.012604475021362305,
      7.861162157496437E-5,
      0.01921873725950718,
      -0.016063768416643143,
      0.0053368122316896915,
      0.003686634125187993,
      0.024589627981185913,
      0.10970167815685272,
      0.13600075244903564,
      0.12131452560424805,
      0.17058685421943665,
      0.22225092351436615,
      0.2332250326871872,
      0.29771795868873596,
      0.32788801193237305,
      0.2920624911785126,
      0.20582687854766846,
      0.090115986764431,
      0.08355658501386642,
      0.05948895215988159,
      0.0640082061290741,
      0.05666957050561905,
      0.07986613363027573,
      0.029236556962132454,
      0.03809439390897751,
      7.243524887599051E-4,
      0.04105391725897789,
      0.009939131326973438,
      0.025050373747944832,
      5.797408521175385E-4,
      0.04142151400446892,
      -0.0239799115806818,
      0.029144933447241783,
      0.049255043268203735,
      0.05672738701105118,
      0.10553914308547974,
      0.13473716378211975,
      0.16255171597003937,
      0.1703956574201584,
      0.19000297784805298,
      0.15679268538951874,
      0.28290197253227234,
      0.2844790816307068,
      0.2107938975095749,
      0.16468462347984314,
      0.07796113938093185,
      0.09511152654886246,
      0.05743810534477234,
      0.07104723155498505,
      0.04629557207226753,
      0.054740551859140396,
      0.06176037713885307,
      0.0548950657248497,
      0.04452984035015106,
      -0.007930820807814598,
      0.02537122182548046,
      -0.002429444808512926,
      0.03246869519352913,
      0.0121086360886693,
      -0.02123224548995495,
      -0.006016787141561508,
      0.033080581575632095,
      0.08624907582998276,
      0.0658925324678421,
      0.09266265481710434,
      0.1451869159936905,
      0.17577803134918213,
      0.14355307817459106,
      0.16700540482997894,
      0.32170721888542175,
      0.3327813148498535,
      0.26200124621391296,
      0.11666323244571686,
      0.14642229676246643,
      0.10972413420677185,
      0.07937520742416382,
      0.09845402836799622,
      0.012312527745962143,
      0.02173965983092785,
      0.014010723680257797,
      0.014722100459039211,
      0.021318677812814713,
      4.852290148846805E-4,
      -0.0011797522893175483,
      0.009427436627447605,
      -0.010979807004332542,
      -0.02711622044444084,
      0.013020520098507404,
      -0.01858247071504593,
      -0.005528741050511599,
      0.056190911680459976,
      0.06663444638252258,
      0.09328874945640564,
      0.10362695157527924,
      0.08433178812265396,
      0.11495845764875412,
      0.24180381000041962,
      0.29658472537994385,
      0.31921184062957764,
      0.20574328303337097,
      0.1425507515668869,
      0.07465764880180359,
      0.10113424062728882,
      0.04252832010388374,
      0.04367974400520325,
      0.05597442761063576,
      0.014740136452019215,
      0.05970257520675659,
      -0.010329602286219597,
      -0.016219204291701317,
      -0.009281948208808899,
      -0.022670751437544823,
      0.042996250092983246,
      0.010200894437730312,
      0.009569772519171238,
      0.0398973748087883,
      0.01180985476821661,
      0.05830616131424904,
      0.061272427439689636,
      0.08664292842149734,
      0.06972815096378326,
      0.08363027125597,
      0.14106671512126923,
      0.1881902664899826,
      0.26104721426963806,
      0.2691807448863983,
      0.28228408098220825,
      0.16417987644672394,
      0.060226790606975555,
      0.08017995208501816,
      0.10465700179338455,
      0.02120807021856308,
      0.055075667798519135,
      0.06532811373472214,
      0.017269346863031387,
      0.03364439681172371,
      0.041020989418029785,
      0.03383912518620491,
      -0.00666944170370698,
      -3.4435922862030566E-4,
      -0.01636582612991333,
      -0.016777893528342247,
      0.03826908767223358,
      0.03958219662308693,
      -0.015079389326274395,
      0.03935736417770386,
      0.0818559005856514,
      0.09149570763111115,
      0.0979013592004776,
      0.10459347814321518,
      0.10238832235336304,
      0.15390263497829437,
      0.23101165890693665,
      0.1894778460264206,
      0.15600578486919403,
      0.15320192277431488,
      0.12127909064292908,
      0.1259903609752655,
      0.06823527812957764,
      0.052553195506334305,
      0.08631263673305511,
      0.030426764860749245,
      0.056159596890211105,
      0.020807182416319847,
      -0.016713814809918404,
      -0.02117096073925495,
      -0.026422947645187378,
      0.029340149834752083,
      0.01727701723575592,
      -0.0146032078191638,
      0.006779769901186228,
      -0.010397644713521004,
      -0.018241047859191895,
      0.004939243197441101,
      0.04871043935418129,
      0.13211603462696075,
      0.13719706237316132,
      0.12141964584589005,
      0.16282489895820618,
      0.16367504000663757,
      0.2098444551229477,
      0.18767967820167542,
      0.17044879496097565,
      0.11903392523527145,
      0.14268074929714203,
      0.15728546679019928,
      0.09478871524333954,
      0.0794280618429184,
      0.0957321748137474,
      0.06609649956226349,
      0.04502406716346741,
      -0.03560568392276764,
      4.910387215204537E-4,
      0.02108304761350155,
      0.008395574986934662,
      0.005358539987355471,
      -0.015825025737285614,
      0.032105453312397,
      0.03214198350906372,
      -0.01706559583544731,
      7.682139403186738E-4,
      0.0031289267353713512,
      0.12915129959583282,
      0.101888507604599,
      0.1570051908493042,
      0.19389162957668304,
      0.1657842993736267,
      0.12851059436798096,
      0.1424492597579956,
      0.18160022795200348,
      0.15178948640823364,
      0.17249161005020142,
      0.16794654726982117,
      0.17329685389995575,
      0.1351330727338791,
      0.04899603873491287,
      0.08506672829389572,
      0.046188391745090485,
      0.011972801759839058,
      -0.02385724149644375,
      -0.029038704931735992,
      -0.03234509751200676,
      -0.010400542058050632,
      0.005775840952992439,
      0.019173994660377502,
      0.0036123336758464575,
      -0.025598524138331413,
      0.00585979875177145,
      0.02363673783838749,
      0.06255488842725754,
      0.07188860327005386,
      0.13216564059257507,
      0.11476099491119385,
      0.15230850875377655,
      0.19487524032592773,
      0.17459888756275177,
      0.19107100367546082,
      0.1884617954492569,
      0.19389884173870087,
      0.15582489967346191,
      0.13423305749893188,
      0.1522999256849289,
      0.11160489916801453,
      0.05368400365114212,
      0.057557232677936554,
      0.008396890945732594,
      0.02926233783364296,
      0.03575042262673378,
      0.03195914998650551,
      0.014327303506433964,
      -0.005633226595818996,
      -0.009552028961479664,
      -0.00368144316598773,
      -0.006098674610257149,
      0.014661455526947975,
      -0.019987594336271286,
      -0.017949027940630913,
      0.03551456332206726,
      0.015237996354699135,
      0.06259064376354218,
      0.09615588933229446,
      0.1631074994802475,
      0.13097348809242249,
      0.17359459400177002,
      0.16132590174674988,
      0.18717877566814423,
      0.21976372599601746,
      0.196213960647583,
      0.18042287230491638,
      0.1224924623966217,
      0.12334783375263214,
      0.031721506267786026,
      0.007940682582557201,
      0.021648680791258812,
      0.028507333248853683,
      0.02887214720249176,
      -0.02098897658288479,
      -0.022514885291457176,
      0.0282097440212965,
      -0.028159471228718758,
      0.016948703676462173,
      0.023701820522546768,
      -0.019392801448702812,
      -0.018884126096963882,
      -0.007816165685653687,
      0.047556258738040924,
      0.026604345068335533,
      0.060034140944480896,
      0.04416842386126518,
      0.1205342561006546,
      0.15851399302482605,
      0.17957523465156555,
      0.1850685328245163,
      0.1656312644481659,
      0.20148223638534546,
      0.1565060019493103,
      0.13500505685806274,
      0.09606945514678955,
      0.06640950590372086,
      0.014361054636538029,
      -0.00621394906193018,
      0.036267101764678955,
      0.04304581880569458,
      -0.0037548281252384186,
      0.027619939297437668,
      0.02824232168495655,
      0.03448258712887764,
      0.009737289510667324,
      0.04217547923326492,
      0.02083885297179222,
      -0.018635360524058342,
      0.025523317977786064,
      0.03995632380247116,
      0.03251652792096138,
      0.037648580968379974,
      0.035227589309215546,
      0.0552276074886322,
      0.05486135184764862,
      0.05143004655838013,
      0.08628290891647339,
      0.11816108226776123,
      0.07688423991203308,
      0.08795037120580673,
      0.053335461765527725,
      0.04225294291973114,
      0.042927637696266174,
      0.06628663092851639,
      0.03084772452712059,
      -0.015756690874695778,
      0.008696675300598145,
      -0.002601496409624815,
      0.021830078214406967,
      3.234362884541042E-5,
      -0.013368151150643826,
      0.037377141416072845,
      0.025856435298919678,
      0.021174076944589615,
      0.034975361078977585,
      0.01654866710305214,
      0.007695209700614214,
      0.013694978319108486,
      -0.013416651636362076,
      -0.01835213229060173,
      -0.017607741057872772,
      -0.012942437082529068,
      0.04564272239804268,
      0.002019338309764862,
      0.04858120158314705,
      0.031771473586559296,
      0.033961739391088486,
      0.026462899520993233,
      0.02918432094156742,
      0.04889911413192749,
      0.05988437309861183,
      0.00983316358178854,
      -0.0037852993700653315,
      0.00620138319209218,
      -0.02330782450735569,
      1.9075520685873926E-4,
      -0.023247556760907173,
      0.023997342213988304,
      -0.012040465138852596,
      -0.001393433311022818,
      0.001121007022447884,
      0.0052820006385445595,
      0.020423777401447296,
      0.01641685701906681,
      -0.02695116400718689,
      0.03851257264614105,
      0.03509495407342911,
      -0.026800138875842094,
      0.020824376493692398,
      0.026394810527563095,
      -0.014848068356513977,
      0.021196819841861725,
      -0.019750606268644333,
      0.04229307919740677,
      0.04731256514787674,
      0.0059544299729168415,
      0.014384658075869083,
      -0.003642868483439088,
      -0.014801048673689365,
      0.00647940207272768,
      -0.00371765810996294,
      -0.006253435742110014,
      0.0251467302441597,
      0.01463591493666172,
      -0.01794189214706421,
      0.016634363681077957,
      0.03229988366365433,
      0.0029957937076687813,
      -0.026524994522333145,
      0.024127960205078125,
      -0.02472063899040222,
      -0.002921345178037882,
      0.01155006792396307,
      -0.00991108175367117,
      -0.02340780198574066,
      -0.010138727724552155,
      0.0411519855260849,
      0.041481561958789825,
      0.0039012443739920855,
      0.028204578906297684,
      -0.0017491105245426297,
      -0.018960196524858475,
      -0.022951243445277214,
      -0.011145397089421749,
      -2.818319189827889E-4,
      0.02492745965719223,
      0.026816008612513542,
      -0.021328913047909737,
      -0.013436314649879932,
      0.002556546125560999,
      0.04316255822777748,
      0.016314726322889328,
      0.04069752246141434,
      -0.02169860526919365,
      6.057047285139561E-4,
      0.00925681833177805,
      0.001216627424582839,
      0.011247592978179455,
      0.05527361109852791,
      0.032033395022153854,
      0.023058511316776276,
      0.05449459329247475,
      0.03697829321026802,
      0.06187036633491516,
      0.02342113107442856,
      0.01723625138401985,
      0.015989411622285843,
      0.06716881692409515,
      0.07809775322675705,
      0.022945858538150787,
      0.034229546785354614,
      0.05385991558432579,
      0.0624663271009922,
      0.04086516425013542,
      0.01948394626379013,
      0.05758057162165642,
      0.02992510050535202,
      0.018536988645792007,
      0.039956752210855484,
      0.06865189224481583,
      0.03482625633478165,
      0.06739684194326401,
      0.05430622026324272,
      0.06450285762548447,
      0.04719698056578636,
      0.016831666231155396,
      0.021015029400587082,
      0.07189217954874039,
      0.04796788468956947,
      0.028804924339056015,
      0.02266588807106018,
      0.05392760410904884,
      0.07333224266767502,
      0.018801886588335037,
      -0.07690288871526718,
      -0.13004238903522491,
      -0.17853768169879913,
      -0.2449384480714798,
      -0.16052566468715668,
      -0.05457903817296028,
      -0.15139158070087433,
      -0.0915011391043663,
      -0.044710028916597366,
      -0.027854379266500473,
      -0.008418702520430088,
      0.0028647074941545725,
      -0.043256547302007675,
      0.006728196516633034,
      0.061912745237350464,
      0.05749313160777092,
      0.04354457929730415,
      0.0739738717675209,
      0.037339989095926285,
      0.056684460490942,
      0.0402945913374424,
      0.056031759828329086,
      0.025407016277313232,
      0.009457007050514221,
      0.043853867799043655,
      0.017481036484241486,
      -0.06031561270356178,
      -0.0572722889482975,
      -0.16592608392238617,
      -0.3232465386390686,
      -0.8511673808097839,
      -1.0968230962753296,
      -1.2187080383300781,
      -1.262635350227356,
      -0.9925998449325562,
      -1.0708211660385132,
      -0.533241331577301,
      -0.876446008682251,
      -0.39737701416015625,
      -0.2085052877664566,
      -0.3408437669277191,
      -0.15080244839191437,
      0.021132636815309525,
      0.02171137183904648,
      0.009977980516850948,
      0.030671900138258934,
      0.01370635349303484,
      0.04647405818104744,
      0.038591835647821426,
      0.05298461765050888,
      0.04569181054830551,
      0.06233300641179085,
      0.07910808175802231,
      0.007319019176065922,
      -0.11216763406991959,
      -0.4595608413219452,
      -0.7349429726600647,
      -0.9197657108306885,
      -1.866719126701355,
      -2.581270933151245,
      -3.3674581050872803,
      -3.3301749229431152,
      -2.9047577381134033,
      -1.9161280393600464,
      -1.603535532951355,
      -1.9623332023620605,
      -1.8364222049713135,
      -0.903167188167572,
      -0.8655758500099182,
      -0.18523837625980377,
      -0.08514111489057541,
      -0.08580666035413742,
      0.06846588104963303,
      0.03540560230612755,
      0.0493476428091526,
      0.009820581413805485,
      0.06352446973323822,
      0.17548806965351105,
      0.07744310051202774,
      0.005810437723994255,
      -0.1581362932920456,
      -0.1229412704706192,
      -0.0493265800178051,
      -0.8787271976470947,
      -1.142594337463379,
      -2.1162731647491455,
      -1.9303936958312988,
      -1.0113598108291626,
      -1.3162363767623901,
      -2.779745101928711,
      -2.192044496536255,
      -2.197493076324463,
      -2.024531126022339,
      -1.0736746788024902,
      1.0500558614730835,
      1.722712755203247,
      -0.14712056517601013,
      -0.13578678667545319,
      0.3778383135795593,
      -0.44165948033332825,
      -0.4475155174732208,
      -0.31524837017059326,
      -0.021336011588573456,
      0.02437092736363411,
      0.024089738726615906,
      0.037243857979774475,
      0.04045668616890907,
      -0.05830898880958557,
      0.18921412527561188,
      -0.3147549033164978,
      -0.6062484979629517,
      -0.5343419313430786,
      -0.3494214713573456,
      -2.181774139404297,
      -1.8755333423614502,
      -1.4303151369094849,
      -1.0528730154037476,
      -3.898979902267456,
      -2.3128843307495117,
      -4.6705403327941895,
      -7.567347526550293,
      -4.584876537322998,
      -4.284114837646484,
      -1.9288610219955444,
      -1.2416877746582031,
      0.19914041459560394,
      0.7519484758377075,
      -0.14069455862045288,
      -1.2193056344985962,
      -0.356966495513916,
      0.08299172669649124,
      0.08062983304262161,
      0.030492814257740974,
      -0.02976616472005844,
      -0.0023721125908195972,
      -0.15014111995697021,
      -0.6247711777687073,
      -1.3049509525299072,
      -1.4699350595474243,
      -2.433995246887207,
      -0.8618985414505005,
      -0.7632815837860107,
      -0.7532505989074707,
      -0.42045846581459045,
      1.1718146800994873,
      -0.5190691947937012,
      -0.9214614629745483,
      -1.271959900856018,
      -0.6358710527420044,
      0.5831227898597717,
      -2.3818819522857666,
      -2.226121187210083,
      -1.1491305828094482,
      0.1434805542230606,
      0.48318177461624146,
      -0.0010934489546343684,
      -0.9181089997291565,
      0.1935471147298813,
      -0.059035774320364,
      0.035743340849876404,
      -0.0479620136320591,
      -0.05671146884560585,
      -0.008066429756581783,
      -0.5413715243339539,
      -1.1776050329208374,
      -1.808258056640625,
      -3.415191888809204,
      -2.488447904586792,
      0.0057940613478422165,
      -1.3778132200241089,
      -4.530148506164551,
      -0.35963451862335205,
      4.85307502746582,
      2.8428139686584473,
      -0.009497826918959618,
      0.3481942117214203,
      0.5913833975791931,
      -3.332073926925659,
      0.283966600894928,
      -1.9822967052459717,
      -3.009227991104126,
      -0.4157939553260803,
      1.9578169584274292,
      0.7272619605064392,
      -0.2632732391357422,
      0.2519128620624542,
      -0.033923711627721786,
      0.04776142165064812,
      0.019218359142541885,
      0.044293828308582306,
      -0.10728006064891815,
      -0.2415079027414322,
      -0.8316214680671692,
      -2.425976037979126,
      -1.8181817531585693,
      1.8508224487304688,
      0.9668825268745422,
      -0.6854432821273804,
      -3.804473876953125,
      -1.5738953351974487,
      -1.4594515562057495,
      2.7948575019836426,
      2.7559802532196045,
      -4.542190074920654,
      -0.9435340166091919,
      -0.4334952235221863,
      -4.403187274932861,
      -3.7942779064178467,
      -3.108041286468506,
      0.30410346388816833,
      -0.7362931966781616,
      -2.0164787769317627,
      -2.187523603439331,
      -1.4269258975982666,
      -0.1149899885058403,
      0.038311079144477844,
      0.08385363966226578,
      0.16604956984519958,
      0.20844367146492004,
      -0.5969769358634949,
      -0.3713277578353882,
      -0.8843716382980347,
      -0.009175177663564682,
      0.7674423456192017,
      -0.1356080323457718,
      -1.2852933406829834,
      -2.4669928550720215,
      0.439808189868927,
      3.447209596633911,
      3.0666897296905518,
      2.7716305255889893,
      -1.4846919775009155,
      -3.702361583709717,
      -3.3011813163757324,
      -2.2041144371032715,
      -4.287740230560303,
      -3.604613780975342,
      -1.2557177543640137,
      -4.699842929840088,
      -6.924404621124268,
      -4.6752424240112305,
      -2.153792142868042,
      0.3409987688064575,
      0.01243081595748663,
      0.005160787142813206,
      0.07446347177028656,
      0.09695517271757126,
      0.18206223845481873,
      -0.32101044058799744,
      -1.3716336488723755,
      -0.5073778033256531,
      0.42909106612205505,
      -1.1013710498809814,
      -0.02767147496342659,
      -0.02074131742119789,
      -0.6673564910888672,
      2.074388265609741,
      1.9923261404037476,
      5.767353534698486,
      0.22706802189350128,
      -2.239870309829712,
      -6.980529308319092,
      -0.9389135241508484,
      -3.1705377101898193,
      -1.4665533304214478,
      -2.9256513118743896,
      -6.383923053741455,
      -6.428925037384033,
      -3.943910837173462,
      -1.5625722408294678,
      -0.15799517929553986,
      0.021157156676054,
      -0.01395896915346384,
      0.056676238775253296,
      0.026088234037160873,
      0.42116114497184753,
      -0.7895855903625488,
      -1.1411970853805542,
      1.246903419494629,
      1.6592497825622559,
      0.09363393485546112,
      3.8179421424865723,
      1.7946096658706665,
      -1.7069206237792969,
      -1.004872441291809,
      2.2989590167999268,
      6.959621429443359,
      4.3823137283325195,
      2.487342119216919,
      -5.09733247756958,
      -0.04582097381353378,
      -0.5417362451553345,
      -1.1695380210876465,
      -4.052047252655029,
      -6.3573994636535645,
      -5.298022747039795,
      -2.771550416946411,
      -0.6744365096092224,
      -0.08319850265979767,
      0.07628592103719711,
      0.06596256047487259,
      0.024034682661294937,
      0.18772776424884796,
      0.7539868354797363,
      -0.9849328398704529,
      -0.8506078720092773,
      0.9303277730941772,
      2.4277727603912354,
      1.6871299743652344,
      0.9383084774017334,
      0.06382432579994202,
      -2.061507225036621,
      0.8794682025909424,
      3.4389424324035645,
      7.732360363006592,
      9.09315299987793,
      2.4763221740722656,
      -0.7075639963150024,
      0.6915042400360107,
      -2.25026535987854,
      -1.7160688638687134,
      -3.4324896335601807,
      -4.458502769470215,
      -2.885164260864258,
      -1.101876139640808,
      -0.39808928966522217,
      0.11269856989383698,
      0.030983643606305122,
      0.02725084498524666,
      -0.034037817269563675,
      0.25130945444107056,
      1.3774497509002686,
      -0.006895855534821749,
      1.0927493572235107,
      3.009206771850586,
      3.5080184936523438,
      3.6076362133026123,
      2.6440558433532715,
      -4.079823017120361,
      -0.11576841026544571,
      5.011580944061279,
      7.39146089553833,
      6.962399005889893,
      8.116521835327148,
      4.138885498046875,
      5.821191787719727,
      4.252279758453369,
      -1.4189311265945435,
      -1.410610318183899,
      -2.5353684425354004,
      -2.7844369411468506,
      -2.1821537017822266,
      -0.319755882024765,
      -0.15862669050693512,
      0.004511702805757523,
      0.05953168496489525,
      0.012443347834050655,
      0.06739076226949692,
      0.2992006540298462,
      1.2387570142745972,
      0.36012062430381775,
      0.3719223141670227,
      1.231056809425354,
      0.9241023659706116,
      0.7973844408988953,
      1.3800488710403442,
      -3.3999931812286377,
      0.5857353806495667,
      2.9092209339141846,
      5.629624843597412,
      4.560641288757324,
      4.518735885620117,
      3.508272886276245,
      7.59813928604126,
      3.9777987003326416,
      -3.49432110786438,
      -3.0110414028167725,
      -1.2801930904388428,
      -0.6735497117042542,
      -0.5142295956611633,
      -0.07066769897937775,
      -0.153495192527771,
      0.02066952735185623,
      0.050361763685941696,
      0.03605268523097038,
      0.06911596655845642,
      0.052730511873960495,
      0.2556314468383789,
      -2.4759278297424316,
      -4.44785213470459,
      -2.766125440597534,
      1.3283201456069946,
      -1.3383735418319702,
      0.9624543190002441,
      2.6897270679473877,
      3.841308832168579,
      2.1480982303619385,
      4.008963108062744,
      2.3048596382141113,
      6.325050354003906,
      6.566469192504883,
      5.226594924926758,
      -2.169071674346924,
      -4.3360066413879395,
      -1.3943618535995483,
      1.2363814115524292,
      0.22845515608787537,
      -1.1076388359069824,
      -1.1183207035064697,
      -0.12633921205997467,
      0.10549033433198929,
      0.0753825232386589,
      0.06836598366498947,
      -0.05246583744883537,
      -0.36535143852233887,
      -0.852837324142456,
      -3.4888789653778076,
      -7.201772212982178,
      -5.01019287109375,
      -1.0283180475234985,
      -3.057471990585327,
      -0.44188663363456726,
      5.664673328399658,
      6.925751686096191,
      4.100940227508545,
      4.038889408111572,
      1.5859073400497437,
      7.636032581329346,
      4.32973575592041,
      -1.2014130353927612,
      -5.871091842651367,
      -2.394500494003296,
      -0.3553861677646637,
      -0.9341204762458801,
      -1.9792907238006592,
      -2.4375784397125244,
      -1.4818987846374512,
      -0.5393146276473999,
      0.052217427641153336,
      0.02389245480298996,
      0.04410146549344063,
      -0.06826993823051453,
      -0.5085731148719788,
      -1.4257562160491943,
      -4.3138604164123535,
      -6.348705768585205,
      -5.4723639488220215,
      -4.896846771240234,
      -4.1189799308776855,
      -1.2527724504470825,
      -0.14246106147766113,
      4.707841873168945,
      4.64990234375,
      2.04593563079834,
      2.1982028484344482,
      0.6541796922683716,
      -0.8864038586616516,
      -3.878213405609131,
      -6.77908992767334,
      -3.7935256958007812,
      -1.8141140937805176,
      -2.1295077800750732,
      -1.3373080492019653,
      -1.084191918373108,
      -0.4533824324607849,
      -0.0925719290971756,
      0.041293252259492874,
      0.013705176301300526,
      0.04820677265524864,
      -0.12801502645015717,
      -0.5885245203971863,
      -1.6336268186569214,
      -4.295710563659668,
      -7.593729019165039,
      -7.522774696350098,
      -6.337987422943115,
      -8.556018829345703,
      -6.70134162902832,
      -1.2729853391647339,
      1.1274287700653076,
      -0.9799317121505737,
      0.9586202502250671,
      -1.5317671298980713,
      -6.832859039306641,
      -6.813562870025635,
      -9.02152156829834,
      -9.514506340026855,
      -6.470698833465576,
      -3.7845194339752197,
      -3.289351224899292,
      -2.4183876514434814,
      -1.0419602394104004,
      -0.42361199855804443,
      0.11245999485254288,
      0.1301218718290329,
      0.021398287266492844,
      0.01148915570229292,
      -0.24684105813503265,
      -0.6989561915397644,
      -2.4263837337493896,
      -4.604587554931641,
      -6.974735736846924,
      -7.853790283203125,
      -8.421090126037598,
      -10.16865062713623,
      -8.161094665527344,
      -2.2006325721740723,
      -3.0780978202819824,
      -2.767946243286133,
      -1.0608102083206177,
      -4.455275535583496,
      -9.672333717346191,
      -9.167989730834961,
      -10.0000638961792,
      -10.570199012756348,
      -8.000970840454102,
      -4.317062854766846,
      -4.019675254821777,
      -2.9308862686157227,
      -0.7413626909255981,
      0.16992239654064178,
      0.0841791108250618,
      0.07295031100511551,
      0.017254840582609177,
      0.01467509288340807,
      -0.31566497683525085,
      -1.2563239336013794,
      -3.0264716148376465,
      -5.3947062492370605,
      -5.617361068725586,
      -6.425548076629639,
      -6.304472923278809,
      -5.592212677001953,
      -3.967153549194336,
      -1.8491497039794922,
      -2.7797858715057373,
      -1.4927599430084229,
      -2.5882039070129395,
      -6.070095539093018,
      -6.6853766441345215,
      -7.627625942230225,
      -7.076164245605469,
      -10.401017189025879,
      -8.180465698242188,
      -3.2786402702331543,
      -2.4199421405792236,
      -2.1743836402893066,
      -0.6437698006629944,
      -0.2569805681705475,
      0.04814368113875389,
      0.07354632765054703,
      0.021145544946193695,
      0.04674103483557701,
      -0.2473994940519333,
      -1.4150614738464355,
      -2.85884428024292,
      -3.5992257595062256,
      -4.39949893951416,
      -3.65175199508667,
      -1.5568982362747192,
      -0.6032174825668335,
      -2.893275499343872,
      -6.689098358154297,
      -4.304257392883301,
      -5.227264404296875,
      -4.234684944152832,
      -5.437353134155273,
      -4.768133163452148,
      -6.421123504638672,
      -7.814647197723389,
      -8.907855987548828,
      -5.7474894523620605,
      -2.2724552154541016,
      -2.0566864013671875,
      -0.4350610077381134,
      -0.019610479474067688,
      0.039574090391397476,
      0.04735276475548744,
      0.06284432113170624,
      0.061938315629959106,
      0.070464588701725,
      -0.15290595591068268,
      -0.8433120250701904,
      -1.7497285604476929,
      -0.8963955044746399,
      -1.1338690519332886,
      0.2523971199989319,
      1.9314672946929932,
      0.3107064962387085,
      -4.425454139709473,
      -5.963646411895752,
      -5.9175615310668945,
      -4.77422571182251,
      -5.543669700622559,
      -3.691504955291748,
      -1.4720293283462524,
      -0.805625319480896,
      -5.557079315185547,
      -4.1730523109436035,
      -3.3602938652038574,
      -2.279001235961914,
      -1.230654239654541,
      0.21539698541164398,
      0.45211830735206604,
      0.1445237249135971,
      0.06109311059117317,
      0.016051683574914932,
      0.026859868317842484,
      0.027462642639875412,
      -0.06967531889677048,
      -0.708301305770874,
      -0.23021672666072845,
      1.9396854639053345,
      3.1176793575286865,
      2.541501760482788,
      -0.6646175384521484,
      -0.5173832774162292,
      -0.4239317774772644,
      -2.9941067695617676,
      -3.5285072326660156,
      -3.723522901535034,
      -6.214877605438232,
      -4.896383285522461,
      0.1622627228498459,
      0.34080788493156433,
      -4.670862674713135,
      -1.57132887840271,
      -1.7376612424850464,
      -1.6888705492019653,
      -0.0035322115290910006,
      0.056437958031892776,
      0.3255562484264374,
      0.1685037463903427,
      0.24054677784442902,
      0.06804434210062027,
      0.06432409584522247,
      0.03081800974905491,
      -0.06899353861808777,
      -0.461372971534729,
      0.0259663425385952,
      3.471254587173462,
      3.527928113937378,
      1.3276786804199219,
      -0.8446688652038574,
      -1.3087549209594727,
      -1.9951708316802979,
      -3.1415631771087646,
      -6.957167625427246,
      -7.14486837387085,
      -5.527619361877441,
      -3.491079092025757,
      -3.863351821899414,
      -2.7668862342834473,
      -2.347372055053711,
      -1.2741994857788086,
      -0.9779141545295715,
      -0.31006303429603577,
      -0.2764575183391571,
      0.09516879916191101,
      0.16001488268375397,
      0.15367792546749115,
      0.03679509833455086,
      0.04623766615986824,
      0.07585503906011581,
      0.013598361052572727,
      0.02321251854300499,
      0.07060316950082779,
      1.0044097900390625,
      1.6075119972229004,
      1.455260157585144,
      1.741164207458496,
      0.8096088171005249,
      -0.30193033814430237,
      -1.6861845254898071,
      -1.5608454942703247,
      -0.976378321647644,
      -0.8265219926834106,
      -0.00499236024916172,
      -1.660111904144287,
      -2.4522716999053955,
      -0.6351696848869324,
      0.7562122344970703,
      -0.858417272567749,
      0.5633462071418762,
      0.5267798900604248,
      0.2712392210960388,
      0.032963383942842484,
      0.018834002315998077,
      0.07691895216703415,
      0.03692089393734932,
      0.04654422774910927,
      0.05801131948828697,
      0.014224412851035595,
      0.045285727828741074,
      0.034186556935310364,
      0.3264496624469757,
      0.9952801465988159,
      1.649679183959961,
      1.6559034585952759,
      0.7092099189758301,
      0.4960251748561859,
      0.12596914172172546,
      -0.3271423876285553,
      0.1165543645620346,
      -0.27000847458839417,
      1.512656331062317,
      1.7559467554092407,
      0.8714471459388733,
      1.5673036575317383,
      1.055683970451355,
      0.4472159147262573,
      0.2602372467517853,
      -0.14732620120048523,
      -0.019557740539312363,
      0.0018837986281141639,
      0.019033867865800858,
      0.07512953877449036,
      0.01917470619082451,
      0.038948316127061844,
      0.040805090218782425,
      0.049861740320920944,
      0.06441975384950638,
      0.02318768948316574,
      0.05923319235444069,
      0.01599499210715294,
      0.07555793225765228,
      -0.009779976680874825,
      -7.062777876853943E-4,
      -0.03834504634141922,
      -0.0068824030458927155,
      0.040630653500556946,
      -0.06952550262212753,
      0.004075605422258377,
      0.21502187848091125,
      0.28071439266204834,
      0.09207116067409515,
      0.084000363945961,
      0.0713193267583847,
      0.13422106206417084,
      0.0601479597389698,
      0.08872958272695541,
      0.08061344176530838,
      0.05735311284661293,
      0.02672305330634117,
      0.059176456183195114,
      0.010890928097069263,
      0.07920827716588974,
      0.0893259271979332,
      0.0786077007651329,
      0.110747329890728,
      0.09224025160074234,
      0.07351987808942795,
      0.12337386608123779,
      0.10626346617937088,
      0.11078175157308578,
      0.057527437806129456,
      0.06723692268133163,
      0.1266019493341446,
      0.09627503901720047,
      0.10924217849969864,
      0.09908079355955124,
      0.10761705785989761,
      0.06285417824983597,
      0.10391230136156082,
      0.09134962409734726,
      0.11929003149271011,
      0.10531247407197952,
      0.10580962151288986,
      0.1263587325811386,
      0.08446722477674484,
      0.09101324528455734,
      0.12186276167631149,
      0.09457152336835861,
      0.06806502491235733,
      0.062723807990551,
      0.07462739199399948,
      0.057338036596775055,
      0.07704441994428635,
      0.07692911475896835,
      0.07510685175657272,
      0.12217148393392563,
      0.1035056784749031,
      0.07376547902822495,
      -0.11895205825567245,
      -0.018927648663520813,
      0.08158699423074722,
      0.1053147092461586,
      0.16816383600234985,
      0.13826024532318115,
      0.33667072653770447,
      0.5052434802055359,
      -0.5145307183265686,
      0.07650814205408096,
      0.09569934755563736,
      0.1523599624633789,
      0.11353100091218948,
      0.1558089256286621,
      0.13264021277427673,
      0.07648328691720963,
      0.10787545889616013,
      0.08149098604917526,
      0.11631212383508682,
      0.10072048753499985,
      0.068679578602314,
      0.08515266329050064,
      0.05987316370010376,
      0.05984064191579819,
      0.09401044994592667,
      0.08433056622743607,
      0.09674044698476791,
      0.012673613615334034,
      -0.5242497324943542,
      -1.5238032341003418,
      -1.4604637622833252,
