{
  "InputNodes": 784,
  "OutputNodes": 10,
  "OutputBias": {
    "data": [
      -4.641201019287109,
      -1.7951605319976807,
      -4.271975517272949,
      -4.298911094665527,
      -3.2772088050842285,
      0.03982396796345711,
      -4.950624465942383,
      -1.3425437211990356,
      -5.967901706695557,
      -2.9633963108062744
    ],
    "rows": 10,
    "cols": 1
  },
  "HiddenWeights-0": {
    "data": [
      0.037404127418994904,
      0.031112248077988625,
      -0.00991876982152462,
      0.031539224088191986,
      -0.0030325972475111485,
      0.029431799426674843,
      0.014555243775248528,
      0.014315437525510788,
      0.007260503247380257,
      0.02182466723024845,
      0.012905348092317581,
      0.007211567834019661,
      0.024690592661499977,
      -0.02156776748597622,
      -0.019298283383250237,
      0.010835802182555199,
      0.017172368243336678,
      0.016312098130583763,
      -0.022249644622206688,
      0.023183735087513924,
      0.011417223140597343,
      0.04180387407541275,
      0.011719722300767899,
      -0.014926638454198837,
      0.017200065776705742,
      -0.01217648759484291,
      0.03987651318311691,
      -0.01526668667793274,
      0.03547339886426926,
      0.03772212564945221,
      -0.01085398904979229,
      -0.007946225814521313,
      0.04123259335756302,
      0.016755657270550728,
      0.007036542985588312,
      0.011109141632914543,
      0.01844683848321438,
      0.014654509723186493,
      0.016957396641373634,
      -0.05246775597333908,
      -0.09099013358354568,
      -0.02144935354590416,
      -0.018775571137666702,
      -0.025302136316895485,
      -0.0295140091329813,
      -0.06146073341369629,
      0.010972916148602962,
      -0.04677179455757141,
      -0.013381908647716045,
      -0.01379396952688694,
      0.011793924495577812,
      0.0206699650734663,
      -0.007394471205770969,
      0.03310241550207138,
      -0.0021969787776470184,
      0.02263462357223034,
      -0.007406945340335369,
      0.007878616452217102,
      0.02699577622115612,
      -0.01664331555366516,
      -0.020420482382178307,
      0.012911075726151466,
      -0.03912816941738129,
      -0.06970039755105972,
      -0.03442922979593277,
      -0.06374610960483551,
      -0.013145356439054012,
      0.10701030492782593,
      -0.03954954445362091,
      -0.25778788328170776,
      -0.20398634672164917,
      -0.2850286364555359,
      -0.5749086737632751,
      -0.512567937374115,
      -0.44418153166770935,
      -0.3589780032634735,
      -0.18258312344551086,
      -0.023236382752656937,
      0.005770406685769558,
      -0.026742788031697273,
      -0.004876674152910709,
      -0.033099181950092316,
      -0.02387584187090397,
      -0.02576339803636074,
      -0.02462816797196865,
      -0.026185372844338417,
      0.012145446613430977,
      -0.04551774635910988,
      -0.035358015447854996,
      0.1247454583644867,
      0.12462130934000015,
      0.10445763170719147,
      -0.03366001695394516,
      0.08138500154018402,
      0.2180985063314438,
      0.3464052081108093,
      -0.08711197227239609,
      -0.359558641910553,
      -0.29740360379219055,
      -0.6532863974571228,
      -0.9678451418876648,
      -0.8999660611152649,
      -1.2472035884857178,
      -1.111588954925537,
      -0.4186573028564453,
      0.06889966130256653,
      0.07862306386232376,
      0.030057089403271675,
      0.006144864950329065,
      -2.28211865760386E-4,
      0.021782157942652702,
      -0.013723498210310936,
      0.017319029197096825,
      0.004718384705483913,
      0.03316459059715271,
      0.024427616968750954,
      0.016071734949946404,
      0.17199398577213287,
      0.2183607518672943,
      0.30683887004852295,
      0.4113263785839081,
      0.3798590302467346,
      0.23768702149391174,
      0.5507819652557373,
      1.2456339597702026,
      1.172282338142395,
      0.598138153553009,
      -0.23177370429039001,
      0.3597233295440674,
      -0.08064480870962143,
      -0.0662446841597557,
      -0.3814948797225952,
      -0.38252776861190796,
      -0.18571831285953522,
      -0.2718563973903656,
      -0.20765697956085205,
      0.019567787647247314,
      0.040349263697862625,
      0.03606661409139633,
      0.009306458756327629,
      0.018376583233475685,
      0.03663121163845062,
      -0.012364724650979042,
      0.037886593490839005,
      0.09568846225738525,
      0.3491050601005554,
      0.5007915496826172,
      0.987543523311615,
      1.0938794612884521,
      1.0764086246490479,
      0.3168034851551056,
      -0.010126791894435883,
      -0.02017642743885517,
      -0.5861137509346008,
      0.1847355216741562,
      0.12980033457279205,
      1.4685592651367188,
      0.8304626941680908,
      0.812980055809021,
      0.15863017737865448,
      0.19742870330810547,
      -0.05310767889022827,
      0.2726650536060333,
      0.08423606306314468,
      -0.010819013230502605,
      0.014660377986729145,
      -0.019884519279003143,
      0.007063955534249544,
      0.029251357540488243,
      0.016298538073897362,
      -0.10117721557617188,
      -0.006346355192363262,
      0.20211878418922424,
      0.5251836776733398,
      0.5021417737007141,
      0.6414282917976379,
      0.9650061130523682,
      0.2707751989364624,
      -0.5949709415435791,
      -0.9033603668212891,
      -0.9727225303649902,
      -2.000685453414917,
      -1.6081230640411377,
      -0.7243800163269043,
      -2.3550472259521484,
      -1.1385442018508911,
      -1.3813103437423706,
      -0.8265764713287354,
      -0.696111261844635,
      -1.0478836297988892,
      0.7324040532112122,
      0.7925077080726624,
      0.7969211339950562,
      0.33120372891426086,
      0.22904986143112183,
      0.10666776448488235,
      -0.026381434872746468,
      -0.016612669453024864,
      -0.052043356001377106,
      -0.12114877253770828,
      0.36026012897491455,
      0.8118690252304077,
      0.47471538186073303,
      0.9571134448051453,
      0.16485662758350372,
      -0.7715670466423035,
      -0.8867979049682617,
      -0.47471392154693604,
      -2.400456190109253,
      -1.6350822448730469,
      -2.101713180541992,
      -1.6301703453063965,
      -2.5697739124298096,
      -1.6721689701080322,
      -1.3255023956298828,
      -1.126238465309143,
      -1.4839740991592407,
      -1.175635576248169,
      0.44321152567863464,
      0.15999065339565277,
      1.1270040273666382,
      0.7489298582077026,
      0.3288937211036682,
      0.040286093950271606,
      -0.014992542564868927,
      -0.018854733556509018,
      0.06854736804962158,
      -0.21088643372058868,
      0.4421063959598541,
      0.7982966899871826,
      0.641139805316925,
      0.4924496114253998,
      -1.354369044303894,
      0.09499797224998474,
      -0.6367659568786621,
      0.20970335602760315,
      -1.2320185899734497,
      -0.9146350026130676,
      -1.5791336297988892,
      -1.2407103776931763,
      -2.5218563079833984,
      -0.7884628176689148,
      -0.3744150698184967,
      0.42863360047340393,
      0.03501363843679428,
      -0.19474710524082184,
      0.4485766887664795,
      -0.2730071246623993,
      1.165952444076538,
      1.609848976135254,
      0.37267178297042847,
      0.10693275928497314,
      -0.013958586379885674,
      -0.022311432287096977,
      0.08774513006210327,
      -0.46370261907577515,
      0.48514339327812195,
      1.028550624847412,
      -0.33184728026390076,
      -1.1249568462371826,
      -0.9413761496543884,
      -0.6999422311782837,
      -0.4348098039627075,
      -0.6632521152496338,
      -0.7426137328147888,
      -1.0558316707611084,
      -2.2640507221221924,
      -1.1758630275726318,
      -0.6236479878425598,
      -0.432842880487442,
      -1.099257469177246,
      -0.09243211895227432,
      0.7087087631225586,
      1.3598283529281616,
      0.10292720794677734,
      0.17046627402305603,
      1.536380410194397,
      1.4887229204177856,
      0.15697838366031647,
      -0.13698603212833405,
      -0.00910860300064087,
      0.02416989393532276,
      -0.05063273012638092,
      -0.6122124195098877,
      0.6080124974250793,
      -0.039168164134025574,
      -0.8685795068740845,
      -0.4066247344017029,
      -0.7561757564544678,
      -1.948258876800537,
      -1.7558313608169556,
      -2.0013203620910645,
      -0.14730994403362274,
      -0.9543936252593994,
      -2.6372971534729004,
      -0.6713442802429199,
      -0.5084724426269531,
      0.618274450302124,
      0.04836750030517578,
      0.8738849759101868,
      -0.1560988426208496,
      0.6174560189247131,
      0.052898623049259186,
      -0.5210584998130798,
      0.630255401134491,
      1.2662827968597412,
      0.1175602599978447,
      0.04104262962937355,
      0.007682803086936474,
      -0.0809004157781601,
      -0.5889301896095276,
      -0.7195582389831543,
      -1.1361024379730225,
      -1.016000747680664,
      -1.5244719982147217,
      -0.4489938020706177,
      -1.6781997680664062,
      0.19757522642612457,
      -0.2830042243003845,
      -1.0550410747528076,
      -0.1108323186635971,
      -1.324439525604248,
      -1.8429844379425049,
      0.48349860310554504,
      0.2852673828601837,
      -0.1649523824453354,
      -0.7662510275840759,
      -0.531993567943573,
      -2.030318021774292,
      -1.3818628787994385,
      -1.2691326141357422,
      -1.0470646619796753,
      -0.5839813351631165,
      0.5325260162353516,
      0.09429284930229187,
      0.030607176944613457,
      0.03959199786186218,
      -0.2061983197927475,
      -0.7389009594917297,
      -1.2329214811325073,
      -2.124417304992676,
      -2.3245933055877686,
      -1.5495847463607788,
      -0.1938226819038391,
      0.22990460693836212,
      -0.8237856030464172,
      1.5069262981414795,
      0.9828547239303589,
      2.6233789920806885,
      2.782898187637329,
      1.8059885501861572,
      -1.057881474494934,
      -0.7917904853820801,
      -1.3170264959335327,
      -0.9310908913612366,
      -0.8251134157180786,
      -0.8122167587280273,
      -0.5745004415512085,
      -1.4760541915893555,
      -1.9241160154342651,
      -0.2534264624118805,
      0.18955667316913605,
      0.11809463798999786,
      0.040821947157382965,
      0.0065291812643408775,
      -0.17486916482448578,
      -0.5551882386207581,
      -0.8417374491691589,
      -1.5818852186203003,
      -1.4811352491378784,
      0.15278524160385132,
      0.3799002766609192,
      0.41131001710891724,
      1.1531010866165161,
      0.6662086844444275,
      0.24698026478290558,
      1.5856647491455078,
      1.7327499389648438,
      0.17987437546253204,
      0.005128565244376659,
      0.5689204335212708,
      0.4888995587825775,
      -0.5871973037719727,
      -0.6120862364768982,
      -0.1675601303577423,
      -0.22934292256832123,
      -0.20790314674377441,
      -0.12555789947509766,
      0.42177465558052063,
      0.5239189863204956,
      0.42229795455932617,
      0.09777575731277466,
      0.011164506897330284,
      -0.14225994050502777,
      -0.3456341028213501,
      -0.20289002358913422,
      0.8853466510772705,
      0.3508780598640442,
      1.118997573852539,
      1.2398933172225952,
      0.40445685386657715,
      0.29182764887809753,
      -0.6077562570571899,
      0.7376790642738342,
      1.3087506294250488,
      1.0023787021636963,
      1.453661322593689,
      -0.16077543795108795,
      0.2284420132637024,
      -0.023932872340083122,
      -0.28180187940597534,
      0.7634640336036682,
      -0.31437304615974426,
      -0.6584630012512207,
      0.5579606890678406,
      0.1836611032485962,
      0.46347105503082275,
      0.40045788884162903,
      0.10421495139598846,
      0.021025782451033592,
      0.03293345868587494,
      -0.0018186481902375817,
      0.0021768519654870033,
      0.5470224022865295,
      1.9890878200531006,
      0.07653417438268661,
      0.6519237756729126,
      0.6499831080436707,
      0.12095838785171509,
      0.4381377696990967,
      -0.49530428647994995,
      0.7965471744537354,
      0.511214017868042,
      1.3703975677490234,
      2.308239221572876,
      -0.35123366117477417,
      1.1191562414169312,
      -0.7954473495483398,
      0.25405773520469666,
      0.031312402337789536,
      -0.5590054988861084,
      -0.13931867480278015,
      0.6160569787025452,
      0.12272370606660843,
      -0.5054004192352295,
      0.17420694231987,
      0.4215390980243683,
      0.024860871955752373,
      0.03169669210910797,
      0.06743600964546204,
      0.05904349684715271,
      0.8174784779548645,
      1.3381458520889282,
      0.09846534579992294,
      -0.19172926247119904,
      0.30061283707618713,
      -0.017022432759404182,
      0.08233323693275452,
      -0.17928597331047058,
      -0.020780663937330246,
      0.5084461569786072,
      1.6897765398025513,
      1.814473032951355,
      1.1305854320526123,
      1.1968659162521362,
      0.97728031873703,
      -0.28757068514823914,
      1.0907565355300903,
      0.9458165764808655,
      0.5377422571182251,
      -0.16277851164340973,
      0.6649360656738281,
      0.5898340344429016,
      0.588234007358551,
      0.2276913821697235,
      0.0763440877199173,
      -0.013414090499281883,
      -0.01827000267803669,
      0.18204185366630554,
      0.9349383115768433,
      1.2509255409240723,
      0.039142295718193054,
      0.19742067158222198,
      -0.02830839529633522,
      0.7582594156265259,
      0.46334028244018555,
      0.24152548611164093,
      0.22327902913093567,
      -0.09459468722343445,
      0.5408794283866882,
      1.998131275177002,
      0.7536939382553101,
      -0.11757341772317886,
      0.23436477780342102,
      0.7048770785331726,
      0.6082114577293396,
      0.8440806269645691,
      1.6289578676223755,
      -0.033834606409072876,
      0.9682437181472778,
      1.1526151895523071,
      0.3676711320877075,
      0.07736120373010635,
      0.017720429226756096,
      -0.03979387879371643,
      -0.016225645318627357,
      0.0950075164437294,
      0.9365622997283936,
      0.5486270785331726,
      0.27612003684043884,
      0.27321767807006836,
      -0.04476519674062729,
      -0.5830768346786499,
      0.40192320942878723,
      -0.43123140931129456,
      -0.20952029526233673,
      1.125408411026001,
      0.49163195490837097,
      0.6471931338310242,
      0.40132784843444824,
      0.2859572470188141,
      0.27121859788894653,
      0.38961949944496155,
      -0.6814382076263428,
      0.48215457797050476,
      1.0327178239822388,
      0.18758109211921692,
      1.3496941328048706,
      1.6268852949142456,
      0.3574012815952301,
      0.12225951999425888,
      0.04664366692304611,
      0.006138480268418789,
      -0.03904763609170914,
      0.06044457107782364,
      0.9230769872665405,
      0.5525982975959778,
      0.48418521881103516,
      0.3103998303413391,
      -0.2594916522502899,
      -0.4245605170726776,
      0.534602165222168,
      0.5780287384986877,
      0.7853226661682129,
      0.3428857624530792,
      1.244017481803894,
      1.7323487997055054,
      1.3829784393310547,
      1.3282179832458496,
      0.2534378468990326,
      1.1350082159042358,
      -1.2567003965377808,
      0.37170520424842834,
      1.2774758338928223,
      0.4129314720630646,
      0.9613045454025269,
      0.483335942029953,
      0.1844310313463211,
      0.1289827972650528,
      0.011767944321036339,
      0.03925652801990509,
      -0.0834587961435318,
      0.12792369723320007,
      0.7194608449935913,
      0.3090234398841858,
      -0.27483421564102173,
      0.4217017889022827,
      0.8255283236503601,
      1.1186012029647827,
      0.7727028727531433,
      0.028910504654049873,
      0.6613943576812744,
      0.7209818959236145,
      -0.4657205641269684,
      -0.8301266431808472,
      0.2247350960969925,
      0.45416876673698425,
      0.1658366620540619,
      0.8343462944030762,
      -0.9676649570465088,
      0.26707035303115845,
      0.9672823548316956,
      0.8178312182426453,
      0.4172368347644806,
      -0.36895862221717834,
      -0.25879159569740295,
      0.04712934046983719,
      0.0400547981262207,
      0.022478049620985985,
      0.04055903106927872,
      0.21831399202346802,
      0.7941219806671143,
      0.5471577644348145,
      -0.27189695835113525,
      0.3605200946331024,
      0.3228408694267273,
      0.5819317698478699,
      -0.337966650724411,
      -0.5850142240524292,
      -0.40879592299461365,
      -0.9217726588249207,
      -0.3224767744541168,
      0.5333223342895508,
      0.04300396516919136,
      0.23548537492752075,
      1.8871668577194214,
      1.2218037843704224,
      0.5235344767570496,
      0.20521198213100433,
      1.1981993913650513,
      1.3152161836624146,
      0.26539814472198486,
      -0.6333412528038025,
      -0.14298115670681,
      0.045111723244190216,
      0.01702970825135708,
      -0.012372162193059921,
      -0.021048398688435555,
      0.15298210084438324,
      0.5927495956420898,
      0.977841854095459,
      0.07682178169488907,
      -0.08913683146238327,
      0.2082478553056717,
      -0.8582385778427124,
      0.10811468958854675,
      0.1352355033159256,
      0.8342858552932739,
      -0.09605342149734497,
      1.2181224822998047,
      0.29642152786254883,
      0.9177872538566589,
      -0.21855434775352478,
      1.2170644998550415,
      1.0338712930679321,
      1.5780507326126099,
      1.0006786584854126,
      1.2453445196151733,
      0.7371786832809448,
      -0.14156854152679443,
      -0.43826186656951904,
      -0.011195940896868706,
      0.02222205139696598,
      -0.0019078260520473123,
      0.011361213400959969,
      -0.00207792641595006,
      0.09416092932224274,
      0.303691029548645,
      0.553215503692627,
      -0.43574026226997375,
      -0.3522719740867615,
      -0.1624559462070465,
      0.08554088324308395,
      0.42292752861976624,
      -0.2672891318798065,
      0.29655757546424866,
      -0.005539606790989637,
      0.5674400925636292,
      0.5344643592834473,
      1.339847207069397,
      1.177831768989563,
      0.4940284788608551,
      1.346068024635315,
      1.5867515802383423,
      1.5005919933319092,
      0.6009727716445923,
      -0.0861039012670517,
      -0.5067389607429504,
      -0.5671007037162781,
      0.02330613322556019,
      -0.024018654599785805,
      0.02058292366564274,
      -0.0015646436950191855,
      -0.018976425752043724,
      0.050369225442409515,
      0.09774309396743774,
      -0.39100146293640137,
      -0.806407630443573,
      -1.0811525583267212,
      -1.1539543867111206,
      -0.7236965894699097,
      0.24986256659030914,
      -0.5268916487693787,
      0.7589495182037354,
      -0.552847146987915,
      -0.2760390043258667,
      0.17050279676914215,
      -0.44846397638320923,
      -0.09072937816381454,
      -0.6884572505950928,
      -0.3264492154121399,
      0.2320442795753479,
      -0.06764862686395645,
      -0.770743727684021,
      -0.8224672079086304,
      -0.5464103817939758,
      -0.5865997672080994,
      0.06351105868816376,
      0.03246939927339554,
      0.03253108263015747,
      0.02663332410156727,
      0.02727464772760868,
      0.05083164572715759,
      -0.03412024676799774,
      -0.5491076707839966,
      -0.9843176603317261,
      -1.1281771659851074,
      -1.7005573511123657,
      -2.2520267963409424,
      -1.8085901737213135,
      -1.5387622117996216,
      -2.0757501125335693,
      -1.7631772756576538,
      -0.8224484324455261,
      -1.4094828367233276,
      -1.2798683643341064,
      -1.4989205598831177,
      -1.2911317348480225,
      -1.9384745359420776,
      -1.3180235624313354,
      -0.7625821828842163,
      -1.1494789123535156,
      -0.4540577530860901,
      -0.357472687959671,
      -0.363334059715271,
      -0.01570178009569645,
      0.03765122592449188,
      -0.02127087675035,
      0.011191744357347488,
      0.03481487184762955,
      0.04155352711677551,
      -6.64746796246618E-4,
      -0.01844744198024273,
      -0.20228485763072968,
      -0.7470176219940186,
      -0.7733904123306274,
      -1.189205527305603,
      -1.696690320968628,
      -2.045764446258545,
      -1.8466113805770874,
      -2.190096616744995,
      -2.3151636123657227,
      -3.220561981201172,
      -2.330843925476074,
      -2.1921255588531494,
      -1.6221102476119995,
      -1.8014034032821655,
      -1.8767199516296387,
      -1.1359176635742188,
      -0.28462281823158264,
      -0.17006739974021912,
      -0.10642824321985245,
      -0.01956971548497677,
      0.02336726523935795,
      -0.005785118788480759,
      0.02108118124306202,
      0.0157387126237154,
      -0.014337094500660896,
      -0.013516170904040337,
      0.025738263502717018,
      0.026812540367245674,
      -8.021231624297798E-4,
      -0.019523536786437035,
      -0.16772547364234924,
      -0.17209948599338531,
      -0.06888740509748459,
      -0.15295636653900146,
      -0.10861994326114655,
      -0.21801404654979706,
      -0.15612433850765228,
      -0.617117166519165,
      -0.002299431711435318,
      -0.12321453541517258,
      -0.04220433533191681,
      -0.10636589676141739,
      0.004846513271331787,
      8.794013410806656E-4,
      -0.002000817097723484,
      0.010826829820871353,
      -0.013770412653684616,
      -0.023444483056664467,
      0.04116934537887573,
      0.0292730163782835,
      0.0010939979692921042,
      -0.005158558953553438,
      -0.03188464045524597,
      -0.021550016477704048,
      -0.04907854646444321,
      -0.04940086603164673,
      -0.008832537569105625,
      -0.025233423337340355,
      -0.05971769243478775,
      -0.01007834356278181,
      0.001456329133361578,
      -0.024212731048464775,
      -0.019594253972172737,
      -0.051449164748191833,
      -0.021527158096432686,
      -0.05877208709716797,
      -0.0288692694157362,
      -0.04342208057641983,
      -0.040894538164138794,
      -0.06155093386769295,
      -0.020262936130166054,
      -0.02528076060116291,
      -0.05456214398145676,
      -0.020862126722931862,
      0.001567058265209198,
      -0.0071799675934016705,
      -0.03278542309999466,
      0.0011142620351165533,
      -0.05570557713508606,
      -0.03459414094686508,
      -0.015407104045152664,
      -0.04886535555124283,
      -0.02115693874657154,
      -0.0036910781636834145,
      -0.002033191965892911,
      -0.022859590128064156,
      -0.03506051003932953,
      -0.02058665081858635,
      -0.03842340409755707,
      -0.001485695131123066,
      0.16547320783138275,
      0.0743105560541153,
      0.08706395328044891,
      0.24123787879943848,
      0.3799076974391937,
      0.3048315942287445,
      0.22573037445545197,
      0.1173526868224144,
      0.05495448037981987,
      0.08315479010343552,
      0.034255772829055786,
      -0.033410295844078064,
      -0.03495454788208008,
      -0.029397862032055855,
      -0.01610737293958664,
      -0.019788039848208427,
      -1.2660774518735707E-4,
      -1.7379573546350002E-4,
      -0.033064864575862885,
      -0.03996042162179947,
      0.002787102246657014,
      0.0010382558684796095,
      -0.051340363919734955,
      -0.007845706306397915,
      0.007569851819425821,
      0.0022943224757909775,
      -0.033295247703790665,
      0.49675074219703674,
      0.5008215308189392,
      0.819439172744751,
      0.969313383102417,
      1.2179573774337769,
      0.562461256980896,
      0.06518781930208206,
      0.9567977786064148,
      0.940067708492279,
      0.7463697195053101,
      0.2700481712818146,
      0.18572945892810822,
      0.28287413716316223,
      0.17850425839424133,
      0.03426992893218994,
      -0.03437446802854538,
      -0.0571993887424469,
      -0.02500607632100582,
      -0.038651712238788605,
      -0.019713209941983223,
      -0.03357315436005592,
      -0.013019348494708538,
      -0.05695248022675514,
      -0.093619205057621,
      -0.02059214375913143,
      -0.06843826174736023,
      -0.12560291588306427,
      -0.44865089654922485,
      -0.598855197429657,
      -0.3599189221858978,
      -0.3495802879333496,
      -0.2725624144077301,
      0.38629910349845886,
      0.3063661754131317,
      -0.7936295866966248,
      -0.2949410080909729,
      0.7853773236274719,
      0.5332326292991638,
      0.8243631720542908,
      1.0627031326293945,
      1.012550711631775,
      0.964743435382843,
      0.5628764629364014,
      0.030772263184189796,
      0.028159575536847115,
      -0.0642116591334343,
      -0.06489070504903793,
      -0.03030805103480816,
      -0.035805922001600266,
      -0.009404708631336689,
      0.027119580656290054,
      -0.011632236652076244,
      0.11900390684604645,
      0.4352869987487793,
      0.2389390766620636,
      -0.5044649243354797,
      -0.6592944860458374,
      0.5073442459106445,
      -0.005319060292094946,
      -0.8536844849586487,
      -0.14433149993419647,
      0.6216651797294617,
      -0.13824215531349182,
      0.2705172896385193,
      0.12661634385585785,
      -0.06408137828111649,
      0.8399907946586609,
      0.8423730731010437,
      1.526449203491211,
      1.358580470085144,
      0.9907668828964233,
      0.16994620859622955,
      -0.024136314168572426,
      -0.027018504217267036,
      -0.010765896178781986,
      -0.04476303607225418,
      -0.06468646228313446,
      -0.04767124727368355,
      -0.004804132506251335,
      0.3929878771305084,
      0.14499084651470184,
      0.16715401411056519,
      0.1398303210735321,
      0.3186239004135132,
      -0.11128643155097961,
      -0.6098634600639343,
      -0.5946101546287537,
      -0.44970637559890747,
      0.31866899132728577,
      -0.0421796590089798,
      -0.30948367714881897,
      0.2530743479728699,
      0.694936990737915,
      -0.0557735376060009,
      1.005173921585083,
      -0.6019802093505859,
      -0.2809944152832031,
      0.3100293278694153,
      0.32936352491378784,
      0.25999540090560913,
      0.00958955753594637,
      -0.023221900686621666,
      -0.020421171560883522,
      -0.030887693166732788,
      -0.04134317860007286,
      0.1231653019785881,
      0.06815239042043686,
      0.5599673986434937,
      -0.2252511978149414,
      -0.08640202134847641,
      0.5468717217445374,
      0.07220447808504105,
      -0.4664379954338074,
      0.7332139015197754,
      -0.022515397518873215,
      -0.212443009018898,
      -0.4193063974380493,
      -0.30694788694381714,
      0.5606823563575745,
      0.4349972605705261,
      -0.38900378346443176,
      0.019745901226997375,
      -0.030587507411837578,
      0.3784356713294983,
      0.0747557133436203,
      0.24703393876552582,
      0.1768234223127365,
      0.8567653298377991,
      0.0020038620568811893,
      0.006976763252168894,
      -0.01855090819299221,
      -0.04995003342628479,
      0.00529479281976819,
      0.15360553562641144,
      -0.07588143646717072,
      0.13363689184188843,
      -0.8437206149101257,
      -0.3907935917377472,
      -0.7647839784622192,
      -0.18900538980960846,
      0.512280285358429,
      -0.28826063871383667,
      0.4658403694629669,
      -0.549321174621582,
      -0.06511510163545609,
      0.9056196808815002,
      -0.296854168176651,
      0.05934508144855499,
      -0.028451014310121536,
      -0.6121627688407898,
      0.15577755868434906,
      0.8151597380638123,
      -1.0914311408996582,
      0.6336110830307007,
      1.5283350944519043,
      1.0132886171340942,
      0.012481448240578175,
      0.021670328453183174,
      -0.007053154055029154,
      -0.003768766764551401,
      0.14739732444286346,
      0.35128679871559143,
      -0.4295606315135956,
      -0.184872105717659,
      0.6013287305831909,
      0.9762201309204102,
      -0.3462633192539215,
      0.4795319139957428,
      -0.09179266542196274,
      -0.37740957736968994,
      0.8983335494995117,
      -0.28033387660980225,
      0.05430193990468979,
      0.7012697458267212,
      0.7017958164215088,
      -0.009185277856886387,
      0.32201817631721497,
      0.36405155062675476,
      -0.6896522045135498,
      -0.29474592208862305,
      -0.7963425517082214,
      -0.44821274280548096,
      1.2509148120880127,
      0.5951141119003296,
      0.02308027260005474,
      -0.02979377470910549,
      -0.011403498239815235,
      0.00834838766604662,
      0.1800328493118286,
      0.380770206451416,
      -0.5617846250534058,
      -1.291825771331787,
      0.6295580267906189,
      -0.3050403594970703,
      0.06661747395992279,
      -0.29320022463798523,
      0.05838249251246452,
      0.1248505711555481,
      -0.041771288961172104,
      0.23611481487751007,
      0.016710367053747177,
      -0.3140416741371155,
      0.18035753071308136,
      0.6100401282310486,
      -0.27761420607566833,
      0.25549858808517456,
      -0.4270898401737213,
      0.6587260365486145,
      0.0054524433799088,
      0.2701566219329834,
      0.9046281576156616,
      0.5848151445388794,
      0.15585221350193024,
      -0.05524863675236702,
      -0.028478125110268593,
      0.02562699466943741,
      0.26592332124710083,
      0.38106703758239746,
      0.5414829254150391,
      -0.9652016162872314,
      -0.902178943157196,
      -0.8774789571762085,
      -1.4925497770309448,
      -1.1093549728393555,
      -0.5183154940605164,
      -0.2536606788635254,
      -0.35940131545066833,
      0.043437983840703964,
      -0.473520964384079,
      -1.8761380910873413,
      -1.2434033155441284,
      -1.2699949741363525,
      -0.8751016855239868,
      0.28634878993034363,
      0.5104212760925293,
      0.8094117045402527,
      0.9297630786895752,
      0.5207928419113159,
      0.34015095233917236,
      0.33550065755844116,
      -0.06088665500283241,
      -0.06475536525249481,
      -0.013368180952966213,
      0.016139017418026924,
      0.16514936089515686,
      0.4997357130050659,
      0.662244975566864,
      -0.551007866859436,
      -0.23060058057308197,
      1.1778031587600708,
      0.6614550948143005,
      0.23424579203128815,
      1.2329418659210205,
      1.365099310874939,
      1.1486544609069824,
      1.5840673446655273,
      0.51051926612854,
      0.1613713800907135,
      0.3250063955783844,
      1.5339468717575073,
      -0.10359961539506912,
      0.46875128149986267,
      0.5752182602882385,
      0.49605321884155273,
      1.1786445379257202,
      0.9384168386459351,
      1.0454579591751099,
      -0.26868072152137756,
      0.028398463502526283,
      -0.09470301866531372,
      -0.006211637984961271,
      0.0016225902363657951,
      0.06464218348264694,
      0.5287113785743713,
      1.4373477697372437,
      1.3418575525283813,
      2.568127393722534,
      4.0739264488220215,
      3.66859769821167,
      4.4780659675598145,
      4.391021728515625,
      3.730412244796753,
      2.4196925163269043,
      2.508918046951294,
      2.0779454708099365,
      1.0429409742355347,
      1.568366289138794,
      1.012521743774414,
      0.09475495666265488,
      -0.09754395484924316,
      0.06756696850061417,
      0.6199332475662231,
      0.6448880434036255,
      1.3710793256759644,
      0.3276980519294739,
      -1.1347676515579224,
      -0.29458025097846985,
      -0.2864916920661926,
      -0.016109585762023926,
      -0.01898415945470333,
      -0.0046322946436703205,
      0.7269085645675659,
      1.9077913761138916,
      3.8686513900756836,
      5.124017715454102,
      4.644472599029541,
      4.454910755157471,
      2.0708112716674805,
      -0.013012745417654514,
      1.0538634061813354,
      0.20954285562038422,
      0.06265531480312347,
      -0.24501162767410278,
      0.46364083886146545,
      0.786417543888092,
      0.872532308101654,
      0.5142468810081482,
      0.9595111608505249,
      1.2970088720321655,
      0.2731808125972748,
      0.4210606515407562,
      0.8673892617225647,
      -0.48609229922294617,
      -1.4623498916625977,
      -1.3988115787506104,
      -0.9030165672302246,
      -0.039233043789863586,
      0.013657809235155582,
      -0.02914356254041195,
      0.662203848361969,
      1.7692607641220093,
      3.2627182006835938,
      2.4758083820343018,
      0.6470882296562195,
      -0.3484209179878235,
      -1.3813108205795288,
      -0.7492405772209167,
      0.44670480489730835,
      0.539555549621582,
      -0.6833295226097107,
      -0.5624985098838806,
      -0.2702144384384155,
      0.2435952126979828,
      0.6982889175415039,
      -1.1832084655761719,
      0.7482355237007141,
      1.020160436630249,
      0.11250723898410797,
      0.1726752519607544,
      -0.4195425808429718,
      -0.010097838938236237,
      -0.9133426547050476,
      -1.0147491693496704,
      -0.071041539311409,
      -0.00873356033116579,
      0.03745666891336441,
      0.03527766838669777,
      0.4186849296092987,
      0.9117580652236938,
      0.13329045474529266,
      -0.9955630898475647,
      -0.19418323040008545,
      -0.3557277023792267,
      0.0024628527462482452,
      -0.0312679186463356,
      -0.04551489278674126,
      -0.17722675204277039,
      -0.8778108954429626,
      0.4321109652519226,
      -0.16435782611370087,
      -0.6944002509117126,
      0.8869714140892029,
      0.9780083298683167,
      0.31622904539108276,
      0.8458551168441772,
      -0.6846099495887756,
      0.24223458766937256,
      0.29149654507637024,
      -0.8743171095848083,
      -1.3844114542007446,
      -1.172408938407898,
      -0.07388162612915039,
      -0.023484187200665474,
      -0.036183424293994904,
      0.19030722975730896,
      0.16369831562042236,
      -0.02297511324286461,
      -1.0077999830245972,
      -1.8596382141113281,
      -0.46349236369132996,
      -0.7404374480247498,
      -0.2780575454235077,
      -0.578305721282959,
      0.27348974347114563,
      0.08608012646436691,
      -1.1739641427993774,
      -0.4537597894668579,
      0.17259034514427185,
      0.20213499665260315,
      0.3531102240085602,
      0.30684956908226013,
      -0.7643574476242065,
      0.30661436915397644,
      -0.3492777645587921,
      -0.7787942886352539,
      -0.043205875903367996,
      -0.4266890585422516,
      -1.770862102508545,
      -1.8203346729278564,
      -0.1303626298904419,
      -0.01950111798942089,
      -0.031074820086359978,
      0.26371660828590393,
      -0.04323620721697807,
      -0.11441072076559067,
      -1.53677499294281,
      -1.041459083557129,
      0.01389863807708025,
      -0.2398689091205597,
      0.14342984557151794,
      -0.7252017259597778,
      0.4217797815799713,
      -1.0303391218185425,
      -0.48570379614830017,
      -1.128645896911621,
      -0.5727604627609253,
      0.029790202155709267,
      0.6396090388298035,
      0.18625874817371368,
      0.9054926037788391,
      -0.10456284135580063,
      0.9024723172187805,
      -0.09679808467626572,
      0.27709469199180603,
      -0.6126039028167725,
      -1.6454445123672485,
      -1.0971401929855347,
      -0.07625292241573334,
      -0.059654731303453445,
      -0.00283652707003057,
      0.20278491079807281,
      0.2609529495239258,
      0.3681574761867523,
      -0.8480607867240906,
      0.2374592423439026,
      -1.1014798879623413,
      -0.7415900826454163,
      -0.08503912389278412,
      -0.09246337413787842,
      0.1286705732345581,
      -0.6022505760192871,
      -0.7139989137649536,
      -1.2144864797592163,
      -0.30222126841545105,
      0.7289420962333679,
      0.03875434771180153,
      0.30468589067459106,
      0.6796771287918091,
      0.1682690680027008,
      -0.1589769423007965,
      0.48651963472366333,
      -0.7066716551780701,
      -1.4596831798553467,
      -1.37532639503479,
      -0.190187007188797,
      -0.11823617666959763,
      0.002419807715341449,
      0.0032848056871443987,
      0.16207745671272278,
      0.34427380561828613,
      0.3451586067676544,
      -0.12060096859931946,
      -0.2710675895214081,
      -0.5991535782814026,
      0.26325514912605286,
      -0.11744470149278641,
      -0.06118740513920784,
      0.2026827186346054,
      0.36088189482688904,
      -1.4088404178619385,
      -0.2779509723186493,
      0.30449387431144714,
      -0.6737923622131348,
      -0.49539005756378174,
      -0.1221713125705719,
      -0.1468631625175476,
      -0.26334109902381897,
      -0.529572069644928,
      0.142154723405838,
      -0.46350452303886414,
      -1.9571421146392822,
      -1.3103150129318237,
      -0.2750970125198364,
      -0.0708998516201973,
      -0.02303866110742092,
      -0.009763767011463642,
      0.035531505942344666,
      -0.3029440939426422,
      -0.4128786027431488,
      -0.11409227550029755,
      -0.6859956383705139,
      -0.057968221604824066,
      -1.0242849588394165,
      -0.2875843048095703,
      -0.346845418214798,
      -0.5889636874198914,
      -0.49994224309921265,
      0.3634548783302307,
      0.4111202359199524,
      0.9020923376083374,
      -0.1094452291727066,
      0.7392750382423401,
      0.07285941392183304,
      -0.48453933000564575,
      0.07753103971481323,
      -0.3242446780204773,
      -0.09482793509960175,
      -0.9794230461120605,
      -2.2154910564422607,
      -0.9274031519889832,
      -0.13856106996536255,
      -0.0013019922189414501,
      -0.027813436463475227,
      0.00480079697445035,
      -0.042512983083724976,
      -0.2580721974372864,
      0.07690377533435822,
      -0.07344367355108261,
      -0.3263133466243744,
      0.21864505112171173,
      -0.42085525393486023,
      0.31501200795173645,
      -0.7335147261619568,
      -0.031608279794454575,
      0.05311436206102371,
      0.3928169906139374,
      0.2970704734325409,
      -0.020131967961788177,
      -0.017642533406615257,
      0.1158972755074501,
      -0.46968719363212585,
      -0.18241608142852783,
      0.4289199709892273,
      0.019022515043616295,
      0.9366793036460876,
      -0.8691405653953552,
      -1.436637043952942,
      -0.9312655329704285,
      -0.0970497578382492,
      -0.036708176136016846,
      -0.026493752375245094,
      -0.03946276754140854,
      -0.13571573793888092,
      -0.12752017378807068,
      -0.7051846385002136,
      -0.6357850432395935,
      -0.4418194890022278,
      -0.18385417759418488,
      -1.101464867591858,
      -0.6585586667060852,
      0.033628229051828384,
      0.1872374713420868,
      0.281231164932251,
      0.6385736465454102,
      -0.030352231115102768,
      0.17355890572071075,
      0.5040111541748047,
      0.16598527133464813,
      -0.9400228261947632,
      -0.5965946316719055,
      -0.25020259618759155,
      -0.10745533555746078,
      -0.18675503134727478,
      -0.7217682600021362,
      -0.8959435820579529,
      -0.41815605759620667,
      -0.05772179737687111,
      -0.0048956177197396755,
      -0.018491188064217567,
      -0.02185247279703617,
      0.02363394759595394,
      -0.015691576525568962,
      -0.08333872258663177,
      -0.6462060213088989,
      -0.6697478890419006,
      0.6779914498329163,
      0.321927934885025,
      -0.3421555459499359,
      0.017243819311261177,
      0.14537496864795685,
      0.10909871011972427,
      0.8280827403068542,
      0.5056445002555847,
      0.1458996683359146,
      0.2157132923603058,
      0.49881118535995483,
      0.0945519506931305,
      -1.261644721031189,
      -1.0049958229064941,
      -0.8454993963241577,
      -0.8550466299057007,
      -0.5211138725280762,
      -0.4519168734550476,
      -0.39320889115333557,
      -0.15451884269714355,
      -0.024096062406897545,
      -0.057289689779281616,
      0.002646007342264056,
      -0.004766065161675215,
      0.14691603183746338,
      0.6475124955177307,
      0.9348264932632446,
      0.8473041653633118,
      0.5241695046424866,
      0.33377403020858765,
      1.4214686155319214,
      0.6462441086769104,
      0.3608926832675934,
      0.7073100209236145,
      0.41700974106788635,
      -0.29424378275871277,
      0.6033084988594055,
      0.5699546337127686,
      -0.2427530288696289,
      -0.6288936734199524,
      -0.8316603302955627,
      -0.5777265429496765,
      -0.8295602798461914,
      -0.44010114669799805,
      -0.31804412603378296,
      -0.646496057510376,
      -0.42957803606987,
      -0.005925982724875212,
      -0.015637675300240517,
      -0.0226516705006361,
      -0.029034236446022987,
      -0.06316843628883362,
      0.04334259778261185,
      0.3699007034301758,
      0.8824283480644226,
      1.4092738628387451,
      2.018803834915161,
      2.324592351913452,
      2.7149112224578857,
      2.542492628097534,
      1.9474250078201294,
      1.8813600540161133,
      1.5499932765960693,
      0.8581885695457458,
      0.7399622797966003,
      0.6116066575050354,
      -0.001907099038362503,
      -0.0872073620557785,
      0.10284224152565002,
      0.1571386158466339,
      0.22532176971435547,
      0.15105612576007843,
      0.1019177958369255,
      -0.0819411501288414,
      -0.06770511716604233,
      -0.01587919145822525,
      -0.05242995172739029,
      -0.056251898407936096,
      5.06183598190546E-4,
      0.004349908325821161,
      -0.022019119933247566,
      0.07301371544599533,
      0.25047409534454346,
      0.29680004715919495,
      0.4529826045036316,
      0.44397708773612976,
      0.430815190076828,
      0.4522843658924103,
      0.6469905972480774,
      0.6164687275886536,
      0.6430719494819641,
      0.6842200756072998,
      0.7330477237701416,
      0.657284677028656,
      0.4604793190956116,
      0.4424695074558258,
      0.30843740701675415,
      0.1971987932920456,
      0.06002753973007202,
      -0.044732607901096344,
      -0.034890398383140564,
      0.0048829191364347935,
      -0.061962809413671494,
      -0.006494200322777033,
      -0.02318604104220867,
      -0.04271959513425827,
      8.1366061931476E-4,
      -0.014795335941016674,
      -0.045780718326568604,
      0.006338877137750387,
      0.0070504420436918736,
      -0.010068917647004128,
      -0.006950255483388901,
      -0.006486847996711731,
      -3.33669304382056E-4,
      0.02694670669734478,
      0.05594366416335106,
      0.05827883258461952,
      0.015284243039786816,
      -0.023112747818231583,
      0.018083743751049042,
      0.04229402914643288,
      0.09623069316148758,
      0.029499737545847893,
      -0.06250446289777756,
      0.046658460050821304,
      0.02798118256032467,
      -0.05100993067026138,
      -0.023776540532708168,
      -0.003751414828002453,
      -0.010880389250814915,
      -0.014849905855953693,
      -0.014216364361345768,
      -0.040803514420986176,
      -0.024202080443501472,
      6.942353211343288E-4,
      -0.03728353977203369,
      -0.01319892704486847,
      -0.026646947488188744,
      -0.04219794273376465,
      -0.03756846487522125,
      -0.03265242651104927,
      -0.021837303414940834,
      0.02038046531379223,
      -0.013187924399971962,
      -0.004371586721390486,
      -0.02031117118895054,
      -0.033614080399274826,
      0.015469204634428024,
      0.007903443649411201,
      -0.0389767661690712,
      -0.021888935938477516,
      -0.01800263114273548,
      -0.030478643253445625,
      0.004691954702138901,
      0.010617544874548912,
      0.013994822278618813,
      0.021221699193120003,
      0.02593240700662136,
      4.052401636727154E-4,
      0.027214733883738518,
      0.015600590966641903,
      -0.023282891139388084,
      0.009959325194358826,
      0.02816653810441494,
      0.017315862700343132,
      -0.016687193885445595,
      -0.038508497178554535,
      0.0043554287403821945,
      -0.029297741129994392,
      -0.03326762095093727,
      -0.045844875276088715,
      -0.013236062601208687,
      -0.03181079775094986,
      -0.005172556731849909,
      -0.010573050007224083,
      0.03365108743309975,
      -0.02409435622394085,
      0.017668817192316055,
      -0.030363019555807114,
      -0.00871952623128891,
      -0.02660629339516163,
      0.010323895141482353,
      0.019232571125030518,
      -0.02340029366314411,
      -0.04174637794494629,
      0.008631069213151932,
      -0.03242635354399681,
      -0.016591299325227737,
      -0.006848417222499847,
      -0.02806522138416767,
      0.008191686123609543,
      -0.003948383033275604,
      -0.005898176692426205,
      0.011887727305293083,
      -0.04029497131705284,
      -0.02540152333676815,
      -0.042536694556474686,
      -0.03356403857469559,
      -0.0294461939483881,
      -0.04094526544213295,
      -0.06562484800815582,
      -0.08475910872220993,
      -0.07088252156972885,
      -0.0395204983651638,
      0.05924369394779205,
      0.036092232912778854,
      -0.008343772031366825,
      0.0063922218978405,
      -0.0456186942756176,
      -0.04698324203491211,
      0.00949503481388092,
      0.004455934278666973,
      -0.03676220774650574,
      0.025460461154580116,
      0.012540150433778763,
      -0.012020371854305267,
      0.0184615571051836,
      0.0012802111450582743,
      0.02085358463227749,
      0.014321690425276756,
      0.0063033453188836575,
      0.012281665578484535,
      -0.014202335849404335,
      0.014219023287296295,
      -0.02708619274199009,
      -0.07651545107364655,
      -0.058460697531700134,
      -0.10226433724164963,
      -0.11673954874277115,
      -0.09350449591875076,
      -0.13359232246875763,
      -0.1241188570857048,
      -0.09676424413919449,
      -0.008557405322790146,
      -0.081914022564888,
      -0.14088547229766846,
      -0.0745740458369255,
      -0.05457115173339844,
      0.019889328628778458,
      0.021082548424601555,
      -0.03430723771452904,
      -0.008427640423178673,
      0.014983683824539185,
      -0.040183112025260925,
      0.013569029048085213,
      0.01889161951839924,
      -0.013833461329340935,
      0.005710437428206205,
      -0.012924863025546074,
      0.009056590497493744,
      0.016424166038632393,
      -0.05760287865996361,
      -0.01840864308178425,
      -0.07963327318429947,
      -0.15011736750602722,
      -0.13694438338279724,
      -0.17393822968006134,
      -0.19577699899673462,
      -0.3358681797981262,
      -0.23697225749492645,
      -0.2507442831993103,
      -0.2044835239648819,
      -0.10080526024103165,
      -0.17182709276676178,
      -0.19654347002506256,
      -0.12710455060005188,
      -0.151375412940979,
      -0.06248984858393669,
      -0.05019066482782364,
      -0.0522008016705513,
      -0.02566741406917572,
      -0.03333956375718117,
      -0.016245178878307343,
      0.019958237186074257,
      -0.007590991444885731,
      -0.014279760420322418,
      -0.025332089513540268,
      -0.016551950946450233,
      -0.037266526371240616,
      -0.015276448801159859,
      -0.0949658676981926,
      -0.14000454545021057,
      -0.2121696174144745,
      -0.16920849680900574,
      -0.18768510222434998,
      -0.23851458728313446,
      -0.32200905680656433,
      -0.31264007091522217,
      -0.4508994221687317,
      -0.3571264147758484,
      -0.23281164467334747,
      -0.3370291590690613,
      -0.3626866638660431,
      -0.28179454803466797,
      -0.2962702214717865,
      -0.1969013214111328,
      -0.14119423925876617,
      -0.10761569440364838,
      -0.07551121711730957,
      -0.04074663296341896,
      0.011616280302405357,
      -0.03618352487683296,
      -0.019962413236498833,
      -0.04157623276114464,
      -0.05680544674396515,
      -0.018381474539637566,
      -0.055235978215932846,
      -0.08996722102165222,
      -0.12800507247447968,
      -0.2871679365634918,
      -0.18580202758312225,
      -0.18116091191768646,
      -0.226652592420578,
      -0.1831800490617752,
      -0.19412174820899963,
      -0.5669312477111816,
      -0.5138483047485352,
      -0.46205687522888184,
      -0.2390965223312378,
      -0.25258204340934753,
      -0.26277896761894226,
      -0.2058141529560089,
      -0.15403668582439423,
      -0.13585563004016876,
      -0.32061442732810974,
      -0.2399308681488037,
      -0.005400555673986673,
      0.02161054126918316,
      -0.01414458081126213,
      -0.022938763722777367,
      0.012212274596095085,
      -0.02702060341835022,
      -0.03473949059844017,
      -0.07258304208517075,
      -0.0914153903722763,
      -0.1377076655626297,
      -0.16489343345165253,
      -0.18758602440357208,
      -0.14091898500919342,
      -0.15808722376823425,
      -0.12329570204019547,
      -0.2604071795940399,
      -0.489031046628952,
      -0.6722874641418457,
      -0.460963636636734,
      -0.46180009841918945,
      -0.5833089351654053,
      -0.5181298851966858,
      -0.38324737548828125,
      -0.20538344979286194,
      0.18070989847183228,
      0.26862218976020813,
      -0.14248856902122498,
      -0.2906685471534729,
      -0.04968685656785965,
      -0.002848632400855422,
      0.013892332091927528,
      0.028828969225287437,
      -0.004254617728292942,
      -0.015767324715852737,
      -0.11147680133581161,
      -0.16612641513347626,
      -0.14620894193649292,
      -0.18255311250686646,
      -0.26796141266822815,
      -0.28506308794021606,
      -0.32125943899154663,
      -0.22372299432754517,
      -0.24849216639995575,
      -0.3050960302352905,
      -0.42810091376304626,
      -0.22217325866222382,
      -0.26828932762145996,
      -0.22331330180168152,
      -0.12253047525882721,
      -0.22504939138889313,
      -0.06354160606861115,
      0.14985767006874084,
      0.27245718240737915,
      0.3680984377861023,
      0.05959397554397583,
      -0.1367531418800354,
      -0.10188734531402588,
      -0.0066992733627557755,
      -0.03458329290151596,
      0.024894747883081436,
      -0.0020793245639652014,
      -0.05166188254952431,
      -0.04965659976005554,
      -0.12473756074905396,
      -0.1572703868150711,
      -0.2027404010295868,
      -0.3005352020263672,
      -0.29514279961586,
      -0.3144834637641907,
      -0.2273024171590805,
      -0.2577217221260071,
      -0.30582231283187866,
      -0.2522293031215668,
      -0.12586727738380432,
      0.008007789961993694,
      0.2135736495256424,
      0.12271492183208466,
      -0.1646781712770462,
      -0.12052243947982788,
      -0.0869002640247345,
      -0.10670871287584305,
      0.015601705759763718,
      0.25078561902046204,
      -0.13731949031352997,
      0.0493520125746727,
      0.02116873301565647,
      0.015861541032791138,
      0.016834352165460587,
      -0.029136430472135544,
      0.008553242310881615,
      -0.03311979025602341,
      -0.12476623803377151,
      -0.1946168839931488,
      -0.2600795328617096,
      -0.2445911169052124,
      -0.0940815731883049,
      -0.01988866552710533,
      -0.020253192633390427,
      -0.09068881720304489,
      0.029851842671632767,
      -0.01344397384673357,
      0.485845685005188,
      0.33990538120269775,
      0.1101430356502533,
      0.31752100586891174,
      0.3197636902332306,
      0.1683790683746338,
      0.17500166594982147,
      0.17149902880191803,
      0.44199830293655396,
      0.7844747304916382,
      0.5141326785087585,
      0.026846013963222504,
      -0.03336780145764351,
      -0.023382415995001793,
      -0.00791923701763153,
      -0.048777952790260315,
      0.01563463732600212,
      -0.06703735142946243,
      -0.1872284859418869,
      -0.22283241152763367,
      -0.32240116596221924,
      -0.21070636808872223,
      -0.2577018439769745,
      -0.02943248860538006,
      0.25642046332359314,
      0.19111119210720062,
      -0.10332757979631424,
      0.060541458427906036,
      0.28002744913101196,
      0.24376776814460754,
      0.3720112144947052,
      0.26960238814353943,
      0.2692713737487793,
      0.3263417184352875,
      0.3798408806324005,
      0.14044404029846191,
      0.3694337010383606,
      0.5474392771720886,
      0.3603566288948059,
      0.0030337926000356674,
      0.024958621710538864,
      -0.007185078226029873,
      -0.029099054634571075,
      -0.004936929792165756,
      -0.04288266599178314,
      -0.12247957289218903,
      -0.3040620684623718,
      -0.330608069896698,
      -0.22049905359745026,
      -0.21918660402297974,
      -0.1221158504486084,
      0.0827196016907692,
      0.38486817479133606,
      0.35056978464126587,
      0.3349168300628662,
      0.496040940284729,
      0.41218897700309753,
      0.12414046376943588,
      -0.1243438795208931,
      -0.27584347128868103,
      -0.14209553599357605,
      0.05409479886293411,
      -0.12938906252384186,
      -0.1799044907093048,
      -0.213687464594841,
      -0.06742602586746216,
      0.19042657315731049,
      0.17735740542411804,
      -0.017402663826942444,
      -0.016294635832309723,
      0.023226648569107056,
      0.005402011796832085,
      0.025502674281597137,
      -0.04451103135943413,
      -0.12675541639328003,
      -0.23901379108428955,
      -0.10911603271961212,
      0.08541257679462433,
      0.19513796269893646,
      0.39705997705459595,
      0.3619271516799927,
      0.46826961636543274,
      0.35016030073165894,
      0.09994236379861832,
      -0.1479019820690155,
      -0.3450080454349518,
      -0.3519030213356018,
      -0.42477336525917053,
      -0.3430618345737457,
      -0.3640853762626648,
      -0.2797861695289612,
      -0.3243288993835449,
      -0.45447853207588196,
      -0.29231637716293335,
      0.031921904534101486,
      0.05454602837562561,
      -0.03581935167312622,
      0.02115904726088047,
      -0.042527999728918076,
      -0.023337870836257935,
      -0.018948541954159737,
      0.02215493656694889,
      -0.0605485700070858,
      -0.2696215808391571,
      -0.11829251796007156,
      0.031045248731970787,
      0.2772134244441986,
      0.10380145162343979,
      0.1110001876950264,
      0.09142810851335526,
      -0.17955701053142548,
      -0.4034074544906616,
      -0.2693367302417755,
      0.02014756202697754,
      -0.2460137903690338,
      -0.22578337788581848,
      -0.4243992865085602,
      -0.33606308698654175,
      -0.36308443546295166,
      -0.28962355852127075,
      -0.3522607386112213,
      -0.21513144671916962,
      -0.026832910254597664,
      0.03782246261835098,
      0.028187932446599007,
      -0.005207923240959644,
      -0.04196446016430855,
      0.012412477284669876,
      -0.04712418466806412,
      -0.05227040499448776,
      -0.24729526042938232,
      -0.11183581501245499,
      0.16068652272224426,
      -0.034624386578798294,
      -0.20395982265472412,
      -0.11562515050172806,
      -0.025574076920747757,
      -0.06476683914661407,
      -0.6317008137702942,
      -0.7629528641700745,
      -0.3846079111099243,
      -0.18943504989147186,
      -0.15449950098991394,
      -0.013861369341611862,
      -0.350980669260025,
      -0.383950799703598,
      -0.4203118085861206,
      -0.33412113785743713,
      -0.276964396238327,
      -0.2116801142692566,
      -0.14310112595558167,
      -0.08343753218650818,
      -0.008035378530621529,
      0.02203274331986904,
      -0.03009876236319542,
      -0.03422097861766815,
      -0.040905412286520004,
      -0.024228911846876144,
      3.3105816692113876E-4,
      -0.021838784217834473,
      -0.24641214311122894,
      -0.334271639585495,
      -0.3391897678375244,
      -0.2655021548271179,
      -0.24218401312828064,
      -0.33576107025146484,
      -0.5546059608459473,
      -0.5960686206817627,
      -0.15460602939128876,
      -0.028581717982888222,
      0.03545571118593216,
      0.03007226251065731,
      -0.3790145814418793,
      -0.47496119141578674,
      -0.4015989899635315,
      -0.2701869606971741,
      -0.1627158224582672,
      -0.11694733053445816,
      -0.0876307487487793,
      -0.03528669849038124,
      -0.011859720572829247,
      -0.011785449460148811,
      -0.015335902571678162,
      3.6579169682227075E-4,
      -0.1566707342863083,
      -0.0314619354903698,
      0.37519872188568115,
      0.2885298728942871,
      -0.11538003385066986,
      -0.09448088705539703,
      0.20209886133670807,
      0.03235052898526192,
      -0.016778485849499702,
      -0.223575159907341,
      -0.39313486218452454,
      -0.25205036997795105,
      0.10442154854536057,
      0.14627301692962646,
      -0.06241032853722572,
      -0.1030750498175621,
      -0.36689457297325134,
      -0.4418729245662689,
      -0.2339535355567932,
      -0.13301867246627808,
      -0.11094989627599716,
      -0.043672263622283936,
      -0.027416525408625603,
      0.0112101249396801,
      -0.005291239358484745,
      0.010241612792015076,
      0.0022617646027356386,
      -0.03292541950941086,
      -0.1740334928035736,
      -0.023040328174829483,
      0.2139170914888382,
      0.11801597476005554,
      0.31675541400909424,
      0.5094894766807556,
      0.3247993290424347,
      0.21807317435741425,
      0.4240080714225769,
      0.4184844493865967,
      0.2580391764640808,
      0.1507459580898285,
      0.21334713697433472,
      0.17092052102088928,
      -0.05031116306781769,
      -0.18819130957126617,
      -0.34527599811553955,
      -0.2993403673171997,
      -0.24046951532363892,
      -0.14684033393859863,
      -0.13922826945781708,
      -0.07225289195775986,
      0.020900875329971313,
      0.012950127944350243,
      0.021949229761958122,
      0.013627463951706886,
      -0.028969116508960724,
      0.013931650668382645,
      -0.0856904536485672,
      -0.08290845155715942,
      -0.10597199946641922,
      -0.3388731777667999,
      -0.0938991829752922,
      0.21186277270317078,
      0.19290299713611603,
      0.13668952882289886,
      0.16099731624126434,
      0.14222551882266998,
      0.07063616812229156,
      0.06223902478814125,
      0.13555653393268585,
      0.045946769416332245,
      -0.056001290678977966,
      -0.10799235105514526,
      -0.24994193017482758,
      -0.2556037902832031,
      -0.22840774059295654,
      -0.13438771665096283,
      -0.09379799664020538,
      -0.08897927403450012,
      -0.0032398186158388853,
      -0.046761322766542435,
      -0.01260712742805481,
      0.006040440872311592,
      0.0025903533678501844,
      0.00461655855178833,
      -0.03521992266178131,
      -0.04647599160671234,
      -0.18603703379631042,
      -0.21238265931606293,
      -0.4144115447998047,
      -0.417478084564209,
      -0.23119433224201202,
      -0.1742861419916153,
      -0.1034570187330246,
      -0.3157605528831482,
      0.06673023104667664,
      -0.21100559830665588,
      -0.45316821336746216,
      -0.26443037390708923,
      -0.05325304716825485,
      0.03200950101017952,
      -0.06281066685914993,
      -0.15622155368328094,
      -0.18152177333831787,
      -0.07619845122098923,
      -0.09421051293611526,
      -0.030927501618862152,
      -0.026278022676706314,
      -0.003394661471247673,
      0.015720179304480553,
      0.007693021092563868,
      -0.001391105935908854,
      0.00517922081053257,
      -0.019333183765411377,
      -0.10031218081712723,
      -0.08693665266036987,
      0.0121742133051157,
      -0.11973358690738678,
      -0.14188919961452484,
      0.016161495819687843,
      -0.06632847338914871,
      -0.09399707615375519,
      -0.11507716774940491,
      -0.23037555813789368,
      -0.4410008490085602,
      -0.41001707315444946,
      -0.4257185757160187,
      -0.03921038284897804,
      0.12447718530893326,
      -0.03400793671607971,
      -0.11968296766281128,
      -0.02927466854453087,
      0.011403044685721397,
      0.0014054159400984645,
      0.00842921994626522,
      -0.03798912093043327,
      -0.036433540284633636,
      -0.024763526394963264,
      -0.006832491606473923,
      -0.03272880241274834,
      0.016606658697128296,
      0.024243898689746857,
      -0.11863816529512405,
      -0.13343402743339539,
      -0.15583789348602295,
      -0.21280845999717712,
      -0.20975838601589203,
      -0.1868833750486374,
      -0.2586214542388916,
      -0.15190811455249786,
      -0.17571218311786652,
      -0.3797854483127594,
      -0.37977346777915955,
      -0.32966238260269165,
      -0.24121859669685364,
      0.00462231645360589,
      0.11007026582956314,
      0.04818873852491379,
      -0.057620853185653687,
      -0.04489085078239441,
      -0.017136888578534126,
      -0.02581007219851017,
      0.029704956337809563,
      -0.026276687160134315,
      -0.04008464515209198,
      -0.01570572890341282,
      -0.026003411039710045,
      -0.027511155232787132,
      -0.03731542080640793,
      -0.011572827585041523,
      -0.16098009049892426,
      -0.13621298968791962,
      -0.22456614673137665,
      -0.2351069301366806,
      -0.3277176022529602,
      -0.2622394859790802,
      -0.18476194143295288,
      -0.33988919854164124,
      -0.30843254923820496,
      -0.27049553394317627,
      -0.22981734573841095,
      -0.169133260846138,
      -0.10160399973392487,
      -0.038385555148124695,
      0.036657243967056274,
      -0.007400015369057655,
      -0.015215106308460236,
      -0.0226905457675457,
      0.023747827857732773,
      0.051088493317365646,
      0.002689251909032464,
      0.013260317966341972,
      0.024387620389461517,
      0.02257714979350567,
      0.009142521768808365,
      0.017493566498160362,
      -0.029698874801397324,
      0.0058482373133301735,
      -0.06730566918849945,
      -0.1727074533700943,
      -0.1639152318239212,
      -0.1238531693816185,
      -0.24755814671516418,
      -0.15024921298027039,
      -0.14740614593029022,
      -0.28027382493019104,
      -0.17564572393894196,
      0.010072330944240093,
      -0.011076264083385468,
      -0.04603590443730354,
      -0.1309177279472351,
      0.012950165197253227,
      0.06836619973182678,
      -0.0017856309423223138,
      0.00698112091049552,
      0.05313260853290558,
      0.006247430574148893,
      0.02105180360376835,
      0.024219414219260216,
      -0.008495636284351349,
      -0.03811803087592125,
      0.008344767615199089,
      -0.024280453100800514,
      -7.356946007348597E-4,
      0.014966659247875214,
      0.03987454995512962,
      0.012166965752840042,
      -0.03159578889608383,
      -0.13438834249973297,
      -0.08939624577760696,
      -0.08613118529319763,
      -0.0768001452088356,
      -0.013708976097404957,
      -0.009528644382953644,
      0.01939990743994713,
      0.10994253307580948,
      0.01706736534833908,
      -0.06244771555066109,
      -0.09969425201416016,
      -0.041097018867731094,
      -0.06330153346061707,
      -2.3921906540635973E-4,
      -0.0077757155522704124,
      -0.003516094060614705,
      -0.009232457727193832,
      0.03750460967421532,
      0.02254391461610794,
      -0.030172551050782204,
      0.024167323485016823,
      0.01265009492635727,
      -0.00730057992041111,
      0.027425481006503105,
      -0.039494626224040985,
      0.004056486301124096,
      -0.025349758565425873,
      -0.05344722047448158,
      -0.06117215007543564,
      -0.04150226339697838,
      -0.04741061478853226,
      -0.05911420285701752,
      -0.13328775763511658,
      0.011236985214054585,
      0.025726065039634705,
      -0.016453474760055542,
      -0.04500962793827057,
      -0.061174944043159485,
      -0.06145995482802391,
      -0.011430654674768448,
      -0.04858206957578659,
      -0.010833244770765305,
      -0.007296537980437279,
      -0.021696286275982857,
      -0.0012752116890624166,
      -0.027757199481129646,
      -0.008519474416971207,
      -0.007841321639716625,
      -0.03861001133918762,
      -0.01047816313803196,
      0.01699780486524105,
      0.011955510824918747,
      -0.013489076867699623,
      -0.03786533325910568,
      0.009336333721876144,
      -0.013924031518399715,
      0.004513051826506853,
      -0.029978914186358452,
      -0.021348414942622185,
      0.015706166625022888,
      -0.051463816314935684,
      -0.011396508663892746,
      -0.04896898195147514,
      -0.013480758294463158,
      -0.009322760626673698,
      -0.05089858919382095,
      0.006968325935304165,
      0.0033911936916410923,
      -0.03734209015965462,
      -0.018353700637817383,
      -0.02684774249792099,
      -0.030766064301133156,
      -0.04198860377073288,
      -0.015690740197896957,
      6.249666912481189E-4,
      -0.0011911378242075443,
      0.009380470961332321,
      -0.039116665720939636,
      0.03491253778338432,
      -0.02204342558979988,
      -0.02078549936413765,
      -0.017348170280456543,
      0.02320680022239685,
      -1.600052637513727E-4,
      0.0024066390469670296,
      0.011027980595827103,
      -0.008225524798035622,
      0.011482322588562965,
      -0.013706188648939133,
      -4.2708689579740167E-4,
      -0.027140885591506958,
      0.0018327601719647646,
      0.025481965392827988,
      0.004522670991718769,
      0.02183092013001442,
      -0.01082986406981945,
      0.02279515564441681,
      0.035968851298093796,
      -0.017452672123908997,
      -0.012849075719714165,
      -0.0170036181807518,
      0.027409885078668594,
      -0.005016464740037918,
      -0.007263431791216135,
      0.011587265878915787,
      0.007902564480900764,
      4.5477261301130056E-4,
      0.005913658998906612,
      0.03476227447390556,
      -0.007829484529793262,
      -0.0024167299270629883,
      -9.666361147537827E-4,
      0.02872045710682869,
      -0.014501513913273811,
      -0.0029024460818618536,
      0.006112223491072655,
      -0.022541599348187447,
      0.010778656229376793,
      -0.02801080420613289,
      -0.016739971935749054,
      -0.05718419700860977,
      -0.10710518062114716,
      -0.09238564223051071,
      -0.05689501389861107,
      -0.008218234404921532,
      0.021683242172002792,
      -0.04055025056004524,
      -0.03633647412061691,
      -0.0031043668277561665,
      0.005383335053920746,
      0.020945124328136444,
      -0.002603826578706503,
      0.012767378240823746,
      -0.0054819462820887566,
      0.027854938060045242,
      0.0351506806910038,
      0.015393838286399841,
      0.018214615061879158,
      0.035454969853162766,
      -0.004988136701285839,
      0.0010371257085353136,
      0.031387776136398315,
      0.08748100697994232,
      0.20221008360385895,
      0.26313909888267517,
      0.17245027422904968,
      0.04840552806854248,
      -0.10943968594074249,
      -0.49361100792884827,
      -0.8911860585212708,
      -0.5456838011741638,
      -0.2785570025444031,
      -0.030575571581721306,
      -0.1940646767616272,
      -0.09398151189088821,
      0.0037647730205208063,
      -0.04417497664690018,
      -0.0021649845875799656,
      -0.03787882998585701,
      0.020228784531354904,
      -0.02188773825764656,
      -0.00946582481265068,
      -0.00738883949816227,
      -0.009494289755821228,
      0.03883429616689682,
      -0.010848931968212128,
      0.010692792944610119,
      -0.027373244985938072,
      0.08251980692148209,
      0.12703107297420502,
      0.18889819085597992,
      0.7568181753158569,
      0.6111354231834412,
      0.06318958103656769,
      -0.5094226002693176,
      -0.8186251521110535,
      -0.569601833820343,
      -0.8450031280517578,
      -0.4687094986438751,
      -0.4972485899925232,
      -0.5587077736854553,
      0.05353325232863426,
      0.46964210271835327,
      0.9819403886795044,
      0.799533486366272,
      0.34611260890960693,
      0.1582435518503189,
      0.1213158518075943,
      0.053920138627290726,
      0.0011619576252996922,
      0.005502460524439812,
      0.02999339997768402,
      -0.01727674901485443,
      -0.030086500570178032,
      -0.0465046651661396,
      -0.3293633759021759,
      -0.5030246376991272,
      -0.5773605704307556,
      -1.25945246219635,
      -0.7080497145652771,
      -0.6855915784835815,
      -0.30440661311149597,
      -0.3158852159976959,
      -0.25982582569122314,
      -0.14851637184619904,
      -0.35111021995544434,
      -0.01940273679792881,
      1.160678744316101,
      0.3909054100513458,
      0.21012763679027557,
      0.8432762026786804,
      0.8351837396621704,
      0.629711925983429,
      1.1008387804031372,
      0.9709621667861938,
      0.41310402750968933,
      0.04881451651453972,
      5.254194256849587E-4,
      5.770670832134783E-4,
      0.014871487393975258,
      0.016314998269081116,
      -0.07537529617547989,
      -0.3389694094657898,
      -0.9601362943649292,
      -1.2334667444229126,
      -1.2424039840698242,
      -0.02055882290005684,
      0.35713574290275574,
      0.3391396105289459,
      0.563313901424408,
      -0.04661235585808754,
      -0.19061382114887238,
      -0.32800453901290894,
      -0.018160222098231316,
      0.32270270586013794,
      0.406499445438385,
      0.4355875551700592,
      -0.41110122203826904,
      0.6971737742424011,
      0.7854981422424316,
      0.8549304008483887,
      1.5878063440322876,
      0.9141819477081299,
      0.5790541172027588,
      0.03992961347103119,
      0.01348552480340004,
      -0.025514166802167892,
      -0.011312887072563171,
      -0.0032282641623169184,
      -0.262951135635376,
      -0.6379596590995789,
      -0.6399937868118286,
      -0.2709590494632721,
      0.3395097553730011,
      0.22983790934085846,
      1.043843388557434,
      0.11368127912282944,
      -0.18887653946876526,
      -0.1157645657658577,
      -0.43518105149269104,
      0.15643715858459473,
      0.3714424967765808,
      -0.9091377258300781,
      0.3463343381881714,
      0.6036388874053955,
      0.9493618607521057,
      0.2749236524105072,
      0.4325021505355835,
      0.08847534656524658,
      1.1662683486938477,
      1.227478265762329,
      0.7580665946006775,
      0.20107631385326385,
      0.09861863404512405,
      -0.007182050496339798,
      -0.05629096180200577,
      0.031132247298955917,
      -0.23390664160251617,
      -0.9765433669090271,
      -0.5947725772857666,
      0.5545749068260193,
      0.2501339614391327,
      -0.33182498812675476,
      -0.5918148159980774,
      0.5019792914390564,
      0.3469616770744324,
      -0.3936842083930969,
      0.06448229402303696,
      0.16416381299495697,
      -0.17687447369098663,
      0.6413838863372803,
      0.2142936885356903,
      0.3639228045940399,
      0.5579014420509338,
      0.7320781350135803,
      1.0414350032806396,
      0.6937881112098694,
      0.27387794852256775,
      1.020132303237915,
      0.8129097819328308,
      0.20679418742656708,
      0.06082568317651749,
      0.0015837990213185549,
      0.05155913904309273,
      0.08544878661632538,
      -0.5720628499984741,
      -1.36497163772583,
      -0.07283294945955276,
      -0.16298159956932068,
      -0.16919632256031036,
      0.5729206204414368,
      0.9487517476081848,
      0.4773164689540863,
      1.0068082809448242,
      -0.36841535568237305,
      -0.4270053207874298,
      0.08840879797935486,
      0.12578320503234863,
      0.16107916831970215,
      0.8784824013710022,
      0.173565074801445,
      0.23020008206367493,
      0.32487666606903076,
      0.2944563031196594,
      -0.5231101512908936,
      0.11169464141130447,
      0.5670273900032043,
      0.8024333119392395,
      0.20263135433197021,
      0.05582836642861366,
      0.002507193712517619,
      0.031681448221206665,
      -0.169728621840477,
      -0.6933996081352234,
      -0.6572170257568359,
      0.19287872314453125,
      0.1020997166633606,
      -0.4483083486557007,
      -0.14099083840847015,
      -0.07110971957445145,
      0.17869895696640015,
      1.1834113597869873,
      0.10728175193071365,
      -1.0061333179473877,
      -0.6264252066612244,
      -0.978879451751709,
      -1.2119711637496948,
      -0.6502639055252075,
      -0.9864602088928223,
      -1.5176235437393188,
      -0.9035455584526062,
      -1.0577176809310913,
      -1.240082859992981,
      -1.266890287399292,
      -0.22923067212104797,
      0.7236381769180298,
      0.1783098727464676,
      0.11775965988636017,
      0.02991335093975067,
      0.009234821423888206,
      0.030127329751849174,
      -0.8347112536430359,
      -0.8012447953224182,
      -0.16003228724002838,
      -0.27237668633461,
      -0.4082562327384949,
      0.4680810272693634,
      0.7889171838760376,
      0.21497568488121033,
      0.5165046453475952,
      0.45370909571647644,
      -0.8125353455543518,
      -1.6317723989486694,
      -1.2201194763183594,
      -1.9990607500076294,
      -2.467881917953491,
      -3.517188310623169,
      -2.9891786575317383,
      -2.945493698120117,
      -2.7065744400024414,
      -2.2107622623443604,
      -2.6455907821655273,
      -1.5276994705200195,
      0.7435060143470764,
      0.24574469029903412,
      -0.009799433872103691,
      0.034475177526474,
      -0.009057734161615372,
      0.049087438732385635,
      -0.5357766151428223,
      -0.32810643315315247,
      0.5357009768486023,
      0.7152628302574158,
      0.7918254733085632,
      0.4796583652496338,
      0.22324009239673615,
      -0.06540367007255554,
      -0.12141495198011398,
      -0.46236032247543335,
      -1.0367432832717896,
      -0.47346681356430054,
      0.22729064524173737,
      1.126668095588684,
      0.37793996930122375,
      0.22491689026355743,
      -0.4155689477920532,
      -2.0989603996276855,
      -1.9381669759750366,
      -2.027094841003418,
      -2.4821808338165283,
      -2.2696306705474854,
      -0.014123527333140373,
      0.07225397229194641,
      0.00594545342028141,
      0.0031531869899481535,
      0.02729003317654133,
      0.05552287772297859,
      -0.06749559938907623,
      0.3367813527584076,
      0.27311208844184875,
      0.3391455411911011,
      0.3039820194244385,
      0.8332676291465759,
      -0.19301237165927887,
      0.14392326772212982,
      0.13506533205509186,
      0.0062493495643138885,
      -0.5318015813827515,
      -0.9688951373100281,
      -0.21666306257247925,
      1.159252643585205,
      0.7724254131317139,
      1.4223427772521973,
      0.4983183741569519,
      0.43215346336364746,
      -0.4034387469291687,
      -0.912039041519165,
      -1.9386098384857178,
      -1.7914807796478271,
      -0.314565509557724,
      0.0930120125412941,
      -0.030693722888827324,
      0.008678151294589043,
      -0.012101886793971062,
      0.08102542161941528,
      0.16543270647525787,
      0.7571952939033508,
      0.5084206461906433,
      -0.006711249705404043,
      -0.03750161826610565,
      0.06621114909648895,
      0.2671067714691162,
      0.19770362973213196,
      0.8457657694816589,
      -0.6671028137207031,
      -0.138423353433609,
      0.02148154005408287,
      -0.2876088321208954,
      -0.15908899903297424,
      1.16964590549469,
      0.4409025311470032,
      0.7613426446914673,
      1.1240500211715698,
      0.6462866067886353,
      -0.040481723845005035,
      -0.799750566482544,
      -0.38589346408843994,
      -0.02779785543680191,
      0.0987134501338005,
      -0.0052816011011600494,
      0.0406407006084919,
      -0.024758443236351013,
      0.05585215613245964,
      0.283124715089798,
      1.1672471761703491,
      0.8860205411911011,
      1.0605980157852173,
      0.2608548700809479,
      0.8893701434135437,
      -0.08694716542959213,
      0.27667176723480225,
      0.6446850299835205,
      -0.1463686227798462,
      -0.7615055441856384,
      0.12199525535106659,
      0.2653610110282898,
      0.48956310749053955,
      0.43324798345565796,
      0.9521660208702087,
      1.4710981845855713,
      1.3319456577301025,
      -0.040994904935359955,
      0.23789258301258087,
      -0.20186631381511688,
      0.1856171041727066,
      0.15104995667934418,
      0.11080082505941391,
      0.017450880259275436,
      -0.0040945932269096375,
      -0.01125083677470684,
      -0.08255457133054733,
      0.352713942527771,
      0.8821970820426941,
      0.6277909278869629,
      1.3032783269882202,
      0.026195621117949486,
      0.48484230041503906,
      -0.3185389041900635,
      0.10289864242076874,
      0.7083690762519836,
      0.7589157819747925,
      -1.6822019815444946,
      -1.229188084602356,
      0.3656221330165863,
      1.0697100162506104,
      1.628311038017273,
      1.712378740310669,
      1.0029784440994263,
      -0.07781653851270676,
      -0.3241346478462219,
      -0.3542792499065399,
      -0.3519633710384369,
      0.2131403386592865,
      0.6520581245422363,
      0.2234918773174286,
      0.013383030891418457,
      0.008960651233792305,
      0.012572884559631348,
      -0.269531786441803,
      0.06267049163579941,
      0.15782031416893005,
      -0.18123798072338104,
      0.9976058006286621,
      -0.0524776354432106,
      -0.39630699157714844,
      -0.6267803311347961,
      -0.2614594101905823,
      0.9442159533500671,
      0.5940760374069214,
      -0.030713528394699097,
      -0.7876019477844238,
      2.252610921859741,
      2.2629880905151367,
      1.6722326278686523,
      0.02337535098195076,
      0.4404701292514801,
      0.09655583649873734,
      -0.10778942704200745,
      -0.006637703627347946,
      -0.09075997024774551,
      -0.21823382377624512,
      0.8648272752761841,
      0.32130688428878784,
      0.0011622216552495956,
      0.039322007447481155,
      -0.01957891508936882,
      -0.2693890631198883,
      -0.21841460466384888,
      0.16336855292320251,
      0.13099637627601624,
      1.054168939590454,
      -0.17898410558700562,
      -0.4871126711368561,
      -0.18969812989234924,
      -0.3647620379924774,
      0.3315103054046631,
      -1.0815967321395874,
      0.5115513205528259,
      0.4037270247936249,
      1.8840806484222412,
      0.6966791152954102,
      0.4189242720603943,
      0.5282398462295532,
      -0.001975991064682603,
      0.44348812103271484,
      0.10421431809663773,
      -0.5172681212425232,
      -0.2582055926322937,
      0.25957849621772766,
      1.1781114339828491,
      0.26812976598739624,
      -0.024859946221113205,
      -0.01589275524020195,
      -0.017342306673526764,
      -0.3694518804550171,
      -0.9644075632095337,
      0.07426074892282486,
      0.19361799955368042,
      0.3040153980255127,
      0.49918702244758606,
      0.07421160489320755,
      -0.4407353401184082,
      -0.4656442403793335,
      -1.232467770576477,
      0.15937408804893494,
      1.3093218803405762,
      1.2764970064163208,
      0.07254847884178162,
      -0.24537581205368042,
      0.7103044986724854,
      0.09399645030498505,
      0.13422194123268127,
      0.19930404424667358,
      -0.3020646274089813,
      -0.5443089604377747,
      0.04559990391135216,
      1.0721279382705688,
      0.7193170189857483,
      0.11741949617862701,
      0.006818493828177452,
      0.0021113036200404167,
      0.005667755380272865,
      -0.006602684501558542,
      -0.7065226435661316,
      0.2013474702835083,
      0.17086225748062134,
      0.18137289583683014,
      -0.7194818258285522,
      0.34819507598876953,
      -0.9245930314064026,
      -0.5659530162811279,
      -0.046960849314928055,
      0.9963359236717224,
      -0.1461714208126068,
      -0.2988354563713074,
      -0.6177271604537964,
      -0.5695049166679382,
      -0.9542163610458374,
      -0.9290187954902649,
      5.672776387655176E-5,
      -0.25045087933540344,
      -7.461240747943521E-4,
      -0.17525219917297363,
      -0.20411689579486847,
      1.087826132774353,
      0.39005836844444275,
      0.04001413285732269,
      0.02918822318315506,
      0.006414256989955902,
      -0.02173079550266266,
      0.02372104488313198,
      -0.3897993564605713,
      0.8402374386787415,
      0.5317557454109192,
      -0.6563841104507446,
      -0.8895469307899475,
      -0.4030565023422241,
      -0.34837430715560913,
      -0.7340202927589417,
      -0.41474398970603943,
      -0.6569824814796448,
      -0.34667447209358215,
      -0.7090851068496704,
      -0.2604042589664459,
      -0.4913303852081299,
      -0.9671149253845215,
      -0.9139057993888855,
      0.40800413489341736,
      -1.0371981859207153,
      0.2798539102077484,
      0.7005825638771057,
      0.7588793039321899,
      0.9515902400016785,
      0.32210850715637207,
      -0.0013260478153824806,
      0.0023225622717291117,
      0.0034246104769408703,
      -0.02321019023656845,
      -0.3059053421020508,
      -0.6260253190994263,
      0.2528032958507538,
      -0.3006611466407776,
      -1.033194661140442,
      -0.26015228033065796,
      0.10860124975442886,
      0.08554473519325256,
      0.3365728557109833,
      0.2339046597480774,
      0.032887671142816544,
      -0.6100538372993469,
      0.3483735918998718,
      -0.4506818950176239,
      0.2565585970878601,
      0.20286913216114044,
      -1.2073628902435303,
      -0.2994491159915924,
      -0.14071723818778992,
      0.04397054761648178,
      0.319070965051651,
      0.774060070514679,
      0.6217822432518005,
      0.07207237929105759,
      -0.015450171194970608,
      0.039369162172079086,
      0.022645458579063416,
      0.006170915439724922,
      -0.1785469800233841,
      -0.32436811923980713,
      0.20473700761795044,
      -1.0085172653198242,
      -1.9021680355072021,
      -0.5163108110427856,
      0.597603976726532,
      -0.6394237279891968,
      -0.13690809905529022,
      -0.5956111550331116,
      3.623482189141214E-5,
      -0.4675438106060028,
      0.48588597774505615,
      -0.3044174909591675,
      0.8313066363334656,
      -0.06912320107221603,
      -0.15351827442646027,
      -0.18390727043151855,
      -0.603754460811615,
      -0.23693205416202545,
      0.061562858521938324,
      0.8556925654411316,
      0.43458399176597595,
      -0.00735124945640564,
      -0.030258875340223312,
      0.013339962810277939,
      0.006020922213792801,
      0.006747503764927387,
      -0.0693591833114624,
      -0.31299132108688354,
      -0.09679359197616577,
      -0.020849434658885002,
      -0.28068670630455017,
      -0.26036345958709717,
      0.2253519594669342,
      -0.9164996147155762,
      -0.29297056794166565,
      -0.474612832069397,
      -0.4978578984737396,
      -1.333531379699707,
      -0.2459997534751892,
      -1.1795791387557983,
      -0.021994465962052345,
      -1.2830243110656738,
      -0.8156659603118896,
      -0.7839723825454712,
      -0.04137266054749489,
      0.4506318271160126,
      0.7558646202087402,
      0.7701650261878967,
      0.2759428322315216,
      0.04919213429093361,
      0.02162294089794159,
      -0.02527690678834915,
      0.014325886964797974,
      0.02489626035094261,
      -0.009592490270733833,
      -0.40715691447257996,
      -0.8190947771072388,
      -0.49229100346565247,
      -0.14354945719242096,
      0.2197846621274948,
      0.15380223095417023,
      -0.20151494443416595,
      -0.43412357568740845,
      0.06503575295209885,
      0.13295790553092957,
      0.0918903723359108,
      -0.44724413752555847,
      -0.6125306487083435,
      -0.24667277932167053,
      0.10779687762260437,
      0.1868360936641693,
      0.8900100588798523,
      0.8370831608772278,
      0.8342732787132263,
      0.49587735533714294,
      0.3273550271987915,
      0.1578114777803421,
      0.04585229977965355,
      0.004857128951698542,
      0.03712399676442146,
      -0.015280506573617458,
      -0.024075936526060104,
      -0.026617348194122314,
      0.010396480560302734,
      -0.0615854449570179,
      -0.018834561109542847,
      0.2507859468460083,
      0.7902221083641052,
      0.4856051504611969,
      0.9945544004440308,
      0.832273542881012,
      0.8155542016029358,
      0.25862982869148254,
      0.4388848841190338,
      0.8149005770683289,
      1.0889878273010254,
      1.0273395776748657,
      1.5844782590866089,
      1.0358586311340332,
      0.34233227372169495,
      0.6634852886199951,
      0.5392667651176453,
      0.24176499247550964,
      0.08548709750175476,
      0.06426014006137848,
      -0.0053222812712192535,
      -0.027832619845867157,
      0.026972699910402298,
      0.02552809566259384,
      0.0132728461176157,
      0.031362999230623245,
      0.02327452227473259,
      0.06424280256032944,
      0.2983890175819397,
      0.43741658329963684,
      0.623302698135376,
      0.545996904373169,
      0.7723715305328369,
      0.9619096517562866,
      1.1028027534484863,
      1.4677602052688599,
      1.6575841903686523,
      1.835968017578125,
      1.1240105628967285,
      0.48195505142211914,
      0.36553579568862915,
      0.4582388997077942,
      0.2910307049751282,
      0.1355239897966385,
      0.09978912025690079,
      0.05781318619847298,
      -0.0011731390841305256,
      -0.01889476552605629,
      0.03513077273964882,
      -0.022146418690681458,
      -0.018474292010068893,
      -0.006037591025233269,
      0.02597055211663246,
      -0.019714947789907455,
      -0.019854862242937088,
      0.04044920951128006,
      0.028884636238217354,
      0.004712698515504599,
      -0.01436823233962059,
      0.01041517872363329,
      0.07256436347961426,
      0.10175754129886627,
      0.11326001584529877,
      0.06455843895673752,
      0.05329202860593796,
      0.1080285906791687,
      0.0966673195362091,
      0.0790611058473587,
      0.014382973313331604,
      0.036200106143951416,
      0.03462322801351547,
      0.04710471257567406,
      0.054776985198259354,
      0.07240801304578781,
      -0.016984302550554276,
      0.003107293276116252,
      0.012701774016022682,
      0.032823532819747925,
      -0.02483692392706871,
      -0.04837282747030258,
      -0.05819881707429886,
      -0.011956479400396347,
      -0.04083628952503204,
      -0.07264219224452972,
      -0.02275875024497509,
      -0.029933126643300056,
      -0.04632249474525452,
      -0.05664730817079544,
      -0.028274590149521828,
      -0.06312761455774307,
      -0.05409878492355347,
      -0.005057051777839661,
      -0.006305580958724022,
      -0.025613421574234962,
      -0.04906783998012543,
      -0.029509520158171654,
      -0.032515667378902435,
      -0.0422787070274353,
      -0.005602794699370861,
      -0.036635689437389374,
      -0.055263400077819824,
      -0.05322473496198654,
      -0.06526106595993042,
      -0.04480504244565964,
      -0.024632712826132774,
      -0.01303650252521038,
      -0.019248874858021736,
      -0.06346239894628525,
      -0.038851454854011536,
      -0.06202676519751549,
      -0.0712580680847168,
      -0.03239058330655098,
      -0.05866176635026932,
      0.00895402766764164,
      0.1657179892063141,
      0.03106609918177128,
      -0.05545616149902344,
      0.007406693417578936,
      0.03067411668598652,
      0.2511412799358368,
      0.055075909942388535,
      -0.32330796122550964,
      0.1587693691253662,
      0.08741770684719086,
      -0.03276895359158516,
      -0.018955139443278313,
      0.09085435420274734,
      0.07007989287376404,
      0.10132935643196106,
      -0.013074103742837906,
      -0.0016072969883680344,
      -0.05277543514966965,
      -0.0670638382434845,
      -0.03615476191043854,
      -0.029740897938609123,
      -0.07168234884738922,
      -0.022888513281941414,
      -0.015689793974161148,
      -0.05133131146430969,
      -0.030117953196167946,
      -0.01578567363321781,
      0.057753413915634155,
      0.2185843139886856,
      0.17930981516838074,
      0.21150271594524384,
      0.3427976965904236,
      1.078067660331726,
      0.9891000986099243,
      0.27958717942237854,
      0.6770691275596619,
      1.4311630725860596,
      1.3497096300125122,
      1.0133330821990967,
      0.6680611968040466,
      0.42284804582595825,
      0.6711694002151489,
      0.8493601083755493,
      0.6933607459068298,
      0.20257030427455902,
      0.19276943802833557,
      0.1456223875284195,
      -0.05427946895360947,
      -0.07479915022850037,
      -0.024304339662194252,
      -0.02196790836751461,
      -0.046030983328819275,
      -0.008455364964902401,
      0.011473088525235653,
      0.14070746302604675,
      0.5787407755851746,
      0.6413320899009705,
      1.251647710800171,
      1.9354485273361206,
      1.6666523218154907,
      1.6755152940750122,
      2.018321990966797,
      2.5316317081451416,
      2.236654758453369,
      1.6787734031677246,
      2.1386959552764893,
      2.294295310974121,
      2.5446219444274902,
      1.5483649969100952,
      1.9204219579696655,
      1.7048470973968506,
      1.495957612991333,
      1.1582204103469849,
      0.94328773021698,
      0.2990100681781769,
      0.09444558620452881,
      -0.020211389288306236,
      -0.07303473353385925,
      -0.041796304285526276,
      -0.009457239881157875,
      0.0518951341509819,
      0.0869714617729187,
      0.7466176748275757,
      0.636348307132721,
      0.5997438430786133,
      0.8296633958816528,
      1.790441632270813,
      1.648223876953125,
      -0.18320274353027344,
      0.20432516932487488,
      0.7688764333724976,
      -0.2847912013530731,
      0.09089536964893341,
      0.976643443107605,
      -0.5071749687194824,
      0.5726280808448792,
      1.108276128768921,
      0.8726716637611389,
      0.40720298886299133,
      0.3935440480709076,
      0.8105710744857788,
      0.1565985381603241,
      0.00261110020801425,
      -0.07663816213607788,
      -0.04079195111989975,
      -0.01930617354810238,
      -0.04925951361656189,
      -0.04918811842799187,
      0.07017466425895691,
      0.44525912404060364,
      1.0376337766647339,
      -0.03659718856215477,
      -0.1811773031949997,
      0.8095175623893738,
      0.08246239274740219,
      0.22734099626541138,
      -0.7628515958786011,
      0.28397107124328613,
      -0.284300833940506,
      -0.32614484429359436,
      -0.0624486543238163,
      0.2131665199995041,
      -0.46713730692863464,
      -0.785929799079895,
      -0.2678857147693634,
      -0.49555903673171997,
      -0.7776389718055725,
      -0.08259393274784088,
      -0.6876986622810364,
      -0.16803786158561707,
      -0.28259843587875366,
      -0.008888516575098038,
      0.013875540345907211,
      -0.017680423334240913,
      -0.06358678638935089,
      0.02541154809296131,
      0.18793700635433197,
      0.7166536450386047,
      0.2394498586654663,
      0.3558395206928253,
      0.4010525941848755,
      0.3767613172531128,
      0.1960694044828415,
      0.3099478483200073,
      0.6168214678764343,
      -0.15861783921718597,
      0.17108654975891113,
      -0.7451286315917969,
      0.5062291622161865,
      0.010361943393945694,
      -0.21798332035541534,
      -0.14164453744888306,
      -0.7592899799346924,
      -0.6387693285942078,
      -0.5482321381568909,
      -0.6922966241836548,
      -1.6067883968353271,
      -0.757250964641571,
      -0.42890283465385437,
      -0.12241332232952118,
      -0.0875215083360672,
      -0.03219809755682945,
      0.049091994762420654,
      0.030751409009099007,
      0.4289473295211792,
      1.0057849884033203,
      0.4107615351676941,
      0.9470731019973755,
      0.2958360016345978,
      -0.41060832142829895,
      0.10309068858623505,
      0.9356265068054199,
      0.04812253639101982,
      0.7477648258209229,
      0.20358805358409882,
      0.4357355535030365,
      -0.039557334035634995,
      -0.32351285219192505,
      0.24636416137218475,
      -0.6807918548583984,
      -0.6490274667739868,
      -0.159941166639328,
      -0.368436336517334,
      -1.256456732749939,
      -1.5407358407974243,
      -1.0570584535598755,
      -0.7207189798355103,
      -0.13924358785152435,
      -0.04086214303970337,
      -0.051744088530540466,
      -0.0040700300596654415,
      0.0946502834558487,
      0.6877845525741577,
      1.5103118419647217,
      0.6429575085639954,
      0.12963347136974335,
      0.13022111356258392,
      0.4565274119377136,
      -0.8955299258232117,
      0.031071284785866737,
      0.36707592010498047,
      0.21665552258491516,
      0.4347533583641052,
      -0.03467220067977905,
      -0.3667996823787689,
      -0.6396417021751404,
      0.7843305468559265,
      -0.6963249444961548,
      0.14401313662528992,
      -0.7264832854270935,
      -0.7296850681304932,
      -0.7198310494422913,
      -2.632779836654663,
      -2.4027159214019775,
      -0.8100756406784058,
      -0.14199978113174438,
      -0.03514692932367325,
      -0.024016255512833595,
      0.017442384734749794,
      0.18683858215808868,
      0.8504758477210999,
      1.0482511520385742,
      0.4609347879886627,
      -0.20520158112049103,
      0.13351453840732574,
      0.2074790745973587,
      0.164206862449646,
      -0.6186596155166626,
      -0.630426287651062,
      0.24866189062595367,
      -0.6433923244476318,
      1.2824251651763916,
      -0.4461105763912201,
      -0.08425770699977875,
      -0.31483346223831177,
      -1.2895959615707397,
      -1.0074760913848877,
      -1.0674808025360107,
      -1.0848580598831177,
      -0.1927770972251892,
      -0.8088628053665161,
      -2.3526904582977295,
      -0.6305291056632996,
      -0.020450972020626068,
      0.16278153657913208,
      -0.017021382227540016,
      -0.024635134264826775,
      -0.04457242414355278,
      0.18258820474147797,
      0.7167956829071045,
      0.5117825269699097,
      -0.4558572471141815,
      0.6914998292922974,
      0.17309436202049255,
      -0.29475778341293335,
      -0.08412650972604752,
      -1.269010066986084,
      -1.6200326681137085,
      -1.2839972972869873,
      0.6886284947395325,
      -0.09826326370239258,
      -0.4079652726650238,
      -0.5417858362197876,
      -0.5365259051322937,
      -1.0569332838058472,
      0.20107589662075043,
      -0.8022565841674805,
      -1.4802496433258057,
      -0.8264145255088806,
      -0.8582040667533875,
      -0.7733966708183289,
      -0.20649191737174988,
      -0.0404960960149765,
      -0.017804978415369987,
      0.023013746365904808,
      -0.17585648596286774,
      -0.1036820039153099,
      0.11058925092220306,
      -0.0953739657998085,
      -0.22086593508720398,
      0.16198033094406128,
      -0.6539319157600403,
      -1.4910141229629517,
      -2.044318437576294,
      -1.6673005819320679,
      -2.778820753097534,
      -1.8666539192199707,
      0.6165450811386108,
      -0.3543466329574585,
      0.4773639142513275,
      -0.5626874566078186,
      5.95018093008548E-4,
      -0.03990248963236809,
      0.1520398110151291,
      0.04008534923195839,
      -0.45901450514793396,
      0.46245908737182617,
      -0.05498269572854042,
      -1.1578490734100342,
      -0.5566645860671997,
      -0.030271822586655617,
      -0.00502720195800066,
      0.007084819488227367,
      -0.13756272196769714,
      -0.46852055191993713,
      -0.868571400642395,
      -1.3028740882873535,
      -2.147059679031372,
      -2.794769048690796,
      -2.1654303073883057,
      -2.996798515319824,
      -2.084803342819214,
      -1.10769522190094,
      -0.3751233220100403,
      -0.771611750125885,
      0.6489753127098083,
      0.9640465378761292,
      0.9224331974983215,
      0.20046642422676086,
      0.5044816136360168,
      -0.11995991319417953,
      -0.33326053619384766,
      -0.09877639263868332,
      -0.048482637852430344,
      -0.1750556230545044,
      0.6039150357246399,
      -0.44374850392341614,
      -0.683472216129303,
      0.009074881672859192,
      -0.029473377391695976,
      -0.027494708076119423,
      -0.021179093047976494,
      -0.401203453540802,
      -2.13047194480896,
      -2.785153388977051,
      -3.0955891609191895,
      -3.865346670150757,
      -2.6601033210754395,
      -1.7318731546401978,
      -0.8950345516204834,
      -0.4714975357055664,
      -0.049351777881383896,
      0.22247916460037231,
      0.6750089526176453,
      -0.6561922430992126,
      0.540441632270813,
      0.1860627830028534,
      -0.5449600219726562,
      -0.69847172498703,
      -0.8484164476394653,
      0.16293315589427948,
      0.41531455516815186,
      1.132805585861206,
      1.1760283708572388,
      -0.36144188046455383,
      -0.7463699579238892,
      -0.20077575743198395,
      -0.057838886976242065,
      -0.01317853108048439,
      -0.009413542225956917,
      -0.4222913384437561,
      -2.186952829360962,
      -2.5950186252593994,
      -1.9162083864212036,
      -1.3333792686462402,
      -0.21196074783802032,
      0.8875699639320374,
      0.8186219930648804,
      0.18595416843891144,
      0.31534460186958313,
      -0.23158784210681915,
      0.12814444303512573,
      -0.07587108761072159,
      1.6441099643707275,
      -0.3691512942314148,
      1.3947805166244507,
      0.9164201617240906,
      0.5028259754180908,
      -0.27186262607574463,
      0.5380544662475586,
      0.6505750417709351,
      0.004246863536536694,
      0.15491372346878052,
      -0.10967397689819336,
      -0.01402994804084301,
      -0.03689177334308624,
      0.003136834129691124,
      0.06304854154586792,
      0.006632247008383274,
      -1.2284499406814575,
      -0.5367528200149536,
      0.6692922115325928,
      1.0636444091796875,
      -0.12262634187936783,
      -0.007485304493457079,
      -0.7155190706253052,
      -0.455701619386673,
      0.10985979437828064,
      0.7179198861122131,
      0.6918786764144897,
      0.8176180124282837,
      -0.28218168020248413,
      -0.37768450379371643,
      -0.16545867919921875,
      -0.03357657045125961,
      0.6767261624336243,
      0.6190615296363831,
      1.0971587896347046,
      0.4409560561180115,
      0.19228658080101013,
      0.3673619031906128,
      -0.10577478259801865,
      0.011933835223317146,
      -0.020477352663874626,
      -0.034368500113487244,
      0.12329654395580292,
      0.580464780330658,
      -0.26340410113334656,
      0.9695083498954773,
      0.6481673121452332,
      0.4831033945083618,
      -0.6330975294113159,
      0.18144826591014862,
      0.09600350260734558,
      0.5477187633514404,
      0.1406172215938568,
      0.33931246399879456,
      0.5308459401130676,
      -0.7281081676483154,
      0.35421720147132874,
      -0.39064374566078186,
      0.4742865264415741,
      1.0148465633392334,
      0.26001715660095215,
      0.5191936492919922,
      0.5607444047927856,
      0.1855005919933319,
      0.9083190560340881,
      0.7107571959495544,
      0.18545371294021606,
      0.007737370207905769,
      -0.05794408917427063,
      -0.012910924851894379,
      0.11950426548719406,
      0.7429999113082886,
      0.3352370262145996,
      -0.09830475598573685,
      0.37199994921684265,
      -0.47395825386047363,
      -0.0433354452252388,
      0.1307542622089386,
      0.18427211046218872,
      0.4503118097782135,
      -0.29613664746284485,
      -0.025607971474528313,
      -0.0950944647192955,
      0.04615539312362671,
      0.14567409455776215,
      -0.1678427755832672,
      -0.3785995841026306,
      0.7915908694267273,
      0.2649935483932495,
      -0.04293565824627876,
      0.15520647168159485,
      0.5501313209533691,
      0.6970255374908447,
      0.9510620832443237,
      0.1337529569864273,
      -0.040168747305870056,
      -0.02864704467356205,
      -0.006888998672366142,
      0.009888801723718643,
      0.8863515853881836,
      0.4666098654270172,
      0.0991072803735733,
      -0.9236735105514526,
      0.20441418886184692,
      0.33319035172462463,
      -0.06378775089979172,
      0.011069142259657383,
      -0.366465300321579,
      0.8329368829727173,
      0.15703970193862915,
      0.9133872389793396,
