{
  "InputNodes": 784,
  "OutputNodes": 10,
  "HiddenWeights-1": {
    "data": [
      -3.0535805225372314,
      -5.798041343688965,
      4.251640319824219,
      -0.5998907089233398,
      2.0134339332580566,
      0.05359653756022453,
      2.2985260486602783,
      1.9863499402999878,
      -0.11910198628902435,
      1.763800859451294,
      -1.1533998250961304,
      1.0675225257873535,
      1.1913076639175415,
      -0.04985314607620239,
      3.523926258087158,
      -4.3429155349731445,
      -1.0741806030273438,
      -0.8195090293884277,
      -0.16733387112617493,
      -1.3756086826324463,
      -1.5969785451889038,
      -0.02457696758210659,
      -0.3326152563095093,
      0.2503046691417694,
      -0.26111552119255066,
      -0.6870222091674805,
      -0.5822694301605225,
      0.24209779500961304,
      -0.998036801815033,
      -0.31297963857650757,
      -0.8290813565254211,
      -0.9228017330169678,
      -1.0607984066009521,
      -0.7592145800590515,
      -0.9769655466079712,
      -0.9896312952041626,
      -1.6540054082870483,
      0.349275141954422,
      0.06079529970884323,
      0.3100182116031647,
      -0.5221688151359558,
      -0.7239827513694763,
      -0.1134280264377594,
      0.08847689628601074,
      -1.4836751222610474,
      0.565534234046936,
      -0.7998640537261963,
      -1.3761394023895264,
      -4.09141731262207,
      3.779283285140991,
      0.30862393975257874,
      0.20991480350494385,
      0.37032344937324524,
      -1.3992301225662231,
      -0.6317752599716187,
      0.7420902252197266,
      1.6338701248168945,
      -1.9630439281463623,
      2.209667444229126,
      0.9751201868057251,
      -0.4229803681373596,
      0.8436421751976013,
      1.655316948890686,
      -2.46187162399292,
      -1.9810587167739868,
      2.7860920429229736,
      -1.8526800870895386,
      0.5665874481201172,
      -3.1806256771087646,
      -0.9669361114501953,
      -1.510084867477417,
      -2.711547613143921,
      -2.59446120262146,
      0.526821494102478,
      -2.746157646179199,
      -2.2827210426330566,
      -1.7370980978012085,
      0.03700246289372444,
      1.6574093103408813,
      3.832411289215088,
      -2.1850459575653076,
      1.7425144910812378,
      -3.331005334854126,
      -0.48919954895973206,
      -3.646235227584839,
      0.24709683656692505,
      0.15506242215633392,
      1.4821805953979492,
      4.093188285827637,
      2.5946764945983887,
      -1.8930312395095825,
      1.1580066680908203,
      -1.4843274354934692,
      1.9064809083938599,
      0.11887481808662415,
      -6.062696933746338,
      5.076690196990967,
      -0.5792577266693115,
      0.8140552639961243,
      -8.438267707824707,
      0.28452354669570923,
      0.8993229269981384,
      3.054988145828247,
      -0.7380484938621521,
      1.8511850833892822,
      -1.155901551246643,
      2.454526901245117,
      -2.311943292617798,
      -0.23692618310451508,
      2.770895481109619,
      -4.625734806060791,
      1.5785869359970093,
      -1.1710872650146484,
      -0.6551241278648376,
      -0.19422093033790588,
      -1.0186331272125244,
      -1.0395299196243286,
      -0.10837811231613159,
      -0.6186439990997314,
      -0.24623602628707886,
      -0.7091320753097534,
      -0.8709723353385925,
      -0.5428368449211121,
      0.3405064344406128,
      -1.1383949518203735,
      -0.36395570635795593,
      -0.9461355805397034,
      -0.388251394033432,
      1.0304268598556519,
      -2.0538997650146484,
      -1.8976058959960938,
      1.2572519779205322,
      2.0113813877105713,
      -4.753169536590576,
      0.040161680430173874,
      -3.269594192504883,
      0.307751327753067,
      1.1998785734176636,
      -0.0761638730764389,
      6.260286331176758,
      0.8448141813278198,
      -1.1342593431472778,
      1.2353792190551758,
      -1.3646414279937744,
      -0.005757211707532406,
      0.1267726719379425,
      0.5598983764648438,
      -2.6950247287750244,
      0.531519889831543,
      -0.1411658227443695,
      3.1370298862457275,
      0.7276430130004883,
      -1.3079403638839722,
      0.5619874000549316,
      -0.09838355332612991,
      -7.388782024383545,
      0.8271555304527283,
      -1.8328156471252441,
      -0.3731082081794739,
      0.12815719842910767,
      -0.9279053211212158,
      -2.94437837600708,
      0.3104226887226105,
      -0.20640714466571808,
      0.2603192627429962,
      0.6600384712219238,
      -1.1019670963287354,
      -2.0598888397216797,
      -0.3731287121772766,
      -1.8171162605285645,
      2.1289076805114746,
      -0.9725504517555237,
      2.1473991870880127,
      -2.135807991027832,
      3.357743978500366,
      -0.11523871123790741,
      -0.28828027844429016,
      -1.8240852355957031,
      0.06225596368312836,
      3.830585479736328,
      -2.326066255569458,
      0.5395854115486145,
      -3.2771761417388916,
      -2.4708290100097656,
      0.8188043236732483,
      0.6506543755531311,
      -5.363368034362793,
      1.7833915948867798,
      0.7069205641746521,
      -1.3014031648635864,
      -5.397872447967529,
      1.551406979560852,
      0.59767746925354,
      -4.856389999389648,
      -0.24149590730667114,
      -2.0159912109375,
      -0.43440860509872437,
      0.6426941156387329,
      4.604279041290283,
      3.3093485832214355,
      -0.07588611543178558,
      -0.2692898213863373,
      -0.2909107208251953,
      4.938467979431152,
      1.4360356330871582,
      -0.32760897278785706,
      -0.26754680275917053,
      -0.056271620094776154,
      -0.21833117306232452,
      -0.5914363265037537,
      -1.7806768417358398,
      0.35626882314682007,
      0.9671834707260132,
      -0.2530873119831085,
      2.5614302158355713,
      0.9114017486572266,
      -3.434523344039917,
      1.069650411605835,
      2.028306245803833,
      2.964783191680908,
      -0.5511419177055359,
      0.7046874761581421,
      0.480337917804718,
      1.8571487665176392,
      2.8223280906677246,
      -0.7078503966331482,
      -0.034868691116571426,
      -1.5472966432571411,
      -1.164846658706665,
      1.3344439268112183,
      0.9972681403160095,
      -1.751991629600525,
      1.5573561191558838,
      0.9507594108581543,
      -0.2064681202173233,
      -3.316824436187744,
      1.001421570777893,
      -3.0131149291992188,
      4.846584796905518,
      -3.9732179641723633,
      -1.0847665071487427,
      -0.5502449870109558,
      -0.4277370274066925,
      -1.3326729536056519,
      -1.3162769079208374,
      -0.16651064157485962,
      -0.7634831070899963,
      -0.05180038884282112,
      -0.8457241058349609,
      -0.7979884743690491,
      -0.5407495498657227,
      0.09755705296993256,
      -1.1208348274230957,
      0.31612491607666016,
      -0.895637035369873,
      -0.9598773121833801
    ],
    "rows": 16,
    "cols": 16
  },
  "OutputBias": {
    "data": [
      -1.789482831954956,
      -1.7056689262390137,
      -3.862382411956787,
      -3.820305585861206,
      -0.6436717510223389,
      -3.6439900398254395,
      -1.7844910621643066,
      -0.9985989332199097,
      -2.697946786880493,
      -3.8014070987701416
    ],
    "rows": 10,
    "cols": 1
  },
  "HiddenWeights-0": {
    "data": [
      0.2246909886598587,
      0.17148785293102264,
      0.19423936307430267,
      0.20278413593769073,
      0.18243248760700226,
      0.20964501798152924,
      0.18752838671207428,
      0.1681622713804245,
      0.18958206474781036,
      0.2145547717809677,
      0.1958250254392624,
      0.18598522245883942,
      0.16728423535823822,
      0.2058047205209732,
      0.24595992267131805,
      0.20708809792995453,
      0.2143041342496872,
      0.19022230803966522,
      0.17876125872135162,
      0.17530404031276703,
      0.18417011201381683,
      0.22418959438800812,
      0.23252861201763153,
      0.17066757380962372,
      0.20913852751255035,
      0.17793630063533783,
      0.194785937666893,
      0.1872442215681076,
      0.22173373401165009,
      0.1906307488679886,
      0.2153177112340927,
      0.19897328317165375,
      0.21895043551921844,
      0.1786600798368454,
      0.26160329580307007,
      0.3617938160896301,
      0.4043007493019104,
      0.2892168164253235,
      0.2303195744752884,
      0.22830399870872498,
      0.13774533569812775,
      0.1770901083946228,
      0.3424161672592163,
      0.21772156655788422,
      0.3317417502403259,
      0.34474846720695496,
      0.225535050034523,
      0.19647206366062164,
      0.1977146714925766,
      0.361238956451416,
      0.2967790365219116,
      0.1706448644399643,
      0.2007557600736618,
      0.17196421325206757,
      0.2222623974084854,
      0.21041403710842133,
      0.17948828637599945,
      0.17570389807224274,
      0.23086805641651154,
      0.21758799254894257,
      0.1805165559053421,
      0.22181551158428192,
      0.29286009073257446,
      0.6679707169532776,
      1.3707337379455566,
      1.6311272382736206,
      1.8332897424697876,
      1.908423662185669,
      2.5866591930389404,
      2.926506996154785,
      3.1254079341888428,
      2.9140067100524902,
      2.450526237487793,
      1.7733091115951538,
      2.0008468627929688,
      2.1087100505828857,
      1.5684524774551392,
      0.8479902148246765,
      0.612662672996521,
      0.39924341440200806,
      0.28010785579681396,
      0.19064415991306305,
      0.19221456348896027,
      0.2220969945192337,
      0.2042052298784256,
      0.20050854980945587,
      0.20167778432369232,
      0.389503538608551,
      0.3423190712928772,
      0.8459656834602356,
      1.1026287078857422,
      1.859952449798584,
      2.303985357284546,
      3.1669082641601562,
      3.382683277130127,
      3.1421124935150146,
      4.6166090965271,
      4.546706199645996,
      4.7521162033081055,
      3.2947850227355957,
      1.4543224573135376,
      3.6653473377227783,
      4.094624996185303,
      3.343423366546631,
      2.8345422744750977,
      2.037317991256714,
      1.6424522399902344,
      0.9616310596466064,
      0.5014289021492004,
      0.255840539932251,
      0.19272418320178986,
      0.18085895478725433,
      0.21104483306407928,
      0.1937548667192459,
      0.208208367228508,
      0.20106975734233856,
      0.14047513902187347,
      0.7491391897201538,
      1.1898393630981445,
      2.0999867916107178,
      2.43959903717041,
      2.695258140563965,
      2.9421610832214355,
      3.1859560012817383,
      4.241837501525879,
      3.818669319152832,
      3.780886173248291,
      1.5624122619628906,
      3.7614634037017822,
      3.0538527965545654,
      4.066812038421631,
      2.327695608139038,
      0.747121274471283,
      1.0071475505828857,
      -0.6549596786499023,
      0.2973938584327698,
      0.6002242565155029,
      0.4228556156158447,
      0.1675296276807785,
      0.22091220319271088,
      0.16551195085048676,
      0.20634715259075165,
      0.18778987228870392,
      0.16243389248847961,
      0.08567581325769424,
      0.4901547133922577,
      0.486201673746109,
      1.6139792203903198,
      3.3484132289886475,
      1.4756970405578613,
      0.6157901883125305,
      -0.9932258129119873,
      -0.16944965720176697,
      0.0616256408393383,
      0.9836907982826233,
      1.4039031267166138,
      1.24977445602417,
      -1.5240051746368408,
      -0.8308814764022827,
      -0.6360844969749451,
      1.4914973974227905,
      0.5924898386001587,
      -0.48171207308769226,
      1.7172589302062988,
      1.8610994815826416,
      1.663690209388733,
      0.6513764262199402,
      0.2609819769859314,
      0.18209148943424225,
      0.17849849164485931,
      0.19890068471431732,
      0.13007894158363342,
      0.04481875151395798,
      -0.6630996465682983,
      -0.7942137718200684,
      0.7962133884429932,
      1.4553754329681396,
      1.8538362979888916,
      -0.04935052618384361,
      -0.9245332479476929,
      2.1154332160949707,
      1.6203625202178955,
      -0.9831653237342834,
      -0.05474340543150902,
      -0.697194516658783,
      -1.4592944383621216,
      -1.9032299518585205,
      -0.6722415089607239,
      0.87342369556427,
      -3.568844795227051,
      -1.5631065368652344,
      4.06680154800415,
      4.759969711303711,
      3.703313112258911,
      1.986728549003601,
      0.42320942878723145,
      0.23355312645435333,
      0.1934252828359604,
      0.27952873706817627,
      0.23104465007781982,
      0.6256651282310486,
      -0.5071617960929871,
      -0.537851870059967,
      0.19229206442832947,
      2.801802635192871,
      1.2421265840530396,
      -0.5705958604812622,
      0.5320025086402893,
      1.3701268434524536,
      -2.9172918796539307,
      0.07992348819971085,
      -0.6061627864837646,
      -2.1932077407836914,
      -4.037578582763672,
      -5.812063217163086,
      -6.164122581481934,
      -1.3149036169052124,
      -2.4184730052948,
      -3.0578067302703857,
      1.4804396629333496,
      6.1207499504089355,
      3.7725534439086914,
      1.7863270044326782,
      0.34207749366760254,
      0.18727131187915802,
      0.1361740380525589,
      0.16199587285518646,
      0.4321936070919037,
      1.120638132095337,
      0.5955699682235718,
      0.997382402420044,
      1.8070566654205322,
      3.6763622760772705,
      1.2831811904907227,
      0.6017289161682129,
      2.375432252883911,
      1.687366008758545,
      1.6220474243164062,
      0.11587018519639969,
      -3.842238664627075,
      -4.358267784118652,
      -5.141589164733887,
      -5.865344524383545,
      -4.2238030433654785,
      -3.3850107192993164,
      -1.2997230291366577,
      -4.25311279296875,
      -1.466944694519043,
      7.025421619415283,
      4.22329044342041,
      1.0625113248825073,
      0.18694303929805756,
      0.1633361279964447,
      0.1689912974834442,
      0.2012287676334381,
      0.3287057876586914,
      0.9744344353675842,
      1.3651999235153198,
      1.6157704591751099,
      3.8934988975524902,
      2.930624485015869,
      2.535721778869629,
      1.9641836881637573,
      3.695119857788086,
      1.1084420680999756,
      0.8184415698051453,
      1.423147201538086,
      -0.7597327828407288,
      -5.470700263977051,
      -6.575992584228516,
      -6.490248680114746,
      -5.59954833984375,
      -3.091912269592285,
      -2.6335270404815674,
      -2.8138110637664795,
      -2.437488555908203,
      4.931616306304932,
      5.170602798461914,
      1.374671220779419,
      0.22276903688907623,
      0.1742924004793167,
      0.16675998270511627,
      -0.009251918643712997,
      -0.04706444591283798,
      0.5585039258003235,
      1.6668102741241455,
      1.51590096950531,
      1.3833765983581543,
      -0.07738199084997177,
      -0.9123522639274597,
      1.1319491863250732,
      0.6326883435249329,
      1.733127474784851,
      0.22871005535125732,
      3.820006847381592,
      5.4342193603515625,
      4.394665718078613,
      -4.531431198120117,
      -9.417461395263672,
      -5.6174421310424805,
      -4.020938873291016,
      -5.187225341796875,
      -6.95339298248291,
      -4.8676629066467285,
      1.9377809762954712,
      5.569036483764648,
      2.425546646118164,
      0.3619738817214966,
      0.2148994654417038,
      0.18149088323116302,
      0.19322173297405243,
      -0.18681997060775757,
      0.3198712468147278,
      0.9509437680244446,
      -0.5978720188140869,
      -2.349478244781494,
      1.126733422279358,
      -1.1401853561401367,
      -0.12980352342128754,
      0.49122095108032227,
      0.042171213775873184,
      1.2863940000534058,
      3.492753028869629,
      8.817344665527344,
      8.03823184967041,
      -1.8468408584594727,
      -3.825676918029785,
      -2.782728910446167,
      -3.0125045776367188,
      -2.954576253890991,
      -6.263355731964111,
      -5.482223033905029,
      -1.4070898294448853,
      3.425081968307495,
      1.9341000318527222,
      0.4285331964492798,
      0.18790216743946075,
      0.18456973135471344,
      0.1927638053894043,
      -0.12052292376756668,
      -0.6097950339317322,
      -0.9360477328300476,
      -2.3355844020843506,
      -2.084116220474243,
      0.5090018510818481,
      1.550626277923584,
      -0.14449743926525116,
      -0.7476955056190491,
      -2.5706326961517334,
      1.4437505006790161,
      8.935328483581543,
      16.152578353881836,
      9.67580509185791,
      -0.44570350646972656,
      -4.0334577560424805,
      -0.7465032935142517,
      -0.8263556957244873,
      -1.3352856636047363,
      -4.500824928283691,
      -5.54407262802124,
      -4.269500732421875,
      1.5278160572052002,
      0.631596028804779,
      0.1878858059644699,
      0.22092114388942719,
      0.20504380762577057,
      0.23347434401512146,
      0.07112878561019897,
      -1.2857745885849,
      -2.3745012283325195,
      -3.5449204444885254,
      -3.626270294189453,
      0.5741741061210632,
      0.8447661995887756,
      -2.574159622192383,
      -1.7608238458633423,
      -1.1308174133300781,
      5.142199993133545,
      12.816341400146484,
      17.12638282775879,
      8.158771514892578,
      -1.5638947486877441,
      -2.545179605484009,
      1.240191102027893,
      -0.4263171851634979,
      -2.4495491981506348,
      -4.553617000579834,
      -4.1567559242248535,
      -0.9190187454223633,
      1.301263451576233,
      0.19414322078227997,
      0.17937128245830536,
      0.19797001779079437,
      0.19754160940647125,
      0.18847490847110748,
      0.20714163780212402,
      -1.607772707939148,
      -4.137914180755615,
      -5.248325824737549,
      -5.030355453491211,
      -2.6365292072296143,
      0.47104257345199585,
      -0.7084861993789673,
      -0.4548337459564209,
      -1.7179471254348755,
      5.071933269500732,
      12.384295463562012,
      13.084153175354004,
      5.140872478485107,
      -2.676344156265259,
      -1.0918878316879272,
      -0.5183178782463074,
      -5.202175140380859,
      -0.8540303111076355,
      -2.215043067932129,
      -5.501838207244873,
      -0.2859673798084259,
      0.9476757645606995,
      0.18850718438625336,
      0.16527365148067474,
      0.18634368479251862,
      0.2271173745393753,
      0.32680001854896545,
      1.0231380462646484,
      -2.8603873252868652,
      -5.237518310546875,
      -1.154442310333252,
      -4.768803596496582,
      -1.6770297288894653,
      0.6558308601379395,
      -1.170798897743225,
      -0.9623554348945618,
      -0.5948402285575867,
      10.79774284362793,
      15.0137939453125,
      11.265511512756348,
      2.6816177368164062,
      -0.3696601092815399,
      0.46859627962112427,
      -2.0168569087982178,
      -4.305933475494385,
      -0.12873776257038116,
      -1.806192398071289,
      -2.5406744480133057,
      0.7875705361366272,
      0.8692870140075684,
      0.2276197373867035,
      0.2127559781074524,
      0.21074874699115753,
      0.18499018251895905,
      0.5887892246246338,
      2.238382339477539,
      -1.8061604499816895,
      -3.3766558170318604,
      -3.1324760913848877,
      -4.831868648529053,
      -4.753212928771973,
      -1.5134004354476929,
      -4.248167991638184,
      -3.945733070373535,
      6.744490623474121,
      13.816352844238281,
      13.507405281066895,
      8.652151107788086,
      2.21284818649292,
      -1.7464344501495361,
      -3.1617908477783203,
      -5.2841386795043945,
      -2.3060202598571777,
      -2.064272403717041,
      -2.0524535179138184,
      2.2898201942443848,
      3.0974481105804443,
      1.2742249965667725,
      0.2148372232913971,
      0.19376413524150848,
      0.23064900934696198,
      0.19099345803260803,
      0.8091848492622375,
      2.8357975482940674,
      -0.1669113039970398,
      -2.4089035987854004,
      -3.320535898208618,
      -2.7071805000305176,
      -7.24360466003418,
      -1.942098617553711,
      -6.496876239776611,
      -2.7095701694488525,
      8.198312759399414,
      8.439332008361816,
      6.708221435546875,
      2.7300524711608887,
      -0.8666639924049377,
      -3.5874545574188232,
      -3.3840630054473877,
      -3.3967933654785156,
      -1.2900372743606567,
      -0.8832739591598511,
      0.7142171263694763,
      3.8112411499023438,
      2.5581960678100586,
      0.5650724172592163,
      0.21120373904705048,
      -0.05316603183746338,
      0.16201172769069672,
      0.1697433888912201,
      0.35102760791778564,
      4.234487533569336,
      2.068948745727539,
      -0.6199436187744141,
      -1.288021445274353,
      -3.162750482559204,
      -6.787310600280762,
      -2.680546283721924,
      -4.644831657409668,
      0.12466924637556076,
      8.867533683776855,
      8.636007308959961,
      4.033712863922119,
      -0.13217301666736603,
      -2.7244772911071777,
      -1.670348048210144,
      1.1416019201278687,
      0.13034196197986603,
      1.5948604345321655,
      -0.08661448210477829,
      2.0777621269226074,
      3.1922836303710938,
      2.7385993003845215,
      0.8616943955421448,
      0.22403155267238617,
      0.2178165465593338,
      0.19934792816638947,
      0.10146509110927582,
      0.23159532248973846,
      3.5169858932495117,
      3.9317851066589355,
      1.2466245889663696,
      0.9434483647346497,
      -0.4945748746395111,
      -2.9678211212158203,
      -1.696004033088684,
      -1.5000195503234863,
      -0.9939450621604919,
      4.17957878112793,
      5.897865295410156,
      2.752606153488159,
      1.4060612916946411,
      2.2212436199188232,
      0.7865896224975586,
      2.7298812866210938,
      4.41976261138916,
      1.1524853706359863,
      -0.42492565512657166,
      2.7324743270874023,
      2.73637056350708,
      2.4325757026672363,
      0.5911211371421814,
      0.16905219852924347,
      0.20394153892993927,
      0.21151579916477203,
      0.006401902064681053,
      0.2792128324508667,
      2.4158596992492676,
      2.715736150741577,
      1.3217717409133911,
      0.3521496653556824,
      1.6512218713760376,
      1.3475334644317627,
      2.3354244232177734,
      0.15705811977386475,
      -1.2952653169631958,
      1.0330215692520142,
      1.3556609153747559,
      4.111191272735596,
      2.800396203994751,
      3.9863526821136475,
      3.4221816062927246,
      3.702080488204956,
      4.2836594581604,
      -0.005226226523518562,
      1.0430974960327148,
      3.2621665000915527,
      3.6793572902679443,
      1.2225134372711182,
      0.2800772786140442,
      0.2185237854719162,
      0.19882617890834808,
      0.18426714837551117,
      0.20089541375637054,
      0.45556604862213135,
      1.8270225524902344,
      2.958479404449463,
      1.7335008382797241,
      1.0392556190490723,
      2.123819589614868,
      1.9478504657745361,
      1.7962260246276855,
      -1.048439383506775,
      -3.7187840938568115,
      -1.5544393062591553,
      2.0715839862823486,
      1.3133386373519897,
      1.737688422203064,
      2.310960531234741,
      1.4535715579986572,
      1.8461716175079346,
      2.1864147186279297,
      1.0531527996063232,
      2.1239118576049805,
      3.491354465484619,
      1.6575334072113037,
      0.14770236611366272,
      0.39560410380363464,
      0.16707564890384674,
      0.19802434742450714,
      0.2271197885274887,
      0.22701062262058258,
      0.45554447174072266,
      1.6283223628997803,
      3.7424941062927246,
      2.8496615886688232,
      1.4703530073165894,
      0.9891156554222107,
      2.4612174034118652,
      1.5454761981964111,
      1.6132766008377075,
      -3.7097649574279785,
      -2.843127727508545,
      -1.3317985534667969,
      -1.0175731182098389,
      -2.645894765853882,
      -0.9287368655204773,
      0.3414914309978485,
      2.356712579727173,
      1.7124725580215454,
      1.6760308742523193,
      2.584869146347046,
      0.7804526686668396,
      0.3804256021976471,
      0.20960097014904022,
      0.45238223671913147,
      0.2278803437948227,
      0.23068641126155853,
      0.22456730902194977,
      0.20388539135456085,
      0.3088899254798889,
      0.9828330874443054,
      2.528817892074585,
      2.324596881866455,
      0.3183172345161438,
      -0.03835500031709671,
      1.2504369020462036,
      3.1417901515960693,
      0.8075945377349854,
      -1.769743800163269,
      -0.8890872597694397,
      0.4585532546043396,
      -0.5761889219284058,
      -0.4458780586719513,
      1.276307463645935,
      1.0756841897964478,
      3.27554988861084,
      2.826115131378174,
      1.3929938077926636,
      -0.22591803967952728,
      0.08858834207057953,
      0.8426515460014343,
      0.8923406004905701,
      0.4102747440338135,
      0.2517005503177643,
      0.23272161185741425,
      0.18455971777439117,
      0.21663494408130646,
      0.23283861577510834,
      0.2931302785873413,
      0.5428065061569214,
      0.5511094331741333,
      0.3102720081806183,
      1.6240253448486328,
      2.076970100402832,
      1.6904925107955933,
      3.10449481010437,
      3.7176270484924316,
      1.7449073791503906,
      2.4106340408325195,
      1.3700194358825684,
      1.1839100122451782,
      1.5825251340866089,
      3.770688772201538,
      2.920604705810547,
      0.769260823726654,
      -0.04079510271549225,
      -0.09744752943515778,
      -0.04180237278342247,
      0.12287891656160355,
      0.8017098903656006,
      0.31055936217308044,
      0.2147674709558487,
      0.1709936410188675,
      0.21297146379947662,
      0.1736917942762375,
      0.22203920781612396,
      0.2246188074350357,
      0.4599543809890747,
      0.35344481468200684,
      0.1078825518488884,
      0.7189534306526184,
      1.3769410848617554,
      2.445265531539917,
      3.007683038711548,
      3.170470952987671,
      3.97090744972229,
      3.8510313034057617,
      2.91792893409729,
      3.1411309242248535,
      4.110282897949219,
      3.551349639892578,
      1.5464718341827393,
      0.052918557077646255,
      -0.11091626435518265,
      -0.2593128979206085,
      0.16726991534233093,
      0.4471934139728546,
      0.6485700011253357,
      0.22061912715435028,
      0.18129734694957733,
      0.21181423962116241,
      0.17732276022434235,
      0.212382510304451,
      0.1678743213415146,
      0.19305939972400665,
      0.2008870393037796,
      0.25380924344062805,
      0.10256461054086685,
      -0.12702372670173645,
      -0.30214187502861023,
      0.428684800863266,
      0.3338104486465454,
      0.41623151302337646,
      1.002299427986145,
      1.0407397747039795,
      0.7457675933837891,
      1.054187297821045,
      0.9845709204673767,
      0.9557861685752869,
      0.32797971367836,
      -0.012955128215253353,
      0.12882758677005768,
      -0.039720263332128525,
      0.21259355545043945,
      0.19789403676986694,
      0.23507073521614075,
      0.23275752365589142,
      0.1994086652994156,
      0.22146518528461456,
      0.16758988797664642,
      0.2046804279088974,
      0.21452532708644867,
      0.19631798565387726,
      0.1892598420381546,
      0.2511051297187805,
      0.2210759073495865,
      0.21375063061714172,
      0.13274337351322174,
      0.19052451848983765,
      0.34386777877807617,
      0.4035561978816986,
      0.5573693513870239,
      0.4182046055793762,
      0.18334363400936127,
      0.1405571699142456,
      0.2695164382457733,
      0.30429303646087646,
      0.2369062602519989,
      0.2049109935760498,
      0.17117518186569214,
      0.14386235177516937,
      0.253362238407135,
      0.19659428298473358,
      0.2273143082857132,
      0.19367800652980804,
      0.22830669581890106,
      0.22349439561367035,
      0.201618954539299,
      0.20702357590198517,
      0.19111143052577972,
      0.16572917997837067,
      0.17852820456027985,
      0.17980124056339264,
      0.16170285642147064,
      0.1951708346605301,
      0.1518104523420334,
      0.21588300168514252,
      0.21581222116947174,
      0.1549379974603653,
      0.16232992708683014,
      0.14701057970523834,
      0.16289202868938446,
      0.17822150886058807,
      0.18556492030620575,
      0.2057098001241684,
      0.1675027459859848,
      0.14592109620571136,
      0.1561555117368698,
      0.18689654767513275,
      0.16771267354488373,
      0.19650457799434662,
      0.19559864699840546,
      0.18964464962482452,
      0.15626110136508942,
      0.21366237103939056,
      0.15028397738933563,
      0.1656365841627121,
      0.18077118694782257,
      0.17053468525409698,
      0.1774853616952896,
      0.15676139295101166,
      0.17968077957630157,
      0.1939452737569809,
      0.1887078732252121,
      0.18702246248722076,
      0.21552260220050812,
      0.18191762268543243,
      0.19701482355594635,
      0.19435851275920868,
      0.23520372807979584,
      0.26365217566490173,
      0.2132074385881424,
      0.18566109240055084,
      0.19548411667346954,
      0.1941642314195633,
      0.1967674046754837,
      0.15215183794498444,
      0.19170226156711578,
      0.2055235356092453,
      0.20352797210216522,
      0.18565212190151215,
      0.16105295717716217,
      0.21187324821949005,
      0.19756610691547394,
      0.14781685173511505,
      0.14588822424411774,
      0.18287084996700287,
      0.14884565770626068,
      0.19943420588970184,
      0.22134636342525482,
      0.31870779395103455,
      0.2604542076587677,
      0.41564181447029114,
      0.4387882649898529,
      0.38002899289131165,
      0.3248428404331207,
      0.5699750781059265,
      0.9002019762992859,
      0.6314900517463684,
      0.12482437491416931,
      0.05407436564564705,
      -0.719136118888855,
      -0.6850767731666565,
      -0.4609496295452118,
      0.041879307478666306,
      0.06617933511734009,
      -0.045373786240816116,
      0.20580093562602997,
      0.14708058536052704,
      0.21613825857639313,
      0.20908726751804352,
      0.1714235097169876,
      0.19996725022792816,
      0.19880400598049164,
      0.2068154364824295,
      0.20126433670520782,
      0.19416068494319916,
      0.25405460596084595,
      0.4272344410419464,
      0.2335272878408432,
      0.5154126286506653,
      0.13509881496429443,
      -1.6641550064086914,
      -2.7907912731170654,
      -1.559322714805603,
      -2.821337938308716,
      -2.8680739402770996,
      -2.064019203186035,
      -2.289172410964966,
      -2.1396987438201904,
      -0.07067908346652985,
      0.3788149952888489,
      1.0994300842285156,
      0.462444007396698,
      0.13457226753234863,
      0.036868419498205185,
      0.17069073021411896,
      0.18974901735782623,
      0.1905316263437271,
      0.20830713212490082,
      0.16702251136302948,
      0.1653839498758316,
      0.05863802134990692,
      0.07629135996103287,
      0.11136351525783539,
      -0.6587175726890564,
      -0.940772533416748,
      -0.08800680190324783,
      -0.26131102442741394,
      -2.223069429397583,
      -4.972433090209961,
      -4.934510231018066,
      -3.6548995971679688,
      -0.8841502666473389,
      -3.745739698410034,
      -1.1526398658752441,
      0.13982589542865753,
      -2.249990224838257,
      -1.0803067684173584,
      -0.7404898405075073,
      -0.966307520866394,
      -0.8772661089897156,
      0.5568923950195312,
      0.07489954680204391,
      0.05359393358230591,
      0.15022943913936615,
      0.14621113240718842,
      0.19227059185504913,
      0.1943642646074295,
      0.1933041661977768,
      -0.5041285157203674,
      -0.8097993731498718,
      -1.930906891822815,
      -1.5395398139953613,
      1.8345285654067993,
      2.7920541763305664,
      1.3065482378005981,
      -0.05694521963596344,
      -3.549298048019409,
      -0.3675674498081207,
      0.44145870208740234,
      -0.9089534282684326,
      -0.5890101790428162,
      -0.3931437134742737,
      0.8261412382125854,
      -2.1471872329711914,
      -2.9473814964294434,
      -0.21399421989917755,
      -0.1171627789735794,
      -1.007401466369629,
      0.6007430553436279,
      0.5750348567962646,
      0.28066080808639526,
      0.23130543529987335,
      0.15635953843593597,
      0.1477660983800888,
      0.19707749783992767,
      0.3058113753795624,
      -0.47598427534103394,
      -1.4390639066696167,
      0.053054384887218475,
      0.7188120484352112,
      1.6216813325881958,
      -3.673370599746704,
      -4.313323497772217,
      -0.7913456559181213,
      0.08292724192142487,
      -1.3341728448867798,
      -0.5695074796676636,
      -0.5496911406517029,
      3.1081736087799072,
      -1.3739302158355713,
      2.018080234527588,
      -2.255976915359497,
      -0.5491570830345154,
      -0.007183836307376623,
      0.46466436982154846,
      0.7787066698074341,
      2.517399549484253,
      1.8770322799682617,
      0.526342511177063,
      0.29110997915267944,
      0.20232872664928436,
      0.20256851613521576,
      0.14469225704669952,
      0.4035794734954834,
      -0.6878122687339783,
      -1.8225659132003784,
      -1.6584478616714478,
      0.7487635016441345,
      -1.5907922983169556,
      -0.9277743697166443,
      0.39039909839630127,
      2.5080559253692627,
      2.0136351585388184,
      0.0463750883936882,
      -0.8286606073379517,
      -3.9776432514190674,
      -1.7525770664215088,
      -2.3245842456817627,
      -5.301629543304443,
      -0.3550112247467041,
      0.10348118841648102,
      -4.3812031745910645,
      -0.7824708819389343,
      0.1127929836511612,
      3.643676280975342,
      2.1575169563293457,
      0.7391035556793213,
      0.3638436496257782,
      0.19203074276447296,
      0.1507030576467514,
      0.23307324945926666,
      0.6652258634567261,
      -0.19732314348220825,
      -2.0735366344451904,
      -2.527271032333374,
      0.3281058371067047,
      3.648218870162964,
      0.6042934656143188,
      2.1448984146118164,
      1.3783868551254272,
      0.11360511928796768,
      -2.122323989868164,
      -2.32297945022583,
      -4.27086877822876,
      -2.6278388500213623,
      -4.340457439422607,
      -3.3338558673858643,
      -1.4193685054779053,
      2.6687979698181152,
      -2.5051374435424805,
      -2.4727983474731445,
      -2.1720597743988037,
      2.6596083641052246,
      1.9638090133666992,
      0.5357019901275635,
      0.20623984932899475,
      0.19685329496860504,
      0.1692444533109665,
      0.2454700618982315,
      0.7621325254440308,
      0.5030101537704468,
      -2.9571621417999268,
      -2.8864803314208984,
      -2.072222948074341,
      -1.8017587661743164,
      -1.7303810119628906,
      0.13494397699832916,
      1.1444822549819946,
      2.1590943336486816,
      3.702587842941284,
      -3.1895875930786133,
      -2.637345790863037,
      -0.748132050037384,
      0.9454766511917114,
      4.086516380310059,
      4.635780334472656,
      4.228760242462158,
      1.0191969871520996,
      -0.8151665329933167,
      -1.2578519582748413,
      2.0758039951324463,
      2.244772434234619,
      0.3155876100063324,
      0.20116721093654633,
      0.1813989132642746,
      0.16408707201480865,
      0.25196725130081177,
      0.6006447076797485,
      -2.8301994800567627,
      -2.2580599784851074,
      -0.9265843033790588,
      -0.9141374230384827,
      -0.837131679058075,
      3.364021062850952,
      0.46105584502220154,
      2.820652961730957,
      2.1552717685699463,
      3.742999315261841,
      1.4003267288208008,
      0.04082223400473595,
      -0.6381274461746216,
      3.559631586074829,
      2.3126862049102783,
      1.2473623752593994,
      3.5726394653320312,
      2.286553144454956,
      3.0059053897857666,
      2.2528915405273438,
      3.077845335006714,
      1.7893673181533813,
      0.20444558560848236,
      0.12938189506530762,
      0.16652028262615204,
      0.18844018876552582,
      0.4450218975543976,
      0.8105409145355225,
      -2.711470603942871,
      -2.171516180038452,
      2.473247766494751,
      3.5016651153564453,
      4.83808708190918,
      7.5109333992004395,
      4.781322956085205,
      5.620114326477051,
      0.27698880434036255,
      1.218531847000122,
      -1.4616613388061523,
      -2.9791417121887207,
      -3.3665194511413574,
      -1.7638061046600342,
      0.2367464303970337,
      0.7431728839874268,
      2.8423256874084473,
      1.5931380987167358,
      5.029613018035889,
      6.186849117279053,
      4.035048007965088,
      1.9041208028793335,
      0.1273289918899536,
      0.15253876149654388,
      0.1969146579504013,
      0.21355600655078888,
      0.4092141091823578,
      0.7743589878082275,
      -0.02892906963825226,
      0.6427976489067078,
      3.43149471282959,
      3.4298665523529053,
      3.5289559364318848,
      3.494788646697998,
      2.280888795852661,
      -0.6475027203559875,
      -1.233770728111267,
      -4.130460262298584,
      -3.4693057537078857,
      -7.592113018035889,
      -4.4891862869262695,
      -3.0803489685058594,
      -1.7402241230010986,
      -0.8664730787277222,
      2.557701826095581,
      2.8011202812194824,
      6.360393047332764,
      7.198126316070557,
      4.184998035430908,
      1.875722885131836,
      0.20492123067378998,
      0.18003223836421967,
      0.19527076184749603,
      0.14611788094043732,
      0.42603030800819397,
      0.5926186442375183,
      0.044276412576436996,
      1.862064242362976,
      3.814506769180298,
      2.3782589435577393,
      1.1044800281524658,
      0.5673766732215881,
      0.12375952303409576,
      3.8544275760650635,
      1.8608322143554688,
      -6.437419891357422,
      -5.012248992919922,
      -4.4068732261657715,
      0.8814213871955872,
      -4.721182823181152,
      -1.4518438577651978,
      -1.2564549446105957,
      1.8876515626907349,
      4.785639762878418,
      5.6543755531311035,
      5.583934307098389,
      3.121073007583618,
      1.7143737077713013,
      0.23891793191432953,
      0.23644579946994781,
      0.20144374668598175,
      0.18304838240146637,
      0.03868161141872406,
      0.24725258350372314,
      0.5549056529998779,
      1.8901290893554688,
      4.969845294952393,
      4.832266330718994,
      1.4307780265808105,
      1.4692206382751465,
      1.2761508226394653,
      4.590238571166992,
      0.5252202153205872,
      -6.83382511138916,
      -3.911499500274658,
      -4.663694381713867,
      0.21901458501815796,
      0.6255080103874207,
      0.22128558158874512,
      0.015228931792080402,
      4.355797290802002,
      1.5348602533340454,
      -0.42886239290237427,
      2.719848394393921,
      2.3288793563842773,
      0.923704206943512,
      0.41688260436058044,
      0.17168651521205902,
      0.20468099415302277,
      0.200441375374794,
      -0.4352671205997467,
      -0.1645103543996811,
      0.47007307410240173,
      1.6336387395858765,
      5.523428916931152,
      7.6089935302734375,
      7.378348350524902,
      7.717916011810303,
      3.4810750484466553,
      3.437525987625122,
      0.5059226155281067,
      -4.95333194732666,
      -7.956084728240967,
      -6.264821529388428,
      -2.0890121459960938,
      3.174908399581909,
      1.4159588813781738,
      0.745026171207428,
      -1.0747184753417969,
      -1.4550447463989258,
      -4.035025596618652,
      -3.3467485904693604,
      -0.8474243879318237,
      0.3814878463745117,
      0.5395027995109558,
      0.2156897932291031,
      0.1573438197374344,
      0.19979016482830048,
      -0.25805678963661194,
      -0.699282705783844,
      -0.5803587436676025,
      1.6447911262512207,
      5.37097692489624,
      12.556992530822754,
      15.310688018798828,
      16.77538299560547,
      13.88314437866211,
      10.37731647491455,
      8.661382675170898,
      5.815461158752441,
      -2.9772634506225586,
      -3.3937885761260986,
      -0.14873571693897247,
      0.8728158473968506,
      0.5262807607650757,
      -5.790987491607666,
      -5.806220054626465,
      -3.586625337600708,
      -3.064310073852539,
      -5.576674461364746,
      -1.6534136533737183,
      0.06210369989275932,
      0.996834397315979,
      0.3720546066761017,
      0.18721605837345123,
      0.16235242784023285,
      0.08523882180452347,
      -0.9534285664558411,
      -2.2910726070404053,
      1.092252492904663,
      5.920835494995117,
      9.982827186584473,
      11.229876518249512,
      16.09125328063965,
      22.747844696044922,
      24.6776123046875,
      28.114295959472656,
      25.420841217041016,
      18.530866622924805,
      14.078293800354004,
      11.462599754333496,
      -0.09938497096300125,
      -2.589378595352173,
      -3.034619092941284,
      -4.595949649810791,
      -4.562142848968506,
      -3.7200872898101807,
      -3.9747941493988037,
      -0.9807873368263245,
      2.282464027404785,
      1.8895748853683472,
      0.368103951215744,
      0.16229887306690216,
      0.20146571099758148,
      0.19749076664447784,
      -1.2189452648162842,
      -4.959362030029297,
      -3.263113498687744,
      1.6295782327651978,
      1.9514915943145752,
      1.6638529300689697,
      2.866999387741089,
      10.766158103942871,
      12.997194290161133,
      17.306856155395508,
      18.098976135253906,
      15.795270919799805,
      15.825572967529297,
      10.583194732666016,
      -1.055906891822815,
      -3.2272982597351074,
      -1.9174532890319824,
      -2.8711252212524414,
      -1.9314337968826294,
      -4.390110015869141,
      -2.517979383468628,
      0.2569337785243988,
      3.0767643451690674,
      1.771606206893921,
      0.47343799471855164,
      0.1543951779603958,
      0.19291327893733978,
      0.17807553708553314,
      -0.8879309296607971,
      -5.548556327819824,
      -4.461563587188721,
      -1.4691818952560425,
      0.39873114228248596,
      -2.3358540534973145,
      -3.5684471130371094,
      0.6102896332740784,
      0.2459452748298645,
      1.5909521579742432,
      2.7558722496032715,
      1.980926752090454,
      7.407342433929443,
      5.541709899902344,
      4.49950647354126,
      1.7414264678955078,
      1.195082664489746,
      2.1518709659576416,
      -2.1612961292266846,
      -3.575859308242798,
      -0.5861338376998901,
      -1.956304669380188,
      2.393322229385376,
      1.1554467678070068,
      0.40984323620796204,
      0.15559475123882294,
      0.16806666553020477,
      0.17638708651065826,
      -0.38273391127586365,
      -5.567339897155762,
      -4.957672595977783,
      -2.4933488368988037,
      -1.9254704713821411,
      0.28472423553466797,
      -3.5894625186920166,
      -3.4634883403778076,
      -1.9508740901947021,
      -3.6608505249023438,
      -1.6282031536102295,
      -1.1044273376464844,
      0.338758260011673,
      2.757629156112671,
      3.4113271236419678,
      3.593082904815674,
      0.8218785524368286,
      0.6898602843284607,
      -2.95029878616333,
      -2.527113914489746,
      0.3284226357936859,
      0.7414357662200928,
      2.0706379413604736,
      0.6077231168746948,
      0.4601932466030121,
      0.19460321962833405,
      0.18647225201129913,
      0.17932887375354767,
      -0.5980322957038879,
      -3.2817294597625732,
      -3.890207290649414,
      -1.4615434408187866,
      -1.931391954421997,
      0.1626667082309723,
      -5.694470405578613,
      -0.6366633772850037,
      -0.6315808296203613,
      -0.5295717120170593,
      -0.9033970832824707,
      -4.062347888946533,
      -2.923443078994751,
      1.4236875772476196,
      0.1844664216041565,
      1.0756020545959473,
      0.07304728776216507,
      -1.3824714422225952,
      -2.381715774536133,
      0.282658189535141,
      0.5984306931495667,
      1.6863495111465454,
      2.6503565311431885,
      0.460519939661026,
      0.28792110085487366,
      0.14568419754505157,
      0.21054531633853912,
      0.14684979617595673,
      -0.8470972180366516,
      -2.178555965423584,
      -3.8057258129119873,
      -2.673604726791382,
      -0.734734058380127,
      -1.443790078163147,
      1.4113878011703491,
      -0.8565007448196411,
      -3.7223241329193115,
      -4.438422203063965,
      -2.5635812282562256,
      -4.023833274841309,
      -0.1645430475473404,
      -1.1702977418899536,
      -1.1890476942062378,
      0.9830184578895569,
      2.1575891971588135,
      0.2821808457374573,
      -0.873553454875946,
      1.7755972146987915,
      1.4135668277740479,
      1.483750820159912,
      1.4871445894241333,
      0.5063971281051636,
      0.1755344420671463,
      0.209225133061409,
      0.17408742010593414,
      0.15758992731571198,
      -0.024225514382123947,
      -0.6099244952201843,
      -2.6421618461608887,
      -4.830178737640381,
      -5.369341850280762,
      -4.758919715881348,
      -2.2997071743011475,
      -1.4581862688064575,
      -3.0920028686523438,
      -1.1517726182937622,
      -0.9333631992340088,
      -2.079437017440796,
      -0.24670711159706116,
      -2.7213191986083984,
      1.1682982444763184,
      -1.0131251811981201,
      0.14190611243247986,
      2.8884167671203613,
      3.728086471557617,
      3.599215269088745,
      2.5093846321105957,
      0.9344404339790344,
      0.5724540948867798,
      0.2240736037492752,
      0.14402444660663605,
      0.18398259580135345,
      0.1830960363149643,
      0.16029606759548187,
      0.09359223395586014,
      -0.39642274379730225,
      -2.0217480659484863,
      -4.467700004577637,
      -7.5100297927856445,
      -8.182018280029297,
      -6.138565540313721,
      -4.24209451675415,
      -5.48065185546875,
      -1.691124439239502,
      -1.6546363830566406,
      -2.191047430038452,
      -3.6822896003723145,
      0.12146157771348953,
      0.4265449345111847,
      -0.26295363903045654,
      2.763735055923462,
      4.603854179382324,
      4.112550735473633,
      1.9097070693969727,
      0.7238314151763916,
      0.30952540040016174,
      0.1898302584886551,
      0.1932690292596817,
      0.19235558807849884,
      0.19457311928272247,
      0.20239989459514618,
      0.16353227198123932,
      0.17402873933315277,
      0.19489510357379913,
      -0.2744390070438385,
      -1.1971594095230103,
      -1.9136673212051392,
      -2.3399734497070312,
      -2.538487672805786,
      -0.6420798897743225,
      -2.196617841720581,
      -1.4544965028762817,
      -1.3923343420028687,
      -2.211045265197754,
      0.17910751700401306,
      3.0581088066101074,
      1.9161460399627686,
      2.1532416343688965,
      2.1371304988861084,
      2.0646228790283203,
      1.9729253053665161,
      1.4189623594284058,
      0.7771577835083008,
      0.37466344237327576,
      0.21673743426799774,
      0.182355597615242,
      0.17561177909374237,
      0.148764505982399,
      0.18220223486423492,
      0.17469458281993866,
      0.160596564412117,
      0.150334432721138,
      0.17888955771923065,
      0.02728789672255516,
      0.2831037938594818,
      0.4416545331478119,
      0.6154269576072693,
      0.9375067353248596,
      -0.02338520623743534,
      -0.2480381280183792,
      0.9706324338912964,
      1.595518946647644,
      2.620725631713867,
      1.8242626190185547,
      1.3823792934417725,
      1.1745097637176514,
      0.7032442092895508,
      0.6048484444618225,
      0.5523217916488647,
      0.5308994650840759,
      0.16908763349056244,
      0.14802314341068268,
      0.20318277180194855,
      0.15263859927654266,
      0.1907879263162613,
      0.19652946293354034,
      0.20590920746326447,
      0.1690855771303177,
      0.15783990919589996,
      0.20869432389736176,
      0.15573494136333466,
      0.1868612915277481,
      0.2164427787065506,
      0.16971664130687714,
      0.18749301135540009,
      0.19794254004955292,
      0.2124965339899063,
      0.26477405428886414,
      0.2557718753814697,
      0.2368612438440323,
      0.3842758238315582,
      0.4189077317714691,
      0.34805914759635925,
      0.451067715883255,
      0.4322691261768341,
      0.4084172546863556,
      0.29705360531806946,
      0.20702289044857025,
      0.16962216794490814,
      0.14908938109874725,
      0.19507543742656708,
      0.2080344408750534,
      0.2069731205701828,
      0.1564955860376358,
      0.08521319180727005,
      0.05400378257036209,
      0.11373034864664078,
      0.10107424110174179,
      0.05751623213291168,
      0.0529605895280838,
      0.08814447373151779,
      0.07220961898565292,
      0.06727311760187149,
      0.07657159119844437,
      0.07592948526144028,
      0.09635905176401138,
      0.050560422241687775,
      0.08696215599775314,
      0.0633983314037323,
      0.0801241472363472,
      0.07666061073541641,
      0.11319304257631302,
      0.06379123777151108,
      0.08337078243494034,
      0.10531353205442429,
      0.06611599773168564,
      0.10440246015787125,
      0.054610349237918854,
      0.08243397623300552,
      0.060217585414648056,
      0.0545356348156929,
      0.05670967698097229,
      0.08372818678617477,
      0.06913544982671738,
      0.1001729890704155,
      0.10508134216070175,
      0.09807764738798141,
      0.05126717686653137,
      0.10232504457235336,
      0.07367733865976334,
      0.11810020357370377,
      0.10791509598493576,
      0.14519639313220978,
      0.13278993964195251,
      0.05274910479784012,
      0.07664205133914948,
      0.39041006565093994,
      0.631777286529541,
      0.07938272505998611,
      0.08066168427467346,
      0.13002747297286987,
      0.14458271861076355,
      0.12129084020853043,
      0.13890649378299713,
      0.15737943351268768,
      0.11255296319723129,
      0.08415546268224716,
      0.11164075881242752,
      0.11065582185983658,
      0.11328767985105515,
      0.0798032358288765,
      0.09358596056699753,
      0.06627074629068375,
      0.10984355956315994,
      0.06656552106142044,
      0.12027483433485031,
      0.04471993446350098,
      0.02045038901269436,
      -0.1397988200187683,
      -0.1719752848148346,
      4.21701290179044E-4,
      0.25495579838752747,
      0.34939923882484436,
      0.6537063717842102,
      0.9884347915649414,
      1.601059079170227,
      1.2419871091842651,
      0.44682925939559937,
      -0.23482000827789307,
      0.16793136298656464,
      0.09810991585254669,
      0.07402994483709335,
      -0.022836023941636086,
      -0.09751125425100327,
      0.008955051191151142,
      0.0658041313290596,
      0.09244454652070999,
      0.09710695594549179,
      0.11018287390470505,
      0.08796154707670212,
      0.07545851916074753,
      0.062419913709163666,
      0.09207388013601303,
      0.1820809543132782,
      0.11160696297883987,
      0.041082680225372314,
      -0.12476838380098343,
      -0.28284963965415955,
      -0.8849948644638062,
      -0.4580863118171692,
      0.7205060720443726,
      1.5536607503890991,
      3.3963074684143066,
      3.9955005645751953,
      2.316240072250366,
      1.2715791463851929,
      0.7070683240890503,
      0.6927741169929504,
      0.7397980690002441,
      0.21321478486061096,
      -0.03079144097864628,
      -0.3116222620010376,
      0.07250382006168365,
      0.0706540122628212,
      0.0858207568526268,
      0.05136670172214508,
      0.0685906633734703,
      0.10420998185873032,
      0.1205272525548935,
      0.12205412238836288,
      0.32327502965927124,
      0.35623353719711304,
      0.9430674910545349,
      0.7411293983459473,
      0.09924401342868805,
      0.5646637678146362,
      0.5670493245124817,
      1.22500479221344,
      1.213065266609192,
      1.5694591999053955,
      1.6848193407058716,
      2.180163621902466,
      0.7992691993713379,
      1.1484233140945435,
      1.7742139101028442,
      0.39979228377342224,
      -0.7962349653244019,
      -0.8433363437652588,
      0.006769280415028334,
      0.3537484109401703,
      0.7192268371582031,
      0.014078333042562008,
      0.0033317108172923326,
      0.11048615723848343,
      0.0966939851641655,
      0.09080673009157181,
      0.14221756160259247,
      0.13667181134223938,
      0.2450479418039322,
      0.25800302624702454,
      0.43428364396095276,
      -1.034460186958313,
      -1.8295637369155884,
      -0.8786779642105103,
      1.8785806894302368,
      0.3087606430053711,
      0.5002312064170837,
      1.3664355278015137,
      0.9903755187988281,
      1.3854659795761108,
      2.862058401107788,
      1.3820677995681763,
      2.1946358680725098,
      0.39965277910232544,
      -1.1669729948043823,
      -2.0500216484069824,
      -0.42208611965179443,
      0.17668814957141876,
      -0.31887274980545044,
      -0.22753316164016724,
      0.12562142312526703,
      0.04967179149389267,
      0.09374586492776871,
      0.11397529393434525,
      0.24435928463935852,
      0.21700339019298553,
      -0.3634283244609833,
      -1.2866705656051636,
      -1.8039801120758057,
      -3.63439679145813,
      -3.10172176361084,
      -0.47781720757484436,
      0.5262288451194763,
      -1.5406132936477661,
      -2.259648084640503,
      0.12593227624893188,
      1.2283059358596802,
      0.8772925138473511,
      3.6236956119537354,
      1.299320101737976,
      2.8696601390838623,
      -1.0918564796447754,
      -0.12330958992242813,
      -0.5751516819000244,
      0.4380548894405365,
      0.10259466618299484,
      -0.5470832586288452,
      -0.3556368052959442,
      0.12043166160583496,
      0.09133637696504593,
      0.0721740648150444,
      0.09436710923910141,
      0.25036004185676575,
      0.013167300261557102,
      -0.7435489892959595,
      -1.3801859617233276,
      -3.245025396347046,
      -2.703184127807617,
      -2.0832693576812744,
      0.17132051289081573,
      -1.1830192804336548,
      -1.5431069135665894,
      0.7630020380020142,
      0.9740954041481018,
      1.2773374319076538,
      3.7597153186798096,
      5.955304145812988,
      2.864596128463745,
      -0.9597249031066895,
      -1.6744152307510376,
      -0.8492992520332336,
      -1.3587896823883057,
      -0.7100966572761536,
      -0.1027970016002655,
      -1.1140284538269043,
      -0.4281425178050995,
      0.11601108312606812,
      0.11509566754102707,
      0.10834889858961105,
      0.04031328111886978,
      -0.062493279576301575,
      -0.15093441307544708,
      -0.929876446723938,
      -0.8957315683364868,
      -1.0543113946914673,
      -1.901563286781311,
      -3.3938207626342773,
      -2.515442371368408,
      -2.0418078899383545,
      -0.8831879496574402,
      -0.7084266543388367,
      -2.2626450061798096,
      0.18051743507385254,
      1.53388249874115,
      1.6533863544464111,
      0.6634255647659302,
      -2.3387515544891357,
      -2.70237135887146,
      -0.7919359803199768,
      -1.770740032196045,
      -3.3223142623901367,
      -1.9063811302185059,
      -1.1370511054992676,
      -0.24147862195968628,
      0.015210212208330631,
      0.09025288373231888,
      0.04056898504495621,
      0.03266067057847977,
      -0.1597885638475418,
      -0.539490818977356,
      -2.2976861000061035,
      -2.4194862842559814,
      -2.9786953926086426,
      -2.9761226177215576,
      -4.857822895050049,
      -3.9204964637756348,
      -1.873193621635437,
      -2.129683256149292,
      -2.1669278144836426,
      -1.0342953205108643,
      0.7255338430404663,
      1.9513161182403564,
      -1.3186497688293457,
      -2.8441483974456787,
      -2.0295867919921875,
      -0.8598540425300598,
      -1.3517740964889526,
      -2.9315595626831055,
      -3.2084097862243652,
      -2.0991129875183105,
      -0.8094515800476074,
      -0.7885819673538208,
      -0.25033771991729736,
      0.03219378739595413,
      0.07461283355951309,
      0.0048250919207930565,
      -0.3978678286075592,
      -0.5938031077384949,
      -2.2583858966827393,
      -3.6225576400756836,
      -3.2478830814361572,
      -4.113524436950684,
      -3.4935009479522705,
      -3.6567018032073975,
      -5.097289562225342,
      -3.470839500427246,
      -1.2124340534210205,
      1.2212204933166504,
      4.70723819732666,
      3.509789228439331,
      -0.48755696415901184,
      -3.0431017875671387,
      -3.2804291248321533,
      -1.3867099285125732,
      -3.2311363220214844,
      -3.503156900405884,
      -1.3029204607009888,
      -0.6742404699325562,
      -0.09368634968996048,
      -0.337492972612381,
      -0.09620465338230133,
      0.07879991084337234,
      0.0760781541466713,
      0.0015844685258343816,
      -0.4848497211933136,
      -0.4743909239768982,
      -0.9485896825790405,
      -1.201930284500122,
      -1.4783892631530762,
      -4.18324089050293,
      -3.3643295764923096,
      -2.8049728870391846,
      -0.7269302010536194,
      -1.146073341369629,
      2.6447956562042236,
      4.4880146980285645,
      5.931551456451416,
      1.6680318117141724,
      -0.03874420374631882,
      1.6140228509902954,
      0.7307388782501221,
      -0.6034387350082397,
      -2.3637187480926514,
      -1.741979956626892,
      0.5300945043563843,
      1.5360682010650635,
      0.09720052778720856,
      -0.7242392301559448,
      0.021609948948025703,
      0.17775778472423553,
      0.10158843547105789,
      0.003722916357219219,
      -0.4319937527179718,
      0.2139011174440384,
      0.35938480496406555,
      -0.18436388671398163,
      0.1918398141860962,
      -0.5455940365791321,
      -0.3123014569282532,
      -0.11528580635786057,
      3.368993043899536,
      3.3471839427948,
      3.5435452461242676,
      4.295704364776611,
      5.011277675628662,
      -0.8485622406005859,
      0.6252797842025757,
      1.2199785709381104,
      2.922999858856201,
      0.9431926608085632,
      -0.6622676849365234,
      -0.3505963385105133,
      1.8440659046173096,
      2.8575170040130615,
      0.5721455216407776,
      -0.9264853000640869,
      -0.01379264798015356,
      0.04433082044124603,
      0.08370129019021988,
      0.018848339095711708,
      -0.19390057027339935,
      0.7185648083686829,
      2.447066068649292,
      3.4525206089019775,
      6.185179233551025,
      7.2850213050842285,
      6.974160671234131,
      5.42537260055542,
      7.9639506340026855,
      4.476810932159424,
      2.9380414485931396,
      2.395280599594116,
      2.991276502609253,
      0.09810008853673935,
      -0.3696591258049011,
      2.287874460220337,
      2.0378878116607666,
      1.444638729095459,
      0.10946039855480194,
      1.6058001518249512,
      2.503892421722412,
      2.081662178039551,
      -0.32293182611465454,
      -1.5068176984786987,
      -1.111411213874817,
      -0.3023231625556946,
      0.07298194617033005,
      0.1478348672389984,
      0.03805872052907944,
      1.3035883903503418,
      4.135819435119629,
      6.906563758850098,
      10.24277400970459,
      14.42691421508789,
      13.933767318725586,
      13.401427268981934,
      12.173909187316895,
      3.4582393169403076,
      0.2056468427181244,
      -1.2928987741470337,
      0.28366196155548096,
      1.2040295600891113,
      0.08155953884124756,
      1.125382423400879,
      0.574019193649292,
      -0.3279595673084259,
      1.2490241527557373,
      2.8885843753814697,
      1.6641042232513428,
      1.0730003118515015,
      -0.3006150424480438,
      -1.3745191097259521,
      -0.3482697010040283,
      0.037543609738349915,
      0.0769328847527504,
      0.19951170682907104,
      0.19356855750083923,
      1.3352816104888916,
      5.158427715301514,
      8.64692211151123,
      11.068438529968262,
      12.704102516174316,
      11.331418991088867,
      8.707035064697266,
      3.8605434894561768,
      -1.155943751335144,
      -1.3071403503417969,
      -4.9906721115112305,
      -3.6649169921875,
      -3.8018102645874023,
      0.3694094121456146,
      0.3588181138038635,
      -0.3275541365146637,
      0.3524492383003235,
      1.9245901107788086,
      1.9480037689208984,
      1.7991647720336914,
      1.1596208810806274,
      -0.6926801800727844,
      -1.8193954229354858,
      -0.3211071491241455,
      -0.04454810917377472,
      0.10852725058794022,
      0.17138850688934326,
      0.24804331362247467,
      1.1623283624649048,
      4.384038925170898,
      7.545974254608154,
      8.416645050048828,
      6.458216667175293,
      4.096307277679443,
      -0.5040619969367981,
      -3.7263126373291016,
      -4.566895961761475,
      -2.435258150100708,
      -5.532177925109863,
      -2.2969369888305664,
      -3.7413389682769775,
      -1.3983547687530518,
      -2.9414193630218506,
      -0.8989416360855103,
      -0.4209621250629425,
      1.6559985876083374,
      0.4980821907520294,
      1.721009612083435,
      0.5607302784919739,
      -1.1498669385910034,
      -1.8241747617721558,
      -0.7358837127685547,
      0.041870713233947754,
      0.11587057262659073,
      0.10604917258024216,
      0.07563231140375137,
      1.0500346422195435,
      2.5379116535186768,
      4.223217010498047,
      3.839155912399292,
      2.4192614555358887,
      1.073219895362854,
      -2.692816734313965,
      -2.9417762756347656,
      -6.077380657196045,
      -3.597612142562866,
      -3.6263046264648438,
      -0.7332545518875122,
      0.5366950631141663,
      -0.9133948683738708,
      -1.6746309995651245,
      -0.8181873559951782,
      1.0904499292373657,
      0.23034872114658356,
      1.080625295639038,
      1.8078476190567017,
      0.09814228117465973,
      -2.7190239429473877,
      -2.252188205718994,
      -0.41499531269073486,
      0.061022404581308365,
      0.06694536656141281,
      0.07584116607904434,
      -0.08130504190921783,
      0.4745076298713684,
      2.1029584407806396,
      1.87555730342865,
      0.641475260257721,
      -1.2766846418380737,
      -0.3016255497932434,
      -3.5027987957000732,
      -5.32824182510376,
      -4.8329033851623535,
      -7.346938610076904,
      -5.948060512542725,
      -0.554580569267273,
      1.3801074028015137,
      2.882847547531128,
      -0.3726460933685303,
      3.3765881061553955,
      1.9772344827651978,
      1.6372578144073486,
      2.014458656311035,
      0.8737925887107849,
      -1.3015391826629639,
      -4.08148193359375,
      -2.4496870040893555,
      -0.02941667102277279,
      0.08687426894903183,
      0.06366939097642899,
      0.11299898475408554,
      -0.11312276870012283,
      -0.056073687970638275,
      0.6909170150756836,
      1.4951398372650146,
      0.32647034525871277,
      -2.2355523109436035,
      -3.2652790546417236,
      -4.275713920593262,
      -2.91682767868042,
      -2.387608766555786,
      -3.9516825675964355,
      -2.242619514465332,
      -1.6461679935455322,
      -0.5158267021179199,
      1.4934446811676025,
      1.8685249090194702,
      3.255821943283081,
      1.4470702409744263,
      1.7520740032196045,
      2.2987921237945557,
      1.4323763847351074,
      -1.2955290079116821,
      -3.5918474197387695,
      -1.1230794191360474,
      -0.06858029216527939,
      0.09830109030008316,
      0.0593852773308754,
      0.07674921303987503,
      -0.031184548512101173,
      -0.06833969801664352,
      0.10156184434890747,
      0.791742205619812,
      -0.5102145671844482,
      -1.8237395286560059,
      -2.1161000728607178,
      -2.6198458671569824,
      -1.5521972179412842,
      -1.4880026578903198,
      -3.1682887077331543,
      -2.2283477783203125,
      -0.6876879930496216,
      0.1508050113916397,
      1.9321925640106201,
      1.6941392421722412,
      0.2842298448085785,
      -0.7380968332290649,
      1.2484878301620483,
      2.1942996978759766,
      0.37481430172920227,
      -2.197713613510132,
      -2.598935127258301,
      -0.6767811179161072,
      0.00782764796167612,
      0.07717715948820114,
      0.0883537009358406,
      0.0842663124203682,
      0.2259143590927124,
      0.6121070981025696,
      0.6789556741714478,
      0.09831691533327103,
      0.6902093291282654,
      -1.1205039024353027,
      -2.6105825901031494,
      -2.201134204864502,
      -1.0558559894561768,
      -1.1435261964797974,
      -3.259228229522705,
      -0.8286873698234558,
      -0.04093363136053085,
      1.4838486909866333,
      0.8513895869255066,
      -2.056694984436035,
      -1.8184982538223267,
      -0.5394129157066345,
      2.5417661666870117,
      2.0658717155456543,
      -1.0671380758285522,
      -2.4354248046875,
      -1.0984116792678833,
      -0.16636407375335693,
      0.011910575442016125,
      0.11663156002759933,
      0.09920930117368698,
      0.11147172003984451,
      0.106632761657238,
      0.4971640408039093,
      1.007131576538086,
      1.0527769327163696,
      1.6079020500183105,
      0.7422481179237366,
      -1.6417572498321533,
      -2.005730628967285,
      -2.8056859970092773,
      -1.0230088233947754,
      -1.309325098991394,
      -2.368513584136963,
      -2.35845685005188,
      -0.29111185669898987,
      -1.3718863725662231,
      -1.1236830949783325,
      -0.11851995438337326,
      -0.2968774139881134,
      1.689095139503479,
      0.029685309156775475,
      -1.0936977863311768,
      -1.2518047094345093,
      -0.12795060873031616,
      0.21527814865112305,
      0.1997646689414978,
      0.095684714615345,
      0.0812583789229393,
      0.0898948535323143,
      0.12133511155843735,
      0.6227979063987732,
      1.307852029800415,
      2.201802968978882,
      1.5880398750305176,
      0.846422553062439,
      0.7115193009376526,
      -0.9096835851669312,
      -0.8273982405662537,
      -0.2405896633863449,
      -2.9596517086029053,
      -4.022085666656494,
      -2.998302698135376,
      -2.475106716156006,
      -2.084167718887329,
      0.11306719481945038,
      -0.5809441208839417,
      -1.6118234395980835,
      -0.3088396191596985,
      -0.630586564540863,
      -0.0011559930862858891,
      -0.535063624382019,
      0.11942590773105621,
      0.2866896390914917,
      0.2393581122159958,
      0.06448791176080704,
      0.088435597717762,
      0.08662540465593338,
      0.1959812045097351,
      0.41680651903152466,
      0.8161183595657349,
      1.4820725917816162,
      1.8638873100280762,
      4.049197673797607,
      3.448554277420044,
      0.008841197937726974,
      -0.5483545064926147,
      0.25970470905303955,
      -1.675580620765686,
      -0.8946126103401184,
      -1.0651123523712158,
      -2.253126859664917,
      -2.5100767612457275,
      -1.0058257579803467,
      0.5536942481994629,
      0.5206363201141357,
      0.6078760623931885,
      0.6559981107711792,
      1.203173279762268,
      0.4133422076702118,
      0.014415116049349308,
      -0.028751956298947334,
      0.0518266037106514,
      0.11443059891462326,
      0.07387185841798782,
      0.11498045176267624,
      0.12645074725151062,
      0.10009666532278061,
      -0.07045804709196091,
      0.42278754711151123,
      0.9367727637290955,
      2.274125576019287,
      1.6762418746948242,
      -0.4849056303501129,
      -1.1231921911239624,
      0.9010833501815796,
      1.221727728843689,
      1.7684321403503418,
      -1.6409848928451538,
      -2.34472918510437,
      -1.4269165992736816,
      0.06795120239257812,
      1.741875410079956,
      1.2649221420288086,
      1.2427493333816528,
      1.3580344915390015,
      1.5205107927322388,
      0.574580192565918,
      0.14765477180480957,
      0.023680126294493675,
      0.047557078301906586,
      0.09969756752252579,
      0.07456944137811661,
      0.09873124212026596,
      0.11786457151174545,
      0.12726330757141113,
      0.23058778047561646,
      0.09261178225278854,
      0.6236023902893066,
      1.2145601511001587,
      0.5398144125938416,
      -0.4897521436214447,
      0.08206545561552048,
      2.0646984577178955,
      2.4712579250335693,
      1.8056600093841553,
      1.0074806213378906,
      0.44577112793922424,
      -0.2777089774608612,
      -0.16544166207313538,
      0.3454408645629883,
      0.15864107012748718,
      0.3935776948928833,
      0.44668617844581604,
      0.2192707061767578,
      0.042780570685863495,
      0.05764525383710861,
      0.052168697118759155,
      0.11504136770963669,
      0.0646197572350502,
      0.0796048566699028,
      0.04899974167346954,
      0.1047450378537178,
      0.0745081976056099,
      0.11778219789266586,
      0.10521028190851212,
      0.10693525522947311,
      0.0418270006775856,
      0.0640854611992836,
      -0.058805130422115326,
      -0.07231923937797546,
      0.09847389906644821,
      0.08067802339792252,
      -0.4707513749599457,
      -0.21991655230522156,
      -0.15199075639247894,
      -0.15360531210899353,
      -0.18615709245204926,
      -7.431110134348273E-4,
      -0.018492309376597404,
      -0.07986397296190262,
      0.08122741430997849,
      0.10602759569883347,
      0.08594731241464615,
      0.07856697589159012,
      0.08927074819803238,
      0.10385597497224808,
      0.11255743354558945,
      -0.017437804490327835,
      -0.021536875516176224,
      -0.061575520783662796,
      -0.022797057405114174,
      -0.0773286372423172,
      -0.04090792313218117,
      -0.058233458548784256,
      -0.035369228571653366,
      -0.05343439802527428,
      -0.07977330684661865,
      -0.013011984527111053,
      -0.016161350533366203,
      -0.05096292868256569,
      -0.08436055481433868,
      -0.024948671460151672,
      -0.0316116027534008,
      -0.04865076020359993,
      -0.0375308059155941,
      -0.043012093752622604,
      -0.058056894689798355,
      -0.05773383006453514,
      -0.01746288314461708,
      -0.07569438964128494,
      -0.07868516445159912,
      -0.05757306143641472,
      -0.041179124265909195,
      -0.015544626861810684,
      -0.03975912556052208,
      -0.041120026260614395,
      -0.0715436041355133,
      -0.041054364293813705,
      -0.062355637550354004,
      -0.012367075309157372,
      -0.05844710394740105,
      -0.10287673771381378,
      -0.13492241501808167,
      -0.13188400864601135,
      -0.09671677649021149,
      -0.08647617697715759,
      -0.1840444952249527,
      -0.23027528822422028,
      -0.1431826502084732,
      -0.036243196576833725,
      -0.06262288242578506,
      -0.022019773721694946,
      -0.07797655463218689,
      -0.05727272108197212,
      -0.07891620695590973,
      -0.06232288479804993,
      -0.16172663867473602,
      -0.05138658359646797,
      -0.08396707475185394,
      -0.013442087918519974,
      -0.07266958057880402,
      -0.0555562786757946,
      -0.02287420630455017,
      -0.032454025000333786,
      -0.052617449313402176,
      -0.016245225444436073,
      -0.03367430716753006,
      -0.07061511278152466,
      -0.0570233128964901,
      -0.09052877128124237,
      -0.22388437390327454,
      -0.3402119278907776,
      -0.39725688099861145,
      -0.651453971862793,
      -0.4568101763725281,
      -0.34293943643569946,
      -0.3394507169723511,
      -0.23908573389053345,
      -0.0973280668258667,
      0.012529999017715454,
      -0.3534514009952545,
      -0.2087402641773224,
      -0.3417746126651764,
      -0.4311712682247162,
      -0.39220428466796875,
      -0.4051167070865631,
      -0.195539653301239,
      -0.10027870535850525,
      -0.0787476971745491,
      -0.06810113042593002,
      -0.07216400653123856,
      -0.036306124180555344,
      -0.02837693691253662,
      -0.04547179117798805,
      -0.0760258138179779,
      -0.09768344461917877,
      0.2891547679901123,
      0.14178389310836792,
      -0.2844301760196686,
      -0.35333240032196045,
      0.03479086235165596,
      0.27030685544013977,
      2.2772297859191895,
      3.0769307613372803,
      1.871646761894226,
      2.0275869369506836,
      2.0856451988220215,
      -0.3786444067955017,
      -2.423992872238159,
      -1.8331732749938965,
      -2.15932297706604,
      -2.8087854385375977,
      -2.9330554008483887,
      -1.9837476015090942,
      -0.7897530198097229,
      -0.7624194025993347,
      -0.21838748455047607,
      -0.05005628988146782,
      -0.0692826583981514,
      -0.009531182236969471,
      -0.01122952625155449,
      -0.048908453434705734,
      -0.004316115286201239,
      0.2794715166091919,
      1.6635675430297852,
      2.9735267162323,
      3.0466129779815674,
      4.200321197509766,
      4.230015754699707,
      3.2336859703063965,
      3.000900983810425,
      3.627938985824585,
      6.018770217895508,
      3.2499876022338867,
      1.6638988256454468,
      -2.148693799972534,
      -2.905486822128296,
      -3.7685940265655518,
      -3.6861488819122314,
      -3.7808568477630615,
      -4.931708335876465,
      -5.7530012130737305,
      -4.225002765655518,
      -1.7584452629089355,
      -0.46036654710769653,
      -0.10375857353210449,
      -0.05322316661477089,
      -0.02523162215948105,
      -0.04535744711756706,
      0.06260766834020615,
      0.6546470522880554,
      1.858065128326416,
      4.345334053039551,
      5.910372257232666,
      5.5143208503723145,
      3.6935648918151855,
      0.6687414050102234,
      -3.31795597076416,
      -0.7157396674156189,
      2.931979179382324,
      -0.7712280750274658,
      0.5901384949684143,
      3.0552399158477783,
      -0.8868141174316406,
      -3.128615140914917,
      -2.6674249172210693,
      -1.6902328729629517,
      -4.2197089195251465,
      -3.8183233737945557,
      -7.188592433929443,
      -6.972729206085205,
      -3.5733776092529297,
      -0.7317202091217041,
      -0.4655267000198364,
      -0.08049102127552032,
      -0.03868361935019493,
      -0.046508338302373886,
      -0.011199310421943665,
      1.050202488899231,
      4.136023044586182,
      5.263479232788086,
      5.96916389465332,
      4.6852803230285645,
      3.3837859630584717,
      0.258284330368042,
      -2.5602993965148926,
      -0.8217921853065491,
      -0.7858726382255554,
      1.2264562845230103,
      0.6156272292137146,
      0.06605453044176102,
      1.7012436389923096,
      -2.2177810668945312,
      -0.11833306401968002,
      -3.4363980293273926,
      -4.715914249420166,
      -3.090535879135132,
      -6.467461109161377,
      -8.254834175109863,
      -7.3046956062316895,
      -2.724806547164917,
      -0.6606835722923279,
      -0.07376109063625336,
      -0.04212219640612602,
      -0.08107531070709229,
      0.4673544764518738,
      2.0382189750671387,
      4.574515342712402,
      4.005652904510498,
      2.4476730823516846,
      -0.6410316824913025,
      -1.2254855632781982,
      -0.665992021560669,
      -2.2689640522003174,
      0.5040628910064697,
      -1.7501968145370483,
      1.7575626373291016,
      0.7197628617286682,
      -3.4839344024658203,
      -4.039380073547363,
      -6.840769290924072,
      -4.9802727699279785,
      -3.787353992462158,
      -3.7884631156921387,
      -6.592207908630371,
      -9.05540943145752,
      -10.691880226135254,
      -7.710008144378662,
      -4.249997615814209,
      -1.1139427423477173,
      -0.1288953274488449,
      -0.07750517129898071,
      -0.04605191573500633,
      0.3147544860839844,
      1.7434704303741455,
      4.789332866668701,
      2.5060582160949707,
      1.8875304460525513,
      0.9637329578399658,
      -2.206146240234375,
      -0.049817055463790894,
      1.2299933433532715,
      -5.25689172744751,
      -1.0849635601043701,
      2.188891887664795,
      0.6923574209213257,
      1.2433043718338013,
      -1.418487787246704,
      -4.110304355621338,
      -3.32244610786438,
      -4.0836567878723145,
      -4.679807186126709,
      -6.555731773376465,
      -5.024096488952637,
      -7.238906383514404,
      -7.694457054138184,
      -5.0915021896362305,
      -1.4823931455612183,
      -0.39584341645240784,
      -0.010261052288115025,
      -0.05854706093668938,
      -0.01856984570622444,
      1.4928423166275024,
      3.579552412033081,
      3.2672364711761475,
      3.866546630859375,
      1.3301417827606201,
      -2.68936824798584,
      -1.5161595344543457,
      0.5546298623085022,
      -3.631967782974243,
      0.9944697022438049,
      3.1193156242370605,
      10.669390678405762,
      14.83972454071045,
      10.270980834960938,
      12.150821685791016,
      10.51424503326416,
      8.198542594909668,
      6.05826473236084,
      4.303685665130615,
      4.524679660797119,
      0.7192020416259766,
      -3.2027132511138916,
      -2.9311139583587646,
      -0.5086659789085388,
      -0.11953886598348618,
      -0.05024680867791176,
      -0.020068518817424774,
      -0.04353860393166542,
      0.7093525528907776,
      1.9735571146011353,
      2.2844879627227783,
      0.26410338282585144,
      -3.645659923553467,
      -4.59987211227417,
      -7.745294094085693,
      -3.288879871368408,
      -2.761056661605835,
      2.1237587928771973,
      2.9049105644226074,
      10.534457206726074,
      15.256749153137207,
      19.314783096313477,
      24.076229095458984,
      27.445798873901367,
      25.15741539001465,
      20.6466064453125,
      16.72579002380371,
      15.598246574401855,
      12.048806190490723,
      4.5748138427734375,
      -0.28876379132270813,
      -0.37063053250312805,
      -0.18874560296535492,
      -0.07215318828821182,
      -0.04941019043326378,
      -0.03165854141116142,
      0.46833062171936035,
      1.0983731746673584,
      0.5053940415382385,
      -3.0131142139434814,
      -6.652838230133057,
      -9.88638843409717E-4,
      -1.0430090427398682,
      -0.529727041721344,
      0.5978874564170837,
      0.5439285039901733,
      -0.5294679999351501,
      0.4850534200668335,
      1.7806782722473145,
      1.1125030517578125,
      7.153063774108887,
      13.812359809875488,
      19.203506469726562,
      21.70332908630371,
      16.94770622253418,
      18.46104621887207,
      14.81086540222168,
      6.818954944610596,
      0.36153900623321533,
      -0.1447497457265854,
      -0.21494854986667633,
      -0.05175511911511421,
      -0.038780052214860916,
      -0.023475851863622665,
      0.1436452865600586,
      0.04424601420760155,
      -0.3919741213321686,
      -3.5712697505950928,
      -4.343837261199951,
      -0.5785553455352783,
      1.6413077116012573,
      0.5508604049682617,
      -0.2102937400341034,
      -3.199331521987915,
      -3.9110684394836426,
      0.2674998641014099,
      2.4947128295898438,
      3.081280469894409,
      -0.7341844439506531,
      0.07013072073459625,
      3.69608998298645,
      10.34300708770752,
      11.79356861114502,
      15.56882095336914,
      14.2999906539917,
      6.429153919219971,
      0.29944634437561035,
      0.028360629454255104,
      -0.06758754700422287,
      -0.03131468594074249,
      -0.056775692850351334,
      -0.061180729418992996,
      0.02713901922106743,
      -0.6457053422927856,
      -1.0971916913986206,
      -2.94980525970459,
      -2.013861894607544,
      0.6977677345275879,
      1.1766796112060547,
      -0.9626693725585938,
      -3.5987331867218018,
      -6.6847100257873535,
      -0.738347053527832,
      2.745499849319458,
      6.491451263427734,
      5.504086017608643,
      1.9383337497711182,
      3.9768245220184326,
      -1.7368404865264893,
      1.506787657737732,
      2.9715769290924072,
      8.336655616760254,
      10.380450248718262,
      5.295947551727295,
      0.20701156556606293,
      0.003235699376091361,
      0.005520781967788935,
      -0.02166222780942917,
      -0.05607755109667778,
      -0.03223105147480965,
      0.10653544962406158,
      -0.23103150725364685,
      -0.5214608907699585,
      -1.6160168647766113,
      -0.8103523850440979,
      -0.8115161061286926,
      -1.4130545854568481,
      -4.460710048675537,
      -0.5376799702644348,
      -0.7417711019515991,
      2.146162748336792,
      2.7841761112213135,
      1.5883196592330933,
      2.2699501514434814,
      3.138991355895996,
      1.397902488708496,
      -0.789454460144043,
      0.36468306183815,
      1.7547310590744019,
      3.539816379547119,
      5.537342071533203,
      3.244431972503662,
      0.5465312004089355,
      -0.01287979818880558,
      -0.05142715945839882,
      -0.009676959365606308,
      -0.03638419881463051,
      -0.05205708369612694,
      0.24430330097675323,
      0.3833657205104828,
      2.099024534225464,
      2.731389284133911,
      1.278358817100525,
      -2.5365047454833984,
      -4.238807678222656,
      -1.8006147146224976,
      0.18834160268306732,
      -1.4793803691864014,
      4.20847749710083,
      3.293349027633667,
      5.156212329864502,
      3.410428047180176,
      1.6574993133544922,
      -4.346348285675049,
      -1.7485496997833252,
      -0.5498498678207397,
      1.1230342388153076,
      1.7923755645751953,
      3.0670793056488037,
      1.8640419244766235,
      0.5447717308998108,
      0.010199643671512604,
      -0.06952723115682602,
      -0.07004443556070328,
      -0.07045610249042511,
      0.027852462604641914,
      -0.054661039263010025,
      1.8081060647964478,
      5.613984107971191,
      6.623585224151611,
      5.666928291320801,
      1.8421268463134766,
      1.8490642309188843,
      1.4765065908432007,
      0.5496422052383423,
      2.067894458770752,
      2.081493616104126,
      1.749511480331421,
      1.990749716758728,
      4.624323844909668,
      -0.4533092975616455,
      0.35391393303871155,
      -0.4724757671356201,
      0.7537872791290283,
      1.82184898853302,
      0.8831503987312317,
      0.1048479825258255,
      0.8035362958908081,
      0.2855336368083954,
      0.3328915238380432,
      -0.054036255925893784,
      -0.05083061382174492,
      -0.023629557341337204,
      0.03823680058121681,
      -0.6090221405029297,
      -0.16056469082832336,
      3.7630159854888916,
      5.153807163238525,
      3.9867894649505615,
      2.771176815032959,
      4.4256672859191895,
      -0.4593050181865692,
      1.316575050354004,
      4.626949787139893,
      4.74286413192749,
      4.230694770812988,
      -0.012228784151375294,
      1.3494254350662231,
      -3.226207733154297,
      -2.6338741779327393,
      1.485235333442688,
      -1.4079928398132324,
      2.7443957328796387,
      1.1306999921798706,
      -0.21575777232646942,
      -1.080757737159729,
      0.3714905381202698,
      0.20907777547836304,
      -0.11368470638990402,
      -0.06276991218328476,
      -0.06636311858892441,
      0.1257556825876236,
      -0.49147796630859375,
      -1.7542011737823486,
      -0.5912098288536072,
      0.49029356241226196,
      -1.2019917964935303,
      3.411618709564209,
      4.497075080871582,
      2.4000120162963867,
      5.35755729675293,
      6.702439308166504,
      5.0590667724609375,
      3.7466859817504883,
      -1.0704259872436523,
      -1.6103266477584839,
      0.5808445811271667,
      0.08929301053285599,
      1.4703762531280518,
      -0.648176372051239,
      0.14892758429050446,
      -1.0398781299591064,
      -0.19259493052959442,
      -2.0577805042266846,
      0.9745000004768372,
      0.14133015275001526,
      -0.07512324303388596,
      -0.06920916587114334,
      -0.02785702794790268,
      0.6660515069961548,
      1.8970427513122559,
      -0.7626511454582214,
      -2.442082405090332,
      -2.996520519256592,
      0.22551113367080688,
      0.13563545048236847,
      1.3091009855270386,
      -0.39177340269088745,
      -2.0696160793304443,
      1.2210519313812256,
      1.4029189348220825,
      -0.4460490942001343,
      0.3519679307937622,
      3.0074939727783203,
      1.3936172723770142,
      0.6266016364097595,
      4.070894718170166,
      0.3466181755065918,
      -0.941387414932251,
      -1.7387639284133911,
      -2.8845040798187256,
      -2.745570182800293,
      0.5636623501777649,
      0.13372962176799774,
      -0.03131242096424103,
      -0.011680787429213524,
      -0.010494064539670944,
      0.7580897808074951,
      2.025330066680908,
      -0.052643027156591415,
      -1.3288592100143433,
      -2.2579610347747803,
      1.3008147478103638,
      -2.5196220874786377,
      -1.4706331491470337,
      -0.4935985505580902,
      -6.814599514007568,
      -5.256882190704346,
      -0.8130770325660706,
      0.9042606353759766,
      0.12613046169281006,
      -0.46351176500320435,
      2.1106672286987305,
      1.4302366971969604,
      0.42812949419021606,
      0.05196312069892883,
      -2.018368721008301,
      -2.4728660583496094,
      -3.3105568885803223,
      -1.795310616493225,
      -0.050401050597429276,
      -0.08478662371635437,
      -0.02351156622171402,
      -0.03686925396323204,
      -0.054180774837732315,
      0.28627920150756836,
      0.75648033618927,
      0.057834040373563766,
      0.5655984878540039,
      -0.0871322974562645,
      -0.02131769061088562,
      -2.739821195602417,
      -0.09331894665956497,
      -0.11688579618930817,
      -1.6207187175750732,
      -7.182573318481445,
      -4.34005069732666,
      -2.042386770248413,
      -1.1184444427490234,
      -0.44317489862442017,
      -0.26580989360809326,
      -1.8532477617263794,
      0.3132067322731018,
      -1.4191011190414429,
      -3.2945821285247803,
      -2.898458242416382,
      -1.5195423364639282,
      -0.540479302406311,
      -0.18600638210773468,
      -0.10267038643360138,
      -0.05664501711726189,
      -0.017950085923075676,
      -0.027371414005756378,
      0.16563211381435394,
      0.2633650004863739,
      0.6189106106758118,
      1.8113552331924438,
      4.081140518188477,
      3.4125940799713135,
      -0.5830396413803101,
      -0.5846438407897949,
      -1.8299795389175415,
      -3.882202625274658,
      -4.251596927642822,
      -3.0936408042907715,
      -2.338979959487915,
      -1.6686851978302002,
      -2.8540549278259277,
      -1.4151873588562012,
      4.2342329025268555,
      3.0440237522125244,
      -0.45534175634384155,
      -1.9809938669204712,
      -0.5021681785583496,
      -0.3116506338119507,
      0.05509621277451515,
      0.058833446353673935,
      -0.01798430271446705,
      -0.0143596101552248,
      -0.0778273344039917,
      -0.048753757029771805,
      0.19956757128238678,
      0.4123022258281708,
      0.2563402056694031,
      -0.21813355386257172,
      0.5247403383255005,
      2.2193830013275146,
      -0.7778692841529846,
      -0.447312593460083,
      -0.9379045963287354,
      -4.847745895385742,
      -2.1398324966430664,
      0.7972033619880676,
      -2.684128761291504,
      -2.918940544128418,
      1.7016911506652832,
      5.337765216827393,
      3.958050012588501,
      2.1021227836608887,
      -0.3401617407798767,
      1.0946276187896729,
      0.30405107140541077,
      0.18905849754810333,
      0.2187945544719696,
      -0.05315827205777168,
      -0.058067236095666885,
      -0.03501005098223686,
      -0.07158228009939194,
      -0.07497899979352951,
      0.09247228503227234,
      0.43250828981399536,
      1.0691715478897095,
      0.723407506942749,
      0.4286068081855774,
      2.073084831237793,
      2.4313762187957764,
      -0.4700160324573517,
      -0.037351593375205994,
      -0.4655568301677704,
      -2.401186466217041,
      -1.9427387714385986,
      -2.7015178203582764,
      -3.9679129123687744,
      -0.9895696640014648,
      -3.069577693939209,
      -2.301807403564453,
      -0.3495562672615051,
      0.8387247920036316,
      1.2810022830963135,
      0.3510901927947998,
      0.2330527901649475,
      -0.0301074106246233,
      -0.08698728680610657,
      -0.06807754188776016,
      -0.02505752444267273,
      -0.046959150582551956,
      -0.07103972882032394,
      -0.04957466945052147,
      -0.16694821417331696,
      0.3767462372779846,
      1.276026964187622,
      0.7745926976203918,
      0.1945287436246872,
      -0.27648380398750305,
      -0.4537810683250427,
      -0.31851890683174133,
      -1.228366732597351,
      -1.6699172258377075,
      -2.4940357208251953,
      -3.098381280899048,
      -4.009830474853516,
      -4.0039286613464355,
      -4.319941520690918,
      -2.2358927726745605,
      -1.0145312547683716,
      -0.21303771436214447,
      0.18055391311645508,
      -0.4211280047893524,
      -0.21564923226833344,
      -0.1323360651731491,
      -0.060985226184129715,
      -0.07512105256319046,
      -0.017208172008395195,
      -0.02185777947306633,
      -0.040104854851961136,
      -0.07907453179359436,
      -0.04111291840672493,
      -0.04537783935666084,
      -0.05621960386633873,
      0.04467680677771568,
      0.12231933325529099,
      0.4452437460422516,
      0.878675639629364,
      0.6854769587516785,
      0.6510307788848877,
      0.7156800627708435,
      0.5697428584098816,
      0.6165894865989685,
      -0.5920875668525696,
      -0.6867008209228516,
      -0.3643658459186554,
      0.20198461413383484,
      0.04806879535317421,
      0.09531822800636292,
      0.08963394165039062,
      -0.12717176973819733,
      -0.020300883799791336,
      -0.07284066081047058,
      -0.07941246032714844,
      -0.07823434472084045,
      -0.04150858148932457,
      -0.02809225395321846,
      -0.044633615761995316,
      -0.043931882828474045,
      -0.02712704986333847,
      -0.0656820610165596,
      -0.08012360334396362,
      -0.07986603677272797,
      -0.033008698374032974,
      -0.07219678163528442,
      -0.022517045959830284,
      0.04794905707240105,
      0.0903262048959732,
      0.17393262684345245,
      0.1553512066602707,
      0.011685311794281006,
      0.020500384271144867,
      -0.030047427862882614,
      0.010250315070152283,
      0.10664874315261841,
      0.05094798281788826,
      0.005390533711761236,
      0.1485804170370102,
      0.04400516673922539,
      -0.021098248660564423,
      -0.07612252235412598,
      -0.04272572323679924,
      -0.03390561416745186,
      -0.07904540002346039,
      -0.023864146322011948,
      -0.017987355589866638,
      -0.007904580794274807,
      -0.0028095231391489506,
      0.038412731140851974,
      -0.019490785896778107,
      -0.002407367341220379,
      -0.004690465983003378,
      -0.0017583305016160011,
      0.03683186694979668,
      0.02177176997065544,
      -0.021232202649116516,
      -0.05091625079512596,
      -0.07608823478221893,
      -0.013589354231953621,
      0.040436070412397385,
      0.00504242954775691,
      0.015370688401162624,
      0.03218825161457062,
      -0.00840305257588625,
      0.0057665626518428326,
      0.009294535033404827,
      -0.011078757233917713,
      -0.013505487702786922,
      -0.015612367540597916,
      0.02879193425178528,
      0.006124878767877817,
      -0.028023941442370415,
      -0.003056230489164591,
      -0.017100058495998383,
      -0.0074592228047549725,
      0.03897308185696602,
      0.0274985209107399,
      -0.007440115790814161,
      0.01728234626352787,
      0.019957255572080612,
      -0.03950921818614006,
      -0.04140638932585716,
      -0.06908687949180603,
      0.04170633479952812,
      0.10190844535827637,
      -0.08269679546356201,
      -0.11587820947170258,
      0.09018766134977341,
      0.43580493330955505,
      0.09328768402338028,
      0.015367009676992893,
      -0.06548978388309479,
      -0.0938255563378334,
      -0.06706072390079498,
      0.0359664149582386,
      -0.01570398360490799,
      0.007390493992716074,
      0.015096685849130154,
      0.003231016220524907,
      0.03804768994450569,
      0.0076440926641225815,
      0.01790151372551918,
      0.011503529734909534,
      0.05646983161568642,
      -0.012382701970636845,
      -0.026511481031775475,
      0.05045538768172264,
      0.13123460114002228,
      -0.17200399935245514,
      -0.22633446753025055,
      -0.1909065842628479,
      0.07838373631238937,
      -0.20910243690013885,
      -0.23330926895141602,
      -0.04079465940594673,
      -0.29238444566726685,
      -0.8282032608985901,
      -0.6603589653968811,
      -1.153481125831604,
      -1.873475193977356,
      -1.6426246166229248,
      -1.1534651517868042,
      -0.4607226848602295,
      -0.14712907373905182,
      -0.1092698723077774,
      -0.029426956549286842,
      0.02465643733739853,
      0.019679352641105652,
      -0.02333144098520279,
      -0.0020401289220899343,
      0.023577313870191574,
      0.05157094821333885,
      0.012144281528890133,
      0.032413091510534286,
      -0.010962001048028469,
      0.045525047928094864,
      -0.2208997756242752,
      -0.1602834314107895,
      0.3730745017528534,
      0.7008129358291626,
      0.8280551433563232,
      1.8176708221435547,
      0.5228980779647827,
      1.0557624101638794,
      0.0581725612282753,
      -2.1858553886413574,
      -3.1617512702941895,
      -4.742307662963867,
      -3.9202210903167725,
      -2.682452917098999,
      -1.6452722549438477,
      -0.9605377912521362,
      -0.5062226057052612,
      -0.08730845153331757,
      0.013069399632513523,
      0.01903221383690834,
      0.036504339426755905,
      0.006456586066633463,
      0.033025067299604416,
      -0.00549295311793685,
      -0.025352492928504944,
      -0.07190399616956711,
      -0.09976373612880707,
      -0.08926006406545639,
      0.19298745691776276,
      0.7325137853622437,
      2.3737986087799072,
      2.5812265872955322,
      3.482712984085083,
      4.8817925453186035,
      6.410660743713379,
      4.914670467376709,
      0.7353533506393433,
      -1.6624239683151245,
      -1.3006232976913452,
      -0.40696069598197937,
      -0.5383286476135254,
      -2.3853507041931152,
      -1.6568948030471802,
      -1.6468263864517212,
      -1.0125455856323242,
      0.0431855209171772,
      0.024018287658691406,
      0.0017326963134109974,
      0.02668437734246254,
      0.03322570025920868,
      0.02763570100069046,
      0.054926466196775436,
      -0.1867499053478241,
      -0.45888200402259827,
      -0.8156214952468872,
      -0.855634868144989,
      0.2254917472600937,
      -0.0748835876584053,
      1.6542322635650635,
      2.3210065364837646,
      3.2720203399658203,
      6.682457447052002,
      11.220312118530273,
      11.610193252563477,
      4.832351207733154,
      1.3086934089660645,
      -0.44500577449798584,
      -1.8615988492965698,
      -1.5267503261566162,
      -2.251856565475464,
      -2.0054428577423096,
      -2.6106913089752197,
      -2.0292623043060303,
      -0.6493193507194519,
      -0.04426706209778786,
      0.013856030069291592,
      -0.017894316464662552,
      0.011514549143612385,
      0.020258266478776932,
      -0.16010168194770813,
      -0.6981512904167175,
      -1.63511323928833,
      -2.75752329826355,
      -3.4285404682159424,
      -2.1789305210113525,
      -0.1317099779844284,
      0.5813038349151611,
      3.235659599304199,
      1.9990167617797852,
      5.714481353759766,
      11.764677047729492,
      16.661178588867188,
      10.133197784423828,
      0.5442175269126892,
      3.9438514709472656,
      3.602607488632202,
      0.06364455074071884,
      -1.7317179441452026,
      -2.7347402572631836,
      -3.702418327331543,
      -2.0470452308654785,
      -0.11451565474271774,
      0.1156788021326065,
      0.03548652306199074,
      0.030908487737178802,
      -0.019390396773815155,
      0.09447222203016281,
      -0.9484871625900269,
      -1.728554368019104,
      -3.7475972175598145,
      -4.5729756355285645,
      -5.070532321929932,
      -3.1654059886932373,
      -4.2457709312438965,
      -1.9389019012451172,
      1.5133665800094604,
      4.4725422859191895,
      6.429172992706299,
      10.275803565979004,
      13.92806339263916,
      7.930177688598633,
      -1.6618636846542358,
      -0.3460410237312317,
      -0.19814303517341614,
      1.8328303098678589,
      -0.8521403074264526,
      -2.7457540035247803,
      -3.8806073665618896,
      -1.7744319438934326,
      0.6364321708679199,
      0.0462171845138073,
      0.026611194014549255,
      0.02493274211883545,
      -0.10758405923843384,
      -0.301079124212265,
      -1.9278573989868164,
      -2.8045148849487305,
      -3.512258768081665,
      -3.513760566711426,
      -4.5819091796875,
      -2.8235700130462646,
      -5.928396701812744,
      -4.600440502166748,
      -4.113325119018555,
      -1.8434269428253174,
      2.667632579803467,
      11.236087799072266,
      14.712794303894043,
      5.6904802322387695,
      -3.4251580238342285,
      -1.4773973226547241,
      2.375627040863037,
      -0.5268170833587646,
      -0.5614610314369202,
      -2.7167398929595947,
      -2.174452066421509,
      0.530569851398468,
      0.27273064851760864,
      0.5749157071113586,
      0.020614974200725555,
      -0.02952367253601551,
      -0.23717497289180756,
      -0.9651939272880554,
      -2.354520559310913,
      -3.4622626304626465,
      -2.3066513538360596,
      -0.7926732897758484,
      -0.8444799184799194,
      -0.6064772009849548,
      -1.361994743347168,
      -0.5877005457878113,
      -2.940568208694458,
      -4.273467540740967,
      1.919152021408081,
      11.077476501464844,
      10.97842025756836,
      -1.8219243288040161,
      -3.7211484909057617,
      0.5522317886352539,
      0.4379630982875824,
      -3.048048496246338,
      -2.610835313796997,
      -1.8503755331039429,
      -0.6697888374328613,
      3.216064453125,
      1.153444766998291,
      0.7246081829071045,
      0.013276348821818829,
      9.06317145563662E-4,
      -0.29075103998184204,
      -1.0640270709991455,
      -2.215911865234375,
      -3.046682119369507,
      -0.7176003456115723,
      2.0299625396728516,
      1.2577967643737793,
      2.810581684112549,
      -1.5827093124389648,
      0.6109589338302612,
      -0.9911099672317505,
      -1.47025465965271,
      0.8065381646156311,
      11.58626651763916,
      3.845479726791382,
      -4.885489463806152,
      -2.7968502044677734,
      -0.25175103545188904,
      -2.9680533409118652,
      -2.5571415424346924,
      -1.6596860885620117,
      -1.791209101676941,
      2.0855519771575928,
      2.891082525253296,
      1.2873858213424683,
      0.5790303945541382,
      0.06905508786439896,
      -0.030663320794701576,
      -0.21257977187633514,
      -0.9656699895858765,
      -1.4152835607528687,
      -3.155282974243164,
      1.262277603149414,
      1.6785757541656494,
      0.8247542977333069,
      3.273674249649048,
      -1.153849482536316,
      -1.556151032447815,
      -3.417638063430786,
      -5.059482097625732,
      4.8207902908325195,
      10.893095016479492,
      0.9019420146942139,
      -5.687392234802246,
      -2.7567102909088135,
      -0.5891808867454529,
      -0.10076626390218735,
      1.3723855018615723,
      -0.3160378634929657,
      1.6981626749038696,
      4.1793646812438965,
      1.9532012939453125,
      0.8660063743591309,
      0.36824026703834534,
      -0.006716290023177862,
      0.013394043780863285,
      -0.11257953941822052,
      -0.8550819754600525,
      -0.48205652832984924,
      -1.7331839799880981,
      0.7303267121315002,
      1.3164873123168945,
      -0.02483704872429371,
      0.3164159953594208,
      -0.03503847494721413,
      -4.238924980163574,
      -7.484330654144287,
      -2.7322542667388916,
      10.785602569580078,
      15.623533248901367,
      0.8089091181755066,
      -7.080323219299316,
      -4.211890697479248,
      0.8964527249336243,
      4.545300483703613,
      1.481998085975647,
      1.9830480813980103,
